~o
<STREAMINFO> 1 12
<VECSIZE> 12<NULLD><MFCC><DIAGC>
~h "Activity101"
<BEGINHMM>
<NUMSTATES> 7
<STATE> 2
<NUMMIXES> 3
<MIXTURE> 1 3.243808e-01
<MEAN> 12
 -1.157166e+00 1.038007e+03 6.360840e+01 4.194255e+01 2.148384e+01 4.008777e+01 2.797585e+04 4.850086e+06 8.752649e+04 2.203149e+02 1.258671e+02 -3.102773e+01
<VARIANCE> 12
 5.868267e+03 3.189054e+02 1.511244e+04 6.719849e+02 1.624268e+02 5.975403e+02 9.424158e+08 2.789306e+10 9.779446e+09 6.864042e+05 7.543067e+05 2.737645e+06
<GCONST> 1.736278e+02
<MIXTURE> 2 4.888994e-01
<MEAN> 12
 1.580733e+01 9.361787e+02 3.918362e+02 9.642551e+01 5.234626e+01 7.340363e+01 1.001609e+05 3.999129e+06 9.267095e+05 2.197546e+02 1.738666e+01 -8.170750e+02
<VARIANCE> 12
 1.952425e+04 1.203819e+04 5.152287e+04 4.192649e+03 1.261838e+03 2.688612e+03 1.515964e+10 8.282564e+11 5.328946e+11 2.737806e+07 1.991950e+07 6.294589e+07
<GCONST> 2.053341e+02
<MIXTURE> 3 1.866944e-01
<MEAN> 12
 -7.311142e+00 8.995934e+02 5.292043e+02 2.558866e+02 1.871182e+02 2.689605e+02 3.190229e+05 3.920118e+06 1.898854e+06 1.124364e+04 1.571150e+04 5.933148e+02
<VARIANCE> 12
 5.065953e+04 6.106559e+04 1.300049e+05 3.328099e+04 1.639508e+04 4.115678e+04 1.681551e+11 3.873279e+12 2.662849e+12 3.328968e+09 4.593789e+09 9.642698e+09
<GCONST> 2.370321e+02
<STATE> 3
<NUMMIXES> 3
<MIXTURE> 1 3.156017e-01
<MEAN> 12
 -2.941463e+01 1.038846e+03 -2.243485e+01 1.311802e+01 9.262313e+00 1.410587e+01 2.084154e+04 4.856632e+06 2.409486e+04 4.103098e+00 2.055196e+01 7.478121e+00
<VARIANCE> 12
 3.744801e+03 5.081982e+01 4.828804e+03 7.281535e+01 2.659969e+01 7.103973e+01 4.381636e+08 4.449260e+09 6.312227e+08 1.319205e+04 1.528719e+04 3.755577e+04
<GCONST> 1.465583e+02
<MIXTURE> 2 3.842545e-01
<MEAN> 12
 -8.113861e+00 1.013835e+03 2.141591e+02 1.357004e+01 9.861925e+00 1.330968e+01 4.656954e+04 4.626113e+06 2.780237e+05 -1.077149e+01 -1.000925e+01 -4.066069e+00
<VARIANCE> 12
 1.027062e+04 1.633126e+02 1.590978e+04 6.191371e+01 2.866361e+01 5.356460e+01 2.860514e+09 1.357962e+10 1.885809e+10 1.303878e+04 1.258109e+04 2.392930e+04
<GCONST> 1.552890e+02
<MIXTURE> 3 3.001135e-01
<MEAN> 12
 8.572754e+00 9.838808e+02 3.216699e+02 3.462489e+01 1.710639e+01 2.681853e+01 6.664259e+04 4.360882e+06 5.510195e+05 5.026512e+00 -7.996838e+01 -9.118271e+01
<VARIANCE> 12
 1.455555e+04 1.055345e+03 1.888574e+04 4.240927e+02 9.249535e+01 2.566466e+02 7.806625e+09 8.211206e+10 8.734471e+10 3.104759e+05 1.985263e+05 8.418612e+05
<GCONST> 1.761635e+02
<STATE> 4
<NUMMIXES> 3
<MIXTURE> 1 6.334769e-01
<MEAN> 12
 -1.756310e+01 8.999163e+02 5.285027e+02 1.993022e+01 1.214074e+01 1.604965e+01 4.790126e+04 3.652596e+06 1.279387e+06 -1.063292e+01 -2.273804e+01 -2.893902e+01
<VARIANCE> 12
 1.027219e+04 1.830779e+03 4.977073e+03 2.041172e+02 5.421906e+01 1.037245e+02 4.435525e+09 1.141320e+11 1.184447e+11 6.274199e+04 3.598316e+04 1.157187e+05
<GCONST> 1.676380e+02
<MIXTURE> 2 2.944049e-02
<MEAN> 12
 9.479427e+01 7.218801e+02 6.218561e+02 3.079522e+02 2.655820e+02 4.045796e+02 6.471917e+05 3.294789e+06 2.773817e+06 4.424720e+04 1.230794e+05 3.744979e+04
<VARIANCE> 12
 9.661291e+04 2.038666e+05 1.517379e+05 7.216812e+04 5.912628e+04 2.299385e+05 1.358923e+12 6.944328e+12 5.308130e+12 1.845942e+10 2.000097e+11 6.894862e+10
<GCONST> 2.536319e+02
<MIXTURE> 3 3.370914e-01
<MEAN> 12
 3.999225e+01 6.557534e+02 7.442484e+02 4.694556e+01 3.094603e+01 3.583100e+01 7.996681e+04 2.245264e+06 2.683240e+06 3.039290e+01 -4.572443e+01 -2.244176e+02
<VARIANCE> 12
 1.572427e+04 6.887129e+04 4.224521e+04 1.072426e+03 4.148368e+02 5.690663e+02 2.069571e+10 1.622563e+12 1.734633e+12 2.635700e+06 1.684913e+06 3.750418e+06
<GCONST> 1.971676e+02
<STATE> 5
<NUMMIXES> 3
<MIXTURE> 1 3.925622e-01
<MEAN> 12
 1.638165e+01 1.019268e+03 2.055765e+02 3.375673e+01 1.680648e+01 2.710561e+01 4.453492e+04 4.677230e+06 2.652386e+05 3.530391e+01 -4.375626e+01 -5.810242e+01
<VARIANCE> 12
 9.455931e+03 4.757522e+02 1.659070e+04 4.498409e+02 9.523904e+01 2.823430e+02 2.361851e+09 4.009803e+10 3.383117e+10 2.637105e+05 1.894097e+05 8.270552e+05
<GCONST> 1.719007e+02
<MIXTURE> 2 1.856529e-01
<MEAN> 12
 -5.034897e+00 8.787010e+02 5.423782e+02 1.901059e+02 1.444775e+02 1.949815e+02 2.415392e+05 3.680798e+06 1.704716e+06 3.362472e+03 6.997873e+03 9.052617e+02
<VARIANCE> 12
 4.372318e+04 4.528771e+04 8.116663e+04 1.802071e+04 1.185312e+04 2.738447e+04 1.206038e+11 2.414500e+12 1.832958e+12 1.412005e+09 2.981023e+09 3.015795e+09
<GCONST> 2.311388e+02
<MIXTURE> 3 4.218220e-01
<MEAN> 12
 1.514589e+01 9.590904e+02 3.804133e+02 8.315837e+01 4.272887e+01 6.395399e+01 9.151287e+04 4.162969e+06 7.673544e+05 1.907228e+02 -3.819927e+02 -5.579767e+02
<VARIANCE> 12
 1.856466e+04 5.156520e+03 2.530019e+04 2.463578e+03 6.987186e+02 1.651687e+03 1.321276e+10 3.752930e+11 2.525240e+11 1.100364e+07 7.904519e+06 2.922125e+07
<GCONST> 1.978356e+02
<STATE> 6
<NUMMIXES> 3
<MIXTURE> 1 5.624658e-01
<MEAN> 12
 1.179769e+01 9.769510e+02 3.761783e+02 1.672136e+01 1.004450e+01 1.432032e+01 2.967549e+04 4.296828e+06 6.484928e+05 -1.506230e+01 -2.442190e+01 -2.456567e+01
<VARIANCE> 12
 6.430111e+03 4.182974e+02 2.587383e+03 1.122653e+02 3.097768e+01 6.851430e+01 1.386171e+09 3.214211e+10 3.018748e+10 2.069631e+04 1.656401e+04 4.641145e+04
<GCONST> 1.568710e+02
<MIXTURE> 2 8.465799e-02
<MEAN> 12
 7.379135e+00 9.338391e+02 4.788157e+02 1.273635e+01 8.811528e+00 1.228958e+01 4.805000e+03 3.925297e+06 1.036382e+06 -3.916834e+00 -1.159470e+01 -4.985568e+00
<VARIANCE> 12
 9.918691e+02 2.337872e+02 1.034500e+03 5.637982e+01 2.228210e+01 4.593232e+01 2.743397e+07 1.648141e+10 1.913454e+10 7.997411e+03 7.574758e+03 1.535853e+04
<GCONST> 1.441997e+02
<MIXTURE> 3 3.528698e-01
<MEAN> 12
 4.036923e+01 9.262533e+02 4.730154e+02 4.092710e+01 2.090762e+01 2.858538e+01 6.378562e+04 3.876325e+06 1.052022e+06 -2.455632e+01 -1.302744e+02 -2.500881e+02
<VARIANCE> 12
 1.226581e+04 3.450106e+03 9.966008e+03 5.441469e+02 1.687024e+02 2.861099e+02 7.140265e+09 2.182416e+11 2.083779e+11 5.898820e+05 3.701018e+05 1.260422e+06
<GCONST> 1.809226e+02
<TRANSP> 7
 0.000000e+00 5.071458e-01 4.928543e-01 0.000000e+00 0.000000e+00 0.000000e+00 0.000000e+00
 0.000000e+00 8.324238e-01 8.102594e-02 8.655031e-02 0.000000e+00 0.000000e+00 0.000000e+00
 0.000000e+00 0.000000e+00 8.659139e-01 3.341801e-02 1.006681e-01 0.000000e+00 0.000000e+00
 0.000000e+00 0.000000e+00 0.000000e+00 8.866145e-01 7.034394e-02 4.304152e-02 0.000000e+00
 0.000000e+00 0.000000e+00 0.000000e+00 0.000000e+00 8.322288e-01 4.312737e-02 1.246438e-01
 0.000000e+00 0.000000e+00 0.000000e+00 0.000000e+00 0.000000e+00 8.519409e-01 1.480591e-01
 0.000000e+00 0.000000e+00 0.000000e+00 0.000000e+00 0.000000e+00 0.000000e+00 0.000000e+00
<ENDHMM>
~h "Activity102"
<BEGINHMM>
<NUMSTATES> 7
<STATE> 2
<NUMMIXES> 3
<MIXTURE> 1 1.987569e-01
<MEAN> 12
 4.526746e+01 1.034827e+03 3.286908e+02 2.231258e+02 1.204749e+02 1.964167e+02 3.267341e+05 4.879190e+06 7.189387e+05 3.653417e+03 5.052893e+03 -4.718274e+02
<VARIANCE> 12
 5.716906e+04 1.267550e+04 4.532901e+04 1.786010e+04 6.256873e+03 1.674398e+04 1.199608e+11 1.120933e+12 4.045080e+11 8.119216e+08 7.305370e+08 2.355343e+09
<GCONST> 2.239207e+02
<MIXTURE> 2 2.818541e-01
<MEAN> 12
 -2.842516e+00 1.035752e+03 1.520704e+01 2.791570e+01 1.662344e+01 2.721777e+01 3.600325e+04 4.828578e+06 5.724648e+04 9.151630e+01 4.003028e+01 -5.259309e+01
<VARIANCE> 12
 7.862410e+03 2.418280e+02 1.236621e+04 4.229770e+02 9.865747e+01 3.311726e+02 1.550123e+09 2.102441e+10 4.432018e+09 1.975428e+05 1.962653e+05 7.016946e+05
<GCONST> 1.673618e+02
<MIXTURE> 3 5.193946e-01
<MEAN> 12
 3.074911e+01 1.008851e+03 2.076747e+02 8.032711e+01 3.692658e+01 6.418737e+01 8.974631e+04 4.598604e+06 3.263088e+05 3.924517e+02 -3.313266e+01 -5.377170e+02
<VARIANCE> 12
 1.767861e+04 4.072553e+03 2.868057e+04 2.479360e+03 5.273185e+02 1.651410e+03 9.859724e+09 3.292869e+11 9.366834e+10 7.615678e+06 5.164564e+06 2.787579e+07
<GCONST> 1.951449e+02
<STATE> 3
<NUMMIXES> 3
<MIXTURE> 1 2.163501e-01
<MEAN> 12
 1.827401e+01 1.005155e+03 5.119043e+02 6.285673e+02 4.238239e+02 7.080259e+02 1.078924e+06 4.956964e+06 2.980515e+06 8.455603e+04 6.829239e+04 -6.410391e+04
<VARIANCE> 12
 1.114351e+05 9.087102e+04 3.025930e+05 1.318346e+05 6.361017e+04 1.431708e+05 1.235275e+12 1.006118e+13 9.342601e+12 7.248938e+10 1.354922e+11 1.691730e+11
<GCONST> 2.565754e+02
<MIXTURE> 2 3.834636e-01
<MEAN> 12
 1.139016e+01 1.000122e+03 3.766640e+02 2.268655e+02 1.661840e+02 2.618643e+02 3.223433e+05 5.006271e+06 1.753566e+06 2.292940e+03 6.408799e+03 -7.127243e+03
<VARIANCE> 12
 5.723528e+04 1.109755e+05 2.374810e+05 2.019577e+04 9.793447e+03 2.951426e+04 1.130108e+11 8.565636e+12 3.777271e+12 1.219517e+09 1.672652e+09 3.089075e+09
<GCONST> 2.345998e+02
<MIXTURE> 3 4.001747e-01
<MEAN> 12
 2.125602e+00 1.055079e+03 7.729402e+01 1.459181e+02 8.505173e+01 8.540625e+01 1.445366e+05 5.107529e+06 1.205472e+05 8.811894e+01 3.950922e+02 -9.570787e+02
<VARIANCE> 12
 2.625237e+04 2.112725e+04 1.928041e+04 7.814766e+03 2.260949e+03 2.726539e+03 1.779697e+10 1.845270e+12 1.203496e+10 1.344261e+08 4.612927e+07 1.456901e+08
<GCONST> 2.068708e+02
<STATE> 4
<NUMMIXES> 3
<MIXTURE> 1 1.834439e-01
<MEAN> 12
 8.703503e+01 1.222348e+03 6.253541e+02 4.368412e+02 2.518002e+02 4.768111e+02 5.907836e+05 7.009894e+06 2.796467e+06 2.634653e+04 -1.179710e+04 -1.030023e+05
<VARIANCE> 12
 7.226713e+04 6.262993e+04 1.933377e+05 5.168001e+04 1.999926e+04 4.973259e+04 3.929014e+11 7.874249e+12 6.115126e+12 1.136053e+10 1.183695e+10 3.256352e+10
<GCONST> 2.444181e+02
<MIXTURE> 2 4.516981e-01
<MEAN> 12
 5.239561e+01 9.906456e+02 2.821406e+02 6.288160e+01 2.833976e+01 4.368721e+01 4.318263e+04 4.425456e+06 4.399277e+05 -2.174727e+01 -3.315342e+02 -3.180875e+02
<VARIANCE> 12
 6.047252e+03 2.002109e+03 1.788659e+04 1.527224e+03 3.599188e+02 8.245663e+02 1.543536e+09 1.592717e+11 8.018878e+10 3.030412e+06 1.702168e+06 7.276790e+06
<GCONST> 1.852183e+02
<MIXTURE> 3 3.648649e-01
<MEAN> 12
 4.702354e+01 1.011218e+03 4.232314e+02 1.380230e+02 8.499790e+01 1.444051e+02 1.064507e+05 4.704772e+06 1.117061e+06 1.113101e+03 2.220227e+03 -2.304375e+03
<VARIANCE> 12
 1.740116e+04 2.271423e+04 6.593567e+04 5.634838e+03 2.649574e+03 9.281226e+03 7.878899e+09 1.904576e+12 1.126503e+12 1.170089e+08 1.509964e+08 3.834046e+08
<GCONST> 2.145886e+02
<STATE> 5
<NUMMIXES> 3
<MIXTURE> 1 3.188201e-01
<MEAN> 12
 -8.780771e+01 1.474932e+03 -8.907988e+01 3.648808e+02 1.882992e+02 1.238296e+02 7.305859e+05 1.002523e+07 1.511071e+05 5.754727e+03 3.681795e+03 1.123467e+03
<VARIANCE> 12
 1.105452e+05 4.656844e+04 2.159335e+04 4.783557e+04 7.918591e+03 4.335305e+03 4.466753e+11 7.950593e+12 2.367285e+10 3.622596e+09 5.535242e+08 1.602591e+09
<GCONST> 2.262777e+02
<MIXTURE> 2 2.459010e-01
<MEAN> 12
 -4.578315e+01 6.624308e+02 4.875255e+02 5.085070e+01 2.830848e+01 3.938168e+01 1.588969e+05 2.843560e+06 1.618036e+06 -5.832346e+01 5.406316e+01 1.921833e+02
<VARIANCE> 12
 3.287060e+04 1.930375e+05 1.217196e+05 1.225286e+03 3.704848e+02 7.181089e+02 3.604683e+10 2.467568e+12 2.273290e+12 2.060750e+06 1.101355e+06 4.657362e+06
<GCONST> 2.010365e+02
<MIXTURE> 3 4.352782e-01
<MEAN> 12
 -1.328293e+02 9.096426e+02 -8.029634e+01 1.149793e+02 1.305795e+02 8.049208e+01 2.503855e+05 4.083284e+06 6.125554e+05 1.171155e+03 4.389491e+03 -2.142081e+02
<VARIANCE> 12
 3.528263e+04 7.711380e+04 1.291330e+05 3.501230e+03 4.296482e+03 2.146750e+03 8.592679e+10 4.535358e+12 5.622323e+11 1.886938e+08 9.755054e+07 6.053762e+07
<GCONST> 2.164906e+02
<STATE> 6
<NUMMIXES> 3
<MIXTURE> 1 2.680297e-01
<MEAN> 12
 7.098640e+00 9.065216e+02 6.590930e+02 4.997514e+02 3.797746e+02 7.037339e+02 7.990826e+05 4.025446e+06 3.738189e+06 5.207150e+04 5.587341e+04 -3.384648e+04
<VARIANCE> 12
 9.628961e+04 7.040023e+04 2.969417e+05 9.538762e+04 5.623264e+04 1.248231e+05 6.116187e+11 5.613817e+12 1.018626e+13 3.518286e+10 1.033171e+11 1.094995e+11
<GCONST> 2.529423e+02
<MIXTURE> 2 3.380085e-01
<MEAN> 12
 -3.186993e+00 9.951085e+02 2.323657e+02 2.349081e+02 1.521157e+02 2.404340e+02 2.748392e+05 4.707182e+06 9.167686e+05 6.629495e+03 7.590396e+03 -1.988216e+03
<VARIANCE> 12
 4.611200e+04 5.456251e+04 1.378584e+05 1.806954e+04 8.403041e+03 2.626965e+04 6.824585e+10 4.783124e+12 1.140527e+12 1.177126e+09 1.352344e+09 3.228580e+09
<GCONST> 2.302607e+02
<MIXTURE> 3 3.939734e-01
<MEAN> 12
 4.161662e+01 1.013184e+03 1.866643e+02 9.926736e+01 4.731771e+01 6.530525e+01 8.529443e+04 4.635834e+06 2.894696e+05 1.483513e+02 -3.133671e+02 -9.854645e+02
<VARIANCE> 12
 1.469792e+04 3.445938e+03 2.868734e+04 4.232088e+03 1.007350e+03 1.868683e+03 7.166416e+09 2.877467e+11 7.519732e+10 2.414865e+07 9.543470e+06 4.362620e+07
<GCONST> 1.976413e+02
<TRANSP> 7
 0.000000e+00 5.499155e-01 4.500845e-01 0.000000e+00 0.000000e+00 0.000000e+00 0.000000e+00
 0.000000e+00 8.147472e-01 1.189114e-01 6.634143e-02 0.000000e+00 0.000000e+00 0.000000e+00
 0.000000e+00 0.000000e+00 8.441405e-01 1.298508e-01 2.600877e-02 0.000000e+00 0.000000e+00
 0.000000e+00 0.000000e+00 0.000000e+00 8.195178e-01 1.361365e-01 4.434563e-02 0.000000e+00
 0.000000e+00 0.000000e+00 0.000000e+00 0.000000e+00 6.389041e-01 2.936324e-01 6.746343e-02
 0.000000e+00 0.000000e+00 0.000000e+00 0.000000e+00 0.000000e+00 8.259645e-01 1.740355e-01
 0.000000e+00 0.000000e+00 0.000000e+00 0.000000e+00 0.000000e+00 0.000000e+00 0.000000e+00
<ENDHMM>
~h "Activity104"
<BEGINHMM>
<NUMSTATES> 7
<STATE> 2
<NUMMIXES> 3
<MIXTURE> 1 7.726743e-01
<MEAN> 12
 -3.320366e+02 -1.006392e+02 9.081521e+02 1.203673e+01 9.602831e+00 1.193678e+01 8.071337e+05 1.554812e+05 3.728727e+06 2.460947e+00 1.195065e+00 -1.356273e+01
<VARIANCE> 12
 6.910225e+04 2.442127e+04 3.857730e+03 6.268917e+01 3.008570e+01 4.658021e+01 2.161654e+11 4.337745e+09 2.738613e+11 1.750736e+04 1.193745e+04 2.206744e+04
<GCONST> 1.667278e+02
<MIXTURE> 2 8.971324e-03
<MEAN> 12
 1.161667e+00 5.231586e+02 8.987901e+02 1.291418e+01 1.070925e+01 1.192223e+01 2.591078e+03 1.233611e+06 3.636697e+06 1.314089e+01 -1.550216e+01 2.241274e+01
<VARIANCE> 12
 5.504062e+02 4.335500e+02 3.091521e+02 3.585999e+01 2.205857e+01 1.401802e+02 3.354624e+06 1.029292e+10 1.942297e+10 1.303814e+04 4.859795e+03 3.668156e+04
<GCONST> 1.420320e+02
<MIXTURE> 3 2.183550e-01
<MEAN> 12
 4.614900e+01 5.344696e+01 7.779880e+02 1.022036e+02 5.577065e+01 8.553746e+01 8.606266e+05 1.000505e+06 3.006423e+06 2.323408e+03 2.604119e+03 1.378652e+03
<VARIANCE> 12
 1.859545e+05 2.194110e+05 6.192536e+04 9.196179e+03 2.345672e+03 7.117487e+03 9.828166e+11 1.777795e+12 2.038098e+12 2.446443e+08 1.781850e+08 9.919684e+08
<GCONST> 2.264693e+02
<STATE> 3
<NUMMIXES> 3
<MIXTURE> 1 4.260957e-01
<MEAN> 12
 1.368082e+02 3.654998e+02 9.598544e+02 8.973258e+00 8.000377e+00 9.552220e+00 1.023811e+05 6.021539e+05 4.146466e+06 -5.971843e+00 3.976558e+00 -8.340354e-01
<VARIANCE> 12
 4.029004e+03 2.209778e+02 1.153681e+02 2.237753e+01 1.730372e+01 2.440728e+01 5.002541e+09 2.363885e+09 8.620613e+09 3.448823e+03 4.006959e+03 4.819553e+03
<GCONST> 1.413721e+02
<MIXTURE> 2 3.238794e-01
<MEAN> 12
 6.178801e+01 4.210650e+02 9.486024e+02 8.917425e+00 8.117861e+00 9.886236e+00 2.209267e+04 8.009438e+05 4.050066e+06 -6.342600e+00 5.133192e-02 -2.866767e+00
<VARIANCE> 12
 1.086640e+03 6.901734e+02 1.652551e+02 2.431943e+01 1.896039e+01 2.573629e+01 3.383980e+08 1.041543e+10 1.197648e+10 3.950952e+03 4.676838e+03 5.814250e+03
<GCONST> 1.413840e+02
<MIXTURE> 3 2.499971e-01
<MEAN> 12
 1.229290e+02 3.620873e+02 9.604888e+02 1.950456e+01 1.326260e+01 1.486020e+01 9.795100e+04 6.022574e+05 4.152884e+06 -1.069663e+01 5.872455e+01 -1.198468e+01
<VARIANCE> 12
 6.584810e+03 2.716460e+03 3.110476e+02 1.193319e+02 4.736161e+01 5.570544e+01 9.529417e+09 2.616341e+10 2.322163e+10 7.212405e+04 3.166737e+04 7.256514e+04
<GCONST> 1.607289e+02
<STATE> 4
<NUMMIXES> 3
<MIXTURE> 1 7.491827e-01
<MEAN> 12
 9.415704e+01 1.461905e+02 1.015688e+03 1.013454e+01 8.410253e+00 1.014872e+01 4.839627e+04 1.053396e+05 4.642658e+06 -5.734550e+00 2.989213e+00 6.651363e-01
<VARIANCE> 12
 1.881066e+03 2.034806e+03 7.811245e+01 3.869156e+01 2.118088e+01 3.503040e+01 8.501885e+08 3.119977e+09 6.522463e+09 6.837607e+03 6.333761e+03 1.072252e+04
<GCONST> 1.437199e+02
<MIXTURE> 2 5.702053e-02
<MEAN> 12
 7.584740e+01 5.498998e+02 6.430358e+02 1.881136e+02 1.162030e+02 1.994138e+02 4.129469e+05 2.506521e+06 2.663589e+06 5.884148e+03 1.545654e+04 9.072023e+03
<VARIANCE> 12
 7.336577e+04 2.533176e+05 1.662182e+05 2.818119e+04 1.138971e+04 4.932610e+04 4.742229e+11 5.449078e+12 4.917575e+12 4.464036e+09 7.828270e+09 6.464908e+09
<GCONST> 2.411395e+02
<MIXTURE> 3 1.937995e-01
<MEAN> 12
 9.840210e+00 1.808291e+02 9.444689e+02 4.142966e+01 2.685325e+01 3.359302e+01 2.253415e+05 5.314413e+05 4.052338e+06 8.618681e+01 3.478645e+02 3.198395e+01
<VARIANCE> 12
 4.965098e+04 8.533484e+04 8.394417e+03 8.231856e+02 3.328399e+02 5.139495e+02 1.162480e+11 4.128326e+11 5.399241e+11 1.566408e+06 1.059460e+06 2.304655e+06
<GCONST> 1.940479e+02
<STATE> 5
<NUMMIXES> 3
<MIXTURE> 1 8.860621e-01
<MEAN> 12
 1.480621e+02 2.596685e+02 9.863333e+02 1.033528e+01 8.589986e+00 1.045052e+01 1.220455e+05 3.205948e+05 4.379330e+06 -8.011753e+00 8.047592e+00 -3.791015e+00
<VARIANCE> 12
 5.188594e+03 3.810429e+03 3.294881e+02 3.424934e+01 2.216138e+01 3.120971e+01 9.626470e+09 2.526364e+10 2.585582e+10 6.669089e+03 6.894492e+03 9.749379e+03
<GCONST> 1.524694e+02
<MIXTURE> 2 9.393550e-03
<MEAN> 12
 3.102655e+01 4.570432e+02 9.282682e+02 1.069756e+01 8.815068e+00 1.086776e+01 9.663609e+03 9.431837e+05 3.878135e+06 -3.566168e+00 1.863177e+01 1.078863e+01
<VARIANCE> 12
 1.163902e+03 7.108863e+02 1.098860e+02 3.958756e+01 2.001256e+01 4.582516e+01 1.865196e+08 1.192665e+10 7.639618e+09 6.001261e+03 6.557263e+03 1.006383e+04
<GCONST> 1.425872e+02
<MIXTURE> 3 1.045442e-01
<MEAN> 12
 2.313853e+02 -1.283404e+02 7.346909e+02 1.035203e+02 5.283370e+01 7.608975e+01 1.774046e+06 4.002328e+05 2.702720e+06 -6.580157e+01 2.899292e+03 -1.739279e+03
<VARIANCE> 12
 3.378982e+05 7.235303e+04 5.933691e+04 1.059077e+04 2.229802e+03 5.673734e+03 1.995082e+12 2.584022e+11 2.290245e+12 2.701380e+08 2.183203e+08 1.924786e+09
<GCONST> 2.256395e+02
<STATE> 6
<NUMMIXES> 3
<MIXTURE> 1 6.304044e-01
<MEAN> 12
 1.512845e+02 2.446018e+02 9.871511e+02 2.057591e+01 1.411439e+01 1.747709e+01 1.384190e+05 3.081684e+05 4.388307e+06 8.753902e+00 1.444716e+02 -6.311481e+00
<VARIANCE> 12
 7.799566e+03 8.632036e+03 6.745965e+02 1.970811e+02 8.002595e+01 1.411928e+02 1.423658e+10 4.778813e+10 5.320773e+10 1.202521e+05 1.297191e+05 1.994773e+05
<GCONST> 1.695503e+02
<MIXTURE> 2 2.240925e-01
<MEAN> 12
 2.468534e+01 1.019897e+03 1.567154e+02 6.703556e+01 3.526882e+01 6.671626e+01 8.329311e+04 4.713720e+06 3.393443e+05 4.727932e+02 1.027700e+03 -1.079767e+03
<VARIANCE> 12
 1.648178e+04 7.063980e+03 4.935488e+04 3.519463e+03 1.252864e+03 4.741283e+03 1.903811e+10 5.960512e+11 3.137058e+11 2.265444e+07 1.576132e+08 1.313864e+08
<GCONST> 2.069576e+02
<MIXTURE> 3 1.455172e-01
<MEAN> 12
 4.575284e+01 2.437269e+02 9.033283e+02 1.472814e+01 9.838089e+00 1.269654e+01 4.934086e+05 6.253996e+05 3.678164e+06 -1.189791e+01 2.745535e+01 -6.684929e+00
<VARIANCE> 12
 1.075221e+05 7.956792e+04 1.359260e+03 1.011615e+02 3.350166e+01 5.602599e+01 1.341655e+11 1.753561e+11 8.789770e+10 2.551321e+04 1.539537e+04 4.953553e+04
<GCONST> 1.716042e+02
<TRANSP> 7
 0.000000e+00 3.799897e-01 6.200103e-01 0.000000e+00 0.000000e+00 0.000000e+00 0.000000e+00
 0.000000e+00 7.147817e-01 4.179060e-03 2.810392e-01 0.000000e+00 0.000000e+00 0.000000e+00
 0.000000e+00 0.000000e+00 9.267732e-01 3.461954e-03 6.976485e-02 0.000000e+00 0.000000e+00
 0.000000e+00 0.000000e+00 0.000000e+00 9.052510e-01 5.145923e-02 4.328976e-02 0.000000e+00
 0.000000e+00 0.000000e+00 0.000000e+00 0.000000e+00 8.169861e-01 2.729387e-02 1.557200e-01
 0.000000e+00 0.000000e+00 0.000000e+00 0.000000e+00 0.000000e+00 7.821607e-01 2.178393e-01
 0.000000e+00 0.000000e+00 0.000000e+00 0.000000e+00 0.000000e+00 0.000000e+00 0.000000e+00
<ENDHMM>
~h "Activity105"
<BEGINHMM>
<NUMSTATES> 7
<STATE> 2
<NUMMIXES> 2
<MIXTURE> 2 1.000000e+00
<MEAN> 12
 -7.572286e+02 -3.006283e+01 6.784869e+02 9.562247e+00 9.306334e+00 1.017770e+01 2.581342e+06 4.697550e+03 2.072081e+06 -1.174521e+01 -2.660587e+00 -5.678010e+00
<VARIANCE> 12
 2.277134e+02 1.301277e+02 1.151178e+02 3.970824e+01 3.000130e+01 3.301316e+01 1.138373e+10 8.964069e+06 4.240276e+09 1.176957e+04 1.009245e+04 7.488078e+03
<GCONST> 1.365228e+02
<STATE> 3
<NUMMIXES> 2
<MIXTURE> 1 1.998670e-01
<MEAN> 12
 -8.042825e+02 1.733871e+02 5.646657e+02 4.942238e+01 2.191860e+01 3.358552e+01 2.976956e+06 2.587342e+05 1.493799e+06 4.176006e+02 1.918713e+02 -1.252930e+01
<VARIANCE> 12
 1.430416e+04 2.733341e+04 1.293680e+04 2.836952e+03 2.976414e+02 8.773911e+02 7.159729e+11 5.535276e+10 3.574061e+11 2.765848e+06 1.191656e+06 8.600850e+06
<GCONST> 1.951570e+02
<MIXTURE> 2 8.001351e-01
<MEAN> 12
 6.542446e+02 7.585313e+01 8.941974e+01 1.086031e+02 5.027549e+01 7.895719e+01 4.337201e+06 1.282113e+05 5.715598e+05 1.498455e+03 2.041426e+03 -2.865352e+03
<VARIANCE> 12
 5.316495e+05 2.186533e+04 1.160076e+05 2.523756e+04 3.361876e+03 1.381743e+04 2.760464e+12 4.947936e+10 1.139719e+12 6.515247e+08 2.688542e+08 1.645897e+09
<GCONST> 2.266415e+02
<STATE> 4
<NUMMIXES> 2
<MIXTURE> 2 1.000000e+00
<MEAN> 12
 -8.314839e+02 3.227263e+02 5.013511e+02 8.705733e+00 8.116876e+00 1.021373e+01 3.113005e+06 4.789978e+05 1.146148e+06 -3.087740e+00 -6.627017e+00 -1.145543e+01
<VARIANCE> 12
 4.104977e+02 2.291137e+03 3.344079e+03 2.588817e+01 1.962173e+01 2.822730e+01 2.319189e+10 1.988265e+10 5.787423e+10 4.199382e+03 6.067079e+03 8.774729e+03
<GCONST> 1.519890e+02
<STATE> 5
<NUMMIXES> 2
<MIXTURE> 2 1.000000e+00
<MEAN> 12
 2.453041e+02 8.455985e+01 2.358255e+02 2.709100e+01 1.589168e+01 2.046557e+01 3.619969e+06 1.728372e+05 8.429184e+05 6.202226e+01 4.340771e+01 -7.641876e+01
<VARIANCE> 12
 7.442209e+05 3.125503e+04 1.316437e+05 1.230298e+03 2.079889e+02 3.689304e+02 1.050225e+12 5.278045e+10 8.584810e+11 1.132568e+06 5.611621e+05 2.438463e+06
<GCONST> 1.978080e+02
<STATE> 6
<NUMMIXES> 2
<MIXTURE> 2 1.000000e+00
<MEAN> 12
 9.429274e+02 7.816561e+01 -2.288446e+01 2.643099e+01 1.845811e+01 2.391197e+01 4.231424e+06 1.725926e+05 2.732081e+05 5.596135e+02 -2.535469e+02 -1.375680e+03
<VARIANCE> 12
 5.090562e+04 3.198645e+04 5.967578e+04 4.241556e+03 2.898746e+03 3.871306e+03 7.852628e+11 2.879282e+11 3.850471e+11 9.923318e+08 7.962019e+08 4.789987e+08
<GCONST> 2.204981e+02
<TRANSP> 7
 0.000000e+00 8.593751e-02 9.140625e-01 0.000000e+00 0.000000e+00 0.000000e+00 0.000000e+00
 0.000000e+00 9.424084e-01 5.759162e-02 4.338880e-13 0.000000e+00 0.000000e+00 0.000000e+00
 0.000000e+00 0.000000e+00 6.668706e-01 5.985983e-02 2.732696e-01 0.000000e+00 0.000000e+00
 0.000000e+00 0.000000e+00 0.000000e+00 9.368120e-01 6.318799e-02 0.000000e+00 0.000000e+00
 0.000000e+00 0.000000e+00 0.000000e+00 0.000000e+00 1.565561e-01 5.831162e-01 2.603278e-01
 0.000000e+00 0.000000e+00 0.000000e+00 0.000000e+00 0.000000e+00 9.397608e-01 6.023917e-02
 0.000000e+00 0.000000e+00 0.000000e+00 0.000000e+00 0.000000e+00 0.000000e+00 0.000000e+00
<ENDHMM>
