~o
<STREAMINFO> 1 12
<VECSIZE> 12<NULLD><MFCC><DIAGC>
~h "Activity101"
<BEGINHMM>
<NUMSTATES> 7
<STATE> 2
<NUMMIXES> 3
<MIXTURE> 1 4.419841e-01
<MEAN> 12
 3.702856e+01 1.029175e+03 2.139726e+02 2.560309e+01 1.748371e+01 2.462302e+01 1.869139e+04 4.766836e+06 2.142821e+05 -2.696355e+01 -4.068415e+01 7.062474e+01
<VARIANCE> 12
 2.598761e+03 1.280839e+02 1.763588e+03 2.965227e+02 1.033798e+02 3.771273e+02 5.589110e+08 1.093562e+10 7.916375e+09 3.492299e+05 2.506396e+05 8.430328e+05
<GCONST> 1.633972e+02
<MIXTURE> 2 4.638971e-01
<MEAN> 12
 2.017045e+01 9.235809e+02 4.568106e+02 1.258098e+02 5.708600e+01 6.372269e+01 5.823412e+04 3.887038e+06 1.046776e+06 -1.331368e+03 1.166848e+03 -1.052591e+03
<VARIANCE> 12
 7.718416e+03 1.042890e+04 2.330349e+04 4.732857e+03 1.314714e+03 2.455591e+03 2.023455e+09 6.300176e+11 4.308940e+11 3.843526e+07 2.429991e+07 1.161310e+08
<GCONST> 2.021913e+02
<MIXTURE> 3 9.411912e-02
<MEAN> 12
 -2.346724e+01 6.663185e+02 8.877213e+02 1.269406e+02 5.291324e+01 2.988743e+02 8.053594e+04 2.038637e+06 3.841770e+06 4.302771e+03 -1.214346e+03 2.531089e+04
<VARIANCE> 12
 1.018940e+04 9.791242e+03 3.327180e+04 1.267102e+04 7.104785e+02 4.000828e+04 1.161834e+10 3.769589e+11 1.493279e+12 1.004603e+08 6.498278e+07 3.300624e+09
<GCONST> 2.136907e+02
<STATE> 3
<NUMMIXES> 3
<MIXTURE> 1 1.459152e-01
<MEAN> 12
 2.447029e+01 9.718871e+02 3.866305e+02 1.396088e+01 9.143512e+00 1.319900e+01 3.039334e+04 4.257970e+06 7.267636e+05 -2.422425e+01 3.199512e+00 -1.399870e+01
<VARIANCE> 12
 6.148181e+03 1.645864e+03 1.202892e+04 3.459826e+01 1.472422e+01 4.616544e+01 1.115342e+09 1.273212e+11 1.310822e+11 8.113488e+03 5.856021e+03 2.301019e+04
<GCONST> 1.573667e+02
<MIXTURE> 2 4.680596e-01
<MEAN> 12
 1.139638e+01 9.261734e+02 4.895412e+02 2.630793e+01 1.405352e+01 2.108307e+01 3.271262e+04 3.866545e+06 1.105250e+06 4.118256e+01 -3.895314e+01 -1.596485e+02
<VARIANCE> 12
 7.047965e+03 1.438301e+03 5.926492e+03 1.585560e+02 7.100774e+01 1.224420e+02 1.643183e+09 1.003616e+11 1.085383e+11 7.521770e+04 5.697807e+04 2.219733e+05
<GCONST> 1.674612e+02
<MIXTURE> 3 3.860249e-01
<MEAN> 12
 3.949121e+01 8.947253e+02 5.230486e+02 4.998963e+01 2.982386e+01 3.995987e+01 5.332411e+04 3.626718e+06 1.294156e+06 -1.448808e+02 2.649957e+01 -1.033094e+03
<VARIANCE> 12
 9.731474e+03 5.372819e+03 1.380676e+04 9.261965e+02 3.613035e+02 5.043310e+02 4.193971e+09 3.355327e+11 3.076501e+11 2.117812e+06 1.262481e+06 3.692570e+06
<GCONST> 1.871881e+02
<STATE> 4
<NUMMIXES> 3
<MIXTURE> 1 1.565966e-02
<MEAN> 12
 5.965482e+01 1.031019e+03 1.856757e+02 8.398846e+00 1.013694e+01 6.593579e+00 1.601347e+04 4.783614e+06 1.550812e+05 3.347213e+01 1.988725e+01 -4.017765e+01
<VARIANCE> 12
 7.753906e-01 1.144447e-01 4.375000e-01 1.651327e+00 6.476688e-02 2.402924e+00 1.033250e+05 9.849344e+06 1.366016e+06 1.032705e+02 3.611481e+01 2.169385e+02
<GCONST> 7.282673e+01
<MIXTURE> 2 1.168305e-01
<MEAN> 12
 -1.743977e+01 7.892712e+02 6.878698e+02 1.762423e+02 2.561053e+02 1.822547e+02 1.163254e+05 2.836307e+06 2.237532e+06 -9.592666e+03 -2.179359e+04 2.550478e+04
<VARIANCE> 12
 1.294511e+04 4.422676e+03 2.424775e+04 1.545383e+04 2.384745e+04 2.205695e+04 2.242354e+10 2.256700e+11 5.977286e+11 4.048813e+09 1.621139e+09 2.118776e+09
<GCONST> 2.216343e+02
<MIXTURE> 3 8.675093e-01
<MEAN> 12
 9.222450e-01 5.937737e+02 8.535784e+02 4.446382e+01 3.804212e+01 3.478891e+01 4.532014e+04 1.653127e+06 3.340289e+06 9.932428e+02 2.375706e+02 2.463396e+02
<VARIANCE> 12
 9.425889e+03 1.518668e+04 1.390217e+04 1.159478e+03 1.052780e+03 6.438555e+02 2.506547e+09 4.662646e+11 7.799589e+11 5.776710e+06 6.392566e+06 3.501720e+06
<GCONST> 1.930576e+02
<STATE> 5
<NUMMIXES> 3
<MIXTURE> 1 4.838468e-01
<MEAN> 12
 5.691705e+01 9.929205e+02 3.328170e+02 2.906575e+01 1.413021e+01 2.421144e+01 4.030098e+04 4.439602e+06 5.164165e+05 1.137487e+02 -2.127173e+02 -2.087472e+02
<VARIANCE> 12
 5.719094e+03 6.818594e+02 3.894559e+03 2.493896e+02 5.494518e+01 2.017421e+02 1.074324e+09 5.437732e+10 3.631958e+10 1.170941e+05 1.181894e+05 4.450360e+05
<GCONST> 1.665171e+02
<MIXTURE> 2 1.982122e-01
<MEAN> 12
 -2.087052e+01 8.799774e+02 5.779553e+02 1.638604e+02 1.960312e+02 1.536574e+02 1.401108e+05 3.560642e+06 1.656295e+06 -1.418163e+03 7.582076e+03 4.547273e+03
<VARIANCE> 12
 2.312473e+04 1.248888e+04 3.119888e+04 1.159011e+04 1.855069e+04 1.286986e+04 1.977898e+10 6.534601e+11 8.546326e+11 1.808389e+09 8.141649e+08 1.743799e+09
<GCONST> 2.220328e+02
<MIXTURE> 3 3.179405e-01
<MEAN> 12
 3.256525e+01 9.556643e+02 3.903065e+02 8.491705e+01 4.101667e+01 5.395757e+01 8.053374e+04 4.124362e+06 7.412421e+05 -1.283834e+03 -4.062885e+02 -1.207049e+03
<VARIANCE> 12
 1.525719e+04 3.022803e+03 1.189659e+04 2.071934e+03 6.831954e+02 1.015101e+03 8.500619e+09 2.216931e+11 1.242172e+11 8.974071e+06 9.182165e+06 2.324266e+07
<GCONST> 1.937084e+02
<STATE> 6
<NUMMIXES> 3
<MIXTURE> 1 2.196537e-01
<MEAN> 12
 2.103921e+01 1.023949e+03 2.299006e+02 1.818823e+01 1.133610e+01 1.431646e+01 3.865820e+03 4.718274e+06 2.393307e+05 1.601034e+01 1.490859e+01 -4.775023e+01
<VARIANCE> 12
 3.770815e+02 5.481243e+01 3.153135e+02 4.716846e+01 4.681228e+01 4.657661e+01 1.785114e+07 4.646588e+09 1.225213e+09 2.109675e+04 2.050999e+04 4.870452e+04
<GCONST> 1.398479e+02
<MIXTURE> 2 4.807739e-01
<MEAN> 12
 5.764171e+01 8.511924e+02 6.014079e+02 2.110602e+01 9.984318e+00 1.625561e+01 4.538039e+04 3.275376e+06 1.655341e+06 -2.227820e+01 -2.229856e+01 -9.052432e+01
<VARIANCE> 12
 6.749148e+03 3.313133e+03 6.150134e+03 1.083607e+02 4.681285e+01 7.167426e+01 2.121589e+09 1.916879e+11 1.744199e+11 2.009512e+04 2.223366e+04 8.286323e+04
<GCONST> 1.650872e+02
<MIXTURE> 3 2.995723e-01
<MEAN> 12
 5.332510e+01 8.050835e+02 6.471304e+02 3.959277e+01 2.303819e+01 2.750672e+01 5.529119e+04 2.983412e+06 2.023842e+06 -9.218129e+01 -2.448100e+02 -6.026531e+02
<VARIANCE> 12
 9.287453e+03 1.485439e+04 3.096530e+04 3.004323e+02 1.494564e+02 1.647671e+02 3.115778e+09 7.602452e+11 1.052048e+12 5.003542e+05 2.778243e+05 1.258014e+06
<GCONST> 1.835556e+02
<TRANSP> 7
 0.000000e+00 4.440139e-01 5.559860e-01 0.000000e+00 0.000000e+00 0.000000e+00 0.000000e+00
 0.000000e+00 8.333356e-01 1.380562e-01 2.860806e-02 0.000000e+00 0.000000e+00 0.000000e+00
 0.000000e+00 0.000000e+00 8.770211e-01 2.306452e-02 9.991448e-02 0.000000e+00 0.000000e+00
 0.000000e+00 0.000000e+00 0.000000e+00 8.503164e-01 1.971070e-02 1.299729e-01 0.000000e+00
 0.000000e+00 0.000000e+00 0.000000e+00 0.000000e+00 8.468809e-01 6.680686e-02 8.631226e-02
 0.000000e+00 0.000000e+00 0.000000e+00 0.000000e+00 0.000000e+00 8.163931e-01 1.836070e-01
 0.000000e+00 0.000000e+00 0.000000e+00 0.000000e+00 0.000000e+00 0.000000e+00 0.000000e+00
<ENDHMM>
~h "Activity102"
<BEGINHMM>
<NUMSTATES> 7
<STATE> 2
<NUMMIXES> 3
<MIXTURE> 1 3.380871e-01
<MEAN> 12
 1.302934e+02 1.016883e+03 5.546675e+02 2.041017e+02 1.429832e+02 1.889084e+02 4.603653e+05 4.847071e+06 1.911085e+06 4.582587e+03 -1.317744e+02 -9.101682e+03
<VARIANCE> 12
 8.159658e+04 4.187990e+04 1.138916e+05 1.084289e+04 9.990522e+03 1.224026e+04 3.004286e+11 3.430295e+12 2.340595e+12 1.120717e+09 5.752356e+08 1.332363e+09
<GCONST> 2.293541e+02
<MIXTURE> 2 4.208653e-02
<MEAN> 12
 1.081094e+02 1.020216e+03 2.499313e+02 3.647689e+01 2.481852e+01 2.998725e+01 7.959055e+04 4.686764e+06 2.936975e+05 2.889056e+02 -1.331791e+02 1.859793e+02
<VARIANCE> 12
 6.036398e+03 6.296853e+02 2.938797e+03 6.159621e+01 1.250938e+02 3.461472e+02 3.135909e+09 5.439670e+10 1.383725e+10 3.827725e+05 3.935025e+05 1.103775e+06
<GCONST> 1.695763e+02
<MIXTURE> 3 6.198268e-01
<MEAN> 12
 6.826672e+01 9.827430e+02 2.925060e+02 9.865038e+01 4.181149e+01 6.005904e+01 1.496418e+05 4.388764e+06 4.971581e+05 5.924280e+01 -6.476876e+02 -6.792863e+02
<VARIANCE> 12
 2.657883e+04 9.390147e+03 2.465619e+04 3.572599e+03 8.657953e+02 9.232338e+02 2.146277e+10 7.391244e+11 1.002768e+11 1.904628e+07 6.461060e+06 3.726097e+07
<GCONST> 1.996019e+02
<STATE> 3
<NUMMIXES> 3
<MIXTURE> 1 2.993198e-01
<MEAN> 12
 9.352538e+01 9.650928e+02 5.228413e+02 5.841888e+02 3.373550e+02 5.285227e+02 8.314223e+05 4.431258e+06 2.455543e+06 3.494854e+04 3.223899e+04 -8.809614e+04
<VARIANCE> 12
 6.103906e+04 5.551762e+04 2.117710e+05 9.136114e+04 3.854845e+04 5.838114e+04 4.750373e+11 5.114830e+12 6.727360e+12 2.559192e+10 3.406937e+10 5.787872e+10
<GCONST> 2.479044e+02
<MIXTURE> 2 4.286263e-01
<MEAN> 12
 3.188238e+01 1.023100e+03 2.106640e+02 2.065815e+02 9.911032e+01 1.218599e+02 2.148930e+05 4.817322e+06 4.358978e+05 8.896384e+02 1.736943e+03 -6.852290e+03
<VARIANCE> 12
 3.394508e+04 2.310478e+04 4.842528e+04 1.172382e+04 2.408113e+03 6.944841e+03 2.156086e+10 2.075592e+12 1.219996e+11 2.730236e+08 8.498978e+07 5.369791e+08
<GCONST> 2.147916e+02
<MIXTURE> 3 2.720540e-01
<MEAN> 12
 8.339301e+01 1.013085e+03 2.289426e+02 1.082476e+02 3.100918e+01 5.779988e+01 7.032379e+04 4.630061e+06 2.719631e+05 2.321724e+02 -2.528707e+02 -2.791561e+03
<VARIANCE> 12
 6.607685e+03 2.482018e+03 8.021795e+03 1.866359e+03 1.842550e+02 9.531662e+02 2.015803e+09 2.075811e+11 1.837725e+10 7.745094e+06 3.014795e+06 2.849999e+07
<GCONST> 1.863296e+02
<STATE> 4
<NUMMIXES> 3
<MIXTURE> 1 2.825279e-01
<MEAN> 12
 7.092545e+00 1.339455e+03 4.205840e+02 5.905311e+02 2.437704e+02 4.919935e+02 7.069227e+05 8.286924e+06 1.448496e+06 3.642278e+04 -2.148402e+04 -2.140105e+05
<VARIANCE> 12
 6.049729e+04 5.194210e+04 9.648330e+04 3.587311e+04 2.923835e+04 1.961260e+04 1.169181e+11 7.808568e+12 1.356196e+12 1.747576e+10 9.892768e+09 3.711594e+10
<GCONST> 2.400979e+02
<MIXTURE> 2 8.792481e-02
<MEAN> 12
 2.263014e+02 9.392673e+02 6.308286e+02 1.156968e+02 3.720937e+01 1.290393e+02 2.908018e+05 3.976777e+06 1.853022e+06 -3.206561e+03 1.688870e+03 -1.689845e+03
<VARIANCE> 12
 9.659906e+03 1.044547e+03 1.868887e+04 1.356323e+03 3.721087e+02 6.133095e+03 2.840841e+10 6.850085e+10 5.546550e+11 2.004527e+07 1.878199e+06 1.188306e+07
<GCONST> 1.934821e+02
<MIXTURE> 3 6.295472e-01
<MEAN> 12
 1.184295e+02 1.140530e+03 8.318863e+02 2.478860e+02 1.759322e+02 3.700751e+02 1.971410e+05 6.010441e+06 3.589737e+06 -8.406540e+03 2.767623e+03 -6.162358e+04
<VARIANCE> 12
 1.527021e+04 3.428364e+04 1.021191e+05 1.578557e+04 8.458703e+03 5.660565e+04 1.968874e+10 3.877258e+12 6.199692e+12 1.292058e+09 1.898892e+09 6.166350e+09
<GCONST> 2.303496e+02
<STATE> 5
<NUMMIXES> 3
<MIXTURE> 1 1.439608e-01
<MEAN> 12
 5.259078e+01 1.425901e+03 -9.132690e+01 4.259449e+02 2.161668e+02 1.009803e+02 5.683676e+05 9.414011e+06 1.221211e+05 3.157749e+04 1.751805e+04 1.114712e+04
<VARIANCE> 12
 6.708286e+04 5.931990e+04 1.773732e+04 2.078621e+04 2.895812e+03 2.345947e+03 1.811554e+11 9.181443e+12 1.598968e+10 5.008421e+09 1.114370e+08 1.119857e+09
<GCONST> 2.205817e+02
<MIXTURE> 2 5.658355e-01
<MEAN> 12
 1.196037e+02 9.889606e+02 2.987321e+02 5.750650e+01 2.139763e+01 3.963566e+01 8.918498e+04 4.405343e+06 4.376844e+05 -1.224324e+02 -2.071269e+02 -3.382402e+02
<VARIANCE> 12
 5.300361e+03 9.445621e+02 7.748014e+03 7.967410e+02 1.390635e+02 5.087152e+02 8.209796e+09 7.361516e+10 9.642045e+10 9.166411e+05 4.905132e+05 4.383156e+06
<GCONST> 1.795510e+02
<MIXTURE> 3 2.902036e-01
<MEAN> 12
 -4.110885e+01 9.737198e+02 8.955460e+00 1.175275e+02 1.297597e+02 6.472317e+01 1.340037e+05 4.432066e+06 3.277714e+05 -5.230536e+02 2.565667e+03 -2.618929e+03
<VARIANCE> 12
 2.614401e+04 3.535384e+04 7.192908e+04 2.656694e+03 3.716100e+03 1.329087e+03 1.968282e+10 2.657913e+12 6.197568e+10 2.109609e+08 4.912496e+07 3.340484e+07
<GCONST> 2.085429e+02
<STATE> 6
<NUMMIXES> 3
<MIXTURE> 1 2.813006e-01
<MEAN> 12
 7.965776e+01 8.493812e+02 7.014901e+02 6.336762e+02 2.952162e+02 7.369894e+02 1.056752e+06 3.369768e+06 3.616056e+06 5.479810e+04 -2.457958e+04 -2.628370e+05
<VARIANCE> 12
 8.171909e+04 3.660694e+04 1.923521e+05 1.695755e+05 4.067179e+04 8.497118e+04 8.121360e+11 2.412539e+12 9.152473e+12 3.901336e+10 4.550782e+10 1.533101e+11
<GCONST> 2.505088e+02
<MIXTURE> 2 3.521889e-01
<MEAN> 12
 6.566824e+01 1.047118e+03 4.012131e+02 2.794359e+02 1.483232e+02 2.624215e+02 2.274392e+05 5.280861e+06 1.722423e+06 -3.654490e+02 -9.504000e+03 -4.218884e+03
<VARIANCE> 12
 2.736238e+04 7.579059e+04 2.056770e+05 2.727047e+04 7.294726e+03 3.093235e+04 4.038631e+10 7.718713e+12 5.078954e+12 1.185060e+09 1.275452e+09 5.502882e+09
<GCONST> 2.328300e+02
<MIXTURE> 3 3.665105e-01
<MEAN> 12
 7.203395e+01 9.723565e+02 2.366794e+02 1.105064e+02 5.358486e+01 7.628458e+01 9.779297e+04 4.299897e+06 4.806751e+05 1.987656e+03 -8.212158e+02 -2.842290e+03
<VARIANCE> 12
 1.394658e+04 9.692434e+03 5.023623e+04 4.536699e+03 1.690653e+03 1.889747e+03 6.063863e+09 7.481713e+11 1.350880e+11 3.330858e+07 1.850652e+07 4.317037e+07
<GCONST> 2.021295e+02
<TRANSP> 7
 0.000000e+00 8.026714e-01 1.973286e-01 0.000000e+00 0.000000e+00 0.000000e+00 0.000000e+00
 0.000000e+00 8.360580e-01 1.544792e-01 9.462862e-03 0.000000e+00 0.000000e+00 0.000000e+00
 0.000000e+00 0.000000e+00 8.055291e-01 1.087965e-01 8.567442e-02 0.000000e+00 0.000000e+00
 0.000000e+00 0.000000e+00 0.000000e+00 5.093526e-01 4.872648e-01 3.382660e-03 0.000000e+00
 0.000000e+00 0.000000e+00 0.000000e+00 0.000000e+00 7.422410e-01 1.820095e-01 7.574946e-02
 0.000000e+00 0.000000e+00 0.000000e+00 0.000000e+00 0.000000e+00 8.627700e-01 1.372300e-01
 0.000000e+00 0.000000e+00 0.000000e+00 0.000000e+00 0.000000e+00 0.000000e+00 0.000000e+00
<ENDHMM>
~h "Activity104"
<BEGINHMM>
<NUMSTATES> 7
<STATE> 2
<NUMMIXES> 3
<MIXTURE> 1 9.447982e-01
<MEAN> 12
 8.560812e+01 1.866406e+02 1.010945e+03 1.087316e+01 9.008429e+00 9.112224e+00 4.283994e+04 1.603915e+05 4.599488e+06 3.371191e+01 1.027937e-01 1.988053e+01
<VARIANCE> 12
 2.174703e+03 7.998125e+02 7.964062e+01 5.693726e+01 3.825285e+01 2.718950e+01 1.829044e+09 2.302260e+09 6.559367e+09 2.991373e+04 2.356582e+03 5.817251e+03
<GCONST> 1.440181e+02
<MIXTURE> 3 5.520169e-02
<MEAN> 12
 9.377805e+01 1.658490e+02 1.011459e+03 5.759547e+01 5.038275e+01 2.897168e+01 4.172195e+04 1.277882e+05 4.604398e+06 2.575942e+03 1.204440e+03 7.293749e+02
<VARIANCE> 12
 1.128906e+00 5.078125e+01 6.750000e+00 2.609747e+01 3.564330e+01 2.435059e+01 1.013760e+06 1.053819e+08 5.583667e+08 1.513038e+05 7.108575e+04 2.922594e+04
<GCONST> 1.238651e+02
<STATE> 3
<NUMMIXES> 3
<MIXTURE> 3 1.000000e+00
<MEAN> 12
 1.723861e+02 2.942858e+02 9.905271e+02 1.821068e+01 2.847128e+00 2.287608e+01 1.394210e+05 3.934663e+05 4.415104e+06 2.520962e+01 1.616287e+00 4.079285e+02
<VARIANCE> 12
 1.307754e+03 8.294551e+02 8.960083e+00 1.475363e+01 9.625824e+00 1.881553e+01 1.415553e+09 3.719217e+09 7.232471e+08 9.623800e+03 2.880400e+02 1.577656e+04
<GCONST> 1.340430e+02
<STATE> 4
<NUMMIXES> 3
<MIXTURE> 1 5.558354e-01
<MEAN> 12
 9.684409e+01 1.870030e+02 1.009133e+03 1.538460e+01 9.996475e+00 1.169393e+01 6.247079e+04 1.610917e+05 4.583178e+06 -2.140026e+01 1.394572e+01 -1.693861e+01
<VARIANCE> 12
 4.477957e+03 8.314952e+02 1.314282e+02 6.906612e+01 2.905979e+01 3.688675e+01 3.261390e+09 2.330318e+09 1.081171e+10 1.384886e+04 1.090039e+04 2.082621e+04
<GCONST> 1.486305e+02
<MIXTURE> 2 1.182262e-01
<MEAN> 12
 1.656604e+02 2.220615e+02 9.928148e+02 9.104942e+01 7.146938e+01 1.066732e+02 2.030288e+05 2.596618e+05 4.474384e+06 1.303921e+03 5.370536e+03 5.284453e+03
<VARIANCE> 12
 1.548167e+04 7.982835e+03 8.506152e+03 3.571753e+03 1.383220e+03 7.383928e+03 2.949216e+10 4.931659e+10 6.611317e+11 8.802846e+07 1.089146e+08 3.486043e+08
<GCONST> 2.064704e+02
<MIXTURE> 3 3.259380e-01
<MEAN> 12
 1.110294e+02 2.266900e+02 9.997738e+02 3.606635e+01 2.550871e+01 2.678027e+01 8.156097e+04 2.950588e+05 4.507163e+06 -1.527176e+02 2.211859e+02 -8.246857e+01
<VARIANCE> 12
 5.453797e+03 1.416857e+04 1.897880e+03 4.251619e+02 1.857262e+02 1.876732e+02 6.361747e+09 1.626879e+11 1.334795e+11 5.323769e+05 4.927715e+05 7.607925e+05
<GCONST> 1.781182e+02
<STATE> 5
<NUMMIXES> 3
<MIXTURE> 1 6.532103e-01
<MEAN> 12
 1.139560e+02 3.602226e+02 9.620814e+02 1.130727e+01 9.070028e+00 1.066339e+01 1.003362e+05 5.854417e+05 4.165884e+06 -1.211726e+01 1.201817e+01 -1.874386e+00
<VARIANCE> 12
 9.294463e+03 3.352068e+02 1.488738e+02 5.086154e+01 2.506437e+01 3.304186e+01 5.287947e+09 3.563090e+09 1.118485e+10 1.109926e+04 7.918307e+03 1.472040e+04
<GCONST> 1.480668e+02
<MIXTURE> 2 3.236075e-01
<MEAN> 12
 -1.380355e+02 4.703080e+02 9.172914e+02 1.060376e+01 8.605976e+00 1.092442e+01 1.057369e+05 9.977896e+05 3.787327e+06 -2.773319e+01 -5.457081e-01 1.694782e+01
<VARIANCE> 12
 4.429263e+03 5.384207e+02 1.985226e+02 4.516935e+01 2.247386e+01 3.801245e+01 4.558614e+09 9.308707e+09 1.357341e+10 8.779478e+03 9.380376e+03 1.411907e+04
<GCONST> 1.488985e+02
<MIXTURE> 3 2.318227e-02
<MEAN> 12
 -1.573555e+02 6.113937e+02 5.392481e+02 1.900543e+02 1.312001e+02 2.115401e+02 6.545768e+05 2.988482e+06 2.063539e+06 8.759172e+03 2.625635e+04 3.742554e+03
<VARIANCE> 12
 1.097148e+05 2.898429e+05 1.514031e+05 2.741710e+04 1.380695e+04 5.976828e+04 9.633864e+11 6.100708e+12 3.359696e+12 1.893618e+09 1.239182e+10 8.087608e+09
<GCONST> 2.422067e+02
<STATE> 6
<NUMMIXES> 3
<MIXTURE> 1 9.635970e-01
<MEAN> 12
 7.897331e+01 1.886313e+02 1.012034e+03 9.492790e+00 7.746282e+00 9.766744e+00 3.576833e+04 1.637727e+05 4.609326e+06 -4.388313e-01 -5.641453e+00 -6.883444e+00
<VARIANCE> 12
 1.706126e+03 8.106351e+02 7.642766e+01 2.879390e+01 1.846181e+01 2.477721e+01 8.174640e+08 2.392949e+09 6.334300e+09 4.850217e+03 6.114014e+03 6.619875e+03
<GCONST> 1.407062e+02
<MIXTURE> 3 3.640321e-02
<MEAN> 12
 7.238249e+01 2.134833e+02 9.829033e+02 4.820079e+01 2.410103e+01 2.787115e+01 7.163928e+04 2.882762e+05 4.383358e+06 9.655467e+02 -7.473410e+01 5.456006e+01
<VARIANCE> 12
 1.018888e+04 1.834748e+04 7.920711e+03 1.052890e+03 3.572253e+02 2.114071e+02 6.326692e+09 1.938770e+11 5.101563e+11 2.370363e+06 4.400063e+05 8.247341e+05
<GCONST> 1.850819e+02
<TRANSP> 7
 0.000000e+00 9.450905e-01 5.490942e-02 0.000000e+00 0.000000e+00 0.000000e+00 0.000000e+00
 0.000000e+00 9.407097e-06 1.094512e-12 9.999906e-01 0.000000e+00 0.000000e+00 0.000000e+00
 0.000000e+00 0.000000e+00 1.932037e-04 9.998068e-01 2.947183e-20 0.000000e+00 0.000000e+00
 0.000000e+00 0.000000e+00 0.000000e+00 8.049038e-01 3.335591e-09 1.950962e-01 0.000000e+00
 0.000000e+00 0.000000e+00 0.000000e+00 0.000000e+00 3.268677e-03 6.311480e-01 3.655834e-01
 0.000000e+00 0.000000e+00 0.000000e+00 0.000000e+00 0.000000e+00 9.279243e-01 7.207567e-02
 0.000000e+00 0.000000e+00 0.000000e+00 0.000000e+00 0.000000e+00 0.000000e+00 0.000000e+00
<ENDHMM>
~h "Activity105"
<BEGINHMM>
<NUMSTATES> 7
<STATE> 2
<NUMMIXES> 3
<MIXTURE> 1 2.213480e-01
<MEAN> 12
 -9.533867e+02 9.714805e+01 2.341651e+02 7.281096e+01 3.224681e+01 4.068356e+01 4.141541e+06 8.159461e+04 3.549617e+05 2.302538e+02 -1.816695e+02 -6.986707e+02
<VARIANCE> 12
 1.091454e+04 8.516260e+03 2.371683e+04 3.525838e+03 5.263888e+02 1.660573e+03 8.203499e+11 1.071662e+10 1.056526e+11 1.127219e+07 2.414072e+06 1.574972e+07
<GCONST> 1.957434e+02
<MIXTURE> 2 6.809682e-01
<MEAN> 12
 -8.316213e+02 3.230161e+02 5.010511e+02 8.356266e+00 8.049520e+00 1.006397e+01 3.114081e+06 4.799181e+05 1.145016e+06 -2.394494e+00 -4.494848e+00 -7.833436e+00
<VARIANCE> 12
 4.225599e+02 2.308497e+03 3.394234e+03 2.220666e+01 1.885706e+01 2.611704e+01 2.388264e+10 2.009083e+10 5.872222e+10 4.006031e+03 5.915482e+03 6.817541e+03
<GCONST> 1.514991e+02
<MIXTURE> 3 9.768378e-02
<MEAN> 12
 -7.109155e+02 -7.695980e+01 7.154903e+02 6.317305e+01 4.206978e+01 3.928245e+01 2.332670e+06 7.732697e+04 2.331718e+06 -2.677001e+02 1.282468e+03 -6.911488e+02
<VARIANCE> 12
 1.309841e+04 1.093704e+04 6.027119e+03 3.739403e+03 1.869548e+03 1.173940e+03 5.144609e+11 1.163177e+10 2.515726e+11 1.773529e+07 3.538494e+07 1.169642e+07
<GCONST> 1.991090e+02
<STATE> 3
<NUMMIXES> 3
<MIXTURE> 2 9.999868e-01
<MEAN> 12
 9.161254e+02 1.841699e+02 -2.698425e+02 3.952879e+01 2.140510e+01 1.480517e+01 3.889505e+06 2.144928e+05 5.032906e+05 1.541614e+03 1.228911e+02 3.598101e+02
<VARIANCE> 12
 2.302875e+04 1.366959e+04 3.904684e+04 6.010408e+03 1.828215e+03 2.623994e+02 9.446096e+11 4.765275e+09 5.871334e+10 2.841036e+07 1.128400e+05 2.899160e+06
<GCONST> 1.923072e+02
<MIXTURE> 3 1.322396e-05
<MEAN> 12
 3.050000e+02 -1.730000e+02 -2.359999e+02 1.040577e+02 1.936285e+02 8.022469e+01 4.260289e+05 1.419708e+05 2.503798e+05 1.943800e+04 9.400000e+02 -1.706000e+03
<VARIANCE> 12
 3.125000e-02 0.000000e+00 1.250000e-01 0.000000e+00 0.000000e+00 3.051758e-05 0.000000e+00 0.000000e+00 0.000000e+00 0.000000e+00 0.000000e+00 2.000000e+00
<GCONST> -8.000000e+10
<STATE> 4
<NUMMIXES> 3
<MIXTURE> 1 7.154304e-01
<MEAN> 12
 -9.650714e+02 8.705947e+01 2.758793e+02 7.547468e+00 7.666241e+00 9.357394e+00 4.191794e+06 3.692572e+04 3.501955e+05 -8.471583e+00 -1.626530e+01 2.299138e+00
<VARIANCE> 12
 1.430117e+02 6.250861e+02 1.707658e+03 2.148273e+01 1.554300e+01 2.528663e+01 1.073628e+10 3.024027e+08 1.132726e+10 2.847443e+03 4.379580e+03 4.188404e+03
<GCONST> 1.403929e+02
<MIXTURE> 2 2.686641e-01
<MEAN> 12
 -7.562602e+02 -3.038276e+01 6.784572e+02 9.211275e+00 8.958277e+00 9.658095e+00 2.574303e+06 4.712561e+03 2.071870e+06 -1.286933e+01 -7.418890e+00 5.783846e-01
<VARIANCE> 12
 1.300959e+02 1.185587e+02 1.090240e+02 3.688972e+01 2.116854e+01 2.780946e+01 6.166481e+09 8.022426e+06 4.011460e+09 8.578925e+03 5.409460e+03 5.276363e+03
<GCONST> 1.331521e+02
<MIXTURE> 3 1.590555e-02
<MEAN> 12
 -3.129697e+02 1.007273e+03 8.587879e+01 9.947669e+01 3.689541e+01 4.319272e+01 4.913606e+05 4.576533e+06 1.518045e+05 1.595894e+03 3.411212e+02 1.372575e+02
<VARIANCE> 12
 1.087817e+04 2.081815e+03 2.668523e+04 1.332267e+03 3.995768e+02 3.958132e+02 1.070410e+11 1.846728e+11 3.191962e+10 1.263232e+07 2.338707e+06 1.859631e+07
<GCONST> 1.916281e+02
<STATE> 5
<NUMMIXES> 3
<MIXTURE> 1 1.000000e+00
<MEAN> 12
 9.398627e+02 2.158831e+02 -2.699382e+02 2.661417e+01 2.059825e+01 2.106275e+01 4.002982e+06 2.287255e+05 4.496915e+05 -9.031923e+02 -1.499704e+02 -4.217996e+02
<VARIANCE> 12
 5.863250e+03 4.292558e+03 2.681544e+04 1.937821e+03 8.085742e+02 8.105405e+02 4.996620e+11 3.492820e+09 1.299624e+10 9.815443e+06 3.352171e+06 1.768029e+07
<GCONST> 1.902663e+02
<STATE> 6
<NUMMIXES> 3
<MIXTURE> 3 1.000000e+00
<MEAN> 12
 9.328221e+02 2.100737e+02 -3.109064e+02 3.661865e+01 2.745815e+01 3.807489e+01 3.950450e+06 2.471030e+05 5.736657e+05 3.023605e+03 -3.599719e+03 -4.401703e+03
<VARIANCE> 12
 7.597750e+03 1.073653e+04 2.873541e+04 1.136292e+04 7.258009e+03 1.250841e+04 6.760694e+11 5.071018e+10 5.534489e+11 3.942452e+09 1.593539e+09 1.989693e+09
<GCONST> 2.218235e+02
<TRANSP> 7
 0.000000e+00 1.121039e-44 1.000000e+00 0.000000e+00 0.000000e+00 0.000000e+00 0.000000e+00
 0.000000e+00 0.000000e+00 1.000000e+00 0.000000e+00 0.000000e+00 0.000000e+00 0.000000e+00
 0.000000e+00 0.000000e+00 1.456900e-05 0.000000e+00 9.999855e-01 0.000000e+00 0.000000e+00
 0.000000e+00 0.000000e+00 0.000000e+00 9.391376e-01 5.941649e-02 1.445965e-03 0.000000e+00
 0.000000e+00 0.000000e+00 0.000000e+00 0.000000e+00 9.508905e-28 1.000000e+00 0.000000e+00
 0.000000e+00 0.000000e+00 0.000000e+00 0.000000e+00 0.000000e+00 9.444444e-01 5.555560e-02
 0.000000e+00 0.000000e+00 0.000000e+00 0.000000e+00 0.000000e+00 0.000000e+00 0.000000e+00
<ENDHMM>
