~o
<STREAMINFO> 1 12
<VECSIZE> 12<NULLD><MFCC><DIAGC>
~h "Activity105"
<BEGINHMM>
<NUMSTATES> 7
<STATE> 2
<NUMMIXES> 3
<MIXTURE> 1 2.220652e-01
<MEAN> 12
 -9.529188e+02 9.680557e+01 2.350767e+02 7.305295e+01 3.229115e+01 4.074663e+01 4.137814e+06 8.156357e+04 3.576498e+05 2.230920e+02 -1.858137e+02 -7.122561e+02
<VARIANCE> 12
 1.097216e+04 8.576466e+03 2.388308e+04 3.541860e+03 5.259749e+02 1.659984e+03 8.235355e+11 1.071349e+10 1.075076e+11 1.130005e+07 2.429236e+06 1.583696e+07
<GCONST> 1.958013e+02
<MIXTURE> 2 6.809018e-01
<MEAN> 12
 -8.316229e+02 3.230086e+02 5.010540e+02 8.355241e+00 8.051248e+00 1.006551e+01 3.114093e+06 4.798970e+05 1.145028e+06 -2.392421e+00 -4.466204e+00 -7.831401e+00
<VARIANCE> 12
 4.225304e+02 2.308717e+03 3.393963e+03 2.221181e+01 1.887792e+01 2.613216e+01 2.388092e+10 2.009217e+10 5.871734e+10 4.005520e+03 5.921029e+03 6.816708e+03
<GCONST> 1.515015e+02
<MIXTURE> 3 9.703307e-02
<MEAN> 12
 -7.104539e+02 -7.731563e+01 7.168753e+02 6.271109e+01 4.203743e+01 3.910699e+01 2.329845e+06 7.756170e+04 2.339416e+06 -2.616111e+02 1.302399e+03 -6.655070e+02
<VARIANCE> 12
 1.313439e+04 1.093173e+04 5.762959e+03 3.715099e+03 1.880145e+03 1.169286e+03 5.157573e+11 1.169458e+10 2.439544e+11 1.781778e+07 3.552122e+07 1.151681e+07
<GCONST> 1.990318e+02
<STATE> 3
<NUMMIXES> 3
<MIXTURE> 1 7.759604e-01
<MEAN> 12
 -9.815973e+02 1.439484e+02 1.675316e+02 7.350032e+00 7.256685e+00 9.468614e+00 4.336061e+06 9.499292e+04 1.402067e+05 -1.568463e+01 -2.004775e+01 8.349598e+00
<VARIANCE> 12
 3.381732e+01 3.891968e+02 3.089570e+03 1.487194e+01 1.543366e+01 2.367809e+01 2.643727e+09 9.637121e+08 2.463236e+09 2.358410e+03 4.191543e+03 3.925802e+03
<GCONST> 1.365643e+02
<MIXTURE> 2 1.821064e-01
<MEAN> 12
 -8.959964e+02 2.236027e+02 3.618575e+02 2.072324e+02 7.696573e+01 1.257146e+02 3.847747e+06 3.147227e+05 1.083417e+06 5.237247e+03 5.068248e+03 -4.973742e+03
<VARIANCE> 12
 4.015053e+04 1.855077e+04 1.080625e+05 4.500054e+04 3.679103e+03 1.271719e+04 2.997003e+12 1.114091e+11 1.504831e+12 1.279535e+09 2.183255e+08 4.321699e+09
<GCONST> 2.270122e+02
<MIXTURE> 3 4.193319e-02
<MEAN> 12
 -2.989774e+02 -3.770811e+01 7.622949e+02 9.361890e+01 5.869203e+01 1.027390e+02 5.418303e+05 1.207806e+06 2.748872e+06 -9.060055e+02 6.322993e+02 3.552105e+03
<VARIANCE> 12
 2.937003e+04 2.669945e+05 2.904105e+04 3.284259e+03 1.117459e+03 2.819897e+03 1.694877e+11 9.451259e+11 1.351914e+12 2.725336e+07 5.090297e+07 8.589234e+07
<GCONST> 2.126718e+02
<STATE> 4
<NUMMIXES> 3
<MIXTURE> 1 7.154177e-01
<MEAN> 12
 -9.650717e+02 8.705969e+01 2.758789e+02 7.547599e+00 7.666260e+00 9.357474e+00 4.191796e+06 3.692593e+04 3.501948e+05 -8.472933e+00 -1.626379e+01 2.296265e+00
<VARIANCE> 12
 1.430202e+02 6.250938e+02 1.707684e+03 2.148361e+01 1.554297e+01 2.528651e+01 1.073698e+10 3.024065e+08 1.132744e+10 2.847612e+03 4.379651e+03 4.188848e+03
<GCONST> 1.403934e+02
<MIXTURE> 2 2.686753e-01
<MEAN> 12
 -7.562634e+02 -3.037952e+01 6.784567e+02 9.212526e+00 8.957973e+00 9.658273e+00 2.574325e+06 4.712157e+03 2.071867e+06 -1.285856e+01 -7.413538e+00 6.004333e-01
<VARIANCE> 12
 1.302043e+02 1.186658e+02 1.090190e+02 3.690557e+01 2.116813e+01 2.780748e+01 6.171787e+09 8.023254e+06 4.011276e+09 8.579697e+03 5.409380e+03 5.281853e+03
<GCONST> 1.331562e+02
<MIXTURE> 3 1.590702e-02
<MEAN> 12
 -3.129697e+02 1.007273e+03 8.587879e+01 9.947669e+01 3.689542e+01 4.319272e+01 4.913606e+05 4.576533e+06 1.518045e+05 1.595894e+03 3.411212e+02 1.372576e+02
<VARIANCE> 12
 1.087816e+04 2.081812e+03 2.668519e+04 1.332265e+03 3.995769e+02 3.958125e+02 1.070409e+11 1.846725e+11 3.191959e+10 1.263230e+07 2.338704e+06 1.859628e+07
<GCONST> 1.916280e+02
<STATE> 5
<NUMMIXES> 3
<MIXTURE> 1 4.389398e-01
<MEAN> 12
 -9.419857e+02 1.696406e+02 1.908544e+02 8.616412e+01 4.575883e+01 6.070687e+01 4.083193e+06 2.008739e+05 4.514724e+05 -2.941323e+02 2.194175e+02 5.156105e+02
<VARIANCE> 12
 1.891391e+04 1.557108e+04 6.328916e+04 3.722363e+03 7.951279e+02 1.628005e+03 1.319168e+12 4.063911e+10 4.035259e+11 2.555690e+07 7.400663e+06 4.652686e+07
<GCONST> 2.044951e+02
<MIXTURE> 2 5.185449e-01
<MEAN> 12
 -9.378035e+02 1.532233e+02 2.626573e+02 1.383984e+01 9.585405e+00 1.221668e+01 3.983326e+06 1.498263e+05 4.827150e+05 -6.163633e+00 -2.029250e+01 1.115844e+01
<VARIANCE> 12
 5.691870e+03 9.810812e+03 3.827376e+04 1.331062e+02 2.875485e+01 6.561255e+01 3.662556e+11 2.905732e+10 3.203579e+11 3.236156e+04 1.303035e+04 3.725245e+04
<GCONST> 1.704759e+02
<MIXTURE> 3 4.251529e-02
<MEAN> 12
 -1.770935e+02 -3.735548e+02 8.901508e+02 6.137225e+01 6.817442e+01 6.204011e+01 1.927912e+05 1.003883e+06 3.619984e+06 -1.283895e+03 2.186029e+03 -1.021002e+03
<VARIANCE> 12
 1.159284e+04 8.312828e+04 1.206767e+04 1.431188e+03 1.093180e+03 9.447112e+02 2.551113e+10 3.731512e+11 7.831959e+11 1.800725e+07 1.889360e+07 9.015657e+06
<GCONST> 2.007224e+02
<STATE> 6
<NUMMIXES> 3
<MIXTURE> 1 9.887640e-01
<MEAN> 12
 -9.845180e+02 1.832251e+02 -1.795644e+01 6.732508e+00 6.947639e+00 8.654400e+00 4.362082e+06 1.667836e+05 5.607257e+03 -1.399803e+01 -1.258175e+01 1.845756e+00
<VARIANCE> 12
 7.443140e+01 3.489644e+03 9.194425e+02 1.453156e+01 1.484680e+01 2.137781e+01 5.834748e+09 9.398693e+09 1.495550e+07 2.168001e+03 3.280284e+03 2.783305e+03
<GCONST> 1.354624e+02
<MIXTURE> 3 1.123599e-02
<MEAN> 12
 -4.550462e+02 7.867591e+02 -3.566027e+01 3.084420e+02 9.953216e+01 4.538991e+02 1.961914e+06 3.730302e+06 9.546632e+05 -3.266517e+04 -6.838470e+04 1.882788e+05
<VARIANCE> 12
 2.077660e+05 2.057294e+05 9.504832e+04 3.737398e+04 5.776433e+03 1.543967e+05 5.966425e+12 8.458613e+12 2.294218e+12 3.720070e+09 1.377035e+10 8.186244e+10
<GCONST> 2.472886e+02
<TRANSP> 7
 0.000000e+00 4.959225e-01 5.040775e-01 0.000000e+00 0.000000e+00 0.000000e+00 0.000000e+00
 0.000000e+00 8.798125e-01 7.249632e-02 4.769109e-02 0.000000e+00 0.000000e+00 0.000000e+00
 0.000000e+00 0.000000e+00 8.064697e-01 3.243934e-02 1.610909e-01 0.000000e+00 0.000000e+00
 0.000000e+00 0.000000e+00 0.000000e+00 9.391369e-01 5.941692e-02 1.446096e-03 0.000000e+00
 0.000000e+00 0.000000e+00 0.000000e+00 0.000000e+00 6.423689e-01 7.947310e-02 2.781580e-01
 0.000000e+00 0.000000e+00 0.000000e+00 0.000000e+00 0.000000e+00 9.348322e-01 6.516778e-02
 0.000000e+00 0.000000e+00 0.000000e+00 0.000000e+00 0.000000e+00 0.000000e+00 0.000000e+00
<ENDHMM>
