~o
<STREAMINFO> 1 12
<VECSIZE> 12<NULLD><MFCC><DIAGC>
~h "Activity101"
<BEGINHMM>
<NUMSTATES> 7
<STATE> 2
<NUMMIXES> 3
<MIXTURE> 1 5.141683e-01
<MEAN> 12
 -1.979723e+01 1.032774e+03 1.008644e+02 3.966383e+01 2.060311e+01 3.748123e+01 4.079146e+04 4.801514e+06 1.235141e+05 1.735586e+02 7.163634e+01 -5.792013e+01
<VARIANCE> 12
 8.377696e+03 3.710127e+02 1.703322e+04 7.085182e+02 1.687028e+02 5.678777e+02 2.208156e+09 3.205970e+10 1.632426e+10 6.699669e+05 6.392004e+05 2.383184e+06
<GCONST> 1.754693e+02
<MIXTURE> 2 3.423388e-01
<MEAN> 12
 -4.272185e+01 9.827632e+02 2.434259e+02 1.165105e+02 6.332095e+01 1.008958e+02 1.337277e+05 4.403844e+06 5.859768e+05 1.117006e+03 9.023889e+02 -4.434797e+02
<VARIANCE> 12
 2.451882e+04 1.244623e+04 6.932712e+04 5.343237e+03 1.561487e+03 4.100984e+03 2.217475e+10 9.439149e+11 3.880397e+11 5.852740e+07 4.352665e+07 1.346914e+08
<GCONST> 2.092657e+02
<MIXTURE> 3 1.434930e-01
<MEAN> 12
 -8.310768e+01 9.371443e+02 3.582614e+02 2.811846e+02 1.909680e+02 3.177397e+02 5.502264e+05 4.349478e+06 1.647776e+06 1.218839e+04 2.900755e+04 -6.375574e+03
<VARIANCE> 12
 9.342977e+04 8.681055e+04 2.165538e+05 4.281030e+04 2.029790e+04 6.957024e+04 4.250349e+11 5.397292e+12 2.870574e+12 5.995910e+09 1.661576e+10 1.606441e+10
<GCONST> 2.432152e+02
<STATE> 3
<NUMMIXES> 3
<MIXTURE> 1 4.005104e-01
<MEAN> 12
 -1.100222e+01 9.581611e+02 1.473187e+02 1.143894e+01 8.537374e+00 1.145774e+01 3.627268e+04 4.135178e+06 7.304538e+05 -7.982742e+00 -1.001276e+01 4.378288e+00
<VARIANCE> 12
 7.929660e+03 8.541174e+02 1.406054e+05 4.703176e+01 2.027672e+01 4.192469e+01 2.186624e+09 6.386610e+10 5.256787e+10 7.598510e+03 7.554354e+03 1.376908e+04
<GCONST> 1.586997e+02
<MIXTURE> 2 3.678250e-01
<MEAN> 12
 -8.304456e+01 9.159718e+02 4.910055e+02 2.970560e+01 1.567313e+01 2.348934e+01 9.275777e+04 3.783970e+06 1.112426e+06 3.216069e+01 -8.541627e+01 -4.791944e+00
<VARIANCE> 12
 1.358792e+04 1.865936e+03 6.078052e+03 3.431207e+02 7.800646e+01 1.854567e+02 9.829948e+09 1.248962e+11 1.186718e+11 1.736440e+05 1.170666e+05 4.183042e+05
<GCONST> 1.739714e+02
<MIXTURE> 3 2.316645e-01
<MEAN> 12
 -1.027769e+02 8.954330e+02 4.223618e+02 6.962276e+01 3.589569e+01 5.140508e+01 1.928611e+05 3.636594e+06 1.191230e+06 1.694309e+02 -2.174401e+02 2.722385e+01
<VARIANCE> 12
 3.141733e+04 6.227304e+03 8.605855e+04 1.650503e+03 4.368581e+02 8.891966e+02 6.666771e+10 3.916458e+11 3.791651e+11 6.120152e+06 3.852048e+06 1.228266e+07
<GCONST> 1.981806e+02
<STATE> 4
<NUMMIXES> 3
<MIXTURE> 1 7.655228e-01
<MEAN> 12
 -2.735486e+01 1.039679e+03 -1.004333e+01 1.649648e+01 1.074980e+01 1.710322e+01 1.804871e+04 4.864518e+06 2.458445e+04 1.547811e+01 3.704065e+01 5.525895e+00
<VARIANCE> 12
 3.219247e+03 7.174731e+01 5.316373e+03 1.320466e+02 3.961857e+01 1.259010e+02 3.699976e+08 6.284784e+09 8.168032e+08 3.379351e+04 3.811582e+04 1.144205e+05
<GCONST> 1.518164e+02
<MIXTURE> 2 3.284320e-02
<MEAN> 12
 -6.350452e+01 7.649351e+02 3.861404e+02 4.468634e+02 2.891071e+02 5.303925e+02 1.019982e+06 3.650538e+06 3.401942e+06 8.541642e+03 1.434258e+05 7.827403e+04
<VARIANCE> 12
 1.347022e+05 2.150418e+05 4.421622e+05 1.559451e+05 8.027172e+04 4.122499e+05 3.062715e+12 8.930741e+12 2.521646e+13 6.783495e+10 3.732062e+11 8.889146e+11
<GCONST> 2.638516e+02
<MIXTURE> 3 2.016339e-01
<MEAN> 12
 -1.315869e+01 5.444741e+02 5.139863e+02 3.780402e+01 2.389153e+01 3.368436e+01 1.389081e+05 1.746230e+06 2.980758e+06 3.627673e+01 1.914978e+02 2.109914e+02
<VARIANCE> 12
 3.045688e+04 9.155179e+04 3.981287e+05 8.335912e+02 2.773156e+02 5.380654e+02 3.326630e+10 1.687717e+12 1.821670e+12 1.298554e+06 9.536925e+05 2.476698e+06
<GCONST> 1.985170e+02
<STATE> 5
<NUMMIXES> 3
<MIXTURE> 1 4.799405e-01
<MEAN> 12
 -1.097408e+02 9.998799e+02 2.244876e+02 2.793127e+01 1.475423e+01 2.412985e+01 1.219155e+05 4.502965e+06 3.421390e+05 4.975564e+01 -4.216307e+01 -2.518704e+00
<VARIANCE> 12
 1.494051e+04 8.926721e+02 2.556662e+04 3.335966e+02 6.958936e+01 2.171250e+02 1.633171e+10 7.143162e+10 6.426521e+10 1.467157e+05 1.112742e+05 4.385013e+05
<GCONST> 1.739444e+02
<MIXTURE> 2 1.739036e-01
<MEAN> 12
 -1.246431e+02 8.853002e+02 4.256180e+02 1.970269e+02 1.183248e+02 1.898026e+02 4.121522e+05 3.699101e+06 1.463584e+06 1.890141e+03 8.664521e+03 -2.609638e+03
<VARIANCE> 12
 6.673630e+04 3.748509e+04 1.411228e+05 1.765366e+04 7.724389e+03 2.216511e+04 2.626345e+11 2.085043e+12 1.555379e+12 8.783677e+08 2.511642e+09 2.413370e+09
<GCONST> 2.308639e+02
<MIXTURE> 3 3.461559e-01
<MEAN> 12
 -8.888927e+01 9.833931e+02 2.821820e+02 8.479291e+01 3.922382e+01 6.578400e+01 1.363510e+05 4.370974e+06 5.181463e+05 5.947542e+02 -1.468286e+02 -8.558843e+01
<VARIANCE> 12
 2.087743e+04 4.168959e+03 3.493717e+04 2.742501e+03 5.356979e+02 1.474686e+03 2.655825e+10 3.176398e+11 1.918211e+11 1.021464e+07 6.823250e+06 2.946472e+07
<GCONST> 1.978346e+02
<STATE> 6
<NUMMIXES> 3
<MIXTURE> 1 5.116005e-01
<MEAN> 12
 -4.413637e+01 1.028121e+03 9.665968e+01 1.102120e+01 9.210837e+00 1.231559e+01 4.086506e+04 4.757140e+06 1.286857e+05 -9.228434e+00 -8.270983e+00 -3.111309e+00
<VARIANCE> 12
 7.124092e+03 1.076532e+02 1.924621e+04 4.311734e+01 2.542160e+01 4.895559e+01 2.189172e+09 9.196633e+09 9.651084e+09 8.930531e+03 1.031285e+04 1.580100e+04
<GCONST> 1.518056e+02
<MIXTURE> 2 2.760061e-01
<MEAN> 12
 -1.462994e+02 8.363153e+02 6.085304e+02 1.829103e+01 1.060183e+01 1.523631e+01 1.278357e+05 3.159446e+06 1.690990e+06 -6.198725e+00 -3.639142e+01 -1.014284e+01
<VARIANCE> 12
 6.962934e+03 2.672166e+03 5.450240e+03 1.657986e+02 3.620858e+01 8.208795e+01 1.368142e+10 1.475892e+11 1.669890e+11 3.793459e+04 2.463579e+04 7.823332e+04
<GCONST> 1.673260e+02
<MIXTURE> 3 2.123934e-01
<MEAN> 12
 1.294921e+01 8.149407e+02 1.350993e+02 4.434562e+01 2.444980e+01 3.310130e+01 2.986712e+05 3.035075e+06 1.519871e+06 1.307545e+00 -6.114100e+01 1.180431e+02
<VARIANCE> 12
 6.582751e+04 1.026644e+04 3.193838e+05 1.096403e+03 2.880926e+02 5.181979e+02 9.096910e+10 5.033979e+11 4.526490e+11 1.629156e+06 1.178162e+06 3.210869e+06
<GCONST> 1.962554e+02
<TRANSP> 7
 0.000000e+00 5.539737e-01 4.460263e-01 0.000000e+00 0.000000e+00 0.000000e+00 0.000000e+00
 0.000000e+00 8.447557e-01 6.994047e-02 8.530376e-02 0.000000e+00 0.000000e+00 0.000000e+00
 0.000000e+00 0.000000e+00 8.725681e-01 1.587785e-02 1.115540e-01 0.000000e+00 0.000000e+00
 0.000000e+00 0.000000e+00 0.000000e+00 8.498307e-01 8.077201e-02 6.939724e-02 0.000000e+00
 0.000000e+00 0.000000e+00 0.000000e+00 0.000000e+00 8.525727e-01 3.154267e-02 1.158846e-01
 0.000000e+00 0.000000e+00 0.000000e+00 0.000000e+00 0.000000e+00 8.733744e-01 1.266256e-01
 0.000000e+00 0.000000e+00 0.000000e+00 0.000000e+00 0.000000e+00 0.000000e+00 0.000000e+00
<ENDHMM>
