~o
<STREAMINFO> 1 12
<VECSIZE> 12<NULLD><MFCC><DIAGC>
~h "Activity102"
<BEGINHMM>
<NUMSTATES> 7
<STATE> 2
<NUMMIXES> 3
<MIXTURE> 1 2.091176e-01
<MEAN> 12
 -6.054334e+01 9.413967e+02 3.443795e+02 2.270163e+02 1.646527e+02 2.522468e+02 4.477511e+05 4.431015e+06 1.508269e+06 -1.464145e+03 1.464469e+04 -8.620605e+03
<VARIANCE> 12
 8.316066e+04 9.719073e+04 2.072355e+05 2.129191e+04 1.100654e+04 2.738294e+04 2.348354e+11 5.307414e+12 2.176712e+12 1.641384e+09 2.324165e+09 4.152141e+09
<GCONST> 2.354225e+02
<MIXTURE> 2 3.907063e-01
<MEAN> 12
 -2.037829e+01 1.032098e+03 8.259131e+01 3.718914e+01 1.806798e+01 3.340197e+01 3.838858e+04 4.795335e+06 9.824179e+04 1.022578e+02 1.169983e+01 -3.559986e+01
<VARIANCE> 12
 7.869581e+03 4.044069e+02 1.482256e+04 6.482701e+02 1.147457e+02 4.764292e+02 1.929717e+09 3.479142e+10 1.314408e+10 4.039843e+05 3.479352e+05 1.682741e+06
<GCONST> 1.729723e+02
<MIXTURE> 3 4.001760e-01
<MEAN> 12
 -7.564655e+01 9.919240e+02 2.406366e+02 9.347343e+01 4.763463e+01 7.520012e+01 1.549270e+05 4.467738e+06 4.296223e+05 3.381500e+02 1.119836e+01 -6.794506e+02
<VARIANCE> 12
 2.669647e+04 8.764592e+03 3.677781e+04 3.701010e+03 9.021384e+02 2.453944e+03 3.345453e+10 6.757786e+11 1.758232e+11 2.022918e+07 1.235803e+07 5.310548e+07
<GCONST> 2.029701e+02
<STATE> 3
<NUMMIXES> 3
<MIXTURE> 1 2.123271e-01
<MEAN> 12
 -1.033510e+02 1.016681e+03 4.491971e+02 5.174520e+02 4.206573e+02 6.568420e+02 9.657363e+05 5.102904e+06 3.009046e+06 2.592090e+04 9.757468e+04 -6.057152e+04
<VARIANCE> 12
 1.243074e+05 9.399032e+04 3.756951e+05 9.845681e+04 6.572519e+04 1.507979e+05 1.028364e+12 8.064451e+12 9.623388e+12 6.886841e+10 1.325691e+11 1.415700e+11
<GCONST> 2.561014e+02
<MIXTURE> 2 3.811187e-01
<MEAN> 12
 -1.223729e+01 1.069170e+03 1.548175e+02 1.787583e+02 1.089778e+02 1.605193e+02 2.277589e+05 5.315352e+06 4.753820e+05 1.007533e+03 4.780282e+03 -1.417554e+03
<VARIANCE> 12
 4.234512e+04 3.692984e+04 7.704562e+04 1.074650e+04 3.533251e+03 9.079636e+03 5.618767e+10 3.367558e+12 2.986327e+11 3.062710e+08 2.545515e+08 7.236771e+08
<GCONST> 2.203577e+02
<MIXTURE> 3 4.065542e-01
<MEAN> 12
 1.456476e+01 1.043965e+03 9.379408e+01 9.371901e+01 4.909909e+01 7.399726e+01 6.490309e+04 4.920265e+06 1.103016e+05 2.360849e+02 1.472327e+02 -2.373576e+02
<VARIANCE> 12
 1.218324e+04 3.377725e+03 1.464856e+04 3.139815e+03 8.860831e+02 1.916162e+03 4.600716e+09 3.043203e+11 1.420641e+10 2.040652e+07 1.176671e+07 4.373520e+07
<GCONST> 1.943498e+02
<STATE> 4
<NUMMIXES> 3
<MIXTURE> 1 2.697587e-01
<MEAN> 12
 -1.361036e+01 1.477410e+03 2.581830e+02 6.402135e+02 4.291895e+02 5.126470e+02 1.641884e+06 1.020046e+07 1.218625e+06 1.970712e+05 -9.742569e+04 -1.648052e+05
<VARIANCE> 12
 2.716704e+05 6.294694e+04 1.334012e+05 8.183282e+04 4.980084e+04 6.342502e+04 2.035744e+12 1.195874e+13 1.243553e+12 7.443146e+10 3.564734e+10 7.378212e+10
<GCONST> 2.512617e+02
<MIXTURE> 2 3.247738e-01
<MEAN> 12
 -4.484809e+01 5.581405e+02 4.751005e+02 6.633356e+01 4.335299e+01 5.556004e+01 2.623872e+05 2.210002e+06 2.273361e+06 -7.155724e+02 1.783566e+02 4.955309e+02
<VARIANCE> 12
 5.546160e+04 1.794533e+05 2.791188e+05 2.126643e+03 9.997052e+02 1.610072e+03 1.143395e+11 2.120995e+12 1.830870e+12 9.872206e+06 7.104310e+06 1.541852e+07
<GCONST> 2.100825e+02
<MIXTURE> 3 4.054676e-01
<MEAN> 12
 -1.331449e+02 1.131034e+03 7.563315e+02 2.359419e+02 1.693453e+02 4.117642e+02 3.396614e+05 5.970584e+06 3.076750e+06 6.605242e+02 2.426296e+04 -4.252904e+04
<VARIANCE> 12
 4.845009e+04 4.879740e+04 1.003787e+05 1.722681e+04 8.696123e+03 2.973938e+04 1.139238e+11 4.485620e+12 5.144670e+12 1.035983e+09 3.767105e+09 6.311763e+09
<GCONST> 2.335136e+02
<STATE> 5
<NUMMIXES> 3
<MIXTURE> 1 2.672138e-01
<MEAN> 12
 3.884381e+01 1.504990e+03 -1.071247e+02 3.060706e+02 1.981786e+02 1.335212e+02 8.641421e+05 1.056592e+07 2.075084e+05 3.713542e+03 6.932391e+03 -2.018493e+03
<VARIANCE> 12
 1.580792e+05 7.599170e+04 3.037956e+04 3.891181e+04 1.017498e+04 4.818565e+03 5.750386e+11 1.416802e+13 3.981650e+10 3.152950e+09 7.158032e+08 1.501949e+09
<GCONST> 2.290201e+02
<MIXTURE> 2 2.959585e-01
<MEAN> 12
 -4.265089e+01 9.771583e+02 2.589559e+02 4.873626e+01 2.243239e+01 3.679040e+01 9.684985e+04 4.313000e+06 5.022426e+05 1.041223e+01 -2.256452e+01 4.403696e+01
<VARIANCE> 12
 1.930435e+04 3.588442e+03 4.438618e+04 9.216864e+02 1.673297e+02 4.984223e+02 1.493551e+10 2.710570e+11 2.093305e+11 8.643486e+05 5.299249e+05 2.629947e+06
<GCONST> 1.864189e+02
<MIXTURE> 3 4.368278e-01
<MEAN> 12
 -1.385507e+01 9.818766e+02 -1.725440e+02 1.071223e+02 1.241003e+02 7.707310e+01 3.422482e+05 4.632594e+06 5.830576e+05 1.038631e+03 4.481034e+03 -6.297316e+01
<VARIANCE> 12
 7.374032e+04 6.216632e+04 9.919880e+04 3.870346e+03 5.108577e+03 1.884333e+03 1.293836e+11 5.245751e+12 2.957125e+11 1.521404e+08 8.786098e+07 5.033225e+07
<GCONST> 2.162993e+02
<STATE> 6
<NUMMIXES> 3
<MIXTURE> 1 2.905049e-01
<MEAN> 12
 -1.322260e+02 9.266846e+02 5.486981e+02 5.628664e+02 4.669970e+02 7.869348e+02 1.065425e+06 4.520892e+06 4.244198e+06 1.420093e+04 7.740990e+04 -1.588872e+05
<VARIANCE> 12
 1.287072e+05 1.359171e+05 5.144217e+05 9.746990e+04 7.200334e+04 1.727210e+05 1.345255e+12 1.088692e+13 1.689241e+13 8.305195e+10 2.046909e+11 1.995280e+11
<GCONST> 2.591324e+02
<MIXTURE> 2 3.810285e-01
<MEAN> 12
 8.156844e+00 9.657149e+02 8.406940e+01 2.121748e+02 1.688101e+02 2.449464e+02 3.477502e+05 4.783352e+06 1.430064e+06 3.265306e+03 1.059319e+04 -6.575035e+03
<VARIANCE> 12
 6.485597e+04 1.271160e+05 2.988192e+05 1.837533e+04 1.077112e+04 2.611706e+04 1.231772e+11 1.176580e+13 2.935453e+12 1.215574e+09 1.901756e+09 2.660863e+09
<GCONST> 2.350961e+02
<MIXTURE> 3 3.284666e-01
<MEAN> 12
 -3.168971e+00 1.017008e+03 2.050603e+02 1.036540e+02 6.048857e+01 7.993144e+01 6.828159e+04 4.679990e+06 3.455462e+05 -1.111008e+02 -1.888337e+02 -1.856476e+02
<VARIANCE> 12
 1.214601e+04 5.353544e+03 3.364578e+04 4.740701e+03 1.551391e+03 2.630553e+03 5.516772e+09 4.510982e+11 1.313298e+11 4.679848e+07 2.476452e+07 6.752543e+07
<GCONST> 2.017355e+02
<TRANSP> 7
 0.000000e+00 6.889296e-01 3.110704e-01 0.000000e+00 0.000000e+00 0.000000e+00 0.000000e+00
 0.000000e+00 8.505955e-01 1.266566e-01 2.274803e-02 0.000000e+00 0.000000e+00 0.000000e+00
 0.000000e+00 0.000000e+00 8.417130e-01 9.210229e-02 6.618473e-02 0.000000e+00 0.000000e+00
 0.000000e+00 0.000000e+00 0.000000e+00 5.398327e-01 4.131652e-01 4.700222e-02 0.000000e+00
 0.000000e+00 0.000000e+00 0.000000e+00 0.000000e+00 6.215568e-01 2.914333e-01 8.700994e-02
 0.000000e+00 0.000000e+00 0.000000e+00 0.000000e+00 0.000000e+00 8.669990e-01 1.330011e-01
 0.000000e+00 0.000000e+00 0.000000e+00 0.000000e+00 0.000000e+00 0.000000e+00 0.000000e+00
<ENDHMM>
