~o
<STREAMINFO> 1 12
<VECSIZE> 12<NULLD><MFCC><DIAGC>
~h "Activity104"
<BEGINHMM>
<NUMSTATES> 7
<STATE> 2
<NUMMIXES> 3
<MIXTURE> 1 3.205760e-01
<MEAN> 12
 -3.948093e+02 -1.172383e+02 9.051532e+02 1.189522e+01 9.764063e+00 1.233905e+01 8.306476e+05 1.580209e+05 3.702440e+06 -4.431808e+00 2.210520e+00 -2.674248e+00
<VARIANCE> 12
 2.870440e+04 2.136918e+04 3.452536e+03 6.333764e+01 3.233918e+01 4.997058e+01 1.908644e+11 6.602872e+09 2.461306e+11 1.843779e+04 1.420938e+04 2.620019e+04
<GCONST> 1.663442e+02
<MIXTURE> 2 5.732468e-01
<MEAN> 12
 -1.418163e+02 5.450902e+02 8.723387e+02 9.585025e+00 8.394552e+00 1.031843e+01 1.408465e+05 1.341592e+06 3.426552e+06 -2.637996e+01 -1.017679e+01 1.634907e+01
<VARIANCE> 12
 1.117690e+04 1.005764e+03 4.757866e+02 3.519489e+01 2.184633e+01 3.241547e+01 1.468372e+10 2.391971e+10 2.886804e+10 6.409433e+03 6.936654e+03 1.034332e+04
<GCONST> 1.528263e+02
<MIXTURE> 3 1.061772e-01
<MEAN> 12
 -1.121736e+02 6.757047e+02 5.819611e+02 8.550710e+01 5.576250e+01 7.745753e+01 2.145067e+05 2.790158e+06 2.082207e+06 1.949629e+03 1.928074e+03 -2.015248e+01
<VARIANCE> 12
 3.202736e+04 1.631971e+05 1.227963e+05 7.743808e+03 4.420449e+03 7.741351e+03 1.050218e+11 3.646000e+12 2.608445e+12 2.469692e+08 2.592765e+08 1.021529e+09
<GCONST> 2.247875e+02
<STATE> 3
<NUMMIXES> 3
<MIXTURE> 1 5.251395e-01
<MEAN> 12
 -3.890961e+01 3.908045e+02 9.556161e+02 8.725129e+00 7.697363e+00 1.007835e+01 6.929209e+04 6.891936e+05 4.109808e+06 -1.157726e+01 -1.812542e+00 6.309075e-01
<VARIANCE> 12
 1.387686e+04 4.253159e+02 8.516521e+01 2.221426e+01 1.633849e+01 2.798585e+01 3.149924e+09 5.219767e+09 6.304880e+09 3.212653e+03 4.275111e+03 5.648375e+03
<GCONST> 1.432014e+02
<MIXTURE> 2 2.562715e-01
<MEAN> 12
 -5.167410e+01 4.441014e+02 9.335669e+02 9.044478e+00 8.098491e+00 9.613170e+00 5.159084e+04 8.894046e+05 3.922416e+06 -1.420327e+01 -2.629087e+00 2.730145e+00
<VARIANCE> 12
 8.788238e+03 4.177256e+02 9.920230e+01 2.700137e+01 1.844365e+01 2.684527e+01 1.329489e+09 6.730351e+09 6.978258e+09 4.133499e+03 4.549717e+03 5.343311e+03
<GCONST> 1.429057e+02
<MIXTURE> 3 2.185889e-01
<MEAN> 12
 -3.992464e+01 4.000672e+02 9.499755e+02 2.125235e+01 1.460032e+01 1.759920e+01 7.253016e+04 7.283518e+05 4.063485e+06 -7.646179e+01 9.802880e+01 3.755075e+01
<VARIANCE> 12
 1.444245e+04 1.781829e+03 5.083795e+02 1.434471e+02 5.419188e+01 9.526009e+01 4.778174e+09 2.339582e+10 3.694417e+10 1.008898e+05 8.059252e+04 1.252615e+05
<GCONST> 1.639171e+02
<STATE> 4
<NUMMIXES> 3
<MIXTURE> 1 4.398624e-01
<MEAN> 12
 -1.425591e+02 1.742672e+02 9.983221e+02 1.061797e+01 8.517569e+00 1.228496e+01 1.270207e+05 1.867962e+05 4.486213e+06 -2.877144e+01 7.727705e+00 9.976255e+00
<VARIANCE> 12
 7.892478e+03 1.113788e+04 2.818980e+02 4.249435e+01 2.105351e+01 5.073627e+01 1.346825e+10 2.491664e+10 2.282069e+10 7.517396e+03 9.765863e+03 1.586449e+04
<GCONST> 1.556077e+02
<MIXTURE> 2 1.640550e-01
<MEAN> 12
 -2.215384e+02 2.441980e+02 8.642273e+02 9.918078e+01 6.015714e+01 9.289358e+01 5.203642e+05 8.855986e+05 3.531214e+06 -7.199810e+01 3.081526e+03 1.250601e+03
<VARIANCE> 12
 6.495921e+04 1.368185e+05 3.686816e+04 4.617790e+03 1.406731e+03 3.891951e+03 5.153340e+11 1.061500e+12 1.693791e+12 4.920012e+07 5.666458e+07 1.330600e+08
<GCONST> 2.165181e+02
<MIXTURE> 3 3.960825e-01
<MEAN> 12
 -1.728536e+02 2.993100e+02 9.187993e+02 3.167175e+01 1.909481e+01 2.781167e+01 2.505405e+05 7.643992e+05 3.829922e+06 -1.886098e+02 2.168909e+02 1.890103e+02
<VARIANCE> 12
 2.561443e+04 8.024484e+04 6.798736e+03 4.016899e+02 1.429341e+02 3.338653e+02 9.607687e+10 3.715978e+11 4.546657e+11 4.267626e+05 3.383239e+05 1.011928e+06
<GCONST> 1.873870e+02
<STATE> 5
<NUMMIXES> 3
<MIXTURE> 1 6.655784e-01
<MEAN> 12
 1.135096e+02 3.602768e+02 9.621301e+02 1.131078e+01 9.064469e+00 1.067458e+01 9.989122e+04 5.856252e+05 4.166306e+06 -1.216806e+01 1.209377e+01 -2.118680e+00
<VARIANCE> 12
 9.296935e+03 3.368917e+02 1.490653e+02 5.114492e+01 2.509054e+01 3.323799e+01 5.283322e+09 3.582201e+09 1.119907e+10 1.114298e+04 7.949744e+03 1.489166e+04
<GCONST> 1.481111e+02
<MIXTURE> 2 3.110038e-01
<MEAN> 12
 -1.389548e+02 4.709961e+02 9.167513e+02 1.072278e+01 8.649981e+00 1.096077e+01 1.075591e+05 1.000764e+06 3.782878e+06 -2.832205e+01 -9.286010e-01 1.789037e+01
<VARIANCE> 12
 4.579174e+03 5.516620e+02 2.003170e+02 4.615879e+01 2.272025e+01 3.813382e+01 4.720377e+09 9.541683e+09 1.368705e+10 9.149052e+03 9.514033e+03 1.443576e+04
<GCONST> 1.491463e+02
<MIXTURE> 3 2.341779e-02
<MEAN> 12
 -1.572699e+02 6.114617e+02 5.392900e+02 1.899976e+02 1.311577e+02 2.114152e+02 6.543126e+05 2.988376e+06 2.064231e+06 8.760126e+03 2.625962e+04 3.740412e+03
<VARIANCE> 12
 1.096841e+05 2.897370e+05 1.515115e+05 2.742366e+04 1.381161e+04 5.976602e+04 9.634574e+11 6.101197e+12 3.361839e+12 1.893334e+09 1.239042e+10 8.085890e+09
<GCONST> 2.422076e+02
<STATE> 6
<NUMMIXES> 3
<MIXTURE> 1 6.244779e-01
<MEAN> 12
 -4.816182e+01 1.567172e+02 1.012668e+03 8.668615e+00 8.056799e+00 1.097813e+01 2.825606e+04 1.590460e+05 4.615778e+06 -1.909261e+01 -8.256357e+00 7.495877e+00
<VARIANCE> 12
 3.951027e+03 1.078003e+04 2.257743e+02 2.549720e+01 1.873968e+01 3.928530e+01 1.103962e+09 2.048745e+10 1.870535e+10 4.409397e+03 6.731188e+03 8.253440e+03
<GCONST> 1.493230e+02
<MIXTURE> 2 2.515123e-01
<MEAN> 12
 -1.983259e+02 5.719373e+02 8.460626e+02 1.364010e+01 1.037632e+01 1.192110e+01 2.071089e+05 1.478137e+06 3.226518e+06 -4.209819e+01 4.588387e+00 5.132222e+01
<VARIANCE> 12
 6.661500e+03 1.356200e+03 1.171952e+03 7.959671e+01 3.834393e+01 4.233092e+01 2.290825e+10 3.591525e+10 6.692523e+10 2.129772e+04 1.629268e+04 2.858273e+04
<GCONST> 1.599180e+02
<MIXTURE> 3 1.240098e-01
<MEAN> 12
 -1.178935e+02 5.709476e+02 6.230169e+02 4.022249e+01 2.617929e+01 3.809838e+01 2.265784e+05 2.251857e+06 2.448515e+06 -1.107666e+02 4.613109e+02 2.915483e+02
<VARIANCE> 12
 3.609845e+04 1.743359e+05 1.556645e+05 9.180944e+02 4.975748e+02 1.186924e+03 1.059861e+11 3.747363e+12 3.101744e+12 2.830818e+06 5.130480e+06 5.089717e+06
<GCONST> 2.055350e+02
<TRANSP> 7
 0.000000e+00 3.561186e-01 6.438814e-01 0.000000e+00 0.000000e+00 0.000000e+00 0.000000e+00
 0.000000e+00 8.295085e-01 1.183544e-02 1.586561e-01 0.000000e+00 0.000000e+00 0.000000e+00
 0.000000e+00 0.000000e+00 9.129643e-01 1.115282e-02 7.588293e-02 0.000000e+00 0.000000e+00
 0.000000e+00 0.000000e+00 0.000000e+00 8.173257e-01 3.590142e-02 1.467730e-01 0.000000e+00
 0.000000e+00 0.000000e+00 0.000000e+00 0.000000e+00 8.648919e-01 7.954592e-03 1.271535e-01
 0.000000e+00 0.000000e+00 0.000000e+00 0.000000e+00 0.000000e+00 8.762746e-01 1.237255e-01
 0.000000e+00 0.000000e+00 0.000000e+00 0.000000e+00 0.000000e+00 0.000000e+00 0.000000e+00
<ENDHMM>
