~o
<STREAMINFO> 1 15
<VECSIZE> 15<NULLD><MFCC><DIAGC>
~h "ActivityOther"
<BEGINHMM>
<NUMSTATES> 8
<STATE> 2
<NUMMIXES> 3
<MIXTURE> 1 3.994413e-01
<MEAN> 15
 -8.053851e+00 4.361493e+00 1.106686e+00 7.527749e-01 8.822307e-01 6.237994e-01 7.161284e+02 2.673954e-15 2.753158e+02 2.286932e-15 5.943794e+01 9.721163e-16 -3.941351e-02 2.750854e-02 -2.810219e-02
<VARIANCE> 15
 6.826355e+00 8.521427e+00 4.716627e+00 1.146984e-01 1.745134e-01 1.004773e-01 1.742780e+05 2.041115e-29 5.358945e+04 3.360491e-29 5.054200e+03 8.586005e-30 1.746215e-01 1.056140e-01 8.324812e-02
<GCONST> -1.465717e+02
<MIXTURE> 2 1.821153e-01
<MEAN> 15
 -9.207849e+00 4.040232e+00 1.727560e+00 3.526715e+00 3.134242e+00 2.260598e+00 1.070449e+03 7.296072e-14 3.250312e+02 3.440691e-14 1.076954e+02 1.898375e-14 -5.399206e-01 8.756171e-01 7.964795e-01
<VARIANCE> 15
 2.523922e+01 1.686571e+01 8.320424e+00 3.184086e+00 3.361604e+00 1.624004e+00 1.010055e+06 1.749308e-26 1.461658e+05 9.810916e-27 2.306951e+04 2.532550e-27 8.179581e+01 3.235777e+01 4.406337e+01
<GCONST> -9.440784e+01
<MIXTURE> 3 4.184434e-01
<MEAN> 15
 -8.753923e+00 4.099541e+00 1.336870e+00 1.595816e+00 1.627093e+00 1.206117e+00 8.856248e+02 1.226684e-14 2.942463e+02 8.240177e-15 7.608652e+01 4.317714e-15 -5.520247e-02 1.247608e-01 3.174981e-02
<VARIANCE> 15
 1.231584e+01 1.271223e+01 5.895001e+00 4.886971e-01 5.380644e-01 3.303023e-01 3.951826e+05 4.342654e-28 6.697958e+04 4.156465e-28 8.729509e+03 1.238606e-28 2.935366e+00 1.503268e+00 1.526058e+00
<GCONST> -1.233770e+02
<STATE> 3
<NUMMIXES> 3
<MIXTURE> 1 4.568847e-01
<MEAN> 15
 -2.697121e+00 2.111305e+00 3.960118e+00 8.666854e-01 1.396585e+00 9.269333e-01 1.942948e+02 4.924893e-15 5.173267e+02 9.387641e-15 3.116350e+02 4.751304e-15 2.369551e-02 -8.200558e-02 -1.764892e-01
<VARIANCE> 15
 1.234057e+01 4.754062e+01 1.564746e+01 2.103951e-01 5.138273e-01 2.169496e-01 4.071944e+04 6.289789e-29 2.179222e+05 4.026992e-28 7.940779e+04 8.188361e-29 9.641276e-01 1.126291e+00 4.593945e-01
<GCONST> -1.262542e+02
<MIXTURE> 2 4.359626e-01
<MEAN> 15
 -2.779166e+00 3.690149e+00 3.367888e+00 3.367029e-01 5.376304e-01 3.783793e-01 1.957059e+02 5.620265e-16 4.731592e+02 9.110219e-16 2.596301e+02 5.280679e-16 -1.715480e-03 -3.387665e-03 -1.729710e-02
<VARIANCE> 15
 1.186169e+01 3.370287e+01 1.462716e+01 2.930313e-02 7.619019e-02 3.169752e-02 4.079508e+04 1.127833e-30 1.075895e+05 7.263587e-30 5.951489e+04 1.595361e-30 1.686764e-02 2.084932e-02 9.200905e-03
<GCONST> -1.574214e+02
<MIXTURE> 3 1.071528e-01
<MEAN> 15
 -3.367312e+00 2.355182e+00 4.747162e+00 2.528740e+00 5.360557e+00 2.796938e+00 3.105304e+02 3.214845e-14 6.705535e+02 1.085934e-13 4.665063e+02 3.256028e-14 -4.773379e-01 -1.516652e+00 -2.290678e+00
<VARIANCE> 15
 2.066032e+01 6.241980e+01 2.501859e+01 2.322937e+00 2.541490e+01 2.989995e+00 1.823918e+05 5.613765e-27 9.479502e+05 2.238936e-25 2.257318e+05 1.161970e-26 2.453765e+02 1.255042e+03 5.842702e+01
<GCONST> -7.888840e+01
<STATE> 4
<NUMMIXES> 3
<MIXTURE> 1 4.634697e-01
<MEAN> 15
 -5.190022e+00 9.186394e+00 1.945551e+00 1.677980e+00 2.384574e+00 9.586387e-01 3.844643e+02 1.947228e-14 1.163472e+03 3.575705e-14 6.563219e+01 4.166424e-15 -1.663144e+00 1.984575e-01 1.402284e-01
<VARIANCE> 15
 1.225952e+01 3.301386e+01 2.874877e+00 7.351037e-01 1.940195e+00 2.416896e-01 1.536289e+05 8.714142e-28 9.719218e+05 4.065764e-27 5.482012e+03 7.220925e-29 1.185310e+01 3.123278e+00 1.672535e+00
<GCONST> -1.158459e+02
<MIXTURE> 2 1.266700e-01
<MEAN> 15
 -3.259923e+00 1.186168e+01 2.870675e+00 5.747569e+00 1.869081e+01 5.322935e+00 2.146927e+02 4.623207e-14 1.768868e+03 2.754184e-13 1.338717e+02 2.002205e-14 6.897411e-01 7.957632e+01 1.675052e+00
<VARIANCE> 15
 9.503218e+00 2.545616e+01 3.229325e+00 7.810053e+00 1.279923e+02 9.626662e+00 9.427269e+04 5.908024e-26 8.411554e+06 2.733294e-24 4.561338e+04 3.808922e-26 7.301262e+03 1.018973e+04 5.119432e+02
<GCONST> -6.498619e+01
<MIXTURE> 3 4.098603e-01
<MEAN> 15
 -9.269255e-01 6.406744e+00 1.297706e+00 6.894330e-01 9.267219e-01 5.769647e-01 3.660480e+01 3.156965e-15 5.292401e+02 4.190126e-15 3.661230e+01 1.514192e-15 -1.828716e-01 -6.315979e-02 1.714645e-03
<VARIANCE> 15
 2.917804e+00 1.197114e+01 2.019070e+00 1.402593e-01 2.163398e-01 6.582177e-02 1.932838e+03 2.368041e-29 1.242755e+05 6.561164e-29 1.802059e+03 9.386139e-30 3.040889e-01 1.553963e-01 9.947103e-02
<GCONST> -1.506033e+02
<STATE> 5
<NUMMIXES> 3
<MIXTURE> 1 3.198330e-01
<MEAN> 15
 -1.083787e+01 3.031597e+00 2.381166e+00 2.133966e+00 9.310360e-01 7.888141e-01 1.284946e+03 3.957772e-14 1.537981e+02 6.181432e-15 9.646013e+01 4.384716e-15 -4.232686e-01 1.766753e-01 -1.916638e-01
<VARIANCE> 15
 1.292043e+01 6.434162e+00 4.156158e+00 1.047597e+00 3.117748e-01 1.862756e-01 6.651806e+05 2.731967e-27 2.066712e+04 1.200532e-28 1.254313e+04 5.157444e-29 3.339457e+00 5.590573e-01 2.625798e+00
<GCONST> -1.256045e+02
<MIXTURE> 2 3.246294e-01
<MEAN> 15
 -7.984079e+00 2.860519e+00 3.148243e+00 6.410360e-01 7.486925e-01 5.278007e-01 7.572448e+02 2.194009e-15 1.596930e+02 2.868446e-15 1.836606e+02 1.399811e-15 -4.325712e-02 4.337844e-02 -6.031596e-02
<VARIANCE> 15
 1.204184e+01 7.877335e+00 8.500008e+00 9.666448e-02 1.238041e-01 5.526746e-02 2.885492e+05 1.261705e-29 2.329366e+04 2.326166e-29 4.473533e+04 5.424401e-30 1.439761e-01 8.325123e-02 7.365545e-02
<GCONST> -1.466157e+02
<MIXTURE> 3 3.555377e-01
<MEAN> 15
 -8.016238e+00 2.564045e+00 1.406335e+00 7.588321e-01 3.302986e-01 2.722064e-01 7.082532e+02 5.353847e-15 1.033868e+02 5.257060e-16 3.867094e+01 3.454417e-16 -2.806429e-02 1.103982e-02 -4.136797e-02
<VARIANCE> 15
 6.812574e+00 3.776687e+00 1.897864e+00 2.275665e-01 2.610485e-02 1.475534e-02 2.034668e+05 5.752316e-29 5.970417e+03 8.744854e-31 1.580363e+03 3.816512e-31 6.083472e-02 4.446501e-03 3.915749e-02
<GCONST> -1.653356e+02
<STATE> 6
<NUMMIXES> 3
<MIXTURE> 1 1.194840e-01
<MEAN> 15
 -8.399451e+00 5.134204e+00 3.182937e+00 5.404676e+00 7.028935e+00 4.707966e+00 1.105387e+03 1.597235e-13 9.711126e+02 2.285342e-13 4.811109e+02 8.300138e-14 -7.037785e+00 1.166444e+01 -7.853643e+00
<VARIANCE> 15
 4.552308e+01 7.860136e+01 4.004687e+01 9.804469e+00 2.675280e+01 9.042165e+00 1.904022e+06 1.290953e-25 2.188261e+06 5.645520e-25 5.128968e+05 8.557534e-26 1.339499e+03 1.921028e+03 7.636115e+02
<GCONST> -6.004657e+01
<MIXTURE> 2 3.658072e-01
<MEAN> 15
 -6.415259e+00 2.998495e+00 2.157741e+00 2.218637e+00 2.668873e+00 1.839353e+00 6.619427e+02 2.651252e-14 3.973386e+02 2.647379e-14 1.898156e+02 1.375088e-14 -2.371338e-01 2.296839e-01 -2.848838e-01
<VARIANCE> 15
 2.590468e+01 3.120402e+01 1.471300e+01 1.249851e+00 1.756389e+00 7.363220e-01 4.925409e+05 2.187544e-27 1.675825e+05 4.223457e-27 5.357759e+04 8.634024e-28 2.060138e+01 1.294108e+01 9.532622e+00
<GCONST> -1.031348e+02
<MIXTURE> 3 5.147088e-01
<MEAN> 15
 -6.374286e+00 3.996471e+00 1.853356e+00 9.851657e-01 1.190868e+00 8.760993e-01 5.667856e+02 4.762206e-15 3.783107e+02 4.328765e-15 1.159828e+02 2.201902e-15 -5.212294e-02 6.130181e-02 -6.467935e-02
<VARIANCE> 15
 1.619508e+01 2.188305e+01 8.185943e+00 2.299858e-01 3.274664e-01 1.984330e-01 2.191629e+05 6.977616e-29 1.142252e+05 1.257563e-28 1.600090e+04 3.710671e-29 6.554565e-01 4.551290e-01 3.305640e-01
<GCONST> -1.318943e+02
<STATE> 7
<NUMMIXES> 3
<MIXTURE> 1 1.905154e-01
<MEAN> 15
 -4.519371e+00 2.196463e+00 7.658718e+00 1.364590e+00 1.968021e+00 1.342714e+00 3.059165e+02 1.240780e-14 1.601202e+02 1.917754e-14 6.237885e+02 9.804550e-15 -4.135175e-02 -5.661530e-02 -8.830223e-01
<VARIANCE> 15
 1.068824e+01 1.177581e+01 4.046636e+00 5.522646e-01 1.433001e+00 5.468677e-01 8.931586e+04 4.218130e-28 4.231073e+04 3.012690e-27 9.857793e+04 4.093086e-28 5.820837e+00 6.417978e+00 4.209354e+00
<GCONST> -1.155901e+02
<MIXTURE> 2 4.429436e-01
<MEAN> 15
 -3.857930e+00 2.338704e+00 7.643420e+00 5.683494e-01 9.527216e-01 5.676289e-01 2.006494e+02 2.073834e-15 1.540069e+02 3.889810e-15 6.031689e+02 1.422659e-15 -4.734116e-02 -5.572662e-02 -3.536664e-02
<VARIANCE> 15
 5.263858e+00 1.003090e+01 1.932186e+00 6.937880e-02 1.944266e-01 6.484137e-02 2.826592e+04 9.252273e-30 3.029060e+04 8.259369e-29 4.301143e+04 8.663902e-30 1.659758e-01 1.601194e-01 6.528707e-02
<GCONST> -1.484025e+02
<MIXTURE> 3 3.665411e-01
<MEAN> 15
 -3.622039e+00 2.620142e+00 7.648499e+00 2.434835e-01 4.357326e-01 2.718897e-01 1.795550e+02 2.568687e-16 1.596812e+02 5.250448e-16 6.005630e+02 2.148334e-16 -1.170581e-03 -8.340071e-03 -4.147636e-03
<VARIANCE> 15
 4.843132e+00 9.099439e+00 1.558202e+00 1.281270e-02 4.826055e-02 1.358990e-02 2.215554e+04 2.570054e-31 2.661854e+04 2.918509e-30 3.314654e+04 3.430834e-31 5.337129e-03 6.118275e-03 1.977573e-03
<GCONST> -1.744310e+02
<TRANSP> 8
 0.000000e+00 4.369924e-01 5.630076e-01 0.000000e+00 0.000000e+00 0.000000e+00 0.000000e+00 0.000000e+00
 0.000000e+00 9.102463e-01 5.202585e-02 3.772785e-02 0.000000e+00 0.000000e+00 0.000000e+00 0.000000e+00
 0.000000e+00 0.000000e+00 8.642665e-01 4.775026e-02 8.798324e-02 0.000000e+00 0.000000e+00 0.000000e+00
 0.000000e+00 0.000000e+00 0.000000e+00 8.715354e-01 2.411265e-02 1.043520e-01 0.000000e+00 0.000000e+00
 0.000000e+00 0.000000e+00 0.000000e+00 0.000000e+00 8.748059e-01 7.845995e-02 4.673408e-02 0.000000e+00
 0.000000e+00 0.000000e+00 0.000000e+00 0.000000e+00 0.000000e+00 8.283004e-01 2.163952e-02 1.500601e-01
 0.000000e+00 0.000000e+00 0.000000e+00 0.000000e+00 0.000000e+00 0.000000e+00 9.457590e-01 5.424099e-02
 0.000000e+00 0.000000e+00 0.000000e+00 0.000000e+00 0.000000e+00 0.000000e+00 0.000000e+00 0.000000e+00
<ENDHMM>
