~o
<STREAMINFO> 1 15
<VECSIZE> 15<NULLD><MFCC><DIAGC>
~h "Activity2"
<BEGINHMM>
<NUMSTATES> 8
<STATE> 2
<NUMMIXES> 3
<MIXTURE> 1 1.645230e-01
<MEAN> 15
 -1.455930e+00 6.456734e+00 6.978965e+00 1.396676e-01 1.730789e-01 1.535322e-01 3.654685e+01 1.172265e-16 4.193006e+02 1.546469e-16 4.885543e+02 7.370721e-17 1.112539e-03 3.219337e-04 5.702768e-04
<VARIANCE> 15
 1.539349e+00 2.445693e-01 1.504645e-01 4.508253e-03 9.060840e-03 3.639295e-03 8.252698e+02 4.325712e-32 4.120643e+03 1.153029e-31 2.874290e+03 5.892211e-32 3.963951e-04 9.263737e-04 2.950474e-04
<GCONST> -2.063320e+02
<MIXTURE> 2 7.146780e-01
<MEAN> 15
 -1.743791e+00 6.351022e+00 7.061864e+00 7.589641e-02 8.066338e-02 1.064156e-01 4.397513e+01 6.497566e-18 4.044169e+02 7.778956e-18 4.994662e+02 3.238924e-18 1.438237e-03 -2.391289e-04 3.448963e-04
<VARIANCE> 15
 1.356470e+00 1.059221e-01 7.566126e-02 4.222079e-04 5.378407e-04 6.574829e-04 6.892834e+02 9.139796e-34 1.676142e+03 1.406173e-33 1.534780e+03 3.069899e-33 6.367212e-06 1.022335e-05 8.559348e-06
<GCONST> -2.399895e+02
<MIXTURE> 3 1.207988e-01
<MEAN> 15
 -4.726491e-01 8.287519e+00 4.624040e+00 6.945766e-02 7.865606e-02 1.018614e-01 4.099656e+01 3.892784e-18 6.880653e+02 8.811978e-18 2.208219e+02 6.879612e-18 1.221207e-03 -4.401626e-05 4.951629e-04
<VARIANCE> 15
 3.875914e+00 1.233717e-01 6.998975e-01 3.987166e-04 6.245988e-04 6.312330e-04 2.036383e+03 6.520559e-34 3.232556e+03 1.493095e-33 6.170269e+03 2.416957e-33 6.095915e-06 8.874448e-06 7.568581e-06
<GCONST> -2.342044e+02
<STATE> 3
<NUMMIXES> 3
<MIXTURE> 1 3.360505e-01
<MEAN> 15
 -1.576657e-01 8.143515e+00 2.360209e+00 7.997984e-02 7.963522e-02 1.093937e-01 1.592712e+00 1.219040e-17 8.758819e+02 8.471050e-18 7.923857e+01 1.248728e-17 1.157244e-03 -9.263357e-04 2.542754e-04
<VARIANCE> 15
 1.343540e-01 2.127116e+01 2.352762e+00 7.003359e-04 1.132217e-03 9.364310e-04 4.757589e+00 1.805584e-33 9.199979e+02 2.409047e-33 8.827673e+02 3.804269e-33 9.915352e-06 1.755166e-05 1.401422e-05
<GCONST> -2.351769e+02
<MIXTURE> 2 2.327278e-01
<MEAN> 15
 -7.239056e-01 4.302546e+00 4.015033e+00 5.694640e-01 1.118451e+00 8.470997e-01 1.498504e+02 2.237469e-15 5.048761e+02 7.842201e-15 3.068778e+02 5.733734e-15 6.777554e-02 9.966841e-02 -1.237961e-01
<VARIANCE> 15
 1.455537e+01 3.225766e+01 1.479112e+01 1.634432e-01 4.971888e-01 3.024544e-01 4.738401e+04 3.668585e-29 1.082436e+05 3.593217e-28 7.089848e+04 2.195597e-28 5.268846e-01 1.991733e+00 3.540344e-01
<GCONST> -1.271094e+02
<MIXTURE> 3 4.312218e-01
<MEAN> 15
 -2.120100e-01 4.060039e+00 3.902564e+00 1.879733e-01 3.520531e-01 2.701045e-01 1.161532e+02 1.679801e-16 5.834604e+02 5.451456e-16 2.515880e+02 3.818143e-16 1.020778e-03 1.320032e-03 -9.339148e-03
<VARIANCE> 15
 1.157497e+01 4.187142e+01 9.940468e+00 1.365505e-02 4.835759e-02 2.323439e-02 3.221847e+04 1.891212e-31 7.460843e+04 2.199451e-30 4.606027e+04 7.707324e-31 3.218280e-03 8.646348e-03 1.714073e-03
<GCONST> -1.679273e+02
<STATE> 4
<NUMMIXES> 3
<MIXTURE> 1 4.814183e-02
<MEAN> 15
 -3.547474e-01 6.585579e-01 3.887409e+00 1.807814e+00 3.073338e+00 2.495375e+00 7.359453e+01 4.866161e-14 7.208630e+02 2.099024e-14 2.403082e+02 8.298079e-15 9.234025e+00 1.105034e+01 6.835892e+00
<VARIANCE> 15
 1.034162e+01 7.564612e+01 1.463642e+01 2.034230e+01 1.752144e+01 2.096787e+01 1.063743e+05 1.579297e-25 5.261937e+05 3.051009e-26 1.576170e+05 1.317650e-26 3.518114e+03 1.444887e+04 6.326848e+03
<GCONST> -6.640505e+01
<MIXTURE> 2 5.840052e-01
<MEAN> 15
 -2.240103e+00 -4.836094e+00 6.821421e+00 7.143877e-02 7.278635e-02 1.040749e-01 5.219370e+01 2.665922e-18 4.106423e+02 5.544442e-18 4.671313e+02 6.355396e-18 1.682319e-03 2.230145e-04 2.983607e-04
<VARIANCE> 15
 2.008906e-01 1.767615e+01 1.805370e-01 3.539197e-04 3.906433e-04 6.141358e-04 4.440837e+02 8.133135e-34 6.150469e+03 8.964896e-34 3.554488e+03 3.064688e-33 3.903103e-06 7.780463e-06 7.100273e-06
<GCONST> -2.362945e+02
<MIXTURE> 3 3.678530e-01
<MEAN> 15
 -2.556144e-01 7.337742e+00 5.427353e+00 1.127252e-01 1.268617e-01 1.315700e-01 1.262238e+01 6.094709e-17 6.223940e+02 6.283163e-17 3.094815e+02 5.372305e-17 1.277315e-03 -1.933346e-03 9.285055e-04
<VARIANCE> 15
 1.199222e+00 8.398300e+00 1.493463e+00 2.295272e-03 3.645484e-03 2.074479e-03 4.546688e+02 1.415575e-32 1.892357e+04 2.497857e-32 1.622614e+04 1.712324e-32 7.895780e-05 9.141010e-05 8.678190e-05
<GCONST> -2.092744e+02
<STATE> 5
<NUMMIXES> 3
<MIXTURE> 1 3.144850e-01
<MEAN> 15
 -2.688404e+00 3.079980e+00 5.783707e+00 1.683739e-01 2.455540e-01 1.768789e-01 1.583881e+02 1.439809e-16 3.706899e+02 3.281971e-16 4.142795e+02 1.058569e-16 3.154456e-03 -3.920878e-03 -5.318345e-04
<VARIANCE> 15
 8.614989e+00 2.758877e+01 7.978410e+00 1.001343e-02 2.899402e-02 7.484847e-03 3.689789e+04 1.342784e-31 7.718568e+04 8.626342e-31 5.630255e+04 8.400111e-32 1.431299e-03 1.593934e-03 5.257211e-04
<GCONST> -1.776218e+02
<MIXTURE> 2 5.304260e-01
<MEAN> 15
 -2.996788e+00 4.020615e+00 8.066133e+00 8.029069e-02 8.265353e-02 1.000627e-01 9.554789e+01 8.643405e-18 1.896467e+02 9.750873e-18 6.516912e+02 6.339281e-18 1.418405e-03 -2.669743e-05 1.837648e-04
<VARIANCE> 15
 5.737419e-01 2.798866e+00 1.057934e-01 5.675845e-04 7.997813e-04 7.077735e-04 2.658439e+03 1.237850e-33 8.641005e+03 1.863453e-33 2.678251e+03 2.717513e-33 8.979961e-06 1.124080e-05 9.824581e-06
<GCONST> -2.318880e+02
<MIXTURE> 3 1.550891e-01
<MEAN> 15
 9.152571e+00 -4.021921e-01 3.202350e+00 9.146515e-02 2.488728e-01 1.837113e-01 8.377952e+02 5.619945e-18 4.476766e+00 3.398365e-16 1.036020e+02 1.696826e-16 2.571112e-03 7.719666e-03 -3.425895e-03
<VARIANCE> 15
 9.594257e-03 2.995673e-01 1.123244e-01 1.074769e-03 1.703620e-02 7.826268e-03 3.207643e+02 2.913356e-33 2.435403e+01 1.109281e-30 4.710629e+02 1.877878e-31 1.767530e-04 1.613792e-03 1.473826e-04
<GCONST> -2.196424e+02
<STATE> 6
<NUMMIXES> 3
<MIXTURE> 1 4.554774e-01
<MEAN> 15
 2.806355e-01 8.336063e+00 4.951224e+00 7.397620e-02 7.609300e-02 1.040209e-01 4.504917e+00 4.236370e-18 6.958443e+02 5.712364e-18 2.476878e+02 2.472409e-18 1.572110e-03 -9.361063e-05 6.361395e-04
<VARIANCE> 15
 3.714287e-01 9.410381e-02 2.531922e-01 4.315491e-04 4.437472e-04 6.763407e-04 3.859954e+01 9.202584e-34 2.617155e+03 1.082466e-33 2.380416e+03 3.005286e-33 4.997182e-06 8.835873e-06 8.702294e-06
<GCONST> -2.429829e+02
<MIXTURE> 2 4.433995e-01
<MEAN> 15
 -7.829525e-01 6.958294e+00 6.647932e+00 7.595035e-02 7.180393e-02 1.052105e-01 1.053585e+01 5.738175e-18 4.849278e+02 5.540534e-18 4.427372e+02 4.056922e-18 1.342182e-03 -1.395642e-04 3.605821e-04
<VARIANCE> 15
 4.402812e-01 7.475854e-02 7.757867e-02 4.671471e-04 4.166357e-04 6.973938e-04 1.522828e+02 1.200434e-33 1.435557e+03 9.291997e-34 1.370436e+03 2.983230e-33 5.199816e-06 7.937245e-06 9.221566e-06
<GCONST> -2.438630e+02
<MIXTURE> 3 1.011232e-01
<MEAN> 15
 -7.851883e+00 4.072181e+00 4.090203e+00 5.643614e-02 7.121899e-02 1.026647e-01 6.165313e+02 7.408880e-19 1.658536e+02 3.406482e-18 1.673665e+02 1.662570e-18 1.151203e-03 2.896461e-04 2.768014e-04
<VARIANCE> 15
 7.202665e-04 2.293125e-03 5.772111e-03 2.139444e-04 3.001567e-04 5.418997e-04 1.770919e+01 2.776074e-34 1.502750e+01 7.480734e-34 3.931599e+01 2.573760e-33 2.195174e-06 6.249303e-06 4.615935e-06
<GCONST> -2.716068e+02
<STATE> 7
<NUMMIXES> 3
<MIXTURE> 1 4.111606e-01
<MEAN> 15
 -1.983212e+00 -9.562797e+00 6.809961e-01 7.345712e-02 8.564343e-02 9.918437e-02 3.946024e+01 2.865738e-18 9.145048e+02 6.646422e-18 6.905027e+00 5.565510e-18 1.571373e-03 4.908080e-04 2.290802e-04
<VARIANCE> 15
 1.249521e-02 2.742531e-03 2.258817e-01 3.957830e-04 1.164236e-03 9.673735e-04 2.058837e+01 8.027358e-34 1.004542e+02 2.327894e-33 1.348810e+01 2.589868e-33 6.424013e-06 1.875697e-05 7.770465e-06
<GCONST> -2.564796e+02
<MIXTURE> 2 2.057907e-01
<MEAN> 15
 -6.148223e-01 2.928909e+00 3.102650e+00 3.964841e-01 7.413070e-01 5.192113e-01 1.094876e+02 8.361211e-16 5.669846e+02 4.537417e-15 2.881588e+02 1.639798e-15 -3.597148e-03 2.403043e-02 -8.759384e-02
<VARIANCE> 15
 1.059236e+01 4.830910e+01 1.925414e+01 9.438083e-02 3.879353e-01 1.122018e-01 2.384323e+04 6.410322e-30 1.044845e+05 3.012695e-28 7.080443e+04 1.980886e-29 2.021604e-01 2.712132e-01 7.145468e-02
<GCONST> -1.381503e+02
<MIXTURE> 3 3.830487e-01
<MEAN> 15
 -2.337959e+00 1.072288e+00 3.449315e+00 1.037943e-01 1.558903e-01 1.407708e-01 1.389631e+02 3.449035e-17 5.340401e+02 1.045022e-16 2.768970e+02 4.560508e-17 1.105407e-03 1.922263e-03 7.299204e-05
<VARIANCE> 15
 8.430927e+00 5.225699e+01 1.579190e+01 1.711123e-03 7.391199e-03 2.967789e-03 4.502646e+04 6.944319e-33 9.208166e+04 7.453426e-32 5.193424e+04 2.272189e-32 9.598696e-05 2.734977e-04 6.691697e-05
<GCONST> -1.933301e+02
<TRANSP> 8
 0.000000e+00 5.483416e-01 4.516584e-01 0.000000e+00 0.000000e+00 0.000000e+00 0.000000e+00 0.000000e+00
 0.000000e+00 9.252289e-01 9.666204e-03 6.510492e-02 0.000000e+00 0.000000e+00 0.000000e+00 0.000000e+00
 0.000000e+00 0.000000e+00 8.846729e-01 4.665445e-02 6.867266e-02 0.000000e+00 0.000000e+00 0.000000e+00
 0.000000e+00 0.000000e+00 0.000000e+00 7.823197e-01 6.096840e-02 1.567119e-01 0.000000e+00 0.000000e+00
 0.000000e+00 0.000000e+00 0.000000e+00 0.000000e+00 8.492794e-01 1.159734e-02 1.391233e-01 0.000000e+00
 0.000000e+00 0.000000e+00 0.000000e+00 0.000000e+00 0.000000e+00 9.298167e-01 9.393252e-03 6.079000e-02
 0.000000e+00 0.000000e+00 0.000000e+00 0.000000e+00 0.000000e+00 0.000000e+00 8.660448e-01 1.339552e-01
 0.000000e+00 0.000000e+00 0.000000e+00 0.000000e+00 0.000000e+00 0.000000e+00 0.000000e+00 0.000000e+00
<ENDHMM>
