~o
<STREAMINFO> 1 15
<VECSIZE> 15<NULLD><MFCC><DIAGC>
~h "Activity6"
<BEGINHMM>
<NUMSTATES> 8
<STATE> 2
<NUMMIXES> 3
<MIXTURE> 1 3.403120e-01
<MEAN> 15
 -2.715572e+00 4.959218e+00 7.866117e+00 1.654347e+00 1.626492e+00 1.205160e+00 8.147234e+01 3.869910e-15 2.523978e+02 2.397436e-15 6.231068e+02 6.212999e-16 -7.449192e-01 1.304542e+00 -5.136157e-02
<VARIANCE> 15
 6.687343e-01 5.052444e-01 3.377081e-01 3.284903e-01 2.775364e-01 1.463025e-01 2.306748e+03 4.048611e-28 5.325415e+03 2.785126e-28 8.480512e+03 5.396514e-29 1.290710e+00 9.145861e-01 6.458846e-01
<GCONST> -1.454328e+02
<MIXTURE> 2 3.269649e-01
<MEAN> 15
 -3.021627e+00 4.891631e+00 7.836262e+00 3.208494e+00 3.442562e+00 2.312026e+00 1.081643e+02 1.694524e-14 2.668819e+02 -1.114341e-16 6.212906e+02 1.867144e-15 -4.220530e+00 5.895935e+00 -4.783338e-01
<VARIANCE> 15
 1.717741e+00 1.113222e+00 5.241601e-01 1.132043e+00 1.507086e+00 5.713178e-01 1.175715e+04 6.006836e-27 1.562114e+04 5.582589e-27 1.428260e+04 9.615923e-28 2.445391e+01 1.615338e+01 8.423600e+00
<GCONST> -1.187858e+02
<MIXTURE> 3 3.327231e-01
<MEAN> 15
 -6.771594e+00 2.510846e+00 6.514365e+00 1.399157e+00 1.216538e+00 9.433963e-01 4.699444e+02 3.085292e-15 8.213039e+01 2.215959e-15 4.319505e+02 1.064088e-15 3.161083e-01 2.731363e-01 5.130745e-03
<VARIANCE> 15
 1.079835e+00 1.899001e+00 7.040316e-01 4.110511e-01 3.286200e-01 1.193245e-01 2.139773e+04 2.822495e-28 3.946297e+03 8.954670e-29 1.038738e+04 2.622082e-29 9.550760e-01 4.316126e-01 4.779062e-01
<GCONST> -1.441456e+02
<STATE> 3
<NUMMIXES> 3
<MIXTURE> 1 2.172453e-01
<MEAN> 15
 -4.589797e+00 1.897101e+00 7.873310e+00 8.074478e+00 5.340642e+00 3.787749e+00 3.185741e+02 7.256044e-14 1.022125e+02 2.692339e-14 6.630792e+02 3.352188e-15 -2.087351e+00 3.690650e+00 -3.277020e+00
<VARIANCE> 15
 9.258212e+00 5.404461e+00 2.394402e+00 1.232033e+01 4.986322e+00 2.426943e+00 3.768805e+05 2.803420e-25 6.580234e+04 5.354513e-26 6.893927e+04 1.024013e-26 7.450492e+02 1.770903e+02 4.428629e+02
<GCONST> -8.424950e+01
<MIXTURE> 2 4.226345e-01
<MEAN> 15
 -5.837055e+00 1.003179e+00 7.489867e+00 4.071817e+00 3.110792e+00 2.406833e+00 3.785629e+02 1.586399e-14 4.215993e+01 1.079785e-14 5.776182e+02 6.268303e-15 2.547564e+00 5.346021e-01 5.971277e-01
<VARIANCE> 15
 2.906598e+00 2.872347e+00 1.523134e+00 2.182742e+00 1.432904e+00 8.081479e-01 4.559055e+04 1.308737e-26 6.310339e+03 3.912666e-27 3.225675e+04 1.178352e-27 4.024475e+01 1.847308e+01 2.456628e+01
<GCONST> -1.116995e+02
<MIXTURE> 3 3.601202e-01
<MEAN> 15
 -5.383519e+00 1.107613e+00 7.935653e+00 2.164609e+00 1.748874e+00 1.456345e+00 3.050265e+02 5.227840e-15 2.911813e+01 4.339271e-15 6.377866e+02 2.322653e-15 3.077330e-01 3.294011e-01 2.045272e-01
<VARIANCE> 15
 1.145699e+00 1.617137e+00 6.973222e-01 6.857052e-01 4.410395e-01 2.643374e-01 1.413042e+04 1.007558e-27 1.241465e+03 2.658125e-28 1.738956e+04 1.169966e-28 3.453366e+00 1.644249e+00 2.341586e+00
<GCONST> -1.356433e+02
<STATE> 4
<NUMMIXES> 3
<MIXTURE> 1 2.832564e-01
<MEAN> 15
 -8.241147e+00 1.113463e+00 4.861965e+00 4.092136e+00 3.113959e+00 3.011172e+00 7.139601e+02 1.531189e-14 4.944532e+01 1.164081e-14 2.705734e+02 8.786321e-15 3.916465e+00 5.562171e-01 4.735028e+00
<VARIANCE> 15
 2.418385e+00 3.721645e+00 3.056931e+00 2.111877e+00 1.508173e+00 1.248425e+00 7.283936e+04 1.694069e-26 1.120258e+04 6.121281e-27 3.068834e+04 4.157547e-27 6.973958e+01 2.367209e+01 5.343263e+01
<GCONST> -1.059407e+02
<MIXTURE> 2 3.951195e-01
<MEAN> 15
 -8.891344e+00 -1.097302e-02 4.096781e+00 1.763089e+00 1.368028e+00 1.618837e+00 7.984927e+02 4.406153e-15 1.597747e+01 1.517121e-15 1.813947e+02 4.092362e-15 7.045863e-01 1.016974e-01 9.776076e-01
<VARIANCE> 15
 5.740457e-01 1.477812e+00 1.363950e+00 5.275203e-01 2.814980e-01 4.227648e-01 1.925212e+04 5.994241e-28 5.528624e+02 1.382615e-28 8.348444e+03 2.779383e-28 2.213288e+00 1.260320e+00 2.468493e+00
<GCONST> -1.381944e+02
<MIXTURE> 3 3.216242e-01
<MEAN> 15
 -6.941948e+00 2.505077e+00 6.361628e+00 2.328868e+00 2.050820e+00 1.561840e+00 4.940973e+02 6.352361e-15 7.944106e+01 4.022597e-15 4.125025e+02 2.266930e-15 1.237655e+00 5.514697e-01 7.486145e-01
<VARIANCE> 15
 9.110150e-01 1.501967e+00 6.496265e-01 7.459260e-01 6.476045e-01 3.065797e-01 1.823925e+04 1.401964e-27 4.165185e+03 4.692057e-28 9.958018e+03 1.774807e-28 7.040268e+00 2.889869e+00 2.942955e+00
<GCONST> -1.316724e+02
<STATE> 5
<NUMMIXES> 3
<MIXTURE> 1 5.476355e-02
<MEAN> 15
 -6.216782e+00 1.667436e+00 7.204978e+00 1.265101e+01 9.627173e+00 9.388442e+00 6.290690e+02 1.101208e-13 3.082856e+02 1.341999e-13 8.062428e+02 7.595212e-14 9.118542e+00 3.339268e+01 -1.823002e+01
<VARIANCE> 15
 1.690375e+01 1.124726e+01 9.833758e+00 4.866777e+01 2.328551e+01 4.418192e+01 1.411923e+06 1.545364e-24 5.368875e+05 7.261710e-25 3.170540e+06 6.051244e-25 1.041863e+04 7.958923e+03 7.729758e+03
<GCONST> -5.074071e+01
<MIXTURE> 2 4.312243e-01
<MEAN> 15
 -4.456706e+00 4.060034e+00 7.504473e+00 1.909670e+00 1.870575e+00 1.499270e+00 2.149607e+02 8.831666e-15 1.886145e+02 2.066964e-15 5.738267e+02 2.120889e-15 -6.983780e-01 1.700743e+00 -3.812108e-01
<VARIANCE> 15
 1.690107e+00 2.023909e+00 9.011453e-01 4.945066e-01 5.544311e-01 2.925187e-01 1.283876e+04 8.793087e-28 1.156286e+04 4.332174e-28 2.110547e+04 1.817295e-28 3.000366e+00 2.714636e+00 2.031044e+00
<GCONST> -1.314301e+02
<MIXTURE> 3 5.140122e-01
<MEAN> 15
 -4.349892e+00 3.870505e+00 7.604718e+00 8.871289e-01 8.725876e-01 7.188976e-01 2.126056e+02 1.414244e-15 1.743868e+02 9.736039e-16 5.858194e+02 7.668414e-16 -8.942372e-02 2.558593e-01 -3.487582e-02
<VARIANCE> 15
 2.295280e+00 2.411114e+00 7.292786e-01 1.261419e-01 1.076079e-01 6.342173e-02 1.506382e+04 4.031014e-29 1.205270e+04 2.251811e-29 1.695368e+04 8.262165e-30 1.306024e-01 1.056716e-01 8.988219e-02
<GCONST> -1.543411e+02
<STATE> 6
<NUMMIXES> 3
<MIXTURE> 1 4.068136e-01
<MEAN> 15
 -4.081294e+00 2.914644e+00 8.128200e+00 3.834195e+00 4.100737e+00 2.741657e+00 1.855635e+02 2.749413e-14 1.296447e+02 3.916837e-16 6.717532e+02 5.636603e-15 -1.037889e+00 6.986524e+00 -8.898585e-01
<VARIANCE> 15
 2.044829e+00 2.927488e+00 7.624804e-01 1.504256e+00 2.190311e+00 7.949306e-01 1.901705e+04 1.023074e-26 2.287841e+04 6.801346e-27 2.143167e+04 1.647789e-27 4.001877e+01 3.567873e+01 2.022015e+01
<GCONST> -1.115839e+02
<MIXTURE> 2 1.987177e-01
<MEAN> 15
 -4.674183e+00 2.618176e+00 7.421331e+00 6.612422e+00 5.918419e+00 4.293732e+00 3.395424e+02 4.620101e-14 1.706037e+02 7.549608e-15 6.087766e+02 1.116729e-14 -3.480357e+00 1.353505e+01 -1.381636e+00
<VARIANCE> 15
 9.234041e+00 6.428081e+00 4.610157e+00 8.918088e+00 7.470565e+00 4.286203e+00 2.423005e+05 1.703574e-25 1.072240e+05 5.819517e-26 1.110323e+05 2.131533e-26 4.794391e+02 4.952291e+02 2.766115e+02
<GCONST> -8.181539e+01
<MIXTURE> 3 3.944688e-01
<MEAN> 15
 -4.259126e+00 2.637073e+00 8.151053e+00 2.290856e+00 2.348275e+00 1.666218e+00 1.986198e+02 6.750092e-15 9.143686e+01 3.373980e-15 6.726172e+02 2.168421e-15 -1.495873e-01 1.945082e+00 -2.849813e-01
<VARIANCE> 15
 1.455887e+00 1.934008e+00 6.948077e-01 6.270279e-01 6.984386e-01 2.653287e-01 1.203440e+04 1.221714e-27 6.770817e+03 5.471446e-28 1.841375e+04 1.764229e-28 4.192395e+00 3.364828e+00 2.447377e+00
<GCONST> -1.309818e+02
<STATE> 7
<NUMMIXES> 3
<MIXTURE> 1 2.049653e-01
<MEAN> 15
 -5.004629e+00 3.283471e+00 6.775286e+00 2.464417e+00 2.943086e+00 1.714052e+00 3.219209e+02 1.417896e-14 2.321211e+02 1.201881e-14 5.138845e+02 1.165744e-14 -9.411346e-01 5.729581e-01 1.215835e-01
<VARIANCE> 15
 7.151609e+00 1.214025e+01 5.917299e+00 1.293907e+00 2.395800e+00 6.640837e-01 6.926332e+04 2.976223e-27 9.322516e+04 3.520047e-27 1.351358e+05 1.167182e-27 3.030930e+01 1.444865e+01 7.737873e+00
<GCONST> -1.069431e+02
<MIXTURE> 2 2.368830e-01
<MEAN> 15
 -5.660584e+00 2.978511e+00 5.596228e+00 9.013942e-01 9.435793e-01 7.854347e-01 4.518622e+02 2.497588e-15 1.835997e+02 2.452090e-15 3.521890e+02 2.084149e-15 -6.984273e-02 1.142022e-01 1.880455e-02
<VARIANCE> 15
 1.313428e+01 9.495175e+00 3.944123e+00 1.997974e-01 2.263304e-01 1.360211e-01 8.537512e+04 4.594691e-29 4.959973e+04 4.578993e-29 5.420138e+04 2.370778e-29 2.100855e-01 2.186500e-01 2.142252e-01
<GCONST> -1.392943e+02
<MIXTURE> 3 5.581517e-01
<MEAN> 15
 -4.985728e+00 1.424068e+00 8.179289e+00 1.689242e+00 1.517429e+00 1.052192e+00 2.559720e+02 4.644378e-15 3.041108e+01 2.956525e-15 6.726030e+02 2.006252e-15 1.139742e-01 3.681620e-01 -1.069386e-01
<VARIANCE> 15
 6.355306e-01 9.955205e-01 3.729970e-01 4.111004e-01 3.962271e-01 1.252699e-01 7.129871e+03 5.297352e-28 9.155246e+02 1.588108e-28 9.969743e+03 4.703373e-29 1.340942e+00 6.933556e-01 8.127100e-01
<GCONST> -1.451909e+02
<TRANSP> 8
 0.000000e+00 2.936570e-01 7.063430e-01 0.000000e+00 0.000000e+00 0.000000e+00 0.000000e+00 0.000000e+00
 0.000000e+00 8.973127e-01 6.075765e-02 4.192964e-02 0.000000e+00 0.000000e+00 0.000000e+00 0.000000e+00
 0.000000e+00 0.000000e+00 8.731452e-01 4.565278e-02 8.120203e-02 0.000000e+00 0.000000e+00 0.000000e+00
 0.000000e+00 0.000000e+00 0.000000e+00 9.225528e-01 1.409095e-02 6.335631e-02 0.000000e+00 0.000000e+00
 0.000000e+00 0.000000e+00 0.000000e+00 0.000000e+00 8.490149e-01 9.802330e-02 5.296176e-02 0.000000e+00
 0.000000e+00 0.000000e+00 0.000000e+00 0.000000e+00 0.000000e+00 8.792424e-01 2.161289e-02 9.914478e-02
 0.000000e+00 0.000000e+00 0.000000e+00 0.000000e+00 0.000000e+00 0.000000e+00 9.064815e-01 9.351848e-02
 0.000000e+00 0.000000e+00 0.000000e+00 0.000000e+00 0.000000e+00 0.000000e+00 0.000000e+00 0.000000e+00
<ENDHMM>
