~o
<STREAMINFO> 1 15
<VECSIZE> 15<NULLD><MFCC><DIAGC>
~h "Activity5"
<BEGINHMM>
<NUMSTATES> 8
<STATE> 2
<NUMMIXES> 3
<MIXTURE> 1 2.634984e-01
<MEAN> 15
 -1.782578e+01 2.755617e+01 -3.068063e+00 1.453638e+01 2.605516e+01 5.795695e+00 4.326985e+03 1.035032e-12 7.900491e+03 5.373989e-12 3.914326e+02 3.021247e-13 -3.235074e+02 -8.280178e+01 3.669060e+01
<VARIANCE> 15
 1.555395e+02 2.909763e+02 4.532567e+01 3.128042e+01 8.983274e+01 1.282729e+01 2.457173e+07 1.612912e-24 4.302725e+07 2.477971e-23 4.371038e+05 4.281695e-25 5.162989e+04 3.404695e+04 5.167854e+03
<GCONST> -3.293167e+01
<MIXTURE> 2 4.166921e-01
<MEAN> 15
 -2.013626e+00 -3.218950e-02 -5.939897e-01 2.221480e+00 3.519105e+00 1.208564e+00 1.007200e+03 3.929903e-14 4.320952e+02 9.941086e-14 5.671926e+01 1.183426e-14 -5.122786e+00 1.357321e+00 3.258551e-01
<VARIANCE> 15
 9.835666e+01 4.746809e+01 5.861543e+00 1.296702e+00 3.820191e+00 6.191989e-01 5.409764e+05 3.175862e-27 1.972518e+05 1.241983e-26 7.308518e+03 3.732954e-28 4.869607e+01 2.402877e+01 6.033625e+00
<GCONST> -1.017615e+02
<MIXTURE> 3 3.198095e-01
<MEAN> 15
 -1.182925e+01 1.645643e+01 6.075022e-01 6.122087e+00 1.055887e+01 2.034825e+00 2.198878e+03 2.299570e-13 4.700978e+03 7.764512e-13 1.154671e+02 2.615492e-14 -4.687237e+01 5.530548e+00 -4.439674e+00
<VARIANCE> 15
 8.672415e+01 2.309361e+02 1.246378e+01 8.468019e+00 2.281976e+01 8.160755e-01 3.168655e+06 1.273313e-25 2.277581e+07 9.442767e-25 2.709187e+04 2.068578e-27 2.731874e+03 2.898899e+02 1.123301e+02
<GCONST> -6.860808e+01
<STATE> 3
<NUMMIXES> 3
<MIXTURE> 1 4.035051e-01
<MEAN> 15
 -1.119676e+01 1.963473e+01 7.701931e+00 4.977340e+00 8.838728e+00 3.168441e+00 1.530780e+03 1.988341e-13 4.311149e+03 6.129810e-13 7.225830e+02 8.249486e-14 -3.287538e+01 2.709361e+01 -1.150582e+01
<VARIANCE> 15
 3.699874e+01 7.420969e+01 1.662914e+01 3.673872e+00 9.434820e+00 2.338896e+00 1.533462e+06 4.114665e-26 1.165790e+07 3.750291e-25 5.123687e+05 1.144245e-26 9.497789e+02 4.461157e+02 1.296849e+02
<GCONST> -7.025224e+01
<MIXTURE> 2 3.054431e-01
<MEAN> 15
 2.954644e-02 -2.425578e+00 1.598134e-02 1.357162e+00 2.195380e+00 9.863935e-01 5.257535e+02 1.291798e-14 3.521285e+02 3.369460e-14 4.048488e+01 6.463820e-15 -2.471573e+00 1.917091e+00 -8.690275e-01
<VARIANCE> 15
 5.306393e+01 3.063050e+01 4.264828e+00 4.158385e-01 1.533446e+00 2.737353e-01 5.671817e+04 3.040871e-28 1.571291e+05 2.135977e-27 1.950286e+03 1.050315e-28 6.383259e+00 5.132037e+00 1.261022e+00
<GCONST> -1.203204e+02
<MIXTURE> 3 2.910518e-01
<MEAN> 15
 -3.150376e+00 5.234015e+00 2.847972e+00 2.896271e+00 5.690080e+00 2.125116e+00 5.396507e+02 6.307457e-14 5.020919e+02 2.475341e-13 1.443602e+02 3.268053e-14 -1.569613e+01 1.143021e+01 -5.282834e+00
<VARIANCE> 15
 4.716565e+01 3.518014e+01 7.869434e+00 1.055728e+00 5.081261e+00 5.865329e-01 2.976915e+05 2.033312e-27 4.154441e+05 3.667943e-26 4.126203e+04 8.212552e-28 8.933545e+01 5.756398e+01 1.205724e+01
<GCONST> -9.699931e+01
<STATE> 4
<NUMMIXES> 3
<MIXTURE> 1 2.437003e-01
<MEAN> 15
 -1.305178e+01 2.571363e+01 1.564342e+00 8.674622e+00 1.383475e+01 2.094916e+00 2.323515e+03 5.015811e-13 6.776445e+03 1.255527e-12 9.708179e+01 2.617817e-14 -9.267867e+01 1.916443e+01 -1.353713e+01
<VARIANCE> 15
 8.427847e+01 6.470469e+01 8.312141e+00 6.526882e+00 2.107716e+01 8.761568e-01 6.137654e+06 3.692984e-25 1.841716e+07 2.507103e-24 1.192566e+04 1.978216e-27 2.858155e+03 6.664849e+02 1.995593e+02
<GCONST> -6.750571e+01
<MIXTURE> 2 3.890296e-01
<MEAN> 15
 -1.085490e+00 1.563670e-01 -1.202530e-01 8.741093e-01 1.569088e+00 4.116901e-01 6.755134e+02 5.875542e-15 1.542227e+02 1.932240e-14 6.131823e+00 7.806403e-16 -1.287412e+00 1.582467e-01 -8.421597e-02
<VARIANCE> 15
 6.659443e+01 1.599863e+01 6.162446e-01 2.665347e-01 1.049779e+00 4.370848e-02 7.412840e+04 6.688263e-29 1.854592e+04 8.973724e-28 8.419105e+01 2.746120e-30 2.776989e+00 3.903546e-01 9.332962e-02
<GCONST> -1.423851e+02
<MIXTURE> 3 3.672701e-01
<MEAN> 15
 -5.474890e+00 1.354568e+01 -4.763138e-01 2.931218e+00 6.918745e+00 7.326681e-01 8.704938e+02 6.413996e-14 2.673791e+03 3.782915e-13 1.380790e+01 3.508538e-15 -1.500961e+01 -1.154366e+00 -7.063307e-01
<VARIANCE> 15
 5.894668e+01 1.023318e+02 1.309450e+00 3.230223e+00 6.399166e+00 1.190084e-01 6.486787e+05 6.933078e-27 1.220406e+07 1.038869e-25 3.591096e+02 3.375206e-29 2.819182e+02 2.420667e+01 4.433915e+00
<GCONST> -9.997460e+01
<STATE> 5
<NUMMIXES> 3
<MIXTURE> 1 2.216773e-01
<MEAN> 15
 -1.655476e+01 3.939102e+01 -9.665801e+00 1.824276e+01 3.297197e+01 9.748798e+00 3.724800e+03 1.503551e-12 1.448092e+04 5.714230e-12 1.101832e+03 4.948770e-13 -4.697018e+02 -2.595681e+02 1.223139e+02
<VARIANCE> 15
 1.465324e+02 1.168096e+02 3.606567e+01 3.885163e+01 4.901830e+01 2.683232e+01 2.802550e+07 8.774048e-24 1.130767e+08 5.034004e-23 1.920088e+06 1.182052e-24 7.007325e+04 5.106439e+04 1.563583e+04
<GCONST> -2.596989e+01
<MIXTURE> 2 4.398942e-01
<MEAN> 15
 4.338269e-01 -1.188260e+00 -3.785889e-01 1.804283e+00 3.125972e+00 1.384670e+00 1.284588e+03 1.795936e-14 3.156197e+02 7.258734e-14 1.079945e+02 1.140865e-14 8.425721e-03 7.742308e-01 3.705494e-01
<VARIANCE> 15
 1.286734e+02 3.287201e+01 1.106722e+01 7.217054e-01 4.024871e+00 5.613823e-01 3.476083e+05 9.139217e-28 1.875866e+05 1.144984e-26 1.549265e+04 4.682318e-28 2.844333e+01 2.626213e+01 4.833989e+00
<GCONST> -1.033685e+02
<MIXTURE> 3 3.384285e-01
<MEAN> 15
 -1.087416e+01 -6.960314e+00 -2.109265e+00 6.493943e+00 1.270922e+01 3.143920e+00 2.414758e+03 3.061239e-13 3.621749e+03 1.072360e-12 1.569539e+02 6.910280e-14 -2.632086e-01 -4.471347e+00 8.771799e-01
<VARIANCE> 15
 1.330737e+02 3.579351e+02 1.490682e+01 1.477551e+01 3.459902e+01 2.493191e+00 7.075045e+06 3.572802e-25 2.369568e+07 1.372498e-24 4.719999e+04 1.054171e-26 1.101053e+04 2.170609e+03 4.322318e+02
<GCONST> -5.628619e+01
<STATE> 6
<NUMMIXES> 3
<MIXTURE> 1 1.163904e-01
<MEAN> 15
 -2.338142e+01 1.960673e+01 1.378784e+00 1.242836e+01 1.407328e+01 6.319838e+00 8.951448e+03 1.146546e-12 9.159991e+03 1.393628e-12 7.326033e+02 3.949926e-13 -7.407247e+01 7.438160e+01 -3.919147e+01
<VARIANCE> 15
 3.909217e+02 5.851738e+02 9.435541e+01 3.157569e+01 5.834156e+01 1.340270e+01 1.545328e+08 2.296727e-24 7.173064e+07 4.052526e-24 1.631216e+06 6.411074e-25 9.876990e+03 1.530571e+04 3.624771e+03
<GCONST> -3.115138e+01
<MIXTURE> 2 4.169327e-01
<MEAN> 15
 -2.607227e+00 -6.812999e-01 3.774965e-01 1.938203e+00 3.481231e+00 9.457543e-01 5.452027e+02 3.075766e-14 4.368294e+02 1.004550e-13 4.264139e+01 6.023900e-15 -6.627389e+00 2.265908e+00 -9.867155e-01
<VARIANCE> 15
 4.908780e+01 4.799290e+01 4.376043e+00 1.148113e+00 4.053818e+00 2.394993e-01 1.304810e+05 1.336210e-27 2.547205e+05 1.417902e-26 4.786280e+03 8.534663e-29 4.346516e+01 1.224419e+01 2.922500e+00
<GCONST> -1.090614e+02
<MIXTURE> 3 4.666769e-01
<MEAN> 15
 -1.108366e+01 1.615751e+01 3.609146e+00 4.551219e+00 8.529741e+00 2.266004e+00 1.769345e+03 1.604997e-13 3.645975e+03 5.388499e-13 3.060455e+02 3.586687e-14 -2.873459e+01 1.503899e+01 -6.209222e+00
<VARIANCE> 15
 6.088061e+01 1.273249e+02 1.900061e+01 3.722759e+00 7.790471e+00 1.044296e+00 2.165201e+06 3.035715e-26 1.169050e+07 1.933471e-25 1.698822e+05 2.206168e-27 6.389054e+02 2.368466e+02 4.867591e+01
<GCONST> -7.544410e+01
<STATE> 7
<NUMMIXES> 3
<MIXTURE> 1 9.175973e-02
<MEAN> 15
 -1.428262e+01 5.197322e+01 -1.444158e+01 2.325907e+01 3.914725e+01 1.252993e+01 2.226641e+03 1.974903e-12 3.739284e+04 -6.704313e-12 2.925109e+03 -6.155402e-13 -6.734917e+02 -4.370571e+02 1.880314e+02
<VARIANCE> 15
 8.118707e+00 3.357644e+00 7.496536e+00 7.108211e+00 7.588354e+00 7.773415e+00 1.270617e+07 6.810537e-24 2.605909e+07 1.485545e-23 3.752452e+05 2.909320e-25 2.644946e+04 9.978428e+03 3.520404e+03
<GCONST> -4.965105e+01
<MIXTURE> 2 5.165979e-01
<MEAN> 15
 8.912218e+00 2.001368e+00 1.272076e+00 2.015778e+00 1.595440e+00 1.326935e+00 1.024373e+03 3.113405e-14 1.067656e+02 7.392096e-15 3.332767e+01 1.742453e-14 -1.782641e+00 -2.283087e-01 4.530597e-01
<VARIANCE> 15
 2.408730e+01 6.211399e+00 2.525921e+00 8.757449e-01 6.959529e-01 7.211404e-01 2.523089e+05 1.122618e-27 1.764383e+04 3.683939e-28 1.495705e+03 5.321047e-28 7.864631e+00 7.358385e+00 8.606292e+00
<GCONST> -1.196049e+02
<MIXTURE> 3 3.916423e-01
<MEAN> 15
 -1.404243e+01 1.846082e+01 -1.727438e+00 9.636908e+00 1.511083e+01 3.044273e+00 2.471921e+03 8.616238e-13 5.567763e+03 1.996795e-12 1.235005e+02 4.642752e-14 -1.482896e+02 -5.948708e+00 1.222662e-01
<VARIANCE> 15
 8.735824e+01 3.169603e+02 1.121638e+01 4.880572e+01 5.517236e+01 1.813965e+00 5.967817e+06 1.877482e-24 4.861488e+07 7.042777e-24 2.257597e+04 6.660510e-27 2.846481e+04 1.116676e+03 3.025425e+02
<GCONST> -5.319487e+01
<TRANSP> 8
 0.000000e+00 4.733969e-01 5.266030e-01 0.000000e+00 0.000000e+00 0.000000e+00 0.000000e+00 0.000000e+00
 0.000000e+00 7.197853e-01 1.470173e-01 1.331974e-01 0.000000e+00 0.000000e+00 0.000000e+00 0.000000e+00
 0.000000e+00 0.000000e+00 9.242733e-01 4.841947e-02 2.730720e-02 0.000000e+00 0.000000e+00 0.000000e+00
 0.000000e+00 0.000000e+00 0.000000e+00 9.054745e-01 1.252644e-02 8.199901e-02 0.000000e+00 0.000000e+00
 0.000000e+00 0.000000e+00 0.000000e+00 0.000000e+00 9.257218e-01 6.337137e-02 1.090683e-02 0.000000e+00
 0.000000e+00 0.000000e+00 0.000000e+00 0.000000e+00 0.000000e+00 7.983691e-01 4.294291e-02 1.586880e-01
 0.000000e+00 0.000000e+00 0.000000e+00 0.000000e+00 0.000000e+00 0.000000e+00 6.438576e-01 3.561424e-01
 0.000000e+00 0.000000e+00 0.000000e+00 0.000000e+00 0.000000e+00 0.000000e+00 0.000000e+00 0.000000e+00
<ENDHMM>
