~o
<STREAMINFO> 1 15
<VECSIZE> 15<NULLD><MFCC><DIAGC>
~h "Activity3"
<BEGINHMM>
<NUMSTATES> 8
<STATE> 2
<NUMMIXES> 3
<MIXTURE> 1 5.472590e-01
<MEAN> 15
 -9.078427e+00 2.302793e+00 1.831756e+00 8.283308e-02 9.243391e-02 1.096086e-01 8.250544e+02 7.264765e-18 8.583163e+01 1.466874e-17 4.113358e+01 1.136315e-17 1.514382e-03 -1.174235e-04 3.778363e-04
<VARIANCE> 15
 8.719248e-02 3.280067e+00 7.574919e-01 4.963205e-04 8.774001e-04 7.792247e-04 2.830865e+03 1.220632e-33 2.273413e+03 2.426743e-33 1.096394e+03 3.399048e-33 9.369616e-06 1.592199e-05 1.149807e-05
<GCONST> -2.327339e+02
<MIXTURE> 2 3.403567e-01
<MEAN> 15
 -8.972711e+00 2.802361e+00 2.036970e+00 1.318035e-01 1.753018e-01 1.486497e-01 8.064070e+02 7.748577e-17 9.961829e+01 1.672212e-16 4.989687e+01 7.330973e-17 2.250463e-03 5.201408e-04 -2.616173e-04
<VARIANCE> 15
 1.336664e-01 2.115120e+00 8.423110e-01 2.655202e-03 5.565164e-03 2.335305e-03 4.270253e+03 2.142066e-32 2.350303e+03 7.949302e-32 1.329028e+03 2.082011e-32 2.264723e-04 2.647599e-04 1.259084e-04
<GCONST> -2.108244e+02
<MIXTURE> 3 1.123842e-01
<MEAN> 15
 -7.126574e+00 3.061922e+00 1.808134e+00 2.252936e-01 3.215280e-01 2.466241e-01 6.889160e+02 3.896971e-16 2.163004e+02 6.976743e-16 5.608220e+01 4.068751e-16 1.031899e-03 7.280445e-04 1.563577e-03
<VARIANCE> 15
 1.812059e+01 1.228344e+01 2.356416e+00 1.490612e-02 3.208251e-02 1.445447e-02 4.538734e+04 3.784233e-31 4.383604e+04 1.369833e-30 2.574951e+03 4.453866e-31 4.358672e-03 5.741124e-03 2.302132e-03
<GCONST> -1.741549e+02
<STATE> 3
<NUMMIXES> 3
<MIXTURE> 1 5.219657e-01
<MEAN> 15
 -8.525788e+00 3.297467e+00 3.155995e+00 2.003815e-01 2.037054e-01 1.880357e-01 7.319461e+02 2.961507e-16 1.168533e+02 2.120276e-16 1.113469e+02 1.600478e-16 7.236355e-05 4.723583e-03 -4.317685e-03
<VARIANCE> 15
 5.175929e-01 8.177111e-01 1.178559e+00 1.231834e-02 1.301542e-02 6.928852e-03 1.540605e+04 2.439918e-31 3.633088e+03 1.949663e-31 4.507536e+03 9.611018e-32 1.264779e-03 1.003367e-03 9.551898e-04
<GCONST> -1.937352e+02
<MIXTURE> 2 9.649970e-02
<MEAN> 15
 -6.891876e+00 4.030404e+00 3.377493e+00 1.342641e+00 2.216176e+00 1.462482e+00 6.249623e+02 1.345893e-14 3.689886e+02 3.454350e-14 2.375256e+02 1.307098e-14 -9.040678e-01 -5.343932e-01 -5.239090e-01
<VARIANCE> 15
 1.566610e+01 2.235475e+01 1.286988e+01 9.122512e-01 2.963987e+00 1.669380e+00 2.311980e+05 1.089993e-27 3.832320e+05 1.158370e-26 8.886855e+04 1.426004e-27 3.387157e+01 8.752177e+01 1.755454e+01
<GCONST> -9.866791e+01
<MIXTURE> 3 3.815347e-01
<MEAN> 15
 -6.535628e+00 3.317721e+00 3.519155e+00 4.601282e-01 6.502541e-01 4.898015e-01 5.746151e+02 1.592860e-15 2.233507e+02 2.206645e-15 1.857013e+02 1.311510e-15 -4.448012e-02 2.561187e-02 -5.698697e-02
<VARIANCE> 15
 1.481688e+01 1.137074e+01 6.220279e+00 7.103851e-02 1.587704e-01 7.964329e-02 1.115921e+05 6.522591e-30 5.620404e+04 2.971967e-29 4.301411e+04 8.065260e-30 7.939073e-02 9.954571e-02 4.613585e-02
<GCONST> -1.470583e+02
<STATE> 4
<NUMMIXES> 3
<MIXTURE> 1 5.478747e-01
<MEAN> 15
 -8.548244e+00 4.714561e+00 3.446420e-01 7.727440e-02 7.828417e-02 1.088475e-01 7.309266e+02 5.768386e-18 2.227432e+02 9.822000e-18 1.680996e+00 8.585774e-18 1.851381e-03 4.438520e-04 8.120106e-04
<VARIANCE> 15
 1.981002e-02 4.714517e-02 4.847443e-02 4.313223e-04 6.961112e-04 7.899642e-04 5.767918e+02 1.010791e-33 4.238735e+02 1.467500e-33 3.631115e+00 3.749392e-33 6.624243e-06 1.165091e-05 1.051083e-05
<GCONST> -2.518884e+02
<MIXTURE> 2 3.121349e-01
<MEAN> 15
 -8.294786e+00 4.283170e+00 1.911734e+00 9.774169e-02 1.309054e-01 1.276159e-01 6.912423e+02 3.436849e-17 2.102656e+02 9.664574e-17 5.123494e+01 4.882241e-17 4.487257e-03 2.236438e-03 2.600823e-03
<VARIANCE> 15
 3.216868e-01 2.684970e+00 1.470024e+00 1.449597e-03 4.251863e-03 1.937624e-03 8.975567e+03 5.831374e-33 7.326520e+03 4.906914e-32 2.258719e+03 1.661621e-32 9.529281e-05 1.321049e-04 7.482324e-05
<GCONST> -2.118921e+02
<MIXTURE> 3 1.399905e-01
<MEAN> 15
 -7.561375e+00 3.950731e+00 4.600493e+00 7.710814e-02 7.936381e-02 1.132454e-01 5.719958e+02 7.154815e-18 1.574597e+02 4.526258e-18 2.118411e+02 2.075842e-17 1.194320e-03 1.123378e-03 3.465719e-04
<VARIANCE> 15
 2.497518e-02 1.373713e-01 1.973168e-02 3.862391e-04 4.731127e-04 9.513551e-04 5.775084e+02 1.101651e-33 7.640919e+02 1.128283e-33 1.691777e+02 6.236905e-33 5.639646e-06 1.407745e-05 1.247687e-05
<GCONST> -2.468330e+02
<STATE> 5
<NUMMIXES> 3
<MIXTURE> 1 5.635534e-01
<MEAN> 15
 -8.232431e+00 3.455060e+00 3.738832e+00 7.606243e-02 7.960920e-02 1.045887e-01 6.780628e+02 7.429642e-18 1.202325e+02 6.411389e-18 1.410238e+02 8.822328e-18 1.280568e-03 2.770765e-04 4.814757e-04
<VARIANCE> 15
 3.309139e-02 8.548415e-02 1.228494e-01 4.123321e-04 5.248315e-04 8.232455e-04 8.917509e+02 9.604590e-34 4.179909e+02 1.305436e-33 7.121703e+02 3.417845e-33 6.414600e-06 1.031990e-05 9.086895e-06
<GCONST> -2.449957e+02
<MIXTURE> 2 2.222577e-01
<MEAN> 15
 -3.623509e+00 2.622602e+00 3.071655e+00 2.490385e-01 3.910329e-01 2.968328e-01 5.328342e+02 4.191589e-16 2.643708e+02 9.216803e-16 1.436811e+02 5.511445e-16 9.212521e-04 9.191868e-03 -7.769577e-03
<VARIANCE> 15
 4.017046e+01 1.959105e+01 4.954266e+00 1.896877e-02 6.854800e-02 2.091282e-02 8.444592e+04 8.023679e-31 6.582409e+04 5.596098e-30 2.457459e+04 9.096098e-31 1.092942e-02 1.330299e-02 5.478432e-03
<GCONST> -1.619964e+02
<MIXTURE> 3 2.141888e-01
<MEAN> 15
 -6.890941e-02 2.472043e+00 4.538681e+00 9.831674e-02 1.356400e-01 1.397064e-01 2.771191e+02 2.921888e-17 3.974928e+02 6.822293e-17 2.689813e+02 3.626401e-17 1.532739e-03 1.208406e-03 -3.300990e-04
<VARIANCE> 15
 2.770777e+01 3.364047e+01 6.299020e+00 1.354155e-03 4.389612e-03 2.324065e-03 6.553394e+04 4.494682e-33 8.149175e+04 3.231170e-32 4.061591e+04 1.680026e-32 5.855084e-05 1.347931e-04 5.155096e-05
<GCONST> -1.975276e+02
<STATE> 6
<NUMMIXES> 3
<MIXTURE> 1 6.072173e-01
<MEAN> 15
 -8.659377e+00 2.714385e+00 2.434731e+00 1.134961e-01 1.405318e-01 1.397046e-01 7.522395e+02 6.093569e-17 1.202813e+02 1.122946e-16 7.632690e+01 7.643469e-17 8.622438e-04 1.492867e-03 3.203089e-05
<VARIANCE> 15
 2.410813e-01 4.664658e+00 1.707140e+00 2.701728e-03 6.380794e-03 3.179804e-03 7.127614e+03 1.789487e-32 5.107302e+03 6.288043e-32 3.584904e+03 3.058963e-32 1.561910e-04 2.524519e-04 1.068644e-04
<GCONST> -2.066064e+02
<MIXTURE> 2 1.205188e-01
<MEAN> 15
 2.643646e+00 9.378792e+00 5.178083e-01 8.086202e-02 9.254292e-02 1.091044e-01 7.905894e+01 1.415652e-17 8.800002e+02 2.136420e-17 9.177975e+00 1.977777e-17 1.981973e-03 -2.723413e-04 3.583516e-04
<VARIANCE> 15
 9.168484e-01 3.805794e-02 6.494954e-01 7.713341e-04 1.985448e-03 9.139786e-04 1.522182e+03 2.505634e-33 1.368047e+03 8.347715e-33 6.488277e+01 6.308424e-33 1.894803e-05 2.376335e-05 1.198844e-05
<GCONST> -2.338105e+02
<MIXTURE> 3 2.722639e-01
<MEAN> 15
 1.122566e+00 2.277698e+00 9.226104e+00 8.912973e-02 7.961464e-02 1.184620e-01 1.298605e+01 1.637467e-17 5.247462e+01 1.303585e-17 8.513209e+02 2.225166e-17 1.774307e-03 1.022833e-03 1.221415e-03
<VARIANCE> 15
 3.872113e-02 5.952084e-02 1.082715e-02 2.371302e-03 6.974335e-04 1.190315e-03 1.657616e+01 6.115992e-33 1.109615e+02 1.747590e-33 3.712831e+02 8.842352e-33 1.148024e-05 2.040318e-05 3.418699e-05
<GCONST> -2.455078e+02
<STATE> 7
<NUMMIXES> 3
<MIXTURE> 1 7.023586e-01
<MEAN> 15
 -9.171591e+00 6.976528e-02 2.484039e+00 7.473037e-02 8.287302e-02 1.080514e-01 8.414950e+02 3.683832e-18 4.237180e+01 9.029413e-18 6.219964e+01 7.641073e-18 1.645627e-03 -4.035305e-04 4.823247e-04
<VARIANCE> 15
 3.093045e-02 4.232013e+00 4.877649e-02 3.417792e-04 7.966788e-04 7.767671e-04 1.033294e+03 7.961732e-34 1.050737e+03 2.079148e-33 1.239556e+02 3.481218e-33 5.761798e-06 1.449041e-05 8.747719e-06
<GCONST> -2.421023e+02
<MIXTURE> 2 1.275435e-01
<MEAN> 15
 -3.414987e+00 5.064023e+00 2.607837e+00 5.750715e-01 1.033441e+00 6.995012e-01 3.375229e+02 3.110256e-15 5.167937e+02 8.635335e-15 1.434053e+02 3.594198e-15 -1.562507e-01 -8.679541e-03 -2.501235e-01
<VARIANCE> 15
 2.222170e+01 2.637363e+01 7.694392e+00 1.651382e-01 5.095606e-01 2.319723e-01 1.239967e+05 4.172682e-29 1.535286e+05 4.484498e-28 2.508258e+04 7.017090e-29 8.903283e-01 7.305148e-01 4.304489e-01
<GCONST> -1.285725e+02
<MIXTURE> 3 1.700979e-01
<MEAN> 15
 -7.625872e-02 8.406123e+00 1.841377e+00 2.104249e-01 4.024032e-01 3.060109e-01 1.050586e+02 2.486694e-16 7.375593e+02 9.508043e-16 1.179736e+02 5.032457e-16 -1.324484e-02 -7.323408e-03 -9.860870e-03
<VARIANCE> 15
 1.050924e+01 3.129205e+00 8.421280e+00 1.096593e-02 5.066016e-02 2.642306e-02 2.829596e+04 1.649977e-31 6.280034e+04 4.448372e-30 2.714751e+04 1.023988e-30 4.652786e-03 9.041200e-03 2.891860e-03
<GCONST> -1.698703e+02
<TRANSP> 8
 0.000000e+00 6.618606e-01 3.381394e-01 0.000000e+00 0.000000e+00 0.000000e+00 0.000000e+00 0.000000e+00
 0.000000e+00 9.209343e-01 2.042397e-02 5.864176e-02 0.000000e+00 0.000000e+00 0.000000e+00 0.000000e+00
 0.000000e+00 0.000000e+00 8.827323e-01 3.246495e-02 8.480282e-02 0.000000e+00 0.000000e+00 0.000000e+00
 0.000000e+00 0.000000e+00 0.000000e+00 9.015569e-01 1.160191e-02 8.684120e-02 0.000000e+00 0.000000e+00
 0.000000e+00 0.000000e+00 0.000000e+00 0.000000e+00 8.870903e-01 6.964504e-02 4.326462e-02 0.000000e+00
 0.000000e+00 0.000000e+00 0.000000e+00 0.000000e+00 0.000000e+00 6.538265e-01 8.839821e-02 2.577753e-01
 0.000000e+00 0.000000e+00 0.000000e+00 0.000000e+00 0.000000e+00 0.000000e+00 9.161256e-01 8.387440e-02
 0.000000e+00 0.000000e+00 0.000000e+00 0.000000e+00 0.000000e+00 0.000000e+00 0.000000e+00 0.000000e+00
<ENDHMM>
