~o
<STREAMINFO> 1 15
<VECSIZE> 15<NULLD><MFCC><DIAGC>
~h "Activity1"
<BEGINHMM>
<NUMSTATES> 8
<STATE> 2
<NUMMIXES> 3
<MIXTURE> 1 8.860019e-01
<MEAN> 15
 4.339032e-01 4.523850e+00 8.623820e+00 7.264385e-02 6.658398e-02 9.991096e-02 1.910202e+00 -7.631062e-20 2.047114e+02 3.339144e-18 7.437504e+02 -7.046805e-19 1.403663e-03 -8.997702e-05 2.373029e-04
<VARIANCE> 15
 2.113265e-03 5.582118e-03 3.693967e-03 3.018103e-04 3.491610e-04 5.268819e-04 1.519225e-01 6.672273e-34 4.526146e+01 7.219957e-34 1.100986e+02 2.337730e-33 2.955742e-06 5.223883e-06 6.387138e-06
<GCONST> -2.710577e+02
<MIXTURE> 2 6.089804e-02
<MEAN> 15
 4.038673e+00 2.965281e+00 5.644738e+00 4.012884e-01 6.877867e-01 4.621613e-01 2.660809e+02 9.142076e-16 2.717231e+02 4.089075e-15 4.248409e+02 1.300648e-15 2.714333e-02 -1.308899e-02 -7.331201e-02
<VARIANCE> 15
 1.032882e+01 1.854044e+01 1.065986e+01 6.441293e-02 2.620885e-01 7.948065e-02 6.603167e+04 4.865513e-30 7.849132e+04 2.003080e-28 8.162312e+04 9.518966e-30 1.151563e-01 1.548946e-01 3.524707e-02
<GCONST> -1.432149e+02
<MIXTURE> 3 5.310010e-02
<MEAN> 15
 5.062382e-01 4.644215e+00 7.217262e+00 1.030566e-01 1.749056e-01 1.521611e-01 4.881422e+00 3.261535e-17 3.944976e+02 1.183236e-16 5.510907e+02 7.043405e-17 8.041101e-04 5.135357e-04 -2.683763e-03
<VARIANCE> 15
 2.325391e-01 1.788364e+01 3.022242e+00 1.631374e-03 1.317434e-02 6.532921e-03 5.756470e+01 6.283702e-33 3.518786e+04 1.531655e-31 3.662896e+04 3.619277e-32 1.582880e-04 4.672887e-04 1.592795e-04
<GCONST> -2.033115e+02
<STATE> 3
<NUMMIXES> 3
<MIXTURE> 1 1.339818e-01
<MEAN> 15
 6.187963e+00 1.413441e+00 6.399147e+00 1.082254e-01 2.135778e-01 1.507203e-01 3.974219e+02 4.164808e-17 5.038922e+01 3.534828e-16 4.896788e+02 8.904201e-17 6.358984e-03 6.662820e-04 -4.064822e-03
<VARIANCE> 15
 1.451812e+00 3.053780e+00 8.020672e+00 3.475638e-03 2.531183e-02 6.944456e-03 2.169237e+04 1.397783e-32 2.633426e+03 8.968444e-31 2.853756e+04 1.120612e-31 6.413533e-04 1.271659e-03 2.517703e-04
<GCONST> -1.911561e+02
<MIXTURE> 2 8.255125e-01
<MEAN> 15
 6.820327e+00 2.601760e+00 6.205914e+00 6.983982e-02 8.470763e-02 1.006100e-01 4.666798e+02 1.807193e-18 8.868604e+01 1.184157e-17 3.857758e+02 5.054722e-18 1.526104e-03 2.574305e-04 1.373447e-04
<VARIANCE> 15
 1.506896e-01 2.099197e+00 6.341812e-02 3.044924e-04 7.472074e-04 6.325016e-04 2.639429e+03 6.157041e-34 6.350118e+03 2.180262e-33 9.727327e+02 2.468326e-33 5.637037e-06 1.097992e-05 6.257615e-06
<GCONST> -2.377333e+02
<MIXTURE> 3 4.050555e-02
<MEAN> 15
 7.600070e-01 7.316717e+00 6.255352e+00 7.874115e-02 9.743631e-02 1.096469e-01 5.826604e+00 4.396630e-18 5.358597e+02 4.376821e-17 3.920597e+02 4.929112e-18 1.081111e-03 -1.604796e-03 2.475706e-04
<VARIANCE> 15
 4.755005e-03 5.298334e-02 7.503659e-02 6.214560e-04 3.206211e-03 9.525777e-04 1.083516e+00 1.476373e-33 1.126824e+03 2.273888e-32 1.192393e+03 4.849916e-33 2.256338e-05 3.745573e-05 1.334112e-05
<GCONST> -2.441788e+02
<STATE> 4
<NUMMIXES> 3
<MIXTURE> 1 3.724568e-01
<MEAN> 15
 4.881021e+00 2.755822e-01 8.357252e+00 9.815698e-02 1.102690e-01 1.211617e-01 2.403375e+02 3.535745e-17 1.156573e+00 4.042692e-17 6.990543e+02 3.898349e-17 3.297976e-03 -4.702239e-04 9.120306e-04
<VARIANCE> 15
 2.104602e-01 4.035388e-02 6.248567e-02 1.811934e-03 2.546712e-03 2.721708e-03 1.921193e+03 1.021042e-32 1.137302e+00 1.435675e-32 1.764942e+03 1.885559e-32 6.134385e-05 1.086338e-04 5.985282e-05
<GCONST> -2.315824e+02
<MIXTURE> 2 1.810540e-01
<MEAN> 15
 4.360566e+00 1.697426e-01 5.375750e+00 6.572180e-01 1.018658e+00 7.426192e-01 3.053640e+02 4.638836e-15 1.185726e+02 1.129379e-14 5.335663e+02 5.263887e-15 2.142285e-01 -7.145933e-02 -1.722104e-01
<VARIANCE> 15
 1.170881e+01 1.227133e+01 2.465587e+01 4.780529e-01 8.919762e-01 4.524524e-01 3.870663e+04 2.061659e-28 3.642991e+04 1.836646e-27 8.428747e+04 2.666876e-28 2.509194e+00 2.042495e+00 1.154939e+00
<GCONST> -1.205198e+02
<MIXTURE> 3 4.464892e-01
<MEAN> 15
 4.460398e-01 5.091672e+00 7.803461e+00 7.248487e-02 7.159096e-02 1.007702e-01 2.357816e+00 -3.856612e-19 3.377942e+02 4.944891e-18 6.129053e+02 -1.238567e-18 1.594876e-03 -7.899113e-05 2.701955e-04
<VARIANCE> 15
 3.612382e-02 7.853996e+00 3.952413e-01 3.027624e-04 4.024641e-04 5.820846e-04 1.831243e+00 6.463669e-34 7.330147e+03 1.107190e-33 8.548597e+03 2.216687e-33 3.547432e-06 6.575126e-06 7.239594e-06
<GCONST> -2.432429e+02
<STATE> 5
<NUMMIXES> 3
<MIXTURE> 1 7.575176e-01
<MEAN> 15
 5.118274e+00 -2.977046e-02 8.190306e+00 7.257587e-02 6.706046e-02 9.809078e-02 2.625525e+02 2.281425e-18 1.183514e+00 3.663779e-18 6.709721e+02 3.175766e-18 1.346586e-03 9.072561e-05 4.065393e-04
<VARIANCE> 15
 5.806210e-02 1.172086e-01 1.524877e-02 3.196333e-04 4.849488e-04 6.538905e-04 6.351004e+02 7.178305e-34 7.086801e-01 7.454642e-34 4.038848e+02 2.611719e-33 3.845563e-06 6.553837e-06 6.997553e-06
<GCONST> -2.564022e+02
<MIXTURE> 2 1.204994e-01
<MEAN> 15
 6.801713e+00 1.995481e+00 6.293138e+00 7.793937e-02 1.310557e-01 1.074306e-01 4.632709e+02 6.462829e-18 7.556699e+01 1.164615e-16 3.970988e+02 1.562990e-17 2.713007e-03 3.942767e-05 -5.289019e-04
<VARIANCE> 15
 6.333498e-02 3.578968e+00 1.059336e-01 5.490627e-04 6.238828e-03 7.712462e-04 1.114509e+03 1.131110e-33 1.683684e+03 8.493851e-32 1.769659e+03 3.619171e-33 4.448333e-05 5.396126e-05 1.458129e-05
<GCONST> -2.270773e+02
<MIXTURE> 3 1.219829e-01
<MEAN> 15
 7.765825e-01 7.089301e+00 6.512619e+00 7.163368e-02 6.063360e-02 1.036343e-01 6.052233e+00 1.491338e-18 5.026006e+02 3.973178e-18 4.241898e+02 3.078356e-18 1.223957e-03 -5.471951e-04 4.622584e-04
<VARIANCE> 15
 1.551627e-03 1.625815e-03 3.911703e-03 2.932599e-04 3.069650e-04 7.370863e-04 3.678752e-01 6.378414e-34 3.260060e+01 6.783788e-34 6.669338e+01 3.531797e-33 2.857037e-06 7.398652e-06 7.145648e-06
<GCONST> -2.715782e+02
<STATE> 6
<NUMMIXES> 3
<MIXTURE> 1 1.472929e-01
<MEAN> 15
 2.334993e-01 1.770376e+00 8.851508e+00 7.861813e-02 8.694798e-02 1.128868e-01 1.049195e+00 3.612628e-18 1.602920e+02 1.637091e-17 7.865992e+02 7.058345e-18 1.773593e-03 -4.923579e-04 3.318418e-04
<VARIANCE> 15
 4.987381e-02 1.289470e+01 3.093228e-01 3.631171e-04 1.539054e-03 9.136989e-04 9.660386e-01 8.735527e-34 9.450013e+03 4.317993e-33 8.873119e+03 4.529511e-33 1.040080e-05 2.715297e-05 1.141086e-05
<GCONST> -2.357184e+02
<MIXTURE> 2 1.442856e-01
<MEAN> 15
 4.857766e+00 1.667701e+00 6.050772e+00 1.488386e-01 2.120594e-01 1.916387e-01 3.045366e+02 4.981106e-16 1.205756e+02 3.731965e-16 5.146404e+02 8.252886e-16 7.421258e-03 7.754740e-03 2.839479e-02
<VARIANCE> 15
 6.882433e+00 9.285882e+00 1.489409e+01 5.507418e-02 3.749458e-02 7.081809e-02 3.739028e+04 3.299626e-29 2.426895e+04 2.469183e-30 3.330729e+04 8.158968e-29 1.467174e-02 1.419200e-02 4.527739e-01
<GCONST> -1.510640e+02
<MIXTURE> 3 7.084215e-01
<MEAN> 15
 8.180263e-01 7.502229e+00 6.026548e+00 7.226565e-02 7.314540e-02 9.574754e-02 6.707050e+00 1.043652e-18 5.629592e+02 3.574735e-18 3.633450e+02 3.985479e-18 1.453467e-03 -2.738058e-04 4.081376e-04
<VARIANCE> 15
 9.555873e-04 1.205561e-02 1.442299e-02 3.696801e-04 3.939636e-04 5.495904e-04 2.554896e-01 6.487197e-34 2.686418e+02 9.619866e-34 2.133762e+02 1.941236e-33 4.364909e-06 7.451261e-06 6.475631e-06
<GCONST> -2.655594e+02
<STATE> 7
<NUMMIXES> 3
<MIXTURE> 1 1.800782e-01
<MEAN> 15
 4.106205e+00 -2.984856e+00 -4.245410e+00 6.154625e-02 6.982815e-02 1.014710e-01 1.720401e+02 1.165695e-18 1.179725e+02 2.377048e-18 6.748896e+02 3.123938e-18 1.228890e-03 -2.440916e-04 2.439313e-04
<VARIANCE> 15
 3.427963e-01 2.887496e+00 4.946453e+01 2.928657e-04 3.415663e-04 5.835142e-04 2.788730e+03 3.720285e-34 4.379377e+03 7.732921e-34 1.561947e+02 2.607160e-33 2.484522e-06 7.210732e-06 5.084562e-06
<GCONST> -2.359141e+02
<MIXTURE> 2 7.604085e-01
<MEAN> 15
 6.470205e+00 -2.107745e+00 6.870100e+00 7.000510e-02 7.573155e-02 1.046639e-01 4.186585e+02 6.775231e-19 4.452929e+01 5.538116e-18 4.720075e+02 2.004219e-18 1.479413e-03 3.597590e-04 4.942876e-04
<VARIANCE> 15
 1.822080e-03 1.003985e-02 1.297132e-03 2.784166e-04 3.880841e-04 6.371734e-04 3.054453e+01 5.286776e-34 1.727851e+01 1.142149e-33 2.450193e+01 2.750538e-33 3.938736e-06 7.979772e-06 6.844571e-06
<GCONST> -2.674441e+02
<MIXTURE> 3 5.951323e-02
<MEAN> 15
 1.380723e+00 3.820534e+00 2.199710e+00 3.212039e-01 5.228919e-01 4.443172e-01 4.031335e+01 5.628375e-16 4.481616e+02 1.681679e-15 4.692984e+02 1.262210e-15 -2.676292e-03 -3.842163e-03 -1.883477e-02
<VARIANCE> 15
 2.142879e+00 3.025754e+01 4.214115e+01 6.734835e-02 1.540574e-01 7.675598e-02 3.107810e+03 8.824668e-30 6.922706e+04 3.172086e-29 5.181300e+04 1.171468e-29 2.446970e-02 1.355553e-01 2.138859e-02
<GCONST> -1.503030e+02
<TRANSP> 8
 0.000000e+00 2.485387e-01 7.514613e-01 0.000000e+00 0.000000e+00 0.000000e+00 0.000000e+00 0.000000e+00
 0.000000e+00 9.470205e-01 6.257481e-03 4.672207e-02 0.000000e+00 0.000000e+00 0.000000e+00 0.000000e+00
 0.000000e+00 0.000000e+00 8.796231e-01 2.930742e-02 9.106952e-02 0.000000e+00 0.000000e+00 0.000000e+00
 0.000000e+00 0.000000e+00 0.000000e+00 8.365399e-01 2.204257e-02 1.414175e-01 0.000000e+00 0.000000e+00
 0.000000e+00 0.000000e+00 0.000000e+00 0.000000e+00 9.168940e-01 3.676102e-02 4.634502e-02 0.000000e+00
 0.000000e+00 0.000000e+00 0.000000e+00 0.000000e+00 0.000000e+00 8.131856e-01 1.416402e-02 1.726504e-01
 0.000000e+00 0.000000e+00 0.000000e+00 0.000000e+00 0.000000e+00 0.000000e+00 9.201992e-01 7.980081e-02
 0.000000e+00 0.000000e+00 0.000000e+00 0.000000e+00 0.000000e+00 0.000000e+00 0.000000e+00 0.000000e+00
<ENDHMM>
