~o
<STREAMINFO> 1 15
<VECSIZE> 15<NULLD><MFCC><DIAGC>
~h "Activity4"
<BEGINHMM>
<NUMSTATES> 8
<STATE> 2
<NUMMIXES> 3
<MIXTURE> 1 1.643724e-01
<MEAN> 15
 -1.079699e+01 2.806841e+00 2.433924e+00 2.650141e+00 2.264861e+00 1.479590e+00 1.304901e+03 4.763188e-14 1.929953e+02 2.730392e-14 1.995228e+02 1.486332e-14 -1.018252e+00 5.293638e-01 -2.255105e+00
<VARIANCE> 15
 1.589585e+01 1.247404e+01 1.460262e+01 1.583822e+00 2.056201e+00 9.276029e-01 8.452532e+05 4.736383e-27 5.197428e+04 3.487309e-27 1.046844e+05 1.862199e-27 3.651749e+01 1.930545e+01 2.340588e+01
<GCONST> -1.006628e+02
<MIXTURE> 2 3.499332e-01
<MEAN> 15
 -1.027233e+01 3.580336e+00 1.320013e+00 1.038882e+00 1.211883e+00 7.144783e-01 1.199346e+03 5.711285e-15 2.302501e+02 1.101908e-14 1.853078e+02 3.799030e-15 -3.776620e-02 -1.057149e-01 -8.049654e-02
<VARIANCE> 15
 1.452294e+01 1.068692e+01 1.694439e+01 2.331877e-01 3.430991e-01 9.082973e-02 5.926200e+05 7.399965e-29 4.593628e+04 2.442476e-28 6.474702e+04 1.933746e-29 1.227250e+00 5.016687e-01 4.516816e-01
<GCONST> -1.301242e+02
<MIXTURE> 3 4.856943e-01
<MEAN> 15
 -1.060927e+01 3.803908e+00 1.721563e+00 9.963856e-01 5.680599e-01 3.275700e-01 1.204668e+03 7.752217e-15 1.864924e+02 2.263779e-15 6.194232e+01 3.974238e-16 -8.410902e-02 2.941755e-02 -5.218856e-02
<VARIANCE> 15
 8.245373e+00 4.280736e+00 3.230732e+00 2.379985e-01 6.451372e-02 1.825019e-02 3.401474e+05 1.049777e-28 2.191442e+04 9.094633e-30 4.176296e+03 7.125056e-31 2.268170e-01 2.009128e-02 7.224005e-02
<GCONST> -1.535351e+02
<STATE> 3
<NUMMIXES> 3
<MIXTURE> 1 3.757964e-01
<MEAN> 15
 -1.127378e+01 2.997594e+00 1.632461e+00 1.539453e+00 8.590094e-01 5.702056e-01 1.303302e+03 1.842671e-14 1.009952e+02 4.469316e-15 3.972075e+01 2.432401e-15 -6.030267e-01 1.544110e-01 -1.760834e-01
<VARIANCE> 15
 4.080917e+00 1.285589e+00 1.414716e+00 4.550049e-01 1.512493e-01 7.275138e-02 1.935780e+05 4.909116e-28 4.474245e+03 5.078048e-29 1.814867e+03 1.117665e-29 9.889144e-01 1.488109e-01 6.560019e-01
<GCONST> -1.446739e+02
<MIXTURE> 2 3.073767e-01
<MEAN> 15
 -9.116598e+00 2.087984e+00 2.024740e-01 7.622066e-01 3.502065e-01 2.241548e-01 8.735939e+02 3.829823e-15 4.766468e+01 4.601709e-16 4.959509e+00 1.660683e-16 -1.085552e-01 4.004413e-03 -8.688860e-03
<VARIANCE> 15
 4.380824e+00 4.118378e-01 4.576121e-01 1.952467e-01 2.781540e-02 6.907063e-03 1.507862e+05 4.817760e-29 6.625685e+02 1.111432e-30 2.891289e+01 1.357567e-31 6.045939e-02 2.805598e-03 1.391616e-02
<GCONST> -1.792359e+02
<MIXTURE> 3 3.168269e-01
<MEAN> 15
 -1.006182e+01 3.483463e+00 2.219369e+00 7.002273e-01 4.557486e-01 4.030956e-01 1.042299e+03 2.843511e-15 1.334400e+02 9.555153e-16 6.713034e+01 1.061741e-15 -5.354159e-02 2.284403e-02 -1.276062e-02
<VARIANCE> 15
 3.070622e+00 1.230600e+00 1.830409e+00 1.242862e-01 4.379205e-02 2.939403e-02 1.232148e+05 2.067489e-29 5.522653e+03 3.784209e-30 3.603458e+03 1.808886e-30 5.565646e-02 1.865956e-02 5.438186e-02
<GCONST> -1.627723e+02
<STATE> 4
<NUMMIXES> 3
<MIXTURE> 1 3.231044e-02
<MEAN> 15
 -1.388447e+01 3.476976e-01 2.083990e+00 7.032447e-01 1.168098e+00 3.255414e-01 1.928289e+03 1.443488e-15 8.782506e+01 1.082606e-14 4.702003e+01 1.607024e-16 2.381562e-02 -2.601838e-01 8.262943e-02
<VARIANCE> 15
 5.293165e-02 9.222470e+00 3.504665e-01 9.342494e-03 8.976981e-02 4.051977e-03 4.206953e+03 8.314892e-30 2.954134e+03 2.010121e-29 4.546984e+02 6.198162e-32 4.050893e-01 1.756551e-02 1.114748e-02
<GCONST> -1.786713e+02
<MIXTURE> 2 3.373692e-01
<MEAN> 15
 -1.318102e-01 8.450897e+00 9.684111e-01 5.939813e-01 1.344862e+00 6.720865e-01 9.813345e+01 2.707022e-15 8.513820e+02 1.552166e-14 4.639896e+01 2.934463e-15 -2.160310e-01 7.000054e-02 3.650585e-02
<VARIANCE> 15
 9.899421e+00 1.430039e+01 3.805602e+00 1.064717e-01 5.305700e-01 1.119208e-01 1.821556e+04 1.643926e-29 5.097896e+05 4.013047e-28 4.003943e+03 2.328058e-29 6.347082e-01 1.017280e+00 9.773064e-02
<GCONST> -1.380131e+02
<MIXTURE> 3 6.303204e-01
<MEAN> 15
 -8.966411e+00 2.010756e+00 2.962176e+00 6.783947e-01 8.923517e-01 6.938201e-01 8.574070e+02 2.667056e-15 6.582910e+01 6.881907e-15 1.020840e+02 4.286737e-15 2.668384e-03 2.157678e-01 -1.874721e-01
<VARIANCE> 15
 5.405536e+00 2.865937e+00 1.670976e+00 1.197807e-01 1.655028e-01 1.483838e-01 1.612516e+05 1.791109e-29 2.768821e+03 5.829653e-29 5.201097e+03 4.143484e-29 2.822363e-01 2.501438e-01 1.802091e-01
<GCONST> -1.474554e+02
<STATE> 5
<NUMMIXES> 3
<MIXTURE> 1 2.116453e-01
<MEAN> 15
 -1.259869e+01 4.049358e+00 3.736661e+00 2.194402e+00 1.693747e+00 1.249258e+00 1.723326e+03 3.985865e-14 2.156789e+02 2.303534e-14 1.864455e+02 1.325397e-14 -3.363706e-01 6.588601e-01 -1.344550e+00
<VARIANCE> 15
 1.536520e+01 6.126674e+00 5.297110e+00 1.201522e+00 1.033814e+00 3.237062e-01 9.796419e+05 2.682332e-27 4.653544e+04 1.374236e-27 4.200915e+04 2.561381e-28 1.513630e+01 4.366047e+00 6.810233e+00
<GCONST> -1.123999e+02
<MIXTURE> 2 3.993413e-01
<MEAN> 15
 -9.870315e+00 3.996400e+00 1.597913e+00 1.281116e+00 9.622377e-01 5.807123e-01 1.036452e+03 1.248178e-14 2.206644e+02 8.333616e-15 5.389091e+01 2.393680e-15 -2.535078e-01 -6.904645e-02 -1.557298e-01
<VARIANCE> 15
 6.782307e+00 6.477816e+00 2.942480e+00 3.871623e-01 3.211749e-01 7.562681e-02 2.587684e+05 2.131255e-28 4.536468e+04 1.451226e-28 3.842164e+03 1.043784e-29 1.262583e+00 2.306520e-01 4.562337e-01
<GCONST> -1.373627e+02
<MIXTURE> 3 3.890134e-01
<MEAN> 15
 -9.912646e+00 3.128066e+00 3.517013e-01 7.254046e-01 5.745365e-01 3.490287e-01 1.056974e+03 2.961789e-15 1.324745e+02 2.264605e-15 1.114828e+01 5.588868e-16 -1.362291e-01 6.003483e-03 -1.848873e-02
<VARIANCE> 15
 7.519079e+00 3.545765e+00 1.006719e+00 1.261848e-01 9.473668e-02 2.329832e-02 2.687771e+05 2.111808e-29 1.543584e+04 1.272230e-29 1.351193e+02 8.194463e-31 1.104179e-01 2.659464e-02 3.742019e-02
<GCONST> -1.612301e+02
<STATE> 6
<NUMMIXES> 3
<MIXTURE> 1 3.329195e-01
<MEAN> 15
 -1.033548e+01 3.442394e+00 3.656417e+00 1.482415e+00 9.228395e-01 6.729695e-01 1.180591e+03 2.059123e-14 1.367189e+02 6.787261e-15 1.562557e+02 3.956042e-15 -9.931829e-02 1.273914e-01 -5.714847e-01
<VARIANCE> 15
 1.222983e+01 2.147308e+00 2.444803e+00 6.615509e-01 1.945587e-01 1.189444e-01 4.435402e+05 6.759444e-28 1.210154e+04 6.040012e-29 1.633718e+04 2.563614e-29 1.427313e+00 3.073853e-01 9.347393e-01
<GCONST> -1.346071e+02
<MIXTURE> 2 2.517665e-01
<MEAN> 15
 -7.445612e+00 2.740638e+00 1.479118e+00 4.548884e-01 3.045388e-01 2.613838e-01 5.838333e+02 1.584702e-15 9.087346e+01 6.633894e-16 3.033052e+01 3.152783e-16 -3.302460e-02 8.951370e-03 -5.031425e-02
<VARIANCE> 15
 3.017720e+00 1.602004e+00 8.547914e-01 5.522553e-02 2.778729e-02 1.217014e-02 7.110214e+04 4.266214e-30 7.166030e+03 1.186060e-30 8.770454e+02 2.659909e-31 1.721765e-02 4.407577e-03 9.626579e-03
<GCONST> -1.761408e+02
<MIXTURE> 3 4.153140e-01
<MEAN> 15
 -1.011379e+01 3.902596e+00 3.145571e+00 1.041319e+00 4.099181e-01 4.354373e-01 1.065976e+03 7.888183e-15 1.787601e+02 8.312288e-16 1.091477e+02 1.391321e-15 -5.366448e-02 2.707313e-02 -1.859102e-01
<VARIANCE> 15
 4.646232e+00 2.666535e+00 1.080420e+00 1.953971e-01 3.154282e-02 3.844173e-02 1.839819e+05 9.940553e-29 1.702433e+04 2.191167e-30 4.234597e+03 3.298309e-30 1.248504e-01 1.772759e-02 1.208229e-01
<GCONST> -1.568517e+02
<STATE> 7
<NUMMIXES> 3
<MIXTURE> 1 2.634616e-01
<MEAN> 15
 -1.229681e+01 -7.592061e-01 1.599482e+00 1.455719e+00 1.054616e+00 9.816950e-01 1.583071e+03 1.937417e-14 4.000605e+01 1.162903e-14 3.549712e+01 8.107235e-15 -4.647907e-02 -9.937063e-02 8.603175e-02
<VARIANCE> 15
 7.970947e+00 4.064442e+00 1.373983e+00 5.849385e-01 3.490523e-01 2.305036e-01 5.001809e+05 5.403327e-28 3.242133e+03 2.393219e-28 1.982947e+03 1.186837e-28 2.125353e+00 1.069555e+00 2.120692e+00
<GCONST> -1.320065e+02
<MIXTURE> 2 1.826400e-01
<MEAN> 15
 -7.975960e+00 -5.072122e-02 9.855710e-01 6.785579e-01 2.390531e-01 2.574169e-01 6.565775e+02 3.979601e-15 8.781811e+00 2.783112e-16 8.077168e+01 4.376750e-16 4.019165e-02 -6.032951e-03 -8.847555e-02
<VARIANCE> 15
 2.234445e+00 8.827202e-01 7.117109e+00 1.086481e-01 1.169922e-02 2.379142e-02 6.049900e+04 1.602054e-29 1.249536e+02 2.980581e-31 3.017620e+04 1.009585e-30 1.870924e-02 7.003691e-03 1.952330e-02
<GCONST> -1.725792e+02
<MIXTURE> 3 5.538985e-01
<MEAN> 15
 -1.129886e+01 -7.430677e-01 8.238497e-01 1.079097e+00 4.862642e-01 4.372855e-01 1.343985e+03 9.795180e-15 7.551242e+01 1.624616e-15 2.196819e+01 1.159580e-15 4.236029e-02 -1.210551e-02 -5.263184e-03
<VARIANCE> 15
 7.125780e+00 7.062519e+00 1.560194e+00 3.316199e-01 4.857466e-02 3.864265e-02 3.709045e+05 1.374396e-28 5.543935e+03 4.574369e-30 9.109475e+02 3.010035e-30 2.045945e-01 3.277885e-02 1.714928e-01
<GCONST> -1.536467e+02
<TRANSP> 8
 0.000000e+00 4.995886e-01 5.004114e-01 0.000000e+00 0.000000e+00 0.000000e+00 0.000000e+00 0.000000e+00
 0.000000e+00 8.155795e-01 1.463194e-01 3.810108e-02 0.000000e+00 0.000000e+00 0.000000e+00 0.000000e+00
 0.000000e+00 0.000000e+00 9.158225e-01 3.800424e-02 4.617328e-02 0.000000e+00 0.000000e+00 0.000000e+00
 0.000000e+00 0.000000e+00 0.000000e+00 5.777307e-01 1.936320e-01 2.286373e-01 0.000000e+00 0.000000e+00
 0.000000e+00 0.000000e+00 0.000000e+00 0.000000e+00 8.404698e-01 1.198256e-01 3.970455e-02 0.000000e+00
 0.000000e+00 0.000000e+00 0.000000e+00 0.000000e+00 0.000000e+00 9.037983e-01 2.111127e-02 7.509039e-02
 0.000000e+00 0.000000e+00 0.000000e+00 0.000000e+00 0.000000e+00 0.000000e+00 8.480451e-01 1.519550e-01
 0.000000e+00 0.000000e+00 0.000000e+00 0.000000e+00 0.000000e+00 0.000000e+00 0.000000e+00 0.000000e+00
<ENDHMM>
