~o
<STREAMINFO> 1 12
<VECSIZE> 12<NULLD><MFCC><DIAGC>
~h "Activity102"
<BEGINHMM>
<NUMSTATES> 7
<STATE> 2
<NUMMIXES> 3
<MIXTURE> 1 2.367348e-01
<MEAN> 12
 -6.480656e+01 9.264098e+02 3.716837e+02 1.999641e+02 1.433310e+02 2.317007e+02 3.885732e+05 4.233283e+06 1.509234e+06 -1.000840e+03 1.023114e+04 -5.418964e+03
<VARIANCE> 12
 7.247089e+04 8.161502e+04 1.895528e+05 1.614119e+04 8.923953e+03 2.131964e+04 1.833689e+11 3.903493e+12 1.991099e+12 9.243871e+08 1.418332e+09 2.808124e+09
<GCONST> 2.321812e+02
<MIXTURE> 2 3.581746e-01
<MEAN> 12
 -2.218129e+01 1.032911e+03 7.636971e+01 3.535599e+01 1.760606e+01 3.172639e+01 3.745066e+04 4.802726e+06 9.069437e+04 8.982462e+01 1.608562e+01 -2.108616e+01
<VARIANCE> 12
 7.613695e+03 3.674587e+02 1.415028e+04 5.904301e+02 1.093991e+02 4.257719e+02 1.829853e+09 3.166326e+10 1.115878e+10 3.563761e+05 2.914770e+05 1.355438e+06
<GCONST> 1.717136e+02
<MIXTURE> 3 4.050906e-01
<MEAN> 12
 -7.062686e+01 9.951328e+02 2.328515e+02 8.681506e+01 4.753275e+01 7.180857e+01 1.381642e+05 4.500316e+06 4.094462e+05 3.085914e+02 7.976407e+01 -5.851083e+02
<VARIANCE> 12
 2.409431e+04 9.585315e+03 3.604677e+04 2.995572e+03 9.233173e+02 2.199350e+03 2.532925e+10 7.550165e+11 1.627693e+11 1.734523e+07 1.122039e+07 4.043324e+07
<GCONST> 2.018717e+02
<STATE> 3
<NUMMIXES> 3
<MIXTURE> 1 2.343066e-01
<MEAN> 12
 -9.820186e+01 1.025767e+03 4.366027e+02 4.955582e+02 3.998142e+02 6.196428e+02 9.095603e+05 5.192472e+06 2.840879e+06 2.319019e+04 8.247709e+04 -6.227375e+04
<VARIANCE> 12
 1.204827e+05 9.465102e+04 3.609026e+05 9.037522e+04 6.192954e+04 1.395120e+05 8.608964e+11 8.574976e+12 8.959795e+12 5.758307e+10 1.065159e+11 1.133264e+11
<GCONST> 2.550060e+02
<MIXTURE> 2 3.823574e-01
<MEAN> 12
 -6.096235e+00 1.077817e+03 1.123786e+02 1.774794e+02 1.046521e+02 1.450707e+02 2.314296e+05 5.373578e+06 3.274377e+05 6.914692e+02 4.210160e+03 -1.208830e+03
<VARIANCE> 12
 4.307143e+04 3.133992e+04 5.599037e+04 1.085933e+04 3.277206e+03 7.808604e+03 6.031529e+10 2.933442e+12 1.342186e+11 2.868100e+08 2.111845e+08 5.701516e+08
<GCONST> 2.183180e+02
<MIXTURE> 3 3.833361e-01
<MEAN> 12
 1.305195e+01 1.038774e+03 9.408112e+01 8.991065e+01 4.369207e+01 7.098769e+01 6.054793e+04 4.865726e+06 1.068047e+05 3.338956e+02 6.285148e+01 -2.449297e+02
<VARIANCE> 12
 1.143657e+04 2.135556e+03 1.391491e+04 2.898650e+03 6.980271e+02 1.769535e+03 3.953797e+09 1.890000e+11 1.331655e+10 1.395389e+07 8.296126e+06 3.642906e+07
<GCONST> 1.917737e+02
<STATE> 4
<NUMMIXES> 3
<MIXTURE> 1 2.779185e-01
<MEAN> 12
 -3.557335e+01 1.463085e+03 2.898003e+02 6.261329e+02 4.177837e+02 5.161225e+02 1.613047e+06 9.989311e+06 1.311090e+06 1.868118e+05 -8.750428e+04 -1.530706e+05
<VARIANCE> 12
 2.701531e+05 6.271530e+04 1.371581e+05 8.076136e+04 4.803574e+04 6.374410e+04 2.026812e+12 1.158608e+13 1.526409e+12 7.038976e+10 3.359526e+10 7.242608e+10
<GCONST> 2.512712e+02
<MIXTURE> 2 3.108898e-01
<MEAN> 12
 -3.715578e+01 5.289722e+02 4.729944e+02 6.423561e+01 4.220271e+01 5.239262e+01 2.750266e+05 2.073449e+06 2.348826e+06 -6.357667e+02 1.823466e+02 4.935078e+02
<VARIANCE> 12
 5.902793e+04 1.807854e+05 2.978929e+05 2.033865e+03 9.270213e+02 1.422929e+03 1.205532e+11 1.979260e+12 1.797076e+12 9.342629e+06 5.811086e+06 1.332022e+07
<GCONST> 2.095364e+02
<MIXTURE> 3 4.111918e-01
<MEAN> 12
 -1.030419e+02 1.137538e+03 7.073208e+02 2.208905e+02 1.595922e+02 3.946309e+02 2.551050e+05 6.027484e+06 2.699554e+06 -3.085505e+01 2.341694e+04 -4.057977e+04
<VARIANCE> 12
 3.713096e+04 4.626282e+04 8.834195e+04 1.611233e+04 7.691554e+03 2.833772e+04 5.637489e+10 4.252875e+12 4.065093e+12 8.308602e+08 3.089091e+09 5.342835e+09
<GCONST> 2.312505e+02
<STATE> 5
<NUMMIXES> 3
<MIXTURE> 1 2.610607e-01
<MEAN> 12
 3.057256e+01 1.503336e+03 -1.133543e+02 3.009741e+02 1.960489e+02 1.304507e+02 8.526052e+05 1.053080e+07 2.090257e+05 3.145168e+03 7.465152e+03 -2.198405e+03
<VARIANCE> 12
 1.573635e+05 7.350109e+04 2.974143e+04 3.808036e+04 1.006342e+04 4.439325e+03 5.672163e+11 1.367325e+13 4.063290e+10 2.958602e+09 6.457280e+08 1.381313e+09
<GCONST> 2.285670e+02
<MIXTURE> 2 3.235077e-01
<MEAN> 12
 -3.309093e+01 9.813817e+02 2.552957e+02 4.805601e+01 2.187318e+01 3.768607e+01 8.534716e+04 4.348178e+06 4.801397e+05 1.508916e+01 -4.251674e+01 5.311948e+01
<VARIANCE> 12
 1.746297e+04 3.139286e+03 4.133637e+04 9.183807e+02 1.557805e+02 5.231176e+02 1.224274e+10 2.382151e+11 1.897570e+11 7.700948e+05 5.455209e+05 2.608728e+06
<GCONST> 1.855663e+02
<MIXTURE> 3 4.154316e-01
<MEAN> 12
 -1.713445e+01 9.730364e+02 -1.684577e+02 1.052524e+02 1.244706e+02 7.706219e+01 3.375278e+05 4.544398e+06 6.018587e+05 1.131498e+03 4.447009e+03 -2.257728e+01
<VARIANCE> 12
 7.272420e+04 5.985594e+04 1.047614e+05 3.678370e+03 5.124256e+03 1.854480e+03 1.218502e+11 4.912897e+12 3.127134e+11 1.518046e+08 9.273862e+07 4.939820e+07
<GCONST> 2.162017e+02
<STATE> 6
<NUMMIXES> 3
<MIXTURE> 1 2.841351e-01
<MEAN> 12
 -1.348910e+02 9.356943e+02 5.552400e+02 5.708569e+02 4.735277e+02 7.963604e+02 1.097591e+06 4.607506e+06 4.282030e+06 1.749994e+04 8.226826e+04 -1.578799e+05
<VARIANCE> 12
 1.320223e+05 1.383172e+05 5.119009e+05 1.011641e+05 7.259495e+04 1.751402e+05 1.439302e+12 1.126966e+13 1.708753e+13 8.901062e+10 2.174715e+11 2.133164e+11
<GCONST> 2.595400e+02
<MIXTURE> 2 3.790185e-01
<MEAN> 12
 5.627262e+00 9.711954e+02 8.868380e+01 2.163177e+02 1.716216e+02 2.492003e+02 3.701318e+05 4.861751e+06 1.483632e+06 3.199703e+03 1.076797e+04 -7.064490e+03
<VARIANCE> 12
 6.944459e+04 1.337777e+05 3.099433e+05 1.880975e+04 1.099045e+04 2.693739e+04 1.413385e+11 1.253790e+13 3.184858e+12 1.299215e+09 2.018892e+09 2.831887e+09
<GCONST> 2.357977e+02
<MIXTURE> 3 3.368464e-01
<MEAN> 12
 -4.404319e+00 1.012780e+03 2.107964e+02 1.067877e+02 6.349413e+01 8.312872e+01 7.182270e+04 4.648606e+06 3.867919e+05 -1.723720e+02 -1.516112e+02 -2.508930e+02
<VARIANCE> 12
 1.279430e+04 6.917602e+03 4.034307e+04 4.821929e+03 1.647592e+03 2.817573e+03 6.019705e+09 5.724206e+11 1.762151e+11 5.227312e+07 2.821124e+07 7.800349e+07
<GCONST> 2.033758e+02
<TRANSP> 7
 0.000000e+00 6.967005e-01 3.032995e-01 0.000000e+00 0.000000e+00 0.000000e+00 0.000000e+00
 0.000000e+00 8.458316e-01 1.297016e-01 2.446681e-02 0.000000e+00 0.000000e+00 0.000000e+00
 0.000000e+00 0.000000e+00 8.432367e-01 8.813123e-02 6.863212e-02 0.000000e+00 0.000000e+00
 0.000000e+00 0.000000e+00 0.000000e+00 5.344733e-01 4.176400e-01 4.788664e-02 0.000000e+00
 0.000000e+00 0.000000e+00 0.000000e+00 0.000000e+00 6.211050e-01 2.900512e-01 8.884382e-02
 0.000000e+00 0.000000e+00 0.000000e+00 0.000000e+00 0.000000e+00 8.704349e-01 1.295651e-01
 0.000000e+00 0.000000e+00 0.000000e+00 0.000000e+00 0.000000e+00 0.000000e+00 0.000000e+00
<ENDHMM>
