~o
<STREAMINFO> 1 12
<VECSIZE> 12<NULLD><MFCC><DIAGC>
~h "Activity105"
<BEGINHMM>
<NUMSTATES> 7
<STATE> 2
<NUMMIXES> 3
<MIXTURE> 1 2.213817e-01
<MEAN> 12
 -9.533651e+02 9.713476e+01 2.342103e+02 7.282115e+01 3.224828e+01 4.068592e+01 4.141370e+06 8.159386e+04 3.550946e+05 2.300034e+02 -1.818337e+02 -6.991832e+02
<VARIANCE> 12
 1.091767e+04 8.518737e+03 2.372510e+04 3.526430e+03 5.263564e+02 1.660594e+03 8.205256e+11 1.071688e+10 1.057469e+11 1.127306e+07 2.414637e+06 1.575292e+07
<GCONST> 1.957461e+02
<MIXTURE> 2 6.809635e-01
<MEAN> 12
 -8.316218e+02 3.230156e+02 5.010504e+02 8.356178e+00 8.049691e+00 1.006411e+01 3.114085e+06 4.799167e+05 1.145014e+06 -2.394583e+00 -4.491967e+00 -7.833358e+00
<VARIANCE> 12
 4.225556e+02 2.308512e+03 3.394248e+03 2.220703e+01 1.885895e+01 2.611809e+01 2.388233e+10 2.009095e+10 5.872246e+10 4.005914e+03 5.915971e+03 6.817372e+03
<GCONST> 1.514993e+02
<MIXTURE> 3 9.765480e-02
<MEAN> 12
 -7.108875e+02 -7.699028e+01 7.155624e+02 6.315366e+01 4.206950e+01 3.927688e+01 2.332496e+06 7.734691e+04 2.332123e+06 -2.675085e+02 1.283354e+03 -6.902278e+02
<VARIANCE> 12
 1.310018e+04 1.093665e+04 6.014203e+03 3.738315e+03 1.870087e+03 1.173839e+03 5.145151e+11 1.163549e+10 2.512054e+11 1.773896e+07 3.539396e+07 1.169041e+07
<GCONST> 1.991058e+02
<STATE> 3
<NUMMIXES> 3
<MIXTURE> 1 7.753853e-01
<MEAN> 12
 -9.815953e+02 1.439516e+02 1.675289e+02 7.350182e+00 7.257127e+00 9.468410e+00 4.336043e+06 9.499677e+04 1.402031e+05 -1.567779e+01 -2.004394e+01 8.368121e+00
<VARIANCE> 12
 3.377343e+01 3.890988e+02 3.089695e+03 1.487439e+01 1.543445e+01 2.368033e+01 2.640209e+09 9.635925e+08 2.463205e+09 2.359417e+03 4.193307e+03 3.926928e+03
<GCONST> 1.365628e+02
<MIXTURE> 2 1.826198e-01
<MEAN> 12
 -8.956730e+02 2.236724e+02 3.619438e+02 2.071585e+02 7.691817e+01 1.255033e+02 3.844859e+06 3.148187e+05 1.082626e+06 5.185505e+03 5.065490e+03 -5.002086e+03
<VARIANCE> 12
 4.010288e+04 1.854424e+04 1.078258e+05 4.485373e+04 3.669166e+03 1.268877e+04 2.991980e+12 1.111193e+11 1.500346e+12 1.276139e+09 2.176199e+08 4.307314e+09
<GCONST> 2.269837e+02
<MIXTURE> 3 4.199488e-02
<MEAN> 12
 -2.996177e+02 -3.720881e+01 7.617506e+02 9.371574e+01 5.860907e+01 1.026049e+02 5.441613e+05 1.205506e+06 2.745454e+06 -9.033698e+02 6.306756e+02 3.532039e+03
<VARIANCE> 12
 2.949479e+04 2.665211e+05 2.911149e+04 3.281603e+03 1.118181e+03 2.822290e+03 1.715991e+11 9.455493e+11 1.354225e+12 2.719561e+07 5.079803e+07 8.588773e+07
<GCONST> 2.126876e+02
<STATE> 4
<NUMMIXES> 3
<MIXTURE> 1 7.154323e-01
<MEAN> 12
 -9.650715e+02 8.705936e+01 2.758790e+02 7.547487e+00 7.666251e+00 9.357402e+00 4.191794e+06 3.692569e+04 3.501949e+05 -8.471663e+00 -1.626511e+01 2.298654e+00
<VARIANCE> 12
 1.430137e+02 6.251031e+02 1.707670e+03 2.148279e+01 1.554313e+01 2.528675e+01 1.073647e+10 3.024093e+08 1.132736e+10 2.847471e+03 4.379588e+03 4.188447e+03
<GCONST> 1.403931e+02
<MIXTURE> 2 2.686599e-01
<MEAN> 12
 -7.562600e+02 -3.038287e+01 6.784572e+02 9.211171e+00 8.958321e+00 9.658106e+00 2.574302e+06 4.712559e+03 2.071870e+06 -1.286993e+01 -7.419355e+00 5.767478e-01
<VARIANCE> 12
 1.300869e+02 1.185498e+02 1.090245e+02 3.688790e+01 2.116841e+01 2.780936e+01 6.166051e+09 8.022168e+06 4.011482e+09 8.578782e+03 5.409457e+03 5.275898e+03
<GCONST> 1.331517e+02
<MIXTURE> 3 1.590778e-02
<MEAN> 12
 -3.129697e+02 1.007273e+03 8.587878e+01 9.947669e+01 3.689542e+01 4.319272e+01 4.913606e+05 4.576533e+06 1.518045e+05 1.595894e+03 3.411212e+02 1.372575e+02
<VARIANCE> 12
 1.087817e+04 2.081815e+03 2.668522e+04 1.332266e+03 3.995771e+02 3.958130e+02 1.070410e+11 1.846728e+11 3.191962e+10 1.263232e+07 2.338708e+06 1.859631e+07
<GCONST> 1.916281e+02
<STATE> 5
<NUMMIXES> 3
<MIXTURE> 1 4.449529e-01
<MEAN> 12
 -9.424387e+02 1.693805e+02 1.903193e+02 8.519493e+01 4.529588e+01 6.015519e+01 4.085478e+06 2.004087e+05 4.492272e+05 -2.719087e+02 2.060227e+02 5.378732e+02
<VARIANCE> 12
 1.859344e+04 1.556005e+04 6.300302e+04 3.699717e+03 7.956124e+02 1.626228e+03 1.298857e+12 4.055922e+10 4.011156e+11 2.495736e+07 7.249214e+06 4.549869e+07
<GCONST> 2.043760e+02
<MIXTURE> 2 5.125079e-01
<MEAN> 12
 -9.377004e+02 1.530708e+02 2.638060e+02 1.358249e+01 9.491209e+00 1.205519e+01 3.982636e+06 1.493311e+05 4.846315e+05 -6.235950e+00 -1.890739e+01 1.030170e+01
<VARIANCE> 12
 5.734895e+03 9.747811e+03 3.809723e+04 1.270481e+02 2.796159e+01 6.290514e+01 3.688919e+11 2.895142e+10 3.216451e+11 2.991555e+04 1.232261e+04 3.277534e+04
<GCONST> 1.701007e+02
<MIXTURE> 3 4.253913e-02
<MEAN> 12
 -1.770978e+02 -3.735651e+02 8.901467e+02 6.137459e+01 6.817618e+01 6.204036e+01 1.927977e+05 1.003905e+06 3.619950e+06 -1.284338e+03 2.186035e+03 -1.020970e+03
<VARIANCE> 12
 1.159256e+04 8.312534e+04 1.206736e+04 1.431358e+03 1.093178e+03 9.446622e+02 2.551064e+10 3.731382e+11 7.831756e+11 1.801182e+07 1.889255e+07 9.015530e+06
<GCONST> 2.007225e+02
<STATE> 6
<NUMMIXES> 3
<MIXTURE> 1 9.887637e-01
<MEAN> 12
 -9.845181e+02 1.832248e+02 -1.795652e+01 6.732500e+00 6.947636e+00 8.654381e+00 4.362082e+06 1.667832e+05 5.607264e+03 -1.399784e+01 -1.258166e+01 1.845500e+00
<VARIANCE> 12
 7.443138e+01 3.489646e+03 9.194433e+02 1.453162e+01 1.484681e+01 2.137790e+01 5.834774e+09 9.398696e+09 1.495560e+07 2.167973e+03 3.280270e+03 2.783269e+03
<GCONST> 1.354623e+02
<MIXTURE> 3 1.123628e-02
<MEAN> 12
 -4.550539e+02 7.867537e+02 -3.566597e+01 3.084457e+02 9.953350e+01 4.539063e+02 1.961960e+06 3.730265e+06 9.546912e+05 -3.266632e+04 -6.838689e+04 1.882841e+05
<VARIANCE> 12
 2.077683e+05 2.057294e+05 9.505059e+04 3.737494e+04 5.776573e+03 1.544008e+05 5.966536e+12 8.458625e+12 2.294282e+12 3.720169e+09 1.377073e+10 8.186473e+10
<GCONST> 2.472888e+02
<TRANSP> 7
 0.000000e+00 4.959200e-01 5.040801e-01 0.000000e+00 0.000000e+00 0.000000e+00 0.000000e+00
 0.000000e+00 8.797861e-01 7.251200e-02 4.770181e-02 0.000000e+00 0.000000e+00 0.000000e+00
 0.000000e+00 0.000000e+00 8.065993e-01 3.241464e-02 1.609861e-01 0.000000e+00 0.000000e+00
 0.000000e+00 0.000000e+00 0.000000e+00 9.391371e-01 5.941672e-02 1.446167e-03 0.000000e+00
 0.000000e+00 0.000000e+00 0.000000e+00 0.000000e+00 6.421485e-01 7.952263e-02 2.783289e-01
 0.000000e+00 0.000000e+00 0.000000e+00 0.000000e+00 0.000000e+00 9.348321e-01 6.516795e-02
 0.000000e+00 0.000000e+00 0.000000e+00 0.000000e+00 0.000000e+00 0.000000e+00 0.000000e+00
<ENDHMM>
