~o
<STREAMINFO> 1 12
<VECSIZE> 12<NULLD><MFCC><DIAGC>
~h "Activity104"
<BEGINHMM>
<NUMSTATES> 7
<STATE> 2
<NUMMIXES> 3
<MIXTURE> 1 3.185559e-01
<MEAN> 12
 -4.064551e+02 -1.297778e+02 9.020829e+02 1.202592e+01 9.820012e+00 1.243647e+01 8.568711e+05 1.522110e+05 3.676620e+06 -4.419897e+00 2.934513e+00 -2.087197e+00
<VARIANCE> 12
 2.520023e+04 1.698113e+04 3.263532e+03 6.453445e+01 3.239544e+01 5.038533e+01 1.753154e+11 5.661312e+09 2.327644e+11 1.859174e+04 1.449086e+04 2.731303e+04
<GCONST> 1.657314e+02
<MIXTURE> 2 5.729781e-01
<MEAN> 12
 -1.394088e+02 5.445081e+02 8.731265e+02 9.546024e+00 8.362956e+00 1.028845e+01 1.379219e+05 1.338730e+06 3.432727e+06 -2.641274e+01 -1.033575e+01 1.585222e+01
<VARIANCE> 12
 1.120430e+04 1.003881e+03 4.729392e+02 3.493782e+01 2.143121e+01 3.254663e+01 1.453301e+10 2.381039e+10 2.874649e+10 6.337766e+03 6.770080e+03 1.029089e+04
<GCONST> 1.527387e+02
<MIXTURE> 3 1.084660e-01
<MEAN> 12
 -1.086275e+02 6.772564e+02 5.819448e+02 8.583362e+01 5.624966e+01 7.799303e+01 2.103852e+05 2.794678e+06 2.084458e+06 1.991289e+03 1.963687e+03 -6.435411e+00
<VARIANCE> 12
 3.188298e+04 1.620910e+05 1.233065e+05 7.753830e+03 4.427337e+03 7.741032e+03 1.030704e+11 3.636925e+12 2.621530e+12 2.479284e+08 2.601549e+08 1.024811e+09
<GCONST> 2.247773e+02
<STATE> 3
<NUMMIXES> 3
<MIXTURE> 1 5.116785e-01
<MEAN> 12
 -3.920058e+01 3.899883e+02 9.559362e+02 8.685625e+00 7.673431e+00 1.008318e+01 6.983245e+04 6.862634e+05 4.112552e+06 -1.162993e+01 -1.827643e+00 5.481894e-01
<VARIANCE> 12
 1.397427e+04 4.115298e+02 8.318484e+01 2.189384e+01 1.630506e+01 2.808533e+01 3.177969e+09 5.032593e+09 6.161679e+09 3.154561e+03 4.262478e+03 5.618025e+03
<GCONST> 1.430616e+02
<MIXTURE> 2 2.675305e-01
<MEAN> 12
 -4.745860e+01 4.419590e+02 9.345499e+02 9.196990e+00 8.175534e+00 9.668748e+00 5.052752e+04 8.809301e+05 3.930688e+06 -1.421174e+01 -2.474579e+00 3.098437e+00
<VARIANCE> 12
 8.969291e+03 4.327086e+02 1.007724e+02 2.816346e+01 1.864878e+01 2.700871e+01 1.311395e+09 6.919102e+09 7.102772e+09 4.402069e+03 4.697302e+03 5.641903e+03
<GCONST> 1.432172e+02
<MIXTURE> 3 2.207909e-01
<MEAN> 12
 -3.956749e+01 3.975401e+02 9.510158e+02 2.115554e+01 1.453542e+01 1.757087e+01 7.212124e+04 7.202039e+05 4.072549e+06 -7.619241e+01 9.733286e+01 3.712152e+01
<VARIANCE> 12
 1.438028e+04 1.986784e+03 5.452259e+02 1.456813e+02 5.475900e+01 9.651417e+01 4.817001e+09 2.528501e+10 3.975425e+10 1.010278e+05 8.034405e+04 1.260629e+05
<GCONST> 1.642943e+02
<STATE> 4
<NUMMIXES> 3
<MIXTURE> 1 4.373106e-01
<MEAN> 12
 -1.423381e+02 1.749713e+02 9.982379e+02 1.054249e+01 8.492298e+00 1.222578e+01 1.266969e+05 1.879503e+05 4.485438e+06 -2.811164e+01 7.516159e+00 9.997109e+00
<VARIANCE> 12
 7.883977e+03 1.114877e+04 2.781104e+02 4.175386e+01 2.096220e+01 4.998847e+01 1.346625e+10 2.486271e+10 2.251582e+10 7.251909e+03 9.583007e+03 1.541439e+04
<GCONST> 1.554579e+02
<MIXTURE> 2 1.639773e-01
<MEAN> 12
 -2.230691e+02 2.432547e+02 8.642656e+02 9.886891e+01 5.981230e+01 9.238983e+01 5.213903e+05 8.838756e+05 3.530902e+06 -6.766733e+01 3.032886e+03 1.234411e+03
<VARIANCE> 12
 6.451193e+04 1.368940e+05 3.673343e+04 4.607274e+03 1.406081e+03 3.886929e+03 5.141138e+11 1.068190e+12 1.689264e+12 4.870422e+07 5.616589e+07 1.321483e+08
<GCONST> 2.164794e+02
<MIXTURE> 3 3.987122e-01
<MEAN> 12
 -1.745864e+02 3.048365e+02 9.167319e+02 3.160061e+01 1.902949e+01 2.749820e+01 2.511076e+05 7.819093e+05 3.813666e+06 -1.880827e+02 2.119389e+02 1.910325e+02
<VARIANCE> 12
 2.514048e+04 8.079817e+04 6.983279e+03 3.942559e+02 1.420938e+02 3.262562e+02 9.400517e+10 3.887100e+11 4.644002e+11 4.161052e+05 3.298995e+05 9.793479e+05
<GCONST> 1.873155e+02
<STATE> 5
<NUMMIXES> 3
<MIXTURE> 1 6.582300e-01
<MEAN> 12
 1.138520e+02 3.602585e+02 9.620838e+02 1.130362e+01 9.068548e+00 1.066476e+01 1.002291e+05 5.855617e+05 4.165904e+06 -1.211222e+01 1.202074e+01 -1.861961e+00
<VARIANCE> 12
 9.294357e+03 3.359594e+02 1.488379e+02 5.083928e+01 2.507194e+01 3.307072e+01 5.286479e+09 3.572361e+09 1.118249e+10 1.109517e+04 7.923751e+03 1.471897e+04
<GCONST> 1.480719e+02
<MIXTURE> 2 3.184491e-01
<MEAN> 12
 -1.383546e+02 4.706268e+02 9.170623e+02 1.062711e+01 8.613989e+00 1.093504e+01 1.063980e+05 9.991410e+05 3.785436e+06 -2.775367e+01 -7.278496e-01 1.719436e+01
<VARIANCE> 12
 4.487986e+03 5.387950e+02 1.983679e+02 4.533037e+01 2.251769e+01 3.798907e+01 4.607904e+09 9.320560e+09 1.355806e+10 8.851848e+03 9.394094e+03 1.416936e+04
<GCONST> 1.489406e+02
<MIXTURE> 3 2.332093e-02
<MEAN> 12
 -1.573725e+02 6.112618e+02 5.392924e+02 1.900289e+02 1.311836e+02 2.115750e+02 6.545256e+05 2.987849e+06 2.063527e+06 8.754608e+03 2.624179e+04 3.745630e+03
<VARIANCE> 12
 1.097019e+05 2.898645e+05 1.513612e+05 2.740906e+04 1.380264e+04 5.975098e+04 9.631127e+11 6.100198e+12 3.358738e+12 1.893018e+09 1.238806e+10 8.084703e+09
<GCONST> 2.422039e+02
<STATE> 6
<NUMMIXES> 3
<MIXTURE> 1 6.189132e-01
<MEAN> 12
 -4.815176e+01 1.560022e+02 1.012789e+03 8.681396e+00 8.059076e+00 1.098628e+01 2.829677e+04 1.577875e+05 4.616872e+06 -1.927378e+01 -8.326947e+00 7.321573e+00
<VARIANCE> 12
 3.960808e+03 1.072404e+04 2.236358e+02 2.564084e+01 1.874491e+01 3.945116e+01 1.113857e+09 2.028848e+10 1.853286e+10 4.445754e+03 6.760750e+03 8.308553e+03
<GCONST> 1.493300e+02
<MIXTURE> 2 2.586982e-01
<MEAN> 12
 -1.991535e+02 5.708189e+02 8.466412e+02 1.326003e+01 1.026602e+01 1.179635e+01 2.074301e+05 1.472411e+06 3.230641e+06 -3.959379e+01 4.779315e+00 4.861559e+01
<VARIANCE> 12
 6.406119e+03 1.362470e+03 1.109305e+03 7.351497e+01 3.772668e+01 4.108499e+01 2.209702e+10 3.592509e+10 6.334487e+10 1.989864e+04 1.564102e+04 2.488411e+04
<GCONST> 1.593649e+02
<MIXTURE> 3 1.223885e-01
<MEAN> 12
 -1.161076e+02 5.684831e+02 6.229838e+02 4.019298e+01 2.606564e+01 3.834990e+01 2.254091e+05 2.244642e+06 2.454830e+06 -1.344137e+02 4.856526e+02 2.842866e+02
<VARIANCE> 12
 3.625808e+04 1.755495e+05 1.571129e+05 9.261672e+02 4.994562e+02 1.196942e+03 1.067208e+11 3.776371e+12 3.137192e+12 2.864258e+06 5.220284e+06 5.145436e+06
<GCONST> 2.056425e+02
<TRANSP> 7
 0.000000e+00 3.358199e-01 6.641801e-01 0.000000e+00 0.000000e+00 0.000000e+00 0.000000e+00
 0.000000e+00 8.352470e-01 1.287384e-02 1.518792e-01 0.000000e+00 0.000000e+00 0.000000e+00
 0.000000e+00 0.000000e+00 9.100927e-01 1.404019e-02 7.586720e-02 0.000000e+00 0.000000e+00
 0.000000e+00 0.000000e+00 0.000000e+00 8.182374e-01 3.536084e-02 1.464018e-01 0.000000e+00
 0.000000e+00 0.000000e+00 0.000000e+00 0.000000e+00 8.657142e-01 7.855553e-03 1.264303e-01
 0.000000e+00 0.000000e+00 0.000000e+00 0.000000e+00 0.000000e+00 8.767522e-01 1.232478e-01
 0.000000e+00 0.000000e+00 0.000000e+00 0.000000e+00 0.000000e+00 0.000000e+00 0.000000e+00
<ENDHMM>
