~o
<STREAMINFO> 1 12
<VECSIZE> 12<NULLD><MFCC><DIAGC>
~h "Activity101"
<BEGINHMM>
<NUMSTATES> 7
<STATE> 2
<NUMMIXES> 3
<MIXTURE> 1 5.173013e-01
<MEAN> 12
 -1.639473e+01 1.035384e+03 7.319147e+01 3.601670e+01 1.888936e+01 3.484964e+01 3.351588e+04 4.825422e+06 9.482863e+04 1.514565e+02 8.843130e+01 -3.821516e+01
<VARIANCE> 12
 6.941667e+03 2.882021e+02 1.549851e+04 5.769337e+02 1.382175e+02 4.978955e+02 1.520176e+09 2.504823e+10 1.089090e+10 4.667778e+05 4.605546e+05 1.744220e+06
<GCONST> 1.723719e+02
<MIXTURE> 2 3.424716e-01
<MEAN> 12
 -3.601787e+01 9.817561e+02 2.142561e+02 1.099695e+02 5.942728e+01 9.519833e+01 1.282524e+05 4.393538e+06 5.734494e+05 9.791796e+02 8.373846e+02 -3.045035e+02
<VARIANCE> 12
 2.422138e+04 1.217312e+04 8.010293e+04 4.921924e+03 1.428906e+03 3.784419e+03 2.101848e+10 9.157723e+11 3.802244e+11 4.788304e+07 3.549820e+07 1.111009e+08
<GCONST> 2.084233e+02
<MIXTURE> 3 1.402271e-01
<MEAN> 12
 -7.628037e+01 9.468423e+02 3.737240e+02 2.744003e+02 1.889113e+02 3.109413e+02 5.105323e+05 4.401111e+06 1.598916e+06 1.061539e+04 2.728237e+04 -6.402704e+03
<VARIANCE> 12
 8.682313e+04 8.004048e+04 1.956890e+05 4.071138e+04 1.978467e+04 6.611173e+04 3.682315e+11 5.145390e+12 2.796238e+12 5.815202e+09 1.582970e+10 1.532333e+10
<GCONST> 2.424887e+02
<STATE> 3
<NUMMIXES> 3
<MIXTURE> 1 3.491732e-01
<MEAN> 12
 6.169318e+00 9.597666e+02 1.118683e+02 1.136387e+01 8.500644e+00 1.137899e+01 2.494017e+04 4.148828e+06 7.184468e+05 -6.677740e+00 -9.730079e+00 4.523092e+00
<VARIANCE> 12
 5.493771e+03 8.082107e+02 1.471262e+05 4.699327e+01 2.067770e+01 4.187306e+01 8.699137e+08 6.057056e+10 4.552542e+10 7.584306e+03 7.623849e+03 1.391855e+04
<GCONST> 1.572398e+02
<MIXTURE> 2 3.851520e-01
<MEAN> 12
 -9.884074e+01 9.228032e+02 4.748539e+02 2.521434e+01 1.384794e+01 2.075857e+01 1.059817e+05 3.839351e+06 1.042891e+06 2.051689e+01 -5.969671e+01 1.141154e+01
<VARIANCE> 12
 1.369533e+04 1.615516e+03 6.234447e+03 2.598027e+02 6.137901e+01 1.537608e+02 1.113926e+10 1.096658e+11 1.130217e+11 9.894199e+04 7.474145e+04 2.399465e+05
<GCONST> 1.715345e+02
<MIXTURE> 3 2.656749e-01
<MEAN> 12
 -9.962219e+01 9.031280e+02 4.810472e+02 6.634693e+01 3.387457e+01 4.892458e+01 1.524456e+05 3.694724e+06 1.174822e+06 1.712934e+02 -2.889530e+02 -1.335190e+01
<VARIANCE> 12
 2.313129e+04 5.322722e+03 2.942454e+04 1.525244e+03 3.867394e+02 8.155667e+02 4.185415e+10 3.431086e+11 3.286109e+11 4.947693e+06 3.075148e+06 1.030118e+07
<GCONST> 1.950023e+02
<STATE> 4
<NUMMIXES> 3
<MIXTURE> 1 7.334874e-01
<MEAN> 12
 -3.067303e+01 1.038863e+03 -1.127716e+01 1.367453e+01 9.637309e+00 1.442387e+01 1.987109e+04 4.856840e+06 2.716209e+04 2.142987e+00 1.664230e+01 2.403036e+00
<VARIANCE> 12
 3.450440e+03 6.162524e+01 5.884118e+03 8.162411e+01 2.998025e+01 7.694199e+01 4.322968e+08 5.391523e+09 8.758195e+08 1.702503e+04 1.879378e+04 4.695377e+04
<GCONST> 1.483716e+02
<MIXTURE> 2 3.978718e-02
<MEAN> 12
 -5.857515e+01 7.871897e+02 2.855390e+02 4.336687e+02 2.774789e+02 5.016327e+02 1.038824e+06 3.558066e+06 3.119410e+06 1.296302e+04 1.253175e+05 6.979318e+04
<VARIANCE> 12
 1.497991e+05 1.612520e+05 4.739584e+05 1.364752e+05 6.859097e+04 3.579638e+05 2.750408e+12 7.821859e+12 2.100506e+13 5.602041e+10 3.070831e+11 7.245192e+11
<GCONST> 2.622938e+02
<MIXTURE> 3 2.267254e-01
<MEAN> 12
 -1.310548e+01 5.559555e+02 4.886595e+02 4.151153e+01 2.698147e+01 3.663726e+01 1.743353e+05 1.785164e+06 2.910226e+06 9.036382e+00 2.775597e+02 2.550164e+02
<VARIANCE> 12
 3.828854e+04 8.754836e+04 4.078357e+05 1.043158e+03 3.910952e+02 6.739042e+02 5.290895e+10 1.540780e+12 1.737101e+12 2.199356e+06 1.841100e+06 3.475722e+06
<GCONST> 2.013673e+02
<STATE> 5
<NUMMIXES> 3
<MIXTURE> 1 4.677634e-01
<MEAN> 12
 -1.031215e+02 1.002420e+03 2.120117e+02 2.851897e+01 1.500466e+01 2.481198e+01 1.149334e+05 4.525669e+06 3.244802e+05 5.177826e+01 -3.866169e+01 -9.683643e+00
<VARIANCE> 12
 1.479133e+04 8.530670e+02 2.708321e+04 3.341742e+02 7.131898e+01 2.208179e+02 1.526240e+10 6.862858e+10 6.350445e+10 1.517348e+05 1.173877e+05 4.653068e+05
<GCONST> 1.740166e+02
<MIXTURE> 2 1.876295e-01
<MEAN> 12
 -1.355180e+02 8.929568e+02 4.252046e+02 1.918365e+02 1.129972e+02 1.825870e+02 4.132294e+05 3.749138e+06 1.393224e+06 2.063495e+03 7.885531e+03 -3.322594e+03
<VARIANCE> 12
 6.445621e+04 3.505420e+04 1.256283e+05 1.719236e+04 7.344019e+03 2.106154e+04 2.541961e+11 1.984001e+12 1.479803e+12 7.962209e+08 2.342423e+09 2.142096e+09
<GCONST> 2.300984e+02
<MIXTURE> 3 3.446071e-01
<MEAN> 12
 -8.824925e+01 9.882346e+02 2.681559e+02 8.358791e+01 3.858982e+01 6.474711e+01 1.354872e+05 4.411756e+06 4.799418e+05 5.869802e+02 -1.160840e+02 -5.569477e+00
<VARIANCE> 12
 2.085471e+04 3.694669e+03 3.417861e+04 2.642454e+03 5.116875e+02 1.405541e+03 2.673159e+10 2.856190e+11 1.685129e+11 9.389713e+06 6.238082e+06 2.729704e+07
<GCONST> 1.970801e+02
<STATE> 6
<NUMMIXES> 3
<MIXTURE> 1 4.728158e-01
<MEAN> 12
 -4.965669e+01 1.025702e+03 1.302768e+02 1.157119e+01 9.615469e+00 1.274031e+01 4.525148e+04 4.734820e+06 1.552990e+05 -1.004511e+01 -1.083414e+01 -8.403547e-01
<VARIANCE> 12
 7.580433e+03 1.159052e+02 1.753039e+04 4.787626e+01 2.760195e+01 5.336113e+01 2.622011e+09 9.863783e+09 1.044556e+10 1.058446e+04 1.198460e+04 1.883308e+04
<GCONST> 1.529466e+02
<MIXTURE> 2 2.822939e-01
<MEAN> 12
 -1.407067e+02 8.351383e+02 6.117231e+02 1.758156e+01 1.043050e+01 1.499621e+01 1.220582e+05 3.150273e+06 1.706954e+06 -5.815650e+00 -3.730770e+01 -1.647980e+01
<VARIANCE> 12
 7.292706e+03 2.601218e+03 5.100939e+03 1.474488e+02 3.491642e+01 7.729916e+01 1.272104e+10 1.434624e+11 1.580029e+11 3.168731e+04 2.277740e+04 6.893313e+04
<GCONST> 1.665240e+02
<MIXTURE> 3 2.448902e-01
<MEAN> 12
 7.380515e+00 8.296797e+02 1.365410e+02 4.303860e+01 2.254055e+01 3.132106e+01 2.739051e+05 3.131681e+06 1.448269e+06 1.340148e+01 -6.631863e+01 5.409053e+01
<VARIANCE> 12
 6.047091e+04 7.516708e+03 3.030918e+05 1.006013e+03 2.229091e+02 4.598158e+02 8.328018e+10 4.076639e+11 3.535564e+11 1.291331e+06 8.054390e+05 2.485068e+06
<GCONST> 1.939291e+02
<TRANSP> 7
 0.000000e+00 5.583704e-01 4.416297e-01 0.000000e+00 0.000000e+00 0.000000e+00 0.000000e+00
 0.000000e+00 8.479010e-01 6.457309e-02 8.752583e-02 0.000000e+00 0.000000e+00 0.000000e+00
 0.000000e+00 0.000000e+00 8.766226e-01 1.357592e-02 1.098014e-01 0.000000e+00 0.000000e+00
 0.000000e+00 0.000000e+00 0.000000e+00 8.507788e-01 8.416274e-02 6.505856e-02 0.000000e+00
 0.000000e+00 0.000000e+00 0.000000e+00 0.000000e+00 8.514206e-01 3.473679e-02 1.138426e-01
 0.000000e+00 0.000000e+00 0.000000e+00 0.000000e+00 0.000000e+00 8.595102e-01 1.404898e-01
 0.000000e+00 0.000000e+00 0.000000e+00 0.000000e+00 0.000000e+00 0.000000e+00 0.000000e+00
<ENDHMM>
