~o
<STREAMINFO> 1 12
<VECSIZE> 12<NULLD><MFCC><DIAGC>
~h "Activity104"
<BEGINHMM>
<NUMSTATES> 7
<STATE> 2
<NUMMIXES> 3
<MIXTURE> 1 4.904620e-01
<MEAN> 12
 5.429144e+02 1.072830e+02 -6.199697e+02 1.234133e+02 7.456695e+01 9.114800e+01 1.708245e+06 8.256646e+05 2.422852e+06 3.378602e+03 -3.066568e+03 -2.100481e+03
<VARIANCE> 12
 8.326603e+04 1.713927e+05 1.533721e+05 4.912425e+03 1.687940e+03 2.749696e+03 1.832011e+12 9.040111e+11 2.587837e+12 7.994178e+07 4.457401e+07 1.062996e+08
<GCONST> 2.198663e+02
<MIXTURE> 2 3.449427e-01
<MEAN> 12
 3.819767e+02 1.487161e+02 -8.944948e+02 5.392672e+01 3.186993e+01 3.523332e+01 8.313556e+05 5.537354e+05 3.638146e+06 5.250062e+02 -3.568038e+02 -3.162498e+02
<VARIANCE> 12
 3.865564e+04 1.008405e+05 8.308977e+03 1.275577e+03 3.709774e+02 4.994348e+02 4.799847e+11 2.032631e+11 5.253058e+11 2.912204e+06 1.260245e+06 3.294925e+06
<GCONST> 1.963053e+02
<MIXTURE> 3 1.645954e-01
<MEAN> 12
 5.345327e+02 7.971130e+01 -5.270800e+02 3.270896e+02 2.067372e+02 2.826954e+02 2.299819e+06 1.176973e+06 2.562936e+06 2.663284e+04 -3.571574e+04 -3.237267e+04
<VARIANCE> 12
 2.094168e+05 2.480869e+05 2.753737e+05 3.812123e+04 1.561259e+04 3.548575e+04 6.385586e+12 3.050046e+12 6.068693e+12 8.159050e+09 7.523980e+09 1.559992e+10
<GCONST> 2.466349e+02
<STATE> 3
<NUMMIXES> 3
<MIXTURE> 1 4.317021e-01
<MEAN> 12
 9.278564e+02 -2.276216e+02 -1.608408e+02 1.122191e+01 8.101024e+00 1.223718e+01 3.881889e+06 3.461158e+05 2.963076e+05 5.658797e+00 -3.313364e+01 -5.003407e+00
<VARIANCE> 12
 1.718066e+03 2.510044e+04 3.996660e+04 4.611103e+01 2.009574e+01 4.153855e+01 1.171212e+11 5.715726e+10 1.036782e+11 7.035633e+03 7.981866e+03 1.572363e+04
<GCONST> 1.639148e+02
<MIXTURE> 2 3.275271e-01
<MEAN> 12
 5.215255e+02 6.145944e+01 -8.757592e+02 9.180465e+00 8.562334e+00 1.006264e+01 1.360911e+06 7.811510e+04 3.488012e+06 -1.928459e+01 -1.506686e+01 6.155192e+00
<VARIANCE> 12
 3.043334e+04 1.357561e+04 8.156107e+03 3.083395e+01 2.550046e+01 2.846746e+01 5.017760e+11 6.113386e+09 4.934232e+11 5.778297e+03 6.500547e+03 6.201386e+03
<GCONST> 1.634903e+02
<MIXTURE> 3 2.407708e-01
<MEAN> 12
 6.827888e+02 -3.854774e+01 -3.336131e+02 2.696288e+01 1.689729e+01 2.179231e+01 2.268456e+06 1.150671e+06 1.242262e+06 1.371070e+01 -1.464309e+02 -2.989517e+01
<VARIANCE> 12
 3.783568e+04 2.542029e+05 1.647225e+05 3.525039e+02 1.110919e+02 1.817774e+02 1.227614e+12 9.794956e+11 1.034406e+12 2.467366e+05 1.463557e+05 3.678197e+05
<GCONST> 1.930681e+02
<STATE> 4
<NUMMIXES> 3
<MIXTURE> 1 3.584481e-01
<MEAN> 12
 8.686854e+02 -6.736234e+01 -1.863349e+02 3.404093e+01 1.770096e+01 2.774492e+01 3.435780e+06 1.686832e+05 1.020932e+06 9.997762e+01 -2.238934e+02 -6.515018e+01
<VARIANCE> 12
 8.854874e+03 3.292290e+04 1.921103e+05 4.128179e+02 9.998844e+01 2.501874e+02 5.305346e+11 4.692198e+10 5.948036e+11 2.859076e+05 1.915003e+05 7.080114e+05
<GCONST> 1.867380e+02
<MIXTURE> 2 2.126337e-01
<MEAN> 12
 7.885041e+02 -5.099676e+01 -1.848762e+02 1.865602e+02 1.086944e+02 1.674908e+02 3.184686e+06 6.214559e+05 1.118785e+06 7.655653e+03 -1.196589e+04 -7.091492e+03
<VARIANCE> 12
 8.362658e+04 1.340817e+05 2.106878e+05 1.166685e+04 3.381088e+03 8.405304e+03 2.953013e+12 7.432851e+11 1.394018e+12 3.533288e+08 3.585299e+08 9.723153e+08
<GCONST> 2.280671e+02
<MIXTURE> 3 4.289182e-01
<MEAN> 12
 8.842784e+02 -7.499162e+01 -1.717377e+02 8.568844e+01 4.651067e+01 7.006752e+01 3.585692e+06 2.864352e+05 8.278022e+05 9.708181e+02 -2.013046e+03 -1.296296e+03
<VARIANCE> 12
 1.450828e+04 5.779252e+04 1.540548e+05 2.211177e+03 5.114483e+02 1.232307e+03 9.291896e+11 1.148758e+11 6.233300e+11 1.108023e+07 8.294808e+06 2.658679e+07
<GCONST> 2.050326e+02
<STATE> 5
<NUMMIXES> 3
<MIXTURE> 1 2.277786e-01
<MEAN> 12
 6.583581e+02 -1.232094e+02 -2.910294e+02 4.892010e+01 2.631572e+01 3.816052e+01 2.097495e+06 1.503884e+06 1.036172e+06 5.150862e+01 -4.894946e+02 -1.174005e+02
<VARIANCE> 12
 3.258301e+04 3.190022e+05 1.454335e+05 1.012021e+03 2.258361e+02 5.484894e+02 1.031786e+12 1.023795e+12 8.565785e+11 1.805360e+06 1.450511e+06 4.451058e+06
<GCONST> 2.023486e+02
<MIXTURE> 2 6.526437e-01
<MEAN> 12
 6.486595e+02 3.299607e+02 -5.496637e+02 9.639999e+00 8.032134e+00 1.074728e+01 2.030298e+06 1.443847e+06 1.467997e+06 -8.906060e+00 -1.544073e+01 1.357037e+01
<VARIANCE> 12
 3.041259e+04 2.119759e+05 2.408859e+04 3.325078e+01 2.003285e+01 3.268819e+01 8.331224e+11 5.774923e+11 5.298272e+11 5.276735e+03 6.240368e+03 9.629797e+03
<GCONST> 1.727280e+02
<MIXTURE> 3 1.195775e-01
<MEAN> 12
 4.539793e+02 -6.313151e+02 -4.983654e+01 3.083631e+01 1.256853e+01 2.242019e+01 1.011954e+06 3.177841e+06 6.817134e+04 -3.278651e+01 -1.053385e+02 -8.021421e+01
<VARIANCE> 12
 1.873734e+04 3.076262e+05 1.262022e+04 4.353095e+02 4.789880e+01 1.710977e+02 2.750227e+11 3.402185e+11 6.096255e+09 1.313716e+05 6.714681e+04 4.979709e+05
<GCONST> 1.805025e+02
<STATE> 6
<NUMMIXES> 3
<MIXTURE> 1 3.590088e-01
<MEAN> 12
 5.766762e+02 1.528518e+02 -2.967007e+02 1.887540e+02 1.118084e+02 1.480035e+02 2.191170e+06 1.255171e+06 1.701934e+06 4.349051e+03 -8.381557e+03 -4.715943e+03
<VARIANCE> 12
 1.506473e+05 2.540647e+05 2.873811e+05 1.104254e+04 3.439955e+03 6.516651e+03 3.294194e+12 1.843402e+12 2.415684e+12 3.205350e+08 2.421021e+08 6.730477e+08
<GCONST> 2.300225e+02
<MIXTURE> 2 1.595064e-01
<MEAN> 12
 4.510914e+02 4.348454e+02 -1.794693e+02 4.306692e+02 3.091970e+02 4.200451e+02 2.444929e+06 2.483805e+06 1.702679e+06 4.525480e+04 -9.495307e+04 -5.240357e+04
<VARIANCE> 12
 3.075475e+05 3.458644e+05 3.123344e+05 9.507073e+04 3.397161e+04 6.628945e+04 6.094032e+12 8.032440e+12 2.860409e+12 3.864678e+10 3.615340e+10 8.528645e+10
<GCONST> 2.547869e+02
<MIXTURE> 3 4.814848e-01
<MEAN> 12
 3.955094e+02 3.447015e+02 -3.052006e+02 7.604765e+01 4.933704e+01 5.872460e+01 1.378734e+06 2.101626e+06 1.504693e+06 4.533878e+02 -7.572541e+02 -3.646817e+02
<VARIANCE> 12
 1.496329e+05 3.479420e+05 2.409514e+05 2.142262e+03 8.296679e+02 1.365987e+03 1.336497e+12 3.230230e+12 1.901380e+12 1.472881e+07 8.103479e+06 1.703383e+07
<GCONST> 2.147950e+02
<TRANSP> 7
 0.000000e+00 4.761042e-01 5.238958e-01 0.000000e+00 0.000000e+00 0.000000e+00 0.000000e+00
 0.000000e+00 8.547185e-01 3.650073e-02 1.087808e-01 0.000000e+00 0.000000e+00 0.000000e+00
 0.000000e+00 0.000000e+00 8.421665e-01 4.700524e-02 1.108283e-01 0.000000e+00 0.000000e+00
 0.000000e+00 0.000000e+00 0.000000e+00 8.890378e-01 4.923402e-02 6.172819e-02 0.000000e+00
 0.000000e+00 0.000000e+00 0.000000e+00 0.000000e+00 8.658336e-01 2.042923e-02 1.137372e-01
 0.000000e+00 0.000000e+00 0.000000e+00 0.000000e+00 0.000000e+00 8.373344e-01 1.626657e-01
 0.000000e+00 0.000000e+00 0.000000e+00 0.000000e+00 0.000000e+00 0.000000e+00 0.000000e+00
<ENDHMM>
