~o
<STREAMINFO> 1 12
<VECSIZE> 12<NULLD><MFCC><DIAGC>
~h "Activity105"
<BEGINHMM>
<NUMSTATES> 7
<STATE> 2
<NUMMIXES> 2
<MIXTURE> 1 3.071586e-01
<MEAN> 12
 4.160890e+02 5.062466e+02 -4.278473e+02 3.408868e+02 2.536387e+02 3.238684e+02 2.725363e+06 2.570239e+06 1.460318e+06 -3.111925e+04 -6.080112e+04 -5.130247e+04
<VARIANCE> 12
 4.156686e+05 3.131036e+05 1.311060e+05 8.999835e+04 3.455405e+04 7.019091e+04 4.880675e+12 9.069859e+12 1.920028e+12 5.945304e+10 2.586183e+10 2.768754e+10
<GCONST> 2.526114e+02
<MIXTURE> 2 6.928414e-01
<MEAN> 12
 6.706707e+02 4.032567e+02 -4.571444e+02 6.431282e+01 4.349646e+01 4.905057e+01 2.660272e+06 1.160697e+06 1.171793e+06 8.818880e+02 -8.300347e+02 2.359392e+02
<VARIANCE> 12
 1.409105e+05 9.522652e+04 5.125845e+04 2.173349e+03 9.116786e+02 9.211871e+02 1.791129e+12 1.248595e+12 6.377709e+11 1.157807e+07 3.739120e+06 1.495906e+07
<GCONST> 2.087120e+02
<STATE> 3
<NUMMIXES> 2
<MIXTURE> 1 1.285858e-01
<MEAN> 12
 4.583530e+01 3.966608e+02 -6.376846e+02 1.449528e+02 8.622450e+01 1.205386e+02 5.766506e+05 2.474512e+06 2.440487e+06 7.525530e+03 -9.840980e+03 -1.329994e+04
<VARIANCE> 12
 1.201149e+05 3.908556e+05 1.308894e+05 1.843417e+04 3.946472e+03 1.570254e+04 4.249264e+11 6.504827e+12 3.708075e+12 7.866742e+08 4.244623e+08 2.142162e+09
<GCONST> 2.332281e+02
<MIXTURE> 2 8.714142e-01
<MEAN> 12
 6.650508e+02 3.628743e+02 -5.121821e+02 8.390432e+00 6.700137e+00 1.050693e+01 2.841111e+06 7.374594e+05 1.366644e+06 -5.746870e+00 -1.140540e+01 1.040505e+01
<VARIANCE> 12
 1.890638e+05 3.220088e+04 4.136617e+04 2.845483e+01 1.694665e+01 3.003576e+01 9.919246e+11 6.658002e+11 6.023299e+11 2.838265e+03 3.393786e+03 8.591939e+03
<GCONST> 1.719056e+02
<STATE> 4
<NUMMIXES> 2
<MIXTURE> 1 5.102988e-02
<MEAN> 12
 7.737350e+02 3.071439e+02 -2.014771e+02 1.072212e+02 5.608329e+01 8.073042e+01 3.423598e+06 9.685803e+05 4.658182e+05 7.864365e+02 -3.029212e+03 5.452686e+02
<VARIANCE> 12
 1.601250e+05 1.205954e+05 6.164523e+04 7.521101e+03 1.730438e+03 2.697925e+03 2.512330e+12 9.310014e+11 2.775968e+11 4.691742e+07 4.147829e+07 2.000124e+08
<GCONST> 2.178291e+02
<MIXTURE> 2 9.489701e-01
<MEAN> 12
 -1.169455e+02 7.312859e+02 -5.842386e+02 7.736245e+00 7.532430e+00 1.020635e+01 1.142824e+06 2.436465e+06 1.551520e+06 -6.791980e+00 -1.859597e+01 -6.549775e+00
<VARIANCE> 12
 2.402797e+05 6.655456e+03 3.443885e+03 2.082636e+01 1.805482e+01 3.010509e+01 2.726492e+11 3.138101e+11 9.762124e+10 3.376600e+03 5.123371e+03 5.400146e+03
<GCONST> 1.640942e+02
<STATE> 5
<NUMMIXES> 2
<MIXTURE> 1 4.339466e-01
<MEAN> 12
 1.160683e+02 3.894038e+02 -7.914379e+02 8.306175e+01 5.144415e+01 6.765611e+01 8.414645e+05 1.381706e+06 3.056675e+06 7.610997e+02 -2.222043e+03 -6.253929e+02
<VARIANCE> 12
 1.720725e+05 1.548679e+05 5.208854e+04 3.483032e+03 1.398128e+03 2.291788e+03 1.137169e+12 2.501441e+12 2.266163e+12 4.543703e+07 2.840272e+07 7.783335e+07
<GCONST> 2.177773e+02
<MIXTURE> 2 5.660534e-01
<MEAN> 12
 1.653729e+02 5.829553e+02 -5.794199e+02 1.921514e+01 1.365804e+01 1.789912e+01 1.467718e+06 1.831645e+06 1.749237e+06 1.687984e+00 -5.877785e+01 1.303670e+01
<VARIANCE> 12
 2.987594e+05 6.717829e+04 5.295983e+04 1.871714e+02 7.896362e+01 1.307329e+02 1.561745e+12 1.328035e+12 1.249601e+12 1.131019e+05 7.119183e+04 1.392873e+05
<GCONST> 1.896273e+02
<STATE> 6
<NUMMIXES> 2
<MIXTURE> 1 4.238530e-01
<MEAN> 12
 -4.166832e+01 2.137956e+02 -1.012048e+03 2.729982e+01 1.759579e+01 1.961786e+01 1.404128e+05 2.984067e+05 4.616117e+06 4.242205e+01 -1.074471e+02 -3.599291e+01
<VARIANCE> 12
 2.929335e+04 2.051804e+04 1.506100e+03 5.297681e+02 2.896995e+02 2.286527e+02 2.842293e+10 7.610764e+10 1.242950e+11 1.168478e+06 4.167541e+05 7.803225e+05
<GCONST> 1.821102e+02
<MIXTURE> 2 5.761471e-01
<MEAN> 12
 9.459819e+02 3.753991e+02 -4.072973e+01 1.102321e+01 7.987799e+00 1.166195e+01 4.028536e+06 6.592354e+05 4.517461e+04 -1.747626e+01 -4.594599e+01 -6.083961e+00
<VARIANCE> 12
 3.502244e+02 5.573240e+03 8.355583e+03 5.768358e+01 2.251302e+01 6.146150e+01 2.532290e+10 4.771790e+10 3.371688e+09 1.401399e+04 1.875529e+04 3.410466e+04
<GCONST> 1.571635e+02
<TRANSP> 7
 0.000000e+00 1.958429e-01 8.041571e-01 0.000000e+00 0.000000e+00 0.000000e+00 0.000000e+00
 0.000000e+00 8.990355e-01 5.362690e-02 4.733766e-02 0.000000e+00 0.000000e+00 0.000000e+00
 0.000000e+00 0.000000e+00 7.121299e-01 1.450625e-01 1.428077e-01 0.000000e+00 0.000000e+00
 0.000000e+00 0.000000e+00 0.000000e+00 9.247299e-01 7.332670e-02 1.943357e-03 0.000000e+00
 0.000000e+00 0.000000e+00 0.000000e+00 0.000000e+00 7.437394e-01 6.193011e-02 1.943306e-01
 0.000000e+00 0.000000e+00 0.000000e+00 0.000000e+00 0.000000e+00 9.328400e-01 6.715992e-02
 0.000000e+00 0.000000e+00 0.000000e+00 0.000000e+00 0.000000e+00 0.000000e+00 0.000000e+00
<ENDHMM>
