~o
<STREAMINFO> 1 12
<VECSIZE> 12<NULLD><MFCC><DIAGC>
~h "Activity101"
<BEGINHMM>
<NUMSTATES> 7
<STATE> 2
<NUMMIXES> 3
<MIXTURE> 1 3.572406e-01
<MEAN> 12
 1.484595e+02 1.040227e+03 -8.711137e+01 9.674244e+00 9.105115e+00 1.078678e+01 1.112929e+05 4.870804e+06 7.575757e+04 -6.486176e+00 -1.661067e+01 2.137728e+00
<VARIANCE> 12
 2.684577e+03 3.243301e+02 9.239208e+03 2.727754e+01 2.351217e+01 3.142422e+01 4.409286e+09 2.848432e+10 2.877207e+09 5.306075e+03 6.317188e+03 7.196267e+03
<GCONST> 1.490426e+02
<MIXTURE> 2 2.101703e-01
<MEAN> 12
 1.382084e+02 1.044046e+03 -1.001182e+02 3.580440e+01 4.087956e+01 3.118302e+01 1.481281e+05 4.937406e+06 1.378901e+05 4.104940e+01 -5.705858e+02 7.819072e+01
<VARIANCE> 12
 1.356420e+04 6.883115e+03 2.044586e+04 4.603351e+02 5.553687e+02 3.024597e+02 2.305085e+10 6.229662e+11 2.013124e+10 2.327678e+06 1.712237e+06 1.416609e+06
<GCONST> 1.864174e+02
<MIXTURE> 3 4.325890e-01
<MEAN> 12
 1.296157e+02 1.041248e+03 -1.198484e+02 1.748300e+01 1.856687e+01 1.724237e+01 9.497369e+04 4.888405e+06 1.134482e+05 1.556050e+01 -9.399709e+01 1.799564e+01
<VARIANCE> 12
 4.260515e+03 2.068807e+03 1.080793e+04 9.000249e+01 1.003301e+02 8.331737e+01 5.322480e+09 1.817350e+11 1.025587e+10 8.543556e+04 8.002089e+04 7.607270e+04
<GCONST> 1.661225e+02
<STATE> 3
<NUMMIXES> 3
<MIXTURE> 1 4.119138e-01
<MEAN> 12
 5.190651e+02 5.788881e+02 -1.225507e+02 9.388006e+01 6.306351e+01 8.104595e+01 1.688426e+06 2.080648e+06 1.248770e+06 8.770353e+02 -1.924002e+03 -8.672717e+02
<VARIANCE> 12
 1.049705e+05 1.268411e+05 2.618545e+05 2.822177e+03 1.180525e+03 1.964439e+03 1.962715e+12 2.400684e+12 1.574706e+12 2.785464e+07 2.409193e+07 4.704936e+07
<GCONST> 2.171479e+02
<MIXTURE> 2 1.948823e-01
<MEAN> 12
 4.880089e+02 6.691866e+02 -1.294761e+02 2.412292e+02 1.768820e+02 2.381381e+02 1.795190e+06 2.838343e+06 1.397090e+06 1.229469e+04 -2.580318e+04 -1.282552e+04
<VARIANCE> 12
 1.520298e+05 1.792792e+05 2.843561e+05 2.117974e+04 1.034942e+04 2.119911e+04 3.360360e+12 6.065110e+12 2.421415e+12 2.207286e+09 3.592706e+09 4.643011e+09
<GCONST> 2.403761e+02
<MIXTURE> 3 3.932039e-01
<MEAN> 12
 5.606956e+02 5.215986e+02 -1.943892e+01 3.432689e+01 2.308483e+01 2.798839e+01 1.828350e+06 1.670956e+06 1.325437e+06 7.033897e+01 -1.468168e+02 -3.741291e+01
<VARIANCE> 12
 9.182964e+04 9.921216e+04 2.940912e+05 4.613528e+02 1.910245e+02 2.751063e+02 1.611261e+12 1.379160e+12 1.337668e+12 5.239368e+05 3.932231e+05 7.630319e+05
<GCONST> 1.981614e+02
<STATE> 4
<NUMMIXES> 3
<MIXTURE> 1 4.418309e-01
<MEAN> 12
 1.186142e+02 1.035953e+03 1.618611e+01 2.705255e+01 2.562263e+01 2.272210e+01 1.794298e+05 4.842772e+06 6.042701e+04 8.144574e+01 -1.754956e+02 3.270943e+01
<VARIANCE> 12
 2.568188e+04 2.886135e+03 1.308333e+04 2.693414e+02 2.467065e+02 1.810359e+02 3.085185e+10 2.520964e+11 3.347019e+09 4.949524e+05 3.115002e+05 3.724290e+05
<GCONST> 1.768838e+02
<MIXTURE> 2 3.709246e-01
<MEAN> 12
 1.740448e+02 1.012823e+03 3.204011e+01 6.309724e+01 6.161975e+01 5.144631e+01 4.240760e+05 4.679168e+06 1.283305e+05 4.284303e+02 -1.520811e+03 -1.339014e+02
<VARIANCE> 12
 6.322404e+04 1.341453e+04 2.699620e+04 1.510007e+03 1.326990e+03 9.815952e+02 1.918242e+11 1.148144e+12 2.044823e+10 1.762559e+07 1.180928e+07 1.181025e+07
<GCONST> 2.009601e+02
<MIXTURE> 3 1.872444e-01
<MEAN> 12
 4.587332e+02 8.729142e+02 4.367405e+01 1.943219e+01 1.544404e+01 1.783565e+01 1.004956e+06 3.450390e+06 4.262686e+05 1.194561e+01 -5.583211e+01 -1.495332e+01
<VARIANCE> 12
 1.285781e+04 4.753731e+03 9.278348e+04 1.661355e+02 9.524998e+01 1.175764e+02 1.925684e+11 2.972358e+11 1.006368e+11 1.034794e+05 7.062191e+04 1.234846e+05
<GCONST> 1.780297e+02
<STATE> 5
<NUMMIXES> 3
<MIXTURE> 1 4.331529e-01
<MEAN> 12
 3.528239e+02 8.299319e+02 -1.733198e+01 1.281110e+02 8.978910e+01 1.145596e+02 1.121746e+06 3.666409e+06 7.969929e+05 2.012878e+03 -4.978986e+03 -2.422099e+03
<VARIANCE> 12
 1.221409e+05 1.252549e+05 1.748967e+05 7.226063e+03 3.350119e+03 5.597125e+03 1.567843e+12 5.395625e+12 8.896420e+11 1.617051e+08 1.380409e+08 2.567309e+08
<GCONST> 2.251290e+02
<MIXTURE> 2 1.362388e-01
<MEAN> 12
 3.460550e+02 8.853157e+02 -8.710880e+01 4.339022e+02 3.006795e+02 4.218290e+02 1.957569e+06 4.542452e+06 1.710616e+06 4.397962e+04 -8.444723e+04 -6.258241e+04
<VARIANCE> 12
 2.724309e+05 2.185656e+05 3.320092e+05 7.735673e+04 3.623736e+04 8.115348e+04 8.200636e+12 1.089090e+13 4.438617e+12 3.297306e+10 3.557288e+10 7.202216e+10
<GCONST> 2.550252e+02
<MIXTURE> 3 4.306083e-01
<MEAN> 12
 6.639942e+02 3.662123e+02 2.111555e+02 1.587372e+01 1.101259e+01 1.539006e+01 2.258592e+06 9.275789e+05 1.402989e+06 2.061523e+00 -4.278788e+01 8.292121e+00
<VARIANCE> 12
 6.100680e+04 7.200777e+04 2.671690e+05 1.007881e+02 4.581261e+01 8.214344e+01 1.418447e+12 7.427360e+11 1.402133e+12 3.197302e+04 3.308994e+04 5.704683e+04
<GCONST> 1.846139e+02
<STATE> 6
<NUMMIXES> 3
<MIXTURE> 1 4.207943e-01
<MEAN> 12
 2.075366e+02 1.019656e+03 -4.734599e+01 1.166128e+01 1.051674e+01 1.211786e+01 2.219352e+05 4.681910e+06 1.185471e+05 -1.844156e+00 -3.221299e+01 4.401953e+00
<VARIANCE> 12
 6.234453e+03 7.183470e+02 2.408901e+04 4.571245e+01 3.346690e+01 4.274270e+01 1.982595e+10 6.098082e+10 1.203706e+10 1.202423e+04 1.213413e+04 1.540864e+04
<GCONST> 1.587434e+02
<MIXTURE> 2 2.007936e-01
<MEAN> 12
 1.835876e+02 1.025422e+03 -5.459318e+01 6.752964e+01 5.868612e+01 5.816815e+01 3.542514e+05 4.802158e+06 3.267394e+05 2.071497e+02 -1.513935e+03 -1.952527e+02
<VARIANCE> 12
 4.411395e+04 1.514308e+04 6.903648e+04 1.764676e+03 1.223532e+03 1.288943e+03 1.406006e+11 1.343214e+12 1.334773e+11 1.907501e+07 1.321971e+07 1.999729e+07
<GCONST> 2.044482e+02
<MIXTURE> 3 3.784121e-01
<MEAN> 12
 1.767844e+02 1.012530e+03 -9.609490e+01 2.723868e+01 2.482351e+01 2.474376e+01 2.212889e+05 4.631737e+06 2.292962e+05 3.116180e+01 -1.841890e+02 2.107014e+01
<VARIANCE> 12
 1.781079e+04 3.974975e+03 4.163012e+04 2.480047e+02 2.021964e+02 1.924606e+02 4.269946e+10 3.314478e+11 4.871419e+10 4.070787e+05 3.444074e+05 4.089294e+05
<GCONST> 1.810501e+02
<TRANSP> 7
 0.000000e+00 5.367734e-01 4.632266e-01 0.000000e+00 0.000000e+00 0.000000e+00 0.000000e+00
 0.000000e+00 8.945283e-01 6.019112e-03 9.945255e-02 0.000000e+00 0.000000e+00 0.000000e+00
 0.000000e+00 0.000000e+00 8.949699e-01 3.844645e-02 6.658372e-02 0.000000e+00 0.000000e+00
 0.000000e+00 0.000000e+00 0.000000e+00 8.294665e-01 3.853851e-02 1.319950e-01 0.000000e+00
 0.000000e+00 0.000000e+00 0.000000e+00 0.000000e+00 8.357641e-01 3.263297e-02 1.316029e-01
 0.000000e+00 0.000000e+00 0.000000e+00 0.000000e+00 0.000000e+00 8.123389e-01 1.876610e-01
 0.000000e+00 0.000000e+00 0.000000e+00 0.000000e+00 0.000000e+00 0.000000e+00 0.000000e+00
<ENDHMM>
