~o
<STREAMINFO> 1 12
<VECSIZE> 12<NULLD><MFCC><DIAGC>
~h "Activity102"
<BEGINHMM>
<NUMSTATES> 7
<STATE> 2
<NUMMIXES> 3
<MIXTURE> 1 2.446130e-01
<MEAN> 12
 5.302594e+02 6.352088e+02 9.406152e+01 3.297744e+02 2.499999e+02 3.488842e+02 2.343668e+06 3.525606e+06 1.703626e+06 1.290654e+04 -5.420647e+04 -1.686696e+04
<VARIANCE> 12
 2.139945e+05 3.695933e+05 3.434488e+05 4.531542e+04 2.854770e+04 5.811339e+04 6.439198e+12 1.953756e+13 3.907359e+12 1.239554e+10 2.285827e+10 2.649887e+10
<GCONST> 2.520303e+02
<MIXTURE> 2 5.169663e-01
<MEAN> 12
 5.845540e+02 5.059011e+02 2.064304e+01 1.056426e+02 7.913752e+01 9.532349e+01 2.062576e+06 2.111199e+06 9.708894e+05 6.742451e+02 -2.828219e+03 -1.527011e+03
<VARIANCE> 12
 1.156150e+05 2.124826e+05 2.141098e+05 5.066752e+03 2.477554e+03 3.724963e+03 2.645952e+12 4.049726e+12 1.133634e+12 7.116175e+07 7.107180e+07 1.152837e+08
<GCONST> 2.229344e+02
<MIXTURE> 3 2.384208e-01
<MEAN> 12
 2.829077e+02 9.952418e+02 3.844607e+01 2.146326e+01 2.222995e+01 2.235846e+01 4.082186e+05 4.472542e+06 1.432934e+05 -1.001250e+00 -1.573563e+02 -9.973945e+00
<VARIANCE> 12
 1.061969e+04 3.332105e+03 3.029114e+04 1.938584e+02 2.451039e+02 2.086622e+02 7.746801e+10 2.648307e+11 2.989545e+10 2.836658e+05 2.863141e+05 2.794828e+05
<GCONST> 1.790220e+02
<STATE> 3
<NUMMIXES> 3
<MIXTURE> 1 4.232427e-01
<MEAN> 12
 2.108016e+02 1.218073e+03 -1.584590e+02 1.032264e+02 1.250378e+02 4.780112e+01 3.227048e+05 6.822502e+06 1.861427e+05 -4.810725e+03 -2.281506e+03 -1.618456e+02
<VARIANCE> 12
 2.489531e+04 2.990369e+04 1.579318e+04 4.107604e+03 4.053078e+03 8.361467e+02 1.206738e+11 3.530710e+12 2.836572e+10 1.673767e+08 4.553516e+07 2.547431e+07
<GCONST> 2.076069e+02
<MIXTURE> 2 1.315100e-01
<MEAN> 12
 8.531668e+02 1.008535e+02 4.055139e+01 4.012720e+01 2.634269e+01 2.868774e+01 3.426474e+06 2.707414e+05 9.301204e+05 9.005537e+01 -1.512028e+02 -3.907161e+01
<VARIANCE> 12
 3.338325e+04 4.991242e+04 2.049844e+05 7.521252e+02 3.120082e+02 4.130822e+02 1.340512e+12 9.923105e+10 8.002689e+11 1.439169e+06 8.965622e+05 1.788373e+06
<GCONST> 1.968444e+02
<MIXTURE> 3 4.452471e-01
<MEAN> 12
 8.761636e+01 9.461622e+02 -8.459455e+01 3.392830e+01 5.624054e+01 2.455366e+01 7.936524e+04 4.110896e+06 9.305294e+04 1.026100e+02 -3.794522e+02 1.037098e+02
<VARIANCE> 12
 9.742447e+03 1.775308e+04 1.340901e+04 4.022990e+02 1.418709e+03 2.238328e+02 7.044571e+09 1.335252e+12 1.413410e+10 4.254201e+06 2.291877e+06 7.928190e+05
<GCONST> 1.866515e+02
<STATE> 4
<NUMMIXES> 3
<MIXTURE> 1 3.783658e-01
<MEAN> 12
 2.274321e+02 9.593603e+02 5.923517e+01 4.445117e+01 4.928577e+01 3.851790e+01 4.093605e+05 4.221396e+06 1.350248e+05 8.199786e+01 -3.798525e+02 1.042177e+01
<VARIANCE> 12
 3.891508e+04 1.738050e+04 2.622672e+04 6.864686e+02 9.185941e+02 5.287844e+02 1.716480e+11 1.264847e+12 2.186233e+10 4.456461e+06 3.580667e+06 3.026757e+06
<GCONST> 1.950529e+02
<MIXTURE> 2 1.867931e-01
<MEAN> 12
 3.425649e+02 1.303320e+03 1.352284e+02 2.023455e+02 1.989340e+02 1.538403e+02 1.020153e+06 8.420712e+06 5.694880e+05 3.543101e+03 -6.263562e+03 -1.451404e+03
<VARIANCE> 12
 9.967037e+04 1.657743e+05 1.021431e+05 1.383913e+04 1.265588e+04 1.168731e+04 1.314862e+12 2.224067e+13 4.505363e+11 1.679633e+09 1.071151e+09 1.381964e+09
<GCONST> 2.340161e+02
<MIXTURE> 3 4.348411e-01
<MEAN> 12
 3.053263e+02 1.147405e+03 8.193728e+01 9.423434e+01 1.164213e+02 7.312385e+01 7.296731e+05 6.138666e+06 2.236375e+05 -3.799629e+01 -1.430235e+03 -3.640613e+02
<VARIANCE> 12
 6.721243e+04 4.558757e+04 4.187059e+04 3.092983e+03 3.980837e+03 1.792404e+03 5.025918e+11 5.007504e+12 5.732148e+10 1.127995e+08 6.827150e+07 4.744082e+07
<GCONST> 2.135694e+02
<STATE> 5
<NUMMIXES> 3
<MIXTURE> 1 3.480703e-01
<MEAN> 12
 4.523987e+02 5.060013e+02 1.021165e+02 1.352964e+02 1.080546e+02 1.306676e+02 1.363430e+06 2.301490e+06 1.953939e+06 1.716199e+03 -5.498877e+03 -2.143565e+03
<VARIANCE> 12
 9.566839e+04 2.540300e+05 4.218304e+05 6.555355e+03 3.278703e+03 5.860629e+03 1.839241e+12 5.511840e+12 2.747243e+12 2.371897e+08 2.157801e+08 4.124665e+08
<GCONST> 2.290117e+02
<MIXTURE> 2 3.592728e-01
<MEAN> 12
 3.597751e+02 3.794471e+02 2.061019e+02 3.836812e+01 3.205249e+01 3.560013e+01 8.397766e+05 1.165978e+06 2.399555e+06 1.363555e+02 -1.115511e+02 -3.371379e+01
<VARIANCE> 12
 5.701235e+04 1.150168e+05 4.906168e+05 6.260369e+02 4.789100e+02 5.841115e+02 4.899498e+11 1.233380e+12 1.725671e+12 1.500122e+06 1.650486e+06 1.850502e+06
<GCONST> 2.026464e+02
<MIXTURE> 3 2.926568e-01
<MEAN> 12
 6.814279e+02 6.378807e+02 1.332249e+02 7.123190e+01 5.309980e+01 5.668146e+01 2.281534e+06 2.381642e+06 5.863239e+05 1.722853e+02 -4.635476e+02 -3.555587e+02
<VARIANCE> 12
 4.210079e+04 1.219833e+05 1.122312e+05 1.823453e+03 1.055447e+03 1.042953e+03 1.561608e+12 3.100834e+12 2.781487e+11 1.118316e+07 9.237961e+06 1.426598e+07
<GCONST> 2.093953e+02
<STATE> 6
<NUMMIXES> 3
<MIXTURE> 1 4.384986e-02
<MEAN> 12
 3.374583e+02 9.887148e+02 -1.012866e+02 3.415618e+02 2.572133e+02 3.058475e+02 1.910960e+06 6.197644e+06 1.820176e+06 2.704171e+04 -3.040931e+04 9.948052e+03
<VARIANCE> 12
 2.783748e+05 3.880773e+05 3.708257e+05 6.163890e+04 3.706230e+04 4.711482e+04 6.258251e+12 5.027700e+13 5.902834e+12 3.620209e+10 3.041873e+10 3.327043e+10
<GCONST> 2.556920e+02
<MIXTURE> 2 4.363169e-01
<MEAN> 12
 1.675392e+02 1.110740e+03 -1.257230e+02 7.007838e+01 8.418945e+01 4.405059e+01 2.131852e+05 5.669288e+06 1.975843e+05 -1.249167e+03 -1.367053e+03 2.002540e+02
<VARIANCE> 12
 1.828622e+04 2.489219e+04 2.770343e+04 1.914907e+03 2.335243e+03 6.999643e+02 4.599044e+10 2.598275e+12 3.963375e+10 3.943848e+07 1.587672e+07 9.444430e+06
<GCONST> 2.017564e+02
<MIXTURE> 3 5.198333e-01
<MEAN> 12
 1.400603e+02 1.003695e+03 -9.179271e+01 2.395101e+01 2.547701e+01 2.152136e+01 1.299560e+05 4.565418e+06 1.163799e+05 1.061571e+01 -1.551083e+02 6.398312e+01
<VARIANCE> 12
 9.167883e+03 7.039729e+03 1.735645e+04 2.266381e+02 2.831647e+02 1.777824e+02 1.612505e+10 5.458732e+11 1.459274e+10 4.065570e+05 3.116702e+05 2.699234e+05
<GCONST> 1.780531e+02
<TRANSP> 7
 0.000000e+00 4.415012e-01 5.584988e-01 0.000000e+00 0.000000e+00 0.000000e+00 0.000000e+00
 0.000000e+00 7.978460e-01 4.289011e-02 1.592639e-01 0.000000e+00 0.000000e+00 0.000000e+00
 0.000000e+00 0.000000e+00 8.618928e-01 1.138479e-01 2.425929e-02 0.000000e+00 0.000000e+00
 0.000000e+00 0.000000e+00 0.000000e+00 8.690848e-01 4.135770e-02 8.955748e-02 0.000000e+00
 0.000000e+00 0.000000e+00 0.000000e+00 0.000000e+00 8.377290e-01 1.911120e-02 1.431597e-01
 0.000000e+00 0.000000e+00 0.000000e+00 0.000000e+00 0.000000e+00 8.328028e-01 1.671973e-01
 0.000000e+00 0.000000e+00 0.000000e+00 0.000000e+00 0.000000e+00 0.000000e+00 0.000000e+00
<ENDHMM>
