~o
<STREAMINFO> 1 12
<VECSIZE> 12<NULLD><MFCC><DIAGC>
~h "Activity101"
<BEGINHMM>
<NUMSTATES> 7
<STATE> 2
<NUMMIXES> 3
<MIXTURE> 1 3.572406e-01
<MEAN> 12
 1.484595e+02 1.040227e+03 -8.711137e+01 9.674244e+00 9.105115e+00 1.078678e+01 1.112929e+05 4.870804e+06 7.575757e+04 -6.486176e+00 -1.661067e+01 2.137728e+00
<VARIANCE> 12
 2.684577e+03 3.243301e+02 9.239208e+03 2.727754e+01 2.351217e+01 3.142422e+01 4.409286e+09 2.848432e+10 2.877207e+09 5.306075e+03 6.317188e+03 7.196267e+03
<GCONST> 1.490426e+02
<MIXTURE> 2 2.101703e-01
<MEAN> 12
 1.382084e+02 1.044046e+03 -1.001182e+02 3.580440e+01 4.087956e+01 3.118302e+01 1.481281e+05 4.937406e+06 1.378901e+05 4.104940e+01 -5.705858e+02 7.819072e+01
<VARIANCE> 12
 1.356420e+04 6.883115e+03 2.044586e+04 4.603351e+02 5.553687e+02 3.024597e+02 2.305085e+10 6.229662e+11 2.013124e+10 2.327678e+06 1.712237e+06 1.416609e+06
<GCONST> 1.864174e+02
<MIXTURE> 3 4.325890e-01
<MEAN> 12
 1.296157e+02 1.041248e+03 -1.198484e+02 1.748300e+01 1.856687e+01 1.724237e+01 9.497369e+04 4.888405e+06 1.134482e+05 1.556050e+01 -9.399709e+01 1.799564e+01
<VARIANCE> 12
 4.260515e+03 2.068807e+03 1.080793e+04 9.000249e+01 1.003301e+02 8.331737e+01 5.322480e+09 1.817350e+11 1.025587e+10 8.543556e+04 8.002089e+04 7.607270e+04
<GCONST> 1.661225e+02
<STATE> 3
<NUMMIXES> 3
<MIXTURE> 1 4.119138e-01
<MEAN> 12
 5.190651e+02 5.788881e+02 -1.225507e+02 9.388006e+01 6.306351e+01 8.104595e+01 1.688426e+06 2.080648e+06 1.248770e+06 8.770353e+02 -1.924002e+03 -8.672717e+02
<VARIANCE> 12
 1.049705e+05 1.268411e+05 2.618545e+05 2.822177e+03 1.180525e+03 1.964439e+03 1.962715e+12 2.400684e+12 1.574706e+12 2.785464e+07 2.409193e+07 4.704936e+07
<GCONST> 2.171479e+02
<MIXTURE> 2 1.948823e-01
<MEAN> 12
 4.880089e+02 6.691866e+02 -1.294761e+02 2.412292e+02 1.768820e+02 2.381381e+02 1.795190e+06 2.838343e+06 1.397090e+06 1.229469e+04 -2.580318e+04 -1.282552e+04
<VARIANCE> 12
 1.520298e+05 1.792792e+05 2.843561e+05 2.117974e+04 1.034942e+04 2.119911e+04 3.360360e+12 6.065110e+12 2.421415e+12 2.207286e+09 3.592706e+09 4.643011e+09
<GCONST> 2.403761e+02
<MIXTURE> 3 3.932039e-01
<MEAN> 12
 5.606956e+02 5.215986e+02 -1.943892e+01 3.432689e+01 2.308483e+01 2.798839e+01 1.828350e+06 1.670956e+06 1.325437e+06 7.033897e+01 -1.468168e+02 -3.741291e+01
<VARIANCE> 12
 9.182964e+04 9.921216e+04 2.940912e+05 4.613528e+02 1.910245e+02 2.751063e+02 1.611261e+12 1.379160e+12 1.337668e+12 5.239368e+05 3.932231e+05 7.630319e+05
<GCONST> 1.981614e+02
<STATE> 4
<NUMMIXES> 3
<MIXTURE> 1 4.418309e-01
<MEAN> 12
 1.186142e+02 1.035953e+03 1.618611e+01 2.705255e+01 2.562263e+01 2.272210e+01 1.794298e+05 4.842772e+06 6.042701e+04 8.144574e+01 -1.754956e+02 3.270943e+01
<VARIANCE> 12
 2.568188e+04 2.886135e+03 1.308333e+04 2.693414e+02 2.467065e+02 1.810359e+02 3.085185e+10 2.520964e+11 3.347019e+09 4.949524e+05 3.115002e+05 3.724290e+05
<GCONST> 1.768838e+02
<MIXTURE> 2 3.709246e-01
<MEAN> 12
 1.740448e+02 1.012823e+03 3.204011e+01 6.309724e+01 6.161975e+01 5.144631e+01 4.240760e+05 4.679168e+06 1.283305e+05 4.284303e+02 -1.520811e+03 -1.339014e+02
<VARIANCE> 12
 6.322404e+04 1.341453e+04 2.699620e+04 1.510007e+03 1.326990e+03 9.815952e+02 1.918242e+11 1.148144e+12 2.044823e+10 1.762559e+07 1.180928e+07 1.181025e+07
<GCONST> 2.009601e+02
<MIXTURE> 3 1.872444e-01
<MEAN> 12
 4.587332e+02 8.729142e+02 4.367405e+01 1.943219e+01 1.544404e+01 1.783565e+01 1.004956e+06 3.450390e+06 4.262686e+05 1.194561e+01 -5.583211e+01 -1.495332e+01
<VARIANCE> 12
 1.285781e+04 4.753731e+03 9.278348e+04 1.661355e+02 9.524998e+01 1.175764e+02 1.925684e+11 2.972358e+11 1.006368e+11 1.034794e+05 7.062191e+04 1.234846e+05
<GCONST> 1.780297e+02
<STATE> 5
<NUMMIXES> 3
<MIXTURE> 1 4.331529e-01
<MEAN> 12
 3.528239e+02 8.299319e+02 -1.733198e+01 1.281110e+02 8.978910e+01 1.145596e+02 1.121746e+06 3.666409e+06 7.969929e+05 2.012878e+03 -4.978986e+03 -2.422099e+03
<VARIANCE> 12
 1.221409e+05 1.252549e+05 1.748967e+05 7.226063e+03 3.350119e+03 5.597125e+03 1.567843e+12 5.395625e+12 8.896420e+11 1.617051e+08 1.380409e+08 2.567309e+08
<GCONST> 2.251290e+02
<MIXTURE> 2 1.362388e-01
<MEAN> 12
 3.460550e+02 8.853157e+02 -8.710880e+01 4.339022e+02 3.006795e+02 4.218290e+02 1.957569e+06 4.542452e+06 1.710616e+06 4.397962e+04 -8.444723e+04 -6.258241e+04
<VARIANCE> 12
 2.724309e+05 2.185656e+05 3.320092e+05 7.735673e+04 3.623736e+04 8.115348e+04 8.200636e+12 1.089090e+13 4.438617e+12 3.297306e+10 3.557288e+10 7.202216e+10
<GCONST> 2.550252e+02
<MIXTURE> 3 4.306083e-01
<MEAN> 12
 6.639942e+02 3.662123e+02 2.111555e+02 1.587372e+01 1.101259e+01 1.539006e+01 2.258592e+06 9.275789e+05 1.402989e+06 2.061523e+00 -4.278788e+01 8.292121e+00
<VARIANCE> 12
 6.100680e+04 7.200777e+04 2.671690e+05 1.007881e+02 4.581261e+01 8.214344e+01 1.418447e+12 7.427360e+11 1.402133e+12 3.197302e+04 3.308994e+04 5.704683e+04
<GCONST> 1.846139e+02
<STATE> 6
<NUMMIXES> 3
<MIXTURE> 1 4.207943e-01
<MEAN> 12
 2.075366e+02 1.019656e+03 -4.734599e+01 1.166128e+01 1.051674e+01 1.211786e+01 2.219352e+05 4.681910e+06 1.185471e+05 -1.844156e+00 -3.221299e+01 4.401953e+00
<VARIANCE> 12
 6.234453e+03 7.183470e+02 2.408901e+04 4.571245e+01 3.346690e+01 4.274270e+01 1.982595e+10 6.098082e+10 1.203706e+10 1.202423e+04 1.213413e+04 1.540864e+04
<GCONST> 1.587434e+02
<MIXTURE> 2 2.007936e-01
<MEAN> 12
 1.835876e+02 1.025422e+03 -5.459318e+01 6.752964e+01 5.868612e+01 5.816815e+01 3.542514e+05 4.802158e+06 3.267394e+05 2.071497e+02 -1.513935e+03 -1.952527e+02
<VARIANCE> 12
 4.411395e+04 1.514308e+04 6.903648e+04 1.764676e+03 1.223532e+03 1.288943e+03 1.406006e+11 1.343214e+12 1.334773e+11 1.907501e+07 1.321971e+07 1.999729e+07
<GCONST> 2.044482e+02
<MIXTURE> 3 3.784121e-01
<MEAN> 12
 1.767844e+02 1.012530e+03 -9.609490e+01 2.723868e+01 2.482351e+01 2.474376e+01 2.212889e+05 4.631737e+06 2.292962e+05 3.116180e+01 -1.841890e+02 2.107014e+01
<VARIANCE> 12
 1.781079e+04 3.974975e+03 4.163012e+04 2.480047e+02 2.021964e+02 1.924606e+02 4.269946e+10 3.314478e+11 4.871419e+10 4.070787e+05 3.444074e+05 4.089294e+05
<GCONST> 1.810501e+02
<TRANSP> 7
 0.000000e+00 5.367734e-01 4.632266e-01 0.000000e+00 0.000000e+00 0.000000e+00 0.000000e+00
 0.000000e+00 8.945283e-01 6.019112e-03 9.945255e-02 0.000000e+00 0.000000e+00 0.000000e+00
 0.000000e+00 0.000000e+00 8.949699e-01 3.844645e-02 6.658372e-02 0.000000e+00 0.000000e+00
 0.000000e+00 0.000000e+00 0.000000e+00 8.294665e-01 3.853851e-02 1.319950e-01 0.000000e+00
 0.000000e+00 0.000000e+00 0.000000e+00 0.000000e+00 8.357641e-01 3.263297e-02 1.316029e-01
 0.000000e+00 0.000000e+00 0.000000e+00 0.000000e+00 0.000000e+00 8.123389e-01 1.876610e-01
 0.000000e+00 0.000000e+00 0.000000e+00 0.000000e+00 0.000000e+00 0.000000e+00 0.000000e+00
<ENDHMM>
~h "Activity102"
<BEGINHMM>
<NUMSTATES> 7
<STATE> 2
<NUMMIXES> 3
<MIXTURE> 1 2.446130e-01
<MEAN> 12
 5.302594e+02 6.352088e+02 9.406152e+01 3.297744e+02 2.499999e+02 3.488842e+02 2.343668e+06 3.525606e+06 1.703626e+06 1.290654e+04 -5.420647e+04 -1.686696e+04
<VARIANCE> 12
 2.139945e+05 3.695933e+05 3.434488e+05 4.531542e+04 2.854770e+04 5.811339e+04 6.439198e+12 1.953756e+13 3.907359e+12 1.239554e+10 2.285827e+10 2.649887e+10
<GCONST> 2.520303e+02
<MIXTURE> 2 5.169663e-01
<MEAN> 12
 5.845540e+02 5.059011e+02 2.064304e+01 1.056426e+02 7.913752e+01 9.532349e+01 2.062576e+06 2.111199e+06 9.708894e+05 6.742451e+02 -2.828219e+03 -1.527011e+03
<VARIANCE> 12
 1.156150e+05 2.124826e+05 2.141098e+05 5.066752e+03 2.477554e+03 3.724963e+03 2.645952e+12 4.049726e+12 1.133634e+12 7.116175e+07 7.107180e+07 1.152837e+08
<GCONST> 2.229344e+02
<MIXTURE> 3 2.384208e-01
<MEAN> 12
 2.829077e+02 9.952418e+02 3.844607e+01 2.146326e+01 2.222995e+01 2.235846e+01 4.082186e+05 4.472542e+06 1.432934e+05 -1.001250e+00 -1.573563e+02 -9.973945e+00
<VARIANCE> 12
 1.061969e+04 3.332105e+03 3.029114e+04 1.938584e+02 2.451039e+02 2.086622e+02 7.746801e+10 2.648307e+11 2.989545e+10 2.836658e+05 2.863141e+05 2.794828e+05
<GCONST> 1.790220e+02
<STATE> 3
<NUMMIXES> 3
<MIXTURE> 1 4.232427e-01
<MEAN> 12
 2.108016e+02 1.218073e+03 -1.584590e+02 1.032264e+02 1.250378e+02 4.780112e+01 3.227048e+05 6.822502e+06 1.861427e+05 -4.810725e+03 -2.281506e+03 -1.618456e+02
<VARIANCE> 12
 2.489531e+04 2.990369e+04 1.579318e+04 4.107604e+03 4.053078e+03 8.361467e+02 1.206738e+11 3.530710e+12 2.836572e+10 1.673767e+08 4.553516e+07 2.547431e+07
<GCONST> 2.076069e+02
<MIXTURE> 2 1.315100e-01
<MEAN> 12
 8.531668e+02 1.008535e+02 4.055139e+01 4.012720e+01 2.634269e+01 2.868774e+01 3.426474e+06 2.707414e+05 9.301204e+05 9.005537e+01 -1.512028e+02 -3.907161e+01
<VARIANCE> 12
 3.338325e+04 4.991242e+04 2.049844e+05 7.521252e+02 3.120082e+02 4.130822e+02 1.340512e+12 9.923105e+10 8.002689e+11 1.439169e+06 8.965622e+05 1.788373e+06
<GCONST> 1.968444e+02
<MIXTURE> 3 4.452471e-01
<MEAN> 12
 8.761636e+01 9.461622e+02 -8.459455e+01 3.392830e+01 5.624054e+01 2.455366e+01 7.936524e+04 4.110896e+06 9.305294e+04 1.026100e+02 -3.794522e+02 1.037098e+02
<VARIANCE> 12
 9.742447e+03 1.775308e+04 1.340901e+04 4.022990e+02 1.418709e+03 2.238328e+02 7.044571e+09 1.335252e+12 1.413410e+10 4.254201e+06 2.291877e+06 7.928190e+05
<GCONST> 1.866515e+02
<STATE> 4
<NUMMIXES> 3
<MIXTURE> 1 3.783658e-01
<MEAN> 12
 2.274321e+02 9.593603e+02 5.923517e+01 4.445117e+01 4.928577e+01 3.851790e+01 4.093605e+05 4.221396e+06 1.350248e+05 8.199786e+01 -3.798525e+02 1.042177e+01
<VARIANCE> 12
 3.891508e+04 1.738050e+04 2.622672e+04 6.864686e+02 9.185941e+02 5.287844e+02 1.716480e+11 1.264847e+12 2.186233e+10 4.456461e+06 3.580667e+06 3.026757e+06
<GCONST> 1.950529e+02
<MIXTURE> 2 1.867931e-01
<MEAN> 12
 3.425649e+02 1.303320e+03 1.352284e+02 2.023455e+02 1.989340e+02 1.538403e+02 1.020153e+06 8.420712e+06 5.694880e+05 3.543101e+03 -6.263562e+03 -1.451404e+03
<VARIANCE> 12
 9.967037e+04 1.657743e+05 1.021431e+05 1.383913e+04 1.265588e+04 1.168731e+04 1.314862e+12 2.224067e+13 4.505363e+11 1.679633e+09 1.071151e+09 1.381964e+09
<GCONST> 2.340161e+02
<MIXTURE> 3 4.348411e-01
<MEAN> 12
 3.053263e+02 1.147405e+03 8.193728e+01 9.423434e+01 1.164213e+02 7.312385e+01 7.296731e+05 6.138666e+06 2.236375e+05 -3.799629e+01 -1.430235e+03 -3.640613e+02
<VARIANCE> 12
 6.721243e+04 4.558757e+04 4.187059e+04 3.092983e+03 3.980837e+03 1.792404e+03 5.025918e+11 5.007504e+12 5.732148e+10 1.127995e+08 6.827150e+07 4.744082e+07
<GCONST> 2.135694e+02
<STATE> 5
<NUMMIXES> 3
<MIXTURE> 1 3.480703e-01
<MEAN> 12
 4.523987e+02 5.060013e+02 1.021165e+02 1.352964e+02 1.080546e+02 1.306676e+02 1.363430e+06 2.301490e+06 1.953939e+06 1.716199e+03 -5.498877e+03 -2.143565e+03
<VARIANCE> 12
 9.566839e+04 2.540300e+05 4.218304e+05 6.555355e+03 3.278703e+03 5.860629e+03 1.839241e+12 5.511840e+12 2.747243e+12 2.371897e+08 2.157801e+08 4.124665e+08
<GCONST> 2.290117e+02
<MIXTURE> 2 3.592728e-01
<MEAN> 12
 3.597751e+02 3.794471e+02 2.061019e+02 3.836812e+01 3.205249e+01 3.560013e+01 8.397766e+05 1.165978e+06 2.399555e+06 1.363555e+02 -1.115511e+02 -3.371379e+01
<VARIANCE> 12
 5.701235e+04 1.150168e+05 4.906168e+05 6.260369e+02 4.789100e+02 5.841115e+02 4.899498e+11 1.233380e+12 1.725671e+12 1.500122e+06 1.650486e+06 1.850502e+06
<GCONST> 2.026464e+02
<MIXTURE> 3 2.926568e-01
<MEAN> 12
 6.814279e+02 6.378807e+02 1.332249e+02 7.123190e+01 5.309980e+01 5.668146e+01 2.281534e+06 2.381642e+06 5.863239e+05 1.722853e+02 -4.635476e+02 -3.555587e+02
<VARIANCE> 12
 4.210079e+04 1.219833e+05 1.122312e+05 1.823453e+03 1.055447e+03 1.042953e+03 1.561608e+12 3.100834e+12 2.781487e+11 1.118316e+07 9.237961e+06 1.426598e+07
<GCONST> 2.093953e+02
<STATE> 6
<NUMMIXES> 3
<MIXTURE> 1 4.384986e-02
<MEAN> 12
 3.374583e+02 9.887148e+02 -1.012866e+02 3.415618e+02 2.572133e+02 3.058475e+02 1.910960e+06 6.197644e+06 1.820176e+06 2.704171e+04 -3.040931e+04 9.948052e+03
<VARIANCE> 12
 2.783748e+05 3.880773e+05 3.708257e+05 6.163890e+04 3.706230e+04 4.711482e+04 6.258251e+12 5.027700e+13 5.902834e+12 3.620209e+10 3.041873e+10 3.327043e+10
<GCONST> 2.556920e+02
<MIXTURE> 2 4.363169e-01
<MEAN> 12
 1.675392e+02 1.110740e+03 -1.257230e+02 7.007838e+01 8.418945e+01 4.405059e+01 2.131852e+05 5.669288e+06 1.975843e+05 -1.249167e+03 -1.367053e+03 2.002540e+02
<VARIANCE> 12
 1.828622e+04 2.489219e+04 2.770343e+04 1.914907e+03 2.335243e+03 6.999643e+02 4.599044e+10 2.598275e+12 3.963375e+10 3.943848e+07 1.587672e+07 9.444430e+06
<GCONST> 2.017564e+02
<MIXTURE> 3 5.198333e-01
<MEAN> 12
 1.400603e+02 1.003695e+03 -9.179271e+01 2.395101e+01 2.547701e+01 2.152136e+01 1.299560e+05 4.565418e+06 1.163799e+05 1.061571e+01 -1.551083e+02 6.398312e+01
<VARIANCE> 12
 9.167883e+03 7.039729e+03 1.735645e+04 2.266381e+02 2.831647e+02 1.777824e+02 1.612505e+10 5.458732e+11 1.459274e+10 4.065570e+05 3.116702e+05 2.699234e+05
<GCONST> 1.780531e+02
<TRANSP> 7
 0.000000e+00 4.415012e-01 5.584988e-01 0.000000e+00 0.000000e+00 0.000000e+00 0.000000e+00
 0.000000e+00 7.978460e-01 4.289011e-02 1.592639e-01 0.000000e+00 0.000000e+00 0.000000e+00
 0.000000e+00 0.000000e+00 8.618928e-01 1.138479e-01 2.425929e-02 0.000000e+00 0.000000e+00
 0.000000e+00 0.000000e+00 0.000000e+00 8.690848e-01 4.135770e-02 8.955748e-02 0.000000e+00
 0.000000e+00 0.000000e+00 0.000000e+00 0.000000e+00 8.377290e-01 1.911120e-02 1.431597e-01
 0.000000e+00 0.000000e+00 0.000000e+00 0.000000e+00 0.000000e+00 8.328028e-01 1.671973e-01
 0.000000e+00 0.000000e+00 0.000000e+00 0.000000e+00 0.000000e+00 0.000000e+00 0.000000e+00
<ENDHMM>
~h "Activity104"
<BEGINHMM>
<NUMSTATES> 7
<STATE> 2
<NUMMIXES> 3
<MIXTURE> 1 4.904620e-01
<MEAN> 12
 5.429144e+02 1.072830e+02 -6.199697e+02 1.234133e+02 7.456695e+01 9.114800e+01 1.708245e+06 8.256646e+05 2.422852e+06 3.378602e+03 -3.066568e+03 -2.100481e+03
<VARIANCE> 12
 8.326603e+04 1.713927e+05 1.533721e+05 4.912425e+03 1.687940e+03 2.749696e+03 1.832011e+12 9.040111e+11 2.587837e+12 7.994178e+07 4.457401e+07 1.062996e+08
<GCONST> 2.198663e+02
<MIXTURE> 2 3.449427e-01
<MEAN> 12
 3.819767e+02 1.487161e+02 -8.944948e+02 5.392672e+01 3.186993e+01 3.523332e+01 8.313556e+05 5.537354e+05 3.638146e+06 5.250062e+02 -3.568038e+02 -3.162498e+02
<VARIANCE> 12
 3.865564e+04 1.008405e+05 8.308977e+03 1.275577e+03 3.709774e+02 4.994348e+02 4.799847e+11 2.032631e+11 5.253058e+11 2.912204e+06 1.260245e+06 3.294925e+06
<GCONST> 1.963053e+02
<MIXTURE> 3 1.645954e-01
<MEAN> 12
 5.345327e+02 7.971130e+01 -5.270800e+02 3.270896e+02 2.067372e+02 2.826954e+02 2.299819e+06 1.176973e+06 2.562936e+06 2.663284e+04 -3.571574e+04 -3.237267e+04
<VARIANCE> 12
 2.094168e+05 2.480869e+05 2.753737e+05 3.812123e+04 1.561259e+04 3.548575e+04 6.385586e+12 3.050046e+12 6.068693e+12 8.159050e+09 7.523980e+09 1.559992e+10
<GCONST> 2.466349e+02
<STATE> 3
<NUMMIXES> 3
<MIXTURE> 1 4.317021e-01
<MEAN> 12
 9.278564e+02 -2.276216e+02 -1.608408e+02 1.122191e+01 8.101024e+00 1.223718e+01 3.881889e+06 3.461158e+05 2.963076e+05 5.658797e+00 -3.313364e+01 -5.003407e+00
<VARIANCE> 12
 1.718066e+03 2.510044e+04 3.996660e+04 4.611103e+01 2.009574e+01 4.153855e+01 1.171212e+11 5.715726e+10 1.036782e+11 7.035633e+03 7.981866e+03 1.572363e+04
<GCONST> 1.639148e+02
<MIXTURE> 2 3.275271e-01
<MEAN> 12
 5.215255e+02 6.145944e+01 -8.757592e+02 9.180465e+00 8.562334e+00 1.006264e+01 1.360911e+06 7.811510e+04 3.488012e+06 -1.928459e+01 -1.506686e+01 6.155192e+00
<VARIANCE> 12
 3.043334e+04 1.357561e+04 8.156107e+03 3.083395e+01 2.550046e+01 2.846746e+01 5.017760e+11 6.113386e+09 4.934232e+11 5.778297e+03 6.500547e+03 6.201386e+03
<GCONST> 1.634903e+02
<MIXTURE> 3 2.407708e-01
<MEAN> 12
 6.827888e+02 -3.854774e+01 -3.336131e+02 2.696288e+01 1.689729e+01 2.179231e+01 2.268456e+06 1.150671e+06 1.242262e+06 1.371070e+01 -1.464309e+02 -2.989517e+01
<VARIANCE> 12
 3.783568e+04 2.542029e+05 1.647225e+05 3.525039e+02 1.110919e+02 1.817774e+02 1.227614e+12 9.794956e+11 1.034406e+12 2.467366e+05 1.463557e+05 3.678197e+05
<GCONST> 1.930681e+02
<STATE> 4
<NUMMIXES> 3
<MIXTURE> 1 3.584481e-01
<MEAN> 12
 8.686854e+02 -6.736234e+01 -1.863349e+02 3.404093e+01 1.770096e+01 2.774492e+01 3.435780e+06 1.686832e+05 1.020932e+06 9.997762e+01 -2.238934e+02 -6.515018e+01
<VARIANCE> 12
 8.854874e+03 3.292290e+04 1.921103e+05 4.128179e+02 9.998844e+01 2.501874e+02 5.305346e+11 4.692198e+10 5.948036e+11 2.859076e+05 1.915003e+05 7.080114e+05
<GCONST> 1.867380e+02
<MIXTURE> 2 2.126337e-01
<MEAN> 12
 7.885041e+02 -5.099676e+01 -1.848762e+02 1.865602e+02 1.086944e+02 1.674908e+02 3.184686e+06 6.214559e+05 1.118785e+06 7.655653e+03 -1.196589e+04 -7.091492e+03
<VARIANCE> 12
 8.362658e+04 1.340817e+05 2.106878e+05 1.166685e+04 3.381088e+03 8.405304e+03 2.953013e+12 7.432851e+11 1.394018e+12 3.533288e+08 3.585299e+08 9.723153e+08
<GCONST> 2.280671e+02
<MIXTURE> 3 4.289182e-01
<MEAN> 12
 8.842784e+02 -7.499162e+01 -1.717377e+02 8.568844e+01 4.651067e+01 7.006752e+01 3.585692e+06 2.864352e+05 8.278022e+05 9.708181e+02 -2.013046e+03 -1.296296e+03
<VARIANCE> 12
 1.450828e+04 5.779252e+04 1.540548e+05 2.211177e+03 5.114483e+02 1.232307e+03 9.291896e+11 1.148758e+11 6.233300e+11 1.108023e+07 8.294808e+06 2.658679e+07
<GCONST> 2.050326e+02
<STATE> 5
<NUMMIXES> 3
<MIXTURE> 1 2.277786e-01
<MEAN> 12
 6.583581e+02 -1.232094e+02 -2.910294e+02 4.892010e+01 2.631572e+01 3.816052e+01 2.097495e+06 1.503884e+06 1.036172e+06 5.150862e+01 -4.894946e+02 -1.174005e+02
<VARIANCE> 12
 3.258301e+04 3.190022e+05 1.454335e+05 1.012021e+03 2.258361e+02 5.484894e+02 1.031786e+12 1.023795e+12 8.565785e+11 1.805360e+06 1.450511e+06 4.451058e+06
<GCONST> 2.023486e+02
<MIXTURE> 2 6.526437e-01
<MEAN> 12
 6.486595e+02 3.299607e+02 -5.496637e+02 9.639999e+00 8.032134e+00 1.074728e+01 2.030298e+06 1.443847e+06 1.467997e+06 -8.906060e+00 -1.544073e+01 1.357037e+01
<VARIANCE> 12
 3.041259e+04 2.119759e+05 2.408859e+04 3.325078e+01 2.003285e+01 3.268819e+01 8.331224e+11 5.774923e+11 5.298272e+11 5.276735e+03 6.240368e+03 9.629797e+03
<GCONST> 1.727280e+02
<MIXTURE> 3 1.195775e-01
<MEAN> 12
 4.539793e+02 -6.313151e+02 -4.983654e+01 3.083631e+01 1.256853e+01 2.242019e+01 1.011954e+06 3.177841e+06 6.817134e+04 -3.278651e+01 -1.053385e+02 -8.021421e+01
<VARIANCE> 12
 1.873734e+04 3.076262e+05 1.262022e+04 4.353095e+02 4.789880e+01 1.710977e+02 2.750227e+11 3.402185e+11 6.096255e+09 1.313716e+05 6.714681e+04 4.979709e+05
<GCONST> 1.805025e+02
<STATE> 6
<NUMMIXES> 3
<MIXTURE> 1 3.590088e-01
<MEAN> 12
 5.766762e+02 1.528518e+02 -2.967007e+02 1.887540e+02 1.118084e+02 1.480035e+02 2.191170e+06 1.255171e+06 1.701934e+06 4.349051e+03 -8.381557e+03 -4.715943e+03
<VARIANCE> 12
 1.506473e+05 2.540647e+05 2.873811e+05 1.104254e+04 3.439955e+03 6.516651e+03 3.294194e+12 1.843402e+12 2.415684e+12 3.205350e+08 2.421021e+08 6.730477e+08
<GCONST> 2.300225e+02
<MIXTURE> 2 1.595064e-01
<MEAN> 12
 4.510914e+02 4.348454e+02 -1.794693e+02 4.306692e+02 3.091970e+02 4.200451e+02 2.444929e+06 2.483805e+06 1.702679e+06 4.525480e+04 -9.495307e+04 -5.240357e+04
<VARIANCE> 12
 3.075475e+05 3.458644e+05 3.123344e+05 9.507073e+04 3.397161e+04 6.628945e+04 6.094032e+12 8.032440e+12 2.860409e+12 3.864678e+10 3.615340e+10 8.528645e+10
<GCONST> 2.547869e+02
<MIXTURE> 3 4.814848e-01
<MEAN> 12
 3.955094e+02 3.447015e+02 -3.052006e+02 7.604765e+01 4.933704e+01 5.872460e+01 1.378734e+06 2.101626e+06 1.504693e+06 4.533878e+02 -7.572541e+02 -3.646817e+02
<VARIANCE> 12
 1.496329e+05 3.479420e+05 2.409514e+05 2.142262e+03 8.296679e+02 1.365987e+03 1.336497e+12 3.230230e+12 1.901380e+12 1.472881e+07 8.103479e+06 1.703383e+07
<GCONST> 2.147950e+02
<TRANSP> 7
 0.000000e+00 4.761042e-01 5.238958e-01 0.000000e+00 0.000000e+00 0.000000e+00 0.000000e+00
 0.000000e+00 8.547185e-01 3.650073e-02 1.087808e-01 0.000000e+00 0.000000e+00 0.000000e+00
 0.000000e+00 0.000000e+00 8.421665e-01 4.700524e-02 1.108283e-01 0.000000e+00 0.000000e+00
 0.000000e+00 0.000000e+00 0.000000e+00 8.890378e-01 4.923402e-02 6.172819e-02 0.000000e+00
 0.000000e+00 0.000000e+00 0.000000e+00 0.000000e+00 8.658336e-01 2.042923e-02 1.137372e-01
 0.000000e+00 0.000000e+00 0.000000e+00 0.000000e+00 0.000000e+00 8.373344e-01 1.626657e-01
 0.000000e+00 0.000000e+00 0.000000e+00 0.000000e+00 0.000000e+00 0.000000e+00 0.000000e+00
<ENDHMM>
~h "Activity105"
<BEGINHMM>
<NUMSTATES> 7
<STATE> 2
<NUMMIXES> 2
<MIXTURE> 1 3.071586e-01
<MEAN> 12
 4.160890e+02 5.062466e+02 -4.278473e+02 3.408868e+02 2.536387e+02 3.238684e+02 2.725363e+06 2.570239e+06 1.460318e+06 -3.111925e+04 -6.080112e+04 -5.130247e+04
<VARIANCE> 12
 4.156686e+05 3.131036e+05 1.311060e+05 8.999835e+04 3.455405e+04 7.019091e+04 4.880675e+12 9.069859e+12 1.920028e+12 5.945304e+10 2.586183e+10 2.768754e+10
<GCONST> 2.526114e+02
<MIXTURE> 2 6.928414e-01
<MEAN> 12
 6.706707e+02 4.032567e+02 -4.571444e+02 6.431282e+01 4.349646e+01 4.905057e+01 2.660272e+06 1.160697e+06 1.171793e+06 8.818880e+02 -8.300347e+02 2.359392e+02
<VARIANCE> 12
 1.409105e+05 9.522652e+04 5.125845e+04 2.173349e+03 9.116786e+02 9.211871e+02 1.791129e+12 1.248595e+12 6.377709e+11 1.157807e+07 3.739120e+06 1.495906e+07
<GCONST> 2.087120e+02
<STATE> 3
<NUMMIXES> 2
<MIXTURE> 1 1.285858e-01
<MEAN> 12
 4.583530e+01 3.966608e+02 -6.376846e+02 1.449528e+02 8.622450e+01 1.205386e+02 5.766506e+05 2.474512e+06 2.440487e+06 7.525530e+03 -9.840980e+03 -1.329994e+04
<VARIANCE> 12
 1.201149e+05 3.908556e+05 1.308894e+05 1.843417e+04 3.946472e+03 1.570254e+04 4.249264e+11 6.504827e+12 3.708075e+12 7.866742e+08 4.244623e+08 2.142162e+09
<GCONST> 2.332281e+02
<MIXTURE> 2 8.714142e-01
<MEAN> 12
 6.650508e+02 3.628743e+02 -5.121821e+02 8.390432e+00 6.700137e+00 1.050693e+01 2.841111e+06 7.374594e+05 1.366644e+06 -5.746870e+00 -1.140540e+01 1.040505e+01
<VARIANCE> 12
 1.890638e+05 3.220088e+04 4.136617e+04 2.845483e+01 1.694665e+01 3.003576e+01 9.919246e+11 6.658002e+11 6.023299e+11 2.838265e+03 3.393786e+03 8.591939e+03
<GCONST> 1.719056e+02
<STATE> 4
<NUMMIXES> 2
<MIXTURE> 1 5.102988e-02
<MEAN> 12
 7.737350e+02 3.071439e+02 -2.014771e+02 1.072212e+02 5.608329e+01 8.073042e+01 3.423598e+06 9.685803e+05 4.658182e+05 7.864365e+02 -3.029212e+03 5.452686e+02
<VARIANCE> 12
 1.601250e+05 1.205954e+05 6.164523e+04 7.521101e+03 1.730438e+03 2.697925e+03 2.512330e+12 9.310014e+11 2.775968e+11 4.691742e+07 4.147829e+07 2.000124e+08
<GCONST> 2.178291e+02
<MIXTURE> 2 9.489701e-01
<MEAN> 12
 -1.169455e+02 7.312859e+02 -5.842386e+02 7.736245e+00 7.532430e+00 1.020635e+01 1.142824e+06 2.436465e+06 1.551520e+06 -6.791980e+00 -1.859597e+01 -6.549775e+00
<VARIANCE> 12
 2.402797e+05 6.655456e+03 3.443885e+03 2.082636e+01 1.805482e+01 3.010509e+01 2.726492e+11 3.138101e+11 9.762124e+10 3.376600e+03 5.123371e+03 5.400146e+03
<GCONST> 1.640942e+02
<STATE> 5
<NUMMIXES> 2
<MIXTURE> 1 4.339466e-01
<MEAN> 12
 1.160683e+02 3.894038e+02 -7.914379e+02 8.306175e+01 5.144415e+01 6.765611e+01 8.414645e+05 1.381706e+06 3.056675e+06 7.610997e+02 -2.222043e+03 -6.253929e+02
<VARIANCE> 12
 1.720725e+05 1.548679e+05 5.208854e+04 3.483032e+03 1.398128e+03 2.291788e+03 1.137169e+12 2.501441e+12 2.266163e+12 4.543703e+07 2.840272e+07 7.783335e+07
<GCONST> 2.177773e+02
<MIXTURE> 2 5.660534e-01
<MEAN> 12
 1.653729e+02 5.829553e+02 -5.794199e+02 1.921514e+01 1.365804e+01 1.789912e+01 1.467718e+06 1.831645e+06 1.749237e+06 1.687984e+00 -5.877785e+01 1.303670e+01
<VARIANCE> 12
 2.987594e+05 6.717829e+04 5.295983e+04 1.871714e+02 7.896362e+01 1.307329e+02 1.561745e+12 1.328035e+12 1.249601e+12 1.131019e+05 7.119183e+04 1.392873e+05
<GCONST> 1.896273e+02
<STATE> 6
<NUMMIXES> 2
<MIXTURE> 1 4.238530e-01
<MEAN> 12
 -4.166832e+01 2.137956e+02 -1.012048e+03 2.729982e+01 1.759579e+01 1.961786e+01 1.404128e+05 2.984067e+05 4.616117e+06 4.242205e+01 -1.074471e+02 -3.599291e+01
<VARIANCE> 12
 2.929335e+04 2.051804e+04 1.506100e+03 5.297681e+02 2.896995e+02 2.286527e+02 2.842293e+10 7.610764e+10 1.242950e+11 1.168478e+06 4.167541e+05 7.803225e+05
<GCONST> 1.821102e+02
<MIXTURE> 2 5.761471e-01
<MEAN> 12
 9.459819e+02 3.753991e+02 -4.072973e+01 1.102321e+01 7.987799e+00 1.166195e+01 4.028536e+06 6.592354e+05 4.517461e+04 -1.747626e+01 -4.594599e+01 -6.083961e+00
<VARIANCE> 12
 3.502244e+02 5.573240e+03 8.355583e+03 5.768358e+01 2.251302e+01 6.146150e+01 2.532290e+10 4.771790e+10 3.371688e+09 1.401399e+04 1.875529e+04 3.410466e+04
<GCONST> 1.571635e+02
<TRANSP> 7
 0.000000e+00 1.958429e-01 8.041571e-01 0.000000e+00 0.000000e+00 0.000000e+00 0.000000e+00
 0.000000e+00 8.990355e-01 5.362690e-02 4.733766e-02 0.000000e+00 0.000000e+00 0.000000e+00
 0.000000e+00 0.000000e+00 7.121299e-01 1.450625e-01 1.428077e-01 0.000000e+00 0.000000e+00
 0.000000e+00 0.000000e+00 0.000000e+00 9.247299e-01 7.332670e-02 1.943357e-03 0.000000e+00
 0.000000e+00 0.000000e+00 0.000000e+00 0.000000e+00 7.437394e-01 6.193011e-02 1.943306e-01
 0.000000e+00 0.000000e+00 0.000000e+00 0.000000e+00 0.000000e+00 9.328400e-01 6.715992e-02
 0.000000e+00 0.000000e+00 0.000000e+00 0.000000e+00 0.000000e+00 0.000000e+00 0.000000e+00
<ENDHMM>
