~o
<STREAMINFO> 1 12
<VECSIZE> 12<NULLD><MFCC><DIAGC>
~h "Activity102"
<BEGINHMM>
<NUMSTATES> 7
<STATE> 2
<NUMMIXES> 3
<MIXTURE> 1 2.031674e-01
<MEAN> 12
 -5.607026e+01 9.826154e+02 3.641996e+02 3.089809e+02 2.289827e+02 3.589307e+02 5.760089e+05 4.903974e+06 1.896803e+06 3.469370e+03 1.836267e+04 -2.334741e+04
<VARIANCE> 12
 9.918680e+04 1.222808e+05 2.670316e+05 3.730233e+04 1.951095e+04 5.243263e+04 3.492836e+11 8.977314e+12 4.447006e+12 5.272096e+09 9.358278e+09 1.335938e+10
<GCONST> 2.432301e+02
<MIXTURE> 2 4.333333e-01
<MEAN> 12
 -1.919218e+01 1.027421e+03 1.110126e+02 4.636263e+01 2.172832e+01 3.955431e+01 4.652206e+04 4.753896e+06 1.416097e+05 1.804032e+02 4.219059e+00 -8.519063e+01
<VARIANCE> 12
 9.534329e+03 8.225141e+02 1.888487e+04 1.049091e+03 1.928844e+02 6.787505e+02 2.979069e+09 6.944688e+10 2.939314e+10 9.854509e+05 7.569253e+05 3.851689e+06
<GCONST> 1.798983e+02
<MIXTURE> 3 3.634993e-01
<MEAN> 12
 -5.601576e+01 9.989954e+02 2.016995e+02 1.279424e+02 7.077789e+01 9.828322e+01 2.192138e+05 4.597549e+06 4.801472e+05 7.367744e+02 8.859811e+02 -4.793077e+02
<VARIANCE> 12
 4.151421e+04 2.318278e+04 6.453081e+04 6.740588e+03 1.897723e+03 4.389199e+03 5.803155e+10 1.845028e+12 2.719659e+11 8.227746e+07 5.313299e+07 1.626107e+08
<GCONST> 2.128431e+02
<STATE> 3
<NUMMIXES> 3
<MIXTURE> 1 1.763128e-01
<MEAN> 12
 -1.199823e+02 1.024180e+03 4.343073e+02 6.282959e+02 5.134415e+02 7.852585e+02 1.230405e+06 5.242620e+06 3.501889e+06 3.455781e+04 1.541917e+05 -9.314445e+04
<VARIANCE> 12
 1.391512e+05 1.066615e+05 4.462930e+05 1.360085e+05 8.089677e+04 2.107068e+05 1.636995e+12 9.864823e+12 1.406001e+13 1.467986e+11 2.563381e+11 2.860003e+11
<GCONST> 2.605432e+02
<MIXTURE> 2 3.434637e-01
<MEAN> 12
 -9.916941e+00 1.069245e+03 2.822211e+02 1.795485e+02 1.193426e+02 1.972412e+02 1.476066e+05 5.305502e+06 8.540858e+05 6.064362e+02 6.991111e+03 -4.602942e+03
<VARIANCE> 12
 2.479506e+04 3.470054e+04 1.043260e+05 1.005629e+04 3.936385e+03 1.182979e+04 1.786900e+10 2.990452e+12 8.785270e+11 3.525402e+08 4.530736e+08 1.034449e+09
<GCONST> 2.212587e+02
<MIXTURE> 3 4.802235e-01
<MEAN> 12
 1.661188e+01 1.044502e+03 1.102835e+02 9.740124e+01 5.366479e+01 8.170341e+01 7.073685e+04 4.928150e+06 1.318734e+05 -2.983483e+01 2.047403e+02 -1.915379e+02
<VARIANCE> 12
 1.323552e+04 3.977503e+03 1.585229e+04 3.405256e+03 9.779141e+02 2.305506e+03 5.835080e+09 3.590420e+11 1.905993e+10 2.506238e+07 1.658871e+07 5.712048e+07
<GCONST> 1.965527e+02
<STATE> 4
<NUMMIXES> 3
<MIXTURE> 1 3.169355e-01
<MEAN> 12
 -6.671146e+01 1.461624e+03 3.307128e+02 6.268166e+02 4.119930e+02 5.607546e+02 1.670704e+06 9.962244e+06 1.595178e+06 1.752384e+05 -9.668942e+04 -1.766649e+05
<VARIANCE> 12
 2.820351e+05 6.073291e+04 1.660712e+05 7.147934e+04 4.186451e+04 7.059401e+04 2.110077e+12 1.154903e+13 2.091676e+12 5.406341e+10 3.735740e+10 8.243560e+10
<GCONST> 2.516396e+02
<MIXTURE> 2 3.056452e-01
<MEAN> 12
 -2.709049e+01 5.050439e+02 5.053221e+02 6.240099e+01 3.845310e+01 5.256149e+01 2.636358e+05 2.051325e+06 2.459757e+06 -5.896312e+02 2.047838e+02 4.243453e+02
<VARIANCE> 12
 5.715809e+04 2.006855e+05 2.908902e+05 2.045402e+03 7.944566e+02 1.460896e+03 1.229482e+11 2.208754e+12 1.860471e+12 6.732528e+06 5.456778e+06 1.475036e+07
<GCONST> 2.093380e+02
<MIXTURE> 3 3.774194e-01
<MEAN> 12
 -1.783619e+02 1.154210e+03 8.246259e+02 2.578345e+02 1.753147e+02 4.479778e+02 4.676728e+05 6.163822e+06 3.665530e+06 -1.531059e+03 2.565498e+04 -6.121402e+04
<VARIANCE> 12
 6.124972e+04 4.025766e+04 1.246334e+05 1.778135e+04 9.046578e+03 3.416381e+04 1.961329e+11 3.854512e+12 7.504918e+12 1.268908e+09 4.192620e+09 7.321777e+09
<GCONST> 2.352094e+02
<STATE> 5
<NUMMIXES> 3
<MIXTURE> 1 2.230971e-01
<MEAN> 12
 6.399460e+01 1.591067e+03 -9.476579e+01 3.520525e+02 2.232089e+02 1.587848e+02 7.702058e+05 1.176928e+07 2.214666e+05 1.143916e+04 1.206428e+03 -2.545212e+03
<VARIANCE> 12
 1.253168e+05 7.371874e+04 3.349216e+04 4.422974e+04 1.332991e+04 6.344504e+03 5.349712e+11 1.509309e+13 4.064315e+10 4.351024e+09 1.481495e+09 2.291463e+09
<GCONST> 2.310118e+02
<MIXTURE> 2 3.299588e-01
<MEAN> 12
 -7.968413e+01 9.259949e+02 2.378667e+02 5.900154e+01 3.346194e+01 4.462486e+01 1.698653e+05 3.901882e+06 6.725622e+05 1.988519e+01 7.852657e+01 1.788307e+02
<VARIANCE> 12
 3.075597e+04 9.499669e+03 9.263655e+04 1.445237e+03 5.164848e+02 9.207917e+02 3.947309e+10 6.117470e+11 3.138470e+11 4.112656e+06 2.098109e+06 6.966658e+06
<GCONST> 1.968856e+02
<MIXTURE> 3 4.469441e-01
<MEAN> 12
 -1.125974e+01 1.065298e+03 -1.967288e+02 1.192635e+02 1.398201e+02 8.018908e+01 4.658292e+05 5.459572e+06 4.688252e+05 -5.437637e+02 5.857053e+03 -6.560182e+02
<VARIANCE> 12
 1.007235e+05 7.449318e+04 6.465898e+04 4.584400e+03 5.077005e+03 1.782033e+03 2.663590e+11 6.904056e+12 2.147431e+11 2.347780e+08 1.027781e+08 6.965022e+07
<GCONST> 2.180636e+02
<STATE> 6
<NUMMIXES> 3
<MIXTURE> 1 2.861446e-01
<MEAN> 12
 -1.178605e+02 9.175600e+02 5.275063e+02 5.505001e+02 4.650046e+02 7.684668e+02 1.003647e+06 4.407328e+06 4.067058e+06 1.820974e+04 7.548891e+04 -1.457908e+05
<VARIANCE> 12
 1.238273e+05 1.271645e+05 5.065913e+05 8.916738e+04 7.089904e+04 1.625579e+05 1.159236e+12 9.600291e+12 1.569967e+13 7.147821e+10 1.798643e+11 1.694238e+11
<GCONST> 2.580560e+02
<MIXTURE> 2 3.722257e-01
<MEAN> 12
 2.232614e+00 9.396953e+02 7.783424e+01 2.088708e+02 1.632640e+02 2.419447e+02 3.531108e+05 4.481338e+06 1.387388e+06 3.246084e+03 1.136687e+04 -4.907911e+03
<VARIANCE> 12
 6.685521e+04 1.098883e+05 2.906560e+05 1.789084e+04 1.004079e+04 2.471734e+04 1.292706e+11 8.956801e+12 2.712543e+12 1.143812e+09 1.674436e+09 2.464849e+09
<GCONST> 2.342329e+02
<MIXTURE> 3 3.416297e-01
<MEAN> 12
 -8.010542e+00 1.023774e+03 1.862917e+02 1.033873e+02 5.665063e+01 7.695053e+01 7.226579e+04 4.737214e+06 2.903891e+05 9.650152e+01 -2.160505e+02 -9.979153e+01
<VARIANCE> 12
 1.295362e+04 4.277208e+03 2.874491e+04 4.855361e+03 1.511066e+03 2.536883e+03 6.299621e+09 3.677014e+11 9.464846e+10 4.560392e+07 2.139184e+07 6.600852e+07
<GCONST> 2.007851e+02
<TRANSP> 7
 0.000000e+00 8.151970e-01 1.848030e-01 0.000000e+00 0.000000e+00 0.000000e+00 0.000000e+00
 0.000000e+00 8.689291e-01 1.140271e-01 1.704374e-02 0.000000e+00 0.000000e+00 0.000000e+00
 0.000000e+00 0.000000e+00 7.870391e-01 1.240224e-01 8.893855e-02 0.000000e+00 0.000000e+00
 0.000000e+00 0.000000e+00 0.000000e+00 4.612903e-01 5.016129e-01 3.709678e-02 0.000000e+00
 0.000000e+00 0.000000e+00 0.000000e+00 0.000000e+00 6.175478e-01 3.063367e-01 7.611548e-02
 0.000000e+00 0.000000e+00 0.000000e+00 0.000000e+00 0.000000e+00 8.631896e-01 1.368104e-01
 0.000000e+00 0.000000e+00 0.000000e+00 0.000000e+00 0.000000e+00 0.000000e+00 0.000000e+00
<ENDHMM>
