~o
<STREAMINFO> 1 12
<VECSIZE> 12<NULLD><MFCC><DIAGC>
~h "Activity104"
<BEGINHMM>
<NUMSTATES> 7
<STATE> 2
<NUMMIXES> 3
<MIXTURE> 1 3.155925e-01
<MEAN> 12
 -3.869861e+02 -1.079243e+02 9.071213e+02 1.183904e+01 9.654439e+00 1.231599e+01 8.127975e+05 1.632930e+05 3.718882e+06 -4.548964e+00 1.132192e+00 -4.559284e+00
<VARIANCE> 12
 3.085324e+04 2.463819e+04 3.539533e+03 6.215126e+01 3.187507e+01 4.938640e+01 2.005192e+11 7.680050e+09 2.521186e+11 1.802282e+04 1.325676e+04 2.503861e+04
<GCONST> 1.666255e+02
<MIXTURE> 2 5.758836e-01
<MEAN> 12
 -1.670405e+02 5.602560e+02 8.569796e+02 1.032198e+01 8.632541e+00 1.031282e+01 1.817622e+05 1.418313e+06 3.308200e+06 -3.104247e+01 -1.074995e+01 2.157594e+01
<VARIANCE> 12
 1.247545e+04 1.290893e+03 7.343532e+02 4.186360e+01 2.597078e+01 3.064663e+01 1.974114e+10 3.211489e+10 4.229227e+10 8.847071e+03 7.298059e+03 1.148298e+04
<GCONST> 1.553603e+02
<MIXTURE> 3 1.085239e-01
<MEAN> 12
 -1.196552e+02 6.634304e+02 5.968187e+02 8.296479e+01 5.345270e+01 7.507951e+01 2.192017e+05 2.703424e+06 2.151242e+06 1.752764e+03 1.805993e+03 4.367390e+00
<VARIANCE> 12
 3.149802e+04 1.603764e+05 1.206767e+05 7.358518e+03 4.238763e+03 7.521525e+03 1.038066e+11 3.614640e+12 2.588102e+12 2.320161e+08 2.446218e+08 9.632675e+08
<GCONST> 2.244066e+02
<STATE> 3
<NUMMIXES> 3
<MIXTURE> 1 5.093882e-01
<MEAN> 12
 -1.598057e+01 3.903064e+02 9.547920e+02 8.418060e+00 7.637729e+00 9.810293e+00 7.627948e+04 6.874577e+05 4.102680e+06 -1.039382e+01 -1.893836e+00 -8.661858e-01
<VARIANCE> 12
 1.669050e+04 4.288156e+02 7.665278e+01 1.968255e+01 1.582698e+01 2.587065e+01 3.388515e+09 5.295134e+09 5.666148e+09 2.868653e+03 3.890816e+03 4.688898e+03
<GCONST> 1.426444e+02
<MIXTURE> 2 2.778481e-01
<MEAN> 12
 -8.021381e+01 4.517259e+02 9.290243e+02 9.021915e+00 7.964414e+00 9.580090e+00 6.492477e+04 9.205236e+05 3.884456e+06 -1.528585e+01 -3.427320e+00 3.803267e+00
<VARIANCE> 12
 7.987459e+03 5.029536e+02 1.237207e+02 2.563773e+01 1.765530e+01 2.693154e+01 2.342749e+09 8.305929e+09 8.613094e+09 3.805751e+03 4.279502e+03 5.189594e+03
<GCONST> 1.439387e+02
<MIXTURE> 3 2.127637e-01
<MEAN> 12
 -4.588396e+01 4.081324e+02 9.473604e+02 2.074853e+01 1.439341e+01 1.752939e+01 7.235741e+04 7.572849e+05 4.040966e+06 -7.790212e+01 9.338195e+01 4.290608e+01
<VARIANCE> 12
 1.389676e+04 1.694436e+03 4.665909e+02 1.404513e+02 5.296766e+01 9.061236e+01 4.710696e+09 2.329049e+10 3.376326e+10 9.699763e+04 7.803188e+04 1.209919e+05
<GCONST> 1.634335e+02
<STATE> 4
<NUMMIXES> 3
<MIXTURE> 1 4.647946e-01
<MEAN> 12
 -1.439955e+02 1.662089e+02 9.993712e+02 1.103679e+01 8.660751e+00 1.259465e+01 1.296588e+05 1.713871e+05 4.495720e+06 -3.302892e+01 8.914298e+00 8.196725e+00
<VARIANCE> 12
 8.064584e+03 1.045620e+04 2.988539e+02 4.998861e+01 2.240421e+01 5.551339e+01 1.385972e+10 2.172629e+10 2.423956e+10 9.139576e+03 1.098875e+04 1.928855e+04
<GCONST> 1.563999e+02
<MIXTURE> 2 1.718357e-01
<MEAN> 12
 -2.217951e+02 2.509261e+02 8.597399e+02 1.002864e+02 6.144402e+01 9.395478e+01 5.207732e+05 9.108943e+05 3.498126e+06 -4.875315e+01 3.209084e+03 1.269242e+03
<VARIANCE> 12
 6.491018e+04 1.391024e+05 3.724623e+04 4.645786e+03 1.398337e+03 3.938769e+03 5.155672e+11 1.079937e+12 1.707173e+12 5.119629e+07 5.849366e+07 1.359886e+08
<GCONST> 2.166749e+02
<MIXTURE> 3 3.633696e-01
<MEAN> 12
 -1.726059e+02 2.700889e+02 9.251561e+02 3.307351e+01 2.006787e+01 3.024204e+01 2.598460e+05 7.017286e+05 3.881024e+06 -2.033748e+02 2.436105e+02 2.223726e+02
<VARIANCE> 12
 2.775471e+04 8.295061e+04 6.414504e+03 4.512072e+02 1.548267e+02 3.647882e+02 1.088409e+11 3.412598e+11 4.358076e+11 4.930933e+05 4.080171e+05 1.288036e+06
<GCONST> 1.882972e+02
<STATE> 5
<NUMMIXES> 3
<MIXTURE> 1 6.993766e-01
<MEAN> 12
 9.401367e+01 3.590374e+02 9.639012e+02 1.222501e+01 9.363845e+00 1.106950e+01 8.972874e+04 5.818018e+05 4.181678e+06 -1.422821e+01 1.428364e+01 8.329176e-02
<VARIANCE> 12
 1.108052e+04 3.783976e+02 1.526256e+02 6.002604e+01 2.727044e+01 3.707335e+01 5.472594e+09 4.039405e+09 1.149189e+10 1.484173e+04 9.144172e+03 1.872176e+04
<GCONST> 1.496157e+02
<MIXTURE> 2 2.726724e-01
<MEAN> 12
 -1.357672e+02 4.916821e+02 9.061603e+02 1.013074e+01 8.629965e+00 1.093436e+01 1.063599e+05 1.093469e+06 3.696585e+06 -2.539519e+01 -5.202271e+00 1.540331e+01
<VARIANCE> 12
 5.189577e+03 1.238975e+03 3.319221e+02 4.066552e+01 2.274233e+01 3.817163e+01 5.850876e+09 2.419053e+10 2.216239e+10 7.463370e+03 9.157258e+03 1.148088e+04
<GCONST> 1.516168e+02
<MIXTURE> 3 2.795094e-02
<MEAN> 12
 -1.454820e+02 6.144053e+02 5.497626e+02 1.812825e+02 1.242745e+02 1.999539e+02 6.135312e+05 2.924481e+06 2.103898e+06 8.062285e+03 2.435612e+04 3.619874e+03
<VARIANCE> 12
 1.048711e+05 2.719125e+05 1.501365e+05 2.631484e+04 1.334279e+04 5.658016e+04 9.140090e+11 5.911339e+12 3.330587e+12 1.749619e+09 1.144166e+10 7.442695e+09
<GCONST> 2.416245e+02
<STATE> 6
<NUMMIXES> 3
<MIXTURE> 1 7.110960e-01
<MEAN> 12
 -4.821041e+01 1.585269e+02 1.012347e+03 8.619733e+00 8.018269e+00 1.088605e+01 2.808200e+04 1.621455e+05 4.612868e+06 -1.824039e+01 -9.193383e+00 7.681186e+00
<VARIANCE> 12
 3.907842e+03 1.089867e+04 2.296064e+02 2.460258e+01 1.834778e+01 3.728112e+01 1.050278e+09 2.084682e+10 1.900751e+10 4.241262e+03 6.347126e+03 7.854159e+03
<GCONST> 1.490669e+02
<MIXTURE> 2 1.674560e-01
<MEAN> 12
 -2.053609e+02 5.638222e+02 8.481529e+02 1.960520e+01 1.278005e+01 1.456828e+01 2.210478e+05 1.440466e+06 3.244660e+06 -7.436239e+01 2.924276e+01 1.159339e+02
<VARIANCE> 12
 6.878278e+03 2.193996e+03 1.651961e+03 1.560511e+02 5.549708e+01 6.371751e+01 2.465484e+10 5.595818e+10 9.555833e+10 7.232273e+04 3.424399e+04 1.164771e+05
<GCONST> 1.664695e+02
<MIXTURE> 3 1.214479e-01
<MEAN> 12
 -1.080390e+02 5.683732e+02 5.944299e+02 3.766972e+01 2.544346e+01 3.743710e+01 2.210307e+05 2.354236e+06 2.354600e+06 -5.759042e+01 3.668682e+02 1.557638e+02
<VARIANCE> 12
 3.716171e+04 2.000376e+05 1.696145e+05 8.668401e+02 4.643272e+02 1.090189e+03 1.148078e+11 4.150568e+12 3.421831e+12 2.148560e+06 5.133774e+06 3.970012e+06
<GCONST> 2.053326e+02
<TRANSP> 7
 0.000000e+00 3.585586e-01 6.414415e-01 0.000000e+00 0.000000e+00 0.000000e+00 0.000000e+00
 0.000000e+00 8.345115e-01 9.979212e-03 1.555094e-01 0.000000e+00 0.000000e+00 0.000000e+00
 0.000000e+00 0.000000e+00 9.223629e-01 7.911393e-03 6.972573e-02 0.000000e+00 0.000000e+00
 0.000000e+00 0.000000e+00 0.000000e+00 8.118190e-01 5.280804e-02 1.353730e-01 0.000000e+00
 0.000000e+00 0.000000e+00 0.000000e+00 0.000000e+00 8.417454e-01 1.045646e-02 1.477981e-01
 0.000000e+00 0.000000e+00 0.000000e+00 0.000000e+00 0.000000e+00 8.731394e-01 1.268606e-01
 0.000000e+00 0.000000e+00 0.000000e+00 0.000000e+00 0.000000e+00 0.000000e+00 0.000000e+00
<ENDHMM>
