~o
<STREAMINFO> 1 12
<VECSIZE> 12<NULLD><MFCC><DIAGC>
~h "Activity105"
<BEGINHMM>
<NUMSTATES> 7
<STATE> 2
<NUMMIXES> 3
<MIXTURE> 1 1.666667e-01
<MEAN> 12
 -9.401097e+02 9.696748e+01 2.834268e+02 1.059263e+02 4.213589e+01 5.459631e+01 4.050234e+06 9.309523e+04 5.084721e+05 4.742237e+02 -1.778313e+02 -1.173055e+03
<VARIANCE> 12
 1.514266e+04 1.100942e+04 3.214545e+04 4.426460e+03 6.498104e+02 2.271617e+03 1.162567e+12 1.278211e+10 2.304592e+11 2.229550e+07 6.321124e+06 2.788148e+07
<GCONST> 2.009037e+02
<MIXTURE> 2 7.256098e-01
<MEAN> 12
 -8.316293e+02 3.229767e+02 5.010672e+02 8.351177e+00 8.058244e+00 1.007174e+01 3.114140e+06 4.798076e+05 1.145082e+06 -2.385154e+00 -4.351072e+00 -7.824000e+00
<VARIANCE> 12
 4.223779e+02 2.309465e+03 3.392577e+03 2.223169e+01 1.896107e+01 2.619206e+01 2.387218e+10 2.009712e+10 5.869287e+10 4.003531e+03 5.943183e+03 6.813226e+03
<GCONST> 1.515109e+02
<MIXTURE> 3 1.077236e-01
<MEAN> 12
 -6.283837e+02 -1.670440e+02 7.457988e+02 5.714845e+01 4.714427e+01 4.976017e+01 1.876943e+06 2.494599e+05 2.532072e+06 -4.868837e+02 2.161098e+03 -5.433365e+02
<VARIANCE> 12
 2.264967e+04 2.721403e+04 6.170624e+03 1.676815e+03 1.935979e+03 1.912045e+03 6.087754e+11 1.116600e+11 2.997782e+11 1.845063e+07 3.768333e+07 2.014404e+07
<GCONST> 2.035639e+02
<STATE> 3
<NUMMIXES> 3
<MIXTURE> 1 6.203008e-01
<MEAN> 12
 -9.786061e+02 1.253071e+02 1.742101e+02 1.391898e+01 1.019550e+01 1.194246e+01 4.311556e+06 8.070684e+04 1.901605e+05 -2.429394e+01 -3.884141e+01 2.085354e+01
<VARIANCE> 12
 4.377985e+02 2.217109e+03 1.189074e+04 1.144800e+02 5.140514e+01 6.096958e+01 3.384102e+10 3.719952e+09 1.913184e+10 4.316604e+04 1.769644e+04 4.953707e+04
<GCONST> 1.592352e+02
<MIXTURE> 2 3.120301e-01
<MEAN> 12
 -9.236105e+02 2.096466e+02 3.162410e+02 1.974455e+02 7.082387e+01 1.094641e+02 4.045074e+06 2.935784e+05 9.104695e+05 5.808290e+03 4.963635e+03 -3.145776e+03
<VARIANCE> 12
 3.239009e+04 1.976828e+04 1.008236e+05 5.192610e+04 3.841436e+03 1.100826e+04 2.686926e+12 1.162154e+11 1.072129e+12 1.370350e+09 1.733942e+08 4.376830e+09
<GCONST> 2.262785e+02
<MIXTURE> 3 6.766918e-02
<MEAN> 12
 -4.029259e+02 3.282408e+02 7.045000e+02 1.721529e+02 8.922382e+01 1.793869e+02 1.279539e+06 1.132032e+06 2.517097e+06 1.685191e+01 1.601842e+03 -4.692868e+03
<VARIANCE> 12
 1.195105e+05 1.438574e+05 6.169645e+04 1.104607e+04 2.907795e+03 1.504713e+04 3.484876e+12 1.339599e+12 2.531581e+12 4.652206e+08 3.992285e+08 2.857286e+09
<GCONST> 2.304551e+02
<STATE> 4
<NUMMIXES> 3
<MIXTURE> 1 7.183908e-01
<MEAN> 12
 -9.656260e+02 8.878667e+01 2.731767e+02 7.232997e+00 7.497838e+00 9.323690e+00 4.196612e+06 3.863405e+04 3.446352e+05 -8.087332e+00 -1.546300e+01 1.987335e+00
<VARIANCE> 12
 1.448211e+02 7.010845e+02 1.955920e+03 1.799288e+01 1.577388e+01 2.377093e+01 1.089091e+10 3.860337e+08 1.230848e+10 2.357148e+03 4.202094e+03 3.786005e+03
<GCONST> 1.404419e+02
<MIXTURE> 2 2.658046e-01
<MEAN> 12
 -7.560991e+02 -3.054234e+01 6.784775e+02 9.145782e+00 8.975276e+00 9.649877e+00 2.573181e+06 4.731625e+03 2.071995e+06 -1.343964e+01 -7.695494e+00 -5.666652e-01
<VARIANCE> 12
 1.245428e+02 1.130687e+02 1.093954e+02 3.603751e+01 2.119210e+01 2.791232e+01 5.896703e+09 7.970873e+06 4.025015e+09 8.540729e+03 5.414530e+03 4.990758e+03
<GCONST> 1.329389e+02
<MIXTURE> 3 1.580460e-02
<MEAN> 12
 -3.129697e+02 1.007273e+03 8.587878e+01 9.947669e+01 3.689541e+01 4.319272e+01 4.913606e+05 4.576533e+06 1.518045e+05 1.595894e+03 3.411212e+02 1.372576e+02
<VARIANCE> 12
 1.087817e+04 2.081815e+03 2.668524e+04 1.332266e+03 3.995768e+02 3.958135e+02 1.070410e+11 1.846727e+11 3.191962e+10 1.263232e+07 2.338707e+06 1.859631e+07
<GCONST> 1.916281e+02
<STATE> 5
<NUMMIXES> 3
<MIXTURE> 1 5.135135e-01
<MEAN> 12
 -9.410943e+02 1.704386e+02 1.838640e+02 9.613051e+01 4.826510e+01 6.689159e+01 4.078947e+06 1.982005e+05 4.386517e+05 -3.721689e+02 1.282391e+02 4.404747e+02
<VARIANCE> 12
 1.968746e+04 1.467792e+04 6.278608e+04 4.202690e+03 7.565473e+02 1.968348e+03 1.367857e+12 3.671104e+10 3.920640e+11 2.997242e+07 1.080418e+07 7.244646e+07
<GCONST> 2.056159e+02
<MIXTURE> 2 4.324324e-01
<MEAN> 12
 -9.017969e+02 1.683438e+02 3.067787e+02 1.758232e+01 1.123569e+01 1.427229e+01 3.696315e+06 2.010166e+05 7.066462e+05 3.366015e+01 4.451822e+00 1.754688e+01
<VARIANCE> 12
 8.108625e+03 1.632581e+04 6.290727e+04 1.998411e+02 3.929566e+01 8.678338e+01 5.093054e+11 4.463269e+10 5.054764e+11 5.182036e+04 2.920004e+04 8.230659e+04
<GCONST> 1.761197e+02
<MIXTURE> 3 5.405406e-02
<MEAN> 12
 -1.892708e+02 -3.338125e+02 9.042083e+02 5.938431e+01 6.600157e+01 6.658966e+01 2.194533e+05 9.616299e+05 3.744986e+06 -1.200271e+03 2.326417e+03 -8.577813e+02
<VARIANCE> 12
 1.305818e+04 1.018511e+05 1.428996e+04 1.408922e+03 1.096855e+03 1.196443e+03 3.449540e+10 3.770249e+11 9.699230e+11 1.715883e+07 1.798512e+07 8.828167e+06
<GCONST> 2.018449e+02
<STATE> 6
<NUMMIXES> 3
<MIXTURE> 1 9.949367e-01
<MEAN> 12
 -9.830212e+02 1.649581e+02 7.005093e+01 6.953645e+00 7.131057e+00 8.988570e+00 4.348752e+06 1.334132e+05 6.949822e+04 -1.432506e+01 -1.569041e+01 4.275444e+00
<VARIANCE> 12
 5.700565e+01 2.435452e+03 1.053431e+04 1.465289e+01 1.512654e+01 2.255093e+01 4.465439e+09 6.753355e+09 5.764759e+09 2.301049e+03 3.807017e+03 3.188023e+03
<GCONST> 1.430557e+02
<MIXTURE> 2 1.265823e-03
<MEAN> 12
 -1.140667e+03 3.823333e+02 -6.146667e+02 6.882037e+02 2.443058e+02 1.232154e+03 6.268286e+06 7.464764e+05 3.974457e+06 -1.531387e+05 -3.008447e+05 7.598678e+05
<VARIANCE> 12
 1.000000e-02 1.000000e-02 1.000000e-02 1.000000e-02 1.000000e-02 1.000000e-02 1.000000e-02 1.000000e-02 1.000000e-02 1.000000e-02 1.000000e-02 1.000000e-02
<GCONST> -3.320752e+01
<MIXTURE> 3 3.797468e-03
<MEAN> 12
 -9.688889e+01 1.141333e+03 1.480000e+02 2.023620e+02 6.511563e+01 2.613983e+02 1.423348e+05 5.942944e+06 2.342203e+05 -6.883887e+02 -8.800276e+03 4.840905e+04
<VARIANCE> 12
 1.088151e+04 1.770274e+04 1.267230e+04 1.703165e+03 8.818431e+02 4.949154e+03 8.568938e+09 1.781756e+12 1.938130e+10 1.389880e+08 4.267828e+08 2.732122e+08
<GCONST> 2.061223e+02
<TRANSP> 7
 0.000000e+00 4.015748e-01 5.984252e-01 0.000000e+00 0.000000e+00 0.000000e+00 0.000000e+00
 0.000000e+00 8.963415e-01 8.130082e-02 2.235772e-02 0.000000e+00 0.000000e+00 0.000000e+00
 0.000000e+00 0.000000e+00 5.639098e-01 1.804511e-01 2.556391e-01 0.000000e+00 0.000000e+00
 0.000000e+00 0.000000e+00 0.000000e+00 9.152299e-01 3.735632e-02 4.741380e-02 0.000000e+00
 0.000000e+00 0.000000e+00 0.000000e+00 0.000000e+00 6.824325e-01 1.081081e-01 2.094595e-01
 0.000000e+00 0.000000e+00 0.000000e+00 0.000000e+00 0.000000e+00 9.177215e-01 8.227848e-02
 0.000000e+00 0.000000e+00 0.000000e+00 0.000000e+00 0.000000e+00 0.000000e+00 0.000000e+00
<ENDHMM>
