~o
<STREAMINFO> 1 12
<VECSIZE> 12<NULLD><MFCC><DIAGC>
~h "Activity101"
<BEGINHMM>
<NUMSTATES> 7
<STATE> 2
<NUMMIXES> 3
<MIXTURE> 1 4.995746e-01
<MEAN> 12
 -2.249263e+01 1.027967e+03 1.437135e+02 5.389820e+01 2.648367e+01 4.820113e+01 5.172725e+04 4.758598e+06 1.798614e+05 2.959349e+02 3.724007e+01 -2.697265e+01
<VARIANCE> 12
 1.039717e+04 7.197585e+02 1.893654e+04 1.200317e+03 2.723315e+02 8.805264e+02 3.360436e+09 6.127943e+10 3.141673e+10 1.852958e+06 1.718324e+06 7.237912e+06
<GCONST> 1.827381e+02
<MIXTURE> 2 3.585162e-01
<MEAN> 12
 -4.468774e+01 9.685804e+02 2.515072e+02 1.340050e+02 7.537852e+01 1.137122e+02 1.631935e+05 4.299543e+06 7.232432e+05 1.589080e+03 1.541439e+03 -9.830383e+02
<VARIANCE> 12
 2.979916e+04 1.683354e+04 9.555778e+04 6.771101e+03 2.259838e+03 5.236373e+03 3.101757e+10 1.259766e+12 5.320795e+11 1.064886e+08 7.740713e+07 2.197273e+08
<GCONST> 2.135381e+02
<MIXTURE> 3 1.419091e-01
<MEAN> 12
 -7.154021e+01 9.229301e+02 3.532303e+02 3.024958e+02 2.076995e+02 3.540429e+02 6.192219e+05 4.328774e+06 1.822829e+06 1.547320e+04 3.557566e+04 -8.617099e+03
<VARIANCE> 12
 1.071205e+05 1.087166e+05 2.530196e+05 4.976995e+04 2.364258e+04 8.165420e+04 5.158414e+11 6.534953e+12 3.268739e+12 7.804765e+09 2.122041e+10 2.313723e+10
<GCONST> 2.455838e+02
<STATE> 3
<NUMMIXES> 3
<MIXTURE> 1 4.809234e-01
<MEAN> 12
 -3.275277e+01 9.636373e+02 1.690064e+02 1.175968e+01 8.711126e+00 1.182332e+01 5.372753e+04 4.183753e+06 6.745994e+05 -8.267412e+00 -1.007727e+01 2.072593e+00
<VARIANCE> 12
 1.085719e+04 1.124026e+03 1.213372e+05 4.973142e+01 2.108279e+01 4.381964e+01 5.170210e+09 8.526506e+10 7.338050e+10 8.036915e+03 7.915480e+03 1.507765e+04
<GCONST> 1.609568e+02
<MIXTURE> 2 3.135017e-01
<MEAN> 12
 -6.354045e+01 9.292913e+02 4.692859e+02 3.309615e+01 1.712947e+01 2.684957e+01 7.527895e+04 3.894657e+06 1.022303e+06 4.081042e+01 -1.158267e+02 -1.130397e+01
<VARIANCE> 12
 1.252656e+04 1.881677e+03 6.889393e+03 3.725388e+02 8.739210e+01 2.290177e+02 7.441943e+09 1.296622e+11 1.228625e+11 2.497880e+05 1.707250e+05 6.329032e+05
<GCONST> 1.753795e+02
<MIXTURE> 3 2.055749e-01
<MEAN> 12
 -3.596158e+01 8.603154e+02 2.587517e+02 6.232953e+01 3.339531e+01 4.441855e+01 2.567105e+05 3.371574e+06 1.334432e+06 6.953349e+01 -7.186436e+01 4.710567e+01
<VARIANCE> 12
 5.503616e+04 9.000158e+03 2.293858e+05 1.658669e+03 4.421365e+02 8.220329e+02 9.056992e+10 5.076813e+11 4.255692e+11 5.085164e+06 2.974531e+06 9.110578e+06
<GCONST> 1.999672e+02
<STATE> 4
<NUMMIXES> 3
<MIXTURE> 1 7.973730e-01
<MEAN> 12
 -3.313000e+01 1.037005e+03 2.676344e+01 2.317173e+01 1.352532e+01 2.348838e+01 3.006275e+04 4.839814e+06 5.467304e+04 4.738162e+01 6.720735e+01 7.669506e+00
<VARIANCE> 12
 5.500186e+03 1.335506e+02 1.133655e+04 2.185878e+02 6.433076e+01 2.252385e+02 1.400403e+09 1.164402e+10 4.054353e+09 9.459146e+04 1.115440e+05 3.712225e+05
<GCONST> 1.621309e+02
<MIXTURE> 2 2.144099e-02
<MEAN> 12
 -5.993694e+01 6.621532e+02 3.685435e+02 4.577345e+02 3.182031e+02 5.886859e+02 1.138710e+06 3.358749e+06 4.183351e+06 4.879630e+03 2.001076e+05 1.283942e+05
<VARIANCE> 12
 1.453182e+05 2.893717e+05 5.638450e+05 2.031015e+05 1.044215e+05 5.744101e+05 4.251769e+12 1.036118e+13 3.606654e+13 9.748905e+10 5.595509e+11 1.342339e+12
<GCONST> 2.673406e+02
<MIXTURE> 3 1.811860e-01
<MEAN> 12
 -1.212222e+01 5.390804e+02 5.087044e+02 2.798842e+01 1.941603e+01 2.905330e+01 9.740849e+04 1.744561e+06 3.016742e+06 4.302963e+01 1.833181e+02 1.351617e+02
<VARIANCE> 12
 2.134447e+04 9.704879e+04 4.115165e+05 4.592551e+02 1.839597e+02 4.845188e+02 1.371356e+10 1.793996e+12 1.867915e+12 4.663114e+05 5.815488e+05 1.242337e+06
<GCONST> 1.941327e+02
<STATE> 5
<NUMMIXES> 3
<MIXTURE> 1 5.074126e-01
<MEAN> 12
 -1.078864e+02 1.000324e+03 2.218312e+02 3.681710e+01 1.798931e+01 3.071614e+01 1.301620e+05 4.507558e+06 3.396242e+05 1.113595e+02 -6.434369e+01 1.894936e+01
<VARIANCE> 12
 1.709148e+04 1.021369e+03 2.612727e+04 5.778514e+02 1.083984e+02 3.894529e+02 1.992414e+10 8.203832e+10 6.762344e+10 4.137135e+05 2.943443e+05 1.319415e+06
<GCONST> 1.793114e+02
<MIXTURE> 2 1.444950e-01
<MEAN> 12
 -1.335178e+02 8.776127e+02 4.618579e+02 2.266447e+02 1.400247e+02 2.268709e+02 4.777493e+05 3.683096e+06 1.644195e+06 2.248966e+03 1.280437e+04 -2.706038e+03
<VARIANCE> 12
 7.515967e+04 4.730149e+04 1.475349e+05 2.381243e+04 1.015740e+04 2.974733e+04 3.333832e+11 2.532582e+12 1.903991e+12 1.524451e+09 4.037868e+09 4.341062e+09
<GCONST> 2.343755e+02
<MIXTURE> 3 3.480925e-01
<MEAN> 12
 -9.153909e+01 9.643382e+02 3.120523e+02 1.036407e+02 5.014500e+01 8.252639e+01 1.726127e+05 4.220887e+06 6.586561e+05 6.868205e+02 -4.382126e+01 -2.604075e+02
<VARIANCE> 12
 2.765385e+04 7.857202e+03 4.810546e+04 3.909449e+03 8.123939e+02 2.399402e+03 4.486728e+10 5.704673e+11 3.188597e+11 2.407386e+07 1.683317e+07 6.736974e+07
<GCONST> 2.045324e+02
<STATE> 6
<NUMMIXES> 3
<MIXTURE> 1 5.626892e-01
<MEAN> 12
 -3.806071e+01 1.032821e+03 5.411539e+01 1.097975e+01 9.047090e+00 1.233698e+01 3.097399e+04 4.800728e+06 8.486520e+04 -6.648940e+00 -2.993132e+00 -3.163078e+00
<VARIANCE> 12
 5.424151e+03 1.083573e+02 1.592020e+04 4.408556e+01 2.508945e+01 4.890833e+01 1.496280e+09 9.326941e+09 8.603188e+09 8.607213e+03 1.045476e+04 1.686110e+04
<GCONST> 1.509182e+02
<MIXTURE> 2 2.782543e-01
<MEAN> 12
 -1.411089e+02 8.539601e+02 5.840085e+02 1.956672e+01 1.109010e+01 1.571784e+01 1.256666e+05 3.293310e+06 1.560672e+06 9.214785e-01 -3.652040e+01 -3.149320e+00
<VARIANCE> 12
 7.966123e+03 2.594488e+03 5.734263e+03 1.919834e+02 4.002967e+01 8.414240e+01 1.348857e+10 1.487007e+11 1.626562e+11 4.563397e+04 2.761835e+04 8.701616e+04
<GCONST> 1.681261e+02
<MIXTURE> 3 1.590565e-01
<MEAN> 12
 -1.265293e+02 8.341220e+02 5.287147e+02 5.744372e+01 2.928125e+01 4.156231e+01 1.996191e+05 3.181900e+06 1.592637e+06 3.021907e+01 -1.753535e+02 2.044382e+02
<VARIANCE> 12
 2.772847e+04 1.125565e+04 7.417734e+04 1.321619e+03 3.057892e+02 6.634040e+02 5.664898e+10 5.560235e+11 5.242640e+11 3.299594e+06 2.033819e+06 6.801004e+06
<GCONST> 1.962912e+02
<TRANSP> 7
 0.000000e+00 4.760966e-01 5.239034e-01 0.000000e+00 0.000000e+00 0.000000e+00 0.000000e+00
 0.000000e+00 8.356304e-01 7.622937e-02 8.814020e-02 0.000000e+00 0.000000e+00 0.000000e+00
 0.000000e+00 0.000000e+00 8.683798e-01 3.754356e-02 9.407666e-02 0.000000e+00 0.000000e+00
 0.000000e+00 0.000000e+00 0.000000e+00 8.166893e-01 9.252463e-02 9.078617e-02 0.000000e+00
 0.000000e+00 0.000000e+00 0.000000e+00 0.000000e+00 8.459182e-01 3.320814e-02 1.208737e-01
 0.000000e+00 0.000000e+00 0.000000e+00 0.000000e+00 0.000000e+00 8.983350e-01 1.016650e-01
 0.000000e+00 0.000000e+00 0.000000e+00 0.000000e+00 0.000000e+00 0.000000e+00 0.000000e+00
<ENDHMM>
