~o
<STREAMINFO> 1 12
<VECSIZE> 12<NULLD><MFCC><DIAGC>
~h "Activity102"
<BEGINHMM>
<NUMSTATES> 7
<STATE> 2
<NUMMIXES> 3
<MIXTURE> 1 2.509362e-01
<MEAN> 12
 -5.946212e+01 9.318285e+02 3.544025e+02 1.961920e+02 1.434326e+02 2.254845e+02 3.999712e+05 4.303284e+06 1.471907e+06 -5.613964e+02 1.019320e+04 -4.589290e+03
<VARIANCE> 12
 7.624059e+04 8.696808e+04 1.941105e+05 1.513610e+04 8.789921e+03 2.059128e+04 1.991280e+11 4.740527e+12 1.965123e+12 8.924423e+08 1.366460e+09 2.475889e+09
<GCONST> 2.322703e+02
<MIXTURE> 2 3.435291e-01
<MEAN> 12
 -2.448308e+01 1.033310e+03 7.346579e+01 3.403125e+01 1.719682e+01 3.061798e+01 3.763659e+04 4.806298e+06 8.799219e+04 7.832801e+01 1.336469e+01 -1.792832e+01
<VARIANCE> 12
 7.572465e+03 3.376474e+02 1.399777e+04 5.417916e+02 1.040325e+02 3.885513e+02 1.868355e+09 2.911690e+10 1.062142e+10 3.165657e+05 2.513941e+05 1.165904e+06
<GCONST> 1.708556e+02
<MIXTURE> 3 4.055347e-01
<MEAN> 12
 -7.060672e+01 9.945377e+02 2.312778e+02 8.476942e+01 4.701871e+01 7.081800e+01 1.381536e+05 4.494484e+06 4.077911e+05 2.985796e+02 5.213491e+01 -5.259492e+02
<VARIANCE> 12
 2.419004e+04 9.472825e+03 3.642459e+04 2.823009e+03 9.151624e+02 2.147829e+03 2.506942e+10 7.446880e+11 1.640736e+11 1.610756e+07 1.081458e+07 3.750964e+07
<GCONST> 2.015803e+02
<STATE> 3
<NUMMIXES> 3
<MIXTURE> 1 2.285526e-01
<MEAN> 12
 -9.610183e+01 1.020452e+03 4.210896e+02 4.893628e+02 3.952346e+02 6.071616e+02 8.752163e+05 5.133740e+06 2.778072e+06 1.891512e+04 8.260133e+04 -5.750324e+04
<VARIANCE> 12
 1.149646e+05 9.227454e+04 3.627513e+05 8.929089e+04 6.271092e+04 1.356797e+05 7.975464e+11 8.230958e+12 9.070633e+12 5.707291e+10 1.021774e+11 1.024056e+11
<GCONST> 2.546545e+02
<MIXTURE> 2 3.962448e-01
<MEAN> 12
 -2.774116e+00 1.076018e+03 1.158372e+02 1.734239e+02 9.901773e+01 1.382488e+02 2.163001e+05 5.329749e+06 2.841253e+05 5.646070e+02 3.452061e+03 -9.308696e+02
<VARIANCE> 12
 4.009964e+04 2.559024e+04 4.586403e+04 1.048893e+04 2.983932e+03 7.291182e+03 5.193060e+10 2.391566e+12 9.882581e+10 2.521142e+08 1.778000e+08 5.107129e+08
<GCONST> 2.165762e+02
<MIXTURE> 3 3.752027e-01
<MEAN> 12
 1.047186e+01 1.036408e+03 9.695932e+01 8.482037e+01 4.058545e+01 6.792829e+01 5.143202e+04 4.842252e+06 1.102293e+05 3.896679e+02 4.309766e+01 -2.448147e+02
<VARIANCE> 12
 9.711865e+03 1.846305e+03 1.422428e+04 2.563684e+03 6.009006e+02 1.612678e+03 2.562788e+09 1.622971e+11 1.434998e+10 1.046526e+07 6.628791e+06 2.922797e+07
<GCONST> 1.898778e+02
<STATE> 4
<NUMMIXES> 3
<MIXTURE> 1 2.900001e-01
<MEAN> 12
 -7.889027e+01 1.431612e+03 3.701237e+02 6.157330e+02 4.148032e+02 5.332697e+02 1.583327e+06 9.574717e+06 1.667592e+06 1.791827e+05 -7.575813e+04 -1.500711e+05
<VARIANCE> 12
 2.647461e+05 6.601779e+04 1.661032e+05 7.520167e+04 4.730820e+04 6.501550e+04 1.949719e+12 1.167928e+13 2.760995e+12 6.753082e+10 3.410228e+10 7.108701e+10
<GCONST> 2.519436e+02
<MIXTURE> 2 3.010224e-01
<MEAN> 12
 -4.004640e+01 5.426426e+02 4.710834e+02 6.477898e+01 4.252003e+01 5.261229e+01 2.687192e+05 2.140574e+06 2.296877e+06 -6.282563e+02 1.648196e+02 4.972346e+02
<VARIANCE> 12
 5.735127e+04 1.810541e+05 2.881441e+05 2.060417e+03 9.161376e+02 1.430792e+03 1.183957e+11 2.070064e+12 1.832347e+12 9.225277e+06 5.707098e+06 1.346060e+07
<GCONST> 2.095085e+02
<MIXTURE> 3 4.089774e-01
<MEAN> 12
 -9.859393e+01 1.128243e+03 6.941370e+02 2.112932e+02 1.531671e+02 3.763325e+02 2.375474e+05 5.922653e+06 2.570548e+06 2.519224e+01 2.181574e+04 -3.733969e+04
<VARIANCE> 12
 3.495553e+04 4.399550e+04 7.901662e+04 1.400224e+04 7.012336e+03 2.851642e+04 4.998952e+10 4.004853e+12 3.467944e+12 7.076380e+08 2.603306e+09 4.588512e+09
<GCONST> 2.299788e+02
<STATE> 5
<NUMMIXES> 3
<MIXTURE> 1 2.720025e-01
<MEAN> 12
 3.208239e+01 1.508960e+03 -1.129521e+02 2.977858e+02 1.944063e+02 1.312266e+02 8.462593e+05 1.061159e+07 2.083210e+05 4.044660e+03 7.170242e+03 -1.924330e+03
<VARIANCE> 12
 1.569828e+05 7.443823e+04 2.957138e+04 3.688700e+04 1.017501e+04 4.651338e+03 5.758494e+11 1.391795e+13 4.029664e+10 2.827937e+09 6.762259e+08 1.349826e+09
<GCONST> 2.285999e+02
<MIXTURE> 2 3.124698e-01
<MEAN> 12
 -3.372873e+01 9.805035e+02 2.586376e+02 4.851122e+01 2.165415e+01 3.769680e+01 8.852061e+04 4.340296e+06 4.867517e+05 8.397576e+00 -4.452415e+01 5.865785e+01
<VARIANCE> 12
 1.811158e+04 3.109473e+03 4.109223e+04 9.564193e+02 1.543783e+02 5.273973e+02 1.282269e+10 2.358355e+11 1.907823e+11 7.849154e+05 5.342861e+05 2.687101e+06
<GCONST> 1.856965e+02
<MIXTURE> 3 4.155276e-01
<MEAN> 12
 -9.937752e+00 9.694449e+02 -1.842063e+02 1.040171e+02 1.284563e+02 7.776794e+01 3.390198e+05 4.519614e+06 6.183548e+05 1.202330e+03 4.869941e+03 5.562894e+01
<VARIANCE> 12
 7.329684e+04 6.104289e+04 1.028631e+05 3.586493e+03 5.488929e+03 1.899448e+03 1.232921e+11 4.988148e+12 3.188862e+11 1.572295e+08 1.024618e+08 4.893704e+07
<GCONST> 2.164503e+02
<STATE> 6
<NUMMIXES> 3
<MIXTURE> 1 2.821239e-01
<MEAN> 12
 -1.302834e+02 9.366809e+02 5.515031e+02 5.741355e+02 4.744333e+02 8.007859e+02 1.100754e+06 4.618920e+06 4.268451e+06 1.809717e+04 8.313762e+04 -1.597695e+05
<VARIANCE> 12
 1.317917e+05 1.384303e+05 5.113516e+05 1.028280e+05 7.235759e+04 1.774916e+05 1.449659e+12 1.134498e+13 1.703006e+13 8.906106e+10 2.207703e+11 2.205826e+11
<GCONST> 2.596240e+02
<MIXTURE> 2 3.761176e-01
<MEAN> 12
 2.951644e+00 9.693408e+02 9.282783e+01 2.184562e+02 1.716705e+02 2.522016e+02 3.733658e+05 4.831944e+06 1.484405e+06 3.062479e+03 1.086140e+04 -7.126202e+03
<VARIANCE> 12
 6.994102e+04 1.309580e+05 3.091278e+05 1.901609e+04 1.101034e+04 2.727241e+04 1.433702e+11 1.201746e+13 3.235185e+12 1.331369e+09 2.074797e+09 2.953974e+09
<GCONST> 2.358875e+02
<MIXTURE> 3 3.417585e-01
<MEAN> 12
 -5.105839e+00 1.013773e+03 2.057356e+02 1.067292e+02 6.337185e+01 8.302656e+01 7.324483e+04 4.658253e+06 3.788851e+05 -1.420123e+02 -1.167903e+02 -2.869935e+02
<VARIANCE> 12
 1.312734e+04 7.060508e+03 4.067833e+04 4.815598e+03 1.637385e+03 2.814173e+03 6.330916e+09 5.852371e+11 1.726574e+11 5.197879e+07 2.840940e+07 7.835341e+07
<GCONST> 2.034795e+02
<TRANSP> 7
 0.000000e+00 7.027019e-01 2.972982e-01 0.000000e+00 0.000000e+00 0.000000e+00 0.000000e+00
 0.000000e+00 8.403664e-01 1.337020e-01 2.593158e-02 0.000000e+00 0.000000e+00 0.000000e+00
 0.000000e+00 0.000000e+00 8.423651e-01 9.429036e-02 6.334455e-02 0.000000e+00 0.000000e+00
 0.000000e+00 0.000000e+00 0.000000e+00 5.384793e-01 4.146726e-01 4.684807e-02 0.000000e+00
 0.000000e+00 0.000000e+00 0.000000e+00 0.000000e+00 6.200456e-01 2.917852e-01 8.816914e-02
 0.000000e+00 0.000000e+00 0.000000e+00 0.000000e+00 0.000000e+00 8.721036e-01 1.278964e-01
 0.000000e+00 0.000000e+00 0.000000e+00 0.000000e+00 0.000000e+00 0.000000e+00 0.000000e+00
<ENDHMM>
