~o
<STREAMINFO> 1 12
<VECSIZE> 12<NULLD><MFCC><DIAGC>
~h "Activity105"
<BEGINHMM>
<NUMSTATES> 7
<STATE> 2
<NUMMIXES> 3
<MIXTURE> 1 2.213480e-01
<MEAN> 12
 -9.533867e+02 9.714805e+01 2.341651e+02 7.281096e+01 3.224681e+01 4.068356e+01 4.141541e+06 8.159461e+04 3.549617e+05 2.302538e+02 -1.816695e+02 -6.986707e+02
<VARIANCE> 12
 1.091454e+04 8.516260e+03 2.371683e+04 3.525838e+03 5.263888e+02 1.660573e+03 8.203499e+11 1.071662e+10 1.056526e+11 1.127219e+07 2.414072e+06 1.574972e+07
<GCONST> 1.957434e+02
<MIXTURE> 2 6.809682e-01
<MEAN> 12
 -8.316213e+02 3.230161e+02 5.010511e+02 8.356266e+00 8.049520e+00 1.006397e+01 3.114081e+06 4.799181e+05 1.145016e+06 -2.394494e+00 -4.494848e+00 -7.833436e+00
<VARIANCE> 12
 4.225599e+02 2.308497e+03 3.394234e+03 2.220666e+01 1.885706e+01 2.611704e+01 2.388264e+10 2.009083e+10 5.872222e+10 4.006031e+03 5.915482e+03 6.817541e+03
<GCONST> 1.514991e+02
<MIXTURE> 3 9.768379e-02
<MEAN> 12
 -7.109155e+02 -7.695980e+01 7.154903e+02 6.317305e+01 4.206978e+01 3.928245e+01 2.332670e+06 7.732697e+04 2.331718e+06 -2.677001e+02 1.282468e+03 -6.911488e+02
<VARIANCE> 12
 1.309841e+04 1.093704e+04 6.027119e+03 3.739403e+03 1.869548e+03 1.173940e+03 5.144609e+11 1.163177e+10 2.515726e+11 1.773529e+07 3.538494e+07 1.169642e+07
<GCONST> 1.991090e+02
<STATE> 3
<NUMMIXES> 3
<MIXTURE> 1 7.753240e-01
<MEAN> 12
 -9.815951e+02 1.439520e+02 1.675285e+02 7.350208e+00 7.257189e+00 9.468414e+00 4.336041e+06 9.499721e+04 1.402025e+05 -1.567681e+01 -2.004335e+01 8.370397e+00
<VARIANCE> 12
 3.376819e+01 3.890855e+02 3.089680e+03 1.487458e+01 1.543445e+01 2.368074e+01 2.639801e+09 9.635740e+08 2.463187e+09 2.359569e+03 4.193557e+03 3.927109e+03
<GCONST> 1.365626e+02
<MIXTURE> 2 1.826735e-01
<MEAN> 12
 -8.956371e+02 2.236892e+02 3.619510e+02 2.071485e+02 7.691362e+01 1.254827e+02 3.844539e+06 3.148376e+05 1.082550e+06 5.179977e+03 5.065211e+03 -5.004990e+03
<VARIANCE> 12
 4.009786e+04 1.854136e+04 1.078043e+05 4.483864e+04 3.668085e+03 1.268567e+04 2.991468e+12 1.110872e+11 1.499904e+12 1.275785e+09 2.175449e+08 4.305836e+09
<GCONST> 2.269807e+02
<MIXTURE> 3 4.200247e-02
<MEAN> 12
 -2.997007e+02 -3.718386e+01 7.616940e+02 9.372939e+01 5.859833e+01 1.025916e+02 5.444430e+05 1.205159e+06 2.745106e+06 -9.028502e+02 6.310761e+02 3.529597e+03
<VARIANCE> 12
 2.950641e+04 2.664457e+05 2.912026e+04 3.281088e+03 1.118254e+03 2.822592e+03 1.718363e+11 9.455171e+11 1.354523e+12 2.718733e+07 5.078296e+07 8.589556e+07
<GCONST> 2.126891e+02
<STATE> 4
<NUMMIXES> 3
<MIXTURE> 1 7.154304e-01
<MEAN> 12
 -9.650714e+02 8.705947e+01 2.758793e+02 7.547468e+00 7.666241e+00 9.357394e+00 4.191794e+06 3.692572e+04 3.501955e+05 -8.471583e+00 -1.626530e+01 2.299138e+00
<VARIANCE> 12
 1.430117e+02 6.250861e+02 1.707658e+03 2.148273e+01 1.554300e+01 2.528663e+01 1.073628e+10 3.024027e+08 1.132726e+10 2.847443e+03 4.379580e+03 4.188404e+03
<GCONST> 1.403929e+02
<MIXTURE> 2 2.686641e-01
<MEAN> 12
 -7.562602e+02 -3.038276e+01 6.784572e+02 9.211275e+00 8.958277e+00 9.658095e+00 2.574303e+06 4.712561e+03 2.071870e+06 -1.286933e+01 -7.418890e+00 5.783846e-01
<VARIANCE> 12
 1.300959e+02 1.185587e+02 1.090240e+02 3.688972e+01 2.116854e+01 2.780946e+01 6.166481e+09 8.022425e+06 4.011460e+09 8.578925e+03 5.409460e+03 5.276363e+03
<GCONST> 1.331521e+02
<MIXTURE> 3 1.590555e-02
<MEAN> 12
 -3.129697e+02 1.007273e+03 8.587879e+01 9.947669e+01 3.689541e+01 4.319272e+01 4.913606e+05 4.576533e+06 1.518045e+05 1.595894e+03 3.411212e+02 1.372575e+02
<VARIANCE> 12
 1.087817e+04 2.081815e+03 2.668523e+04 1.332267e+03 3.995768e+02 3.958132e+02 1.070410e+11 1.846728e+11 3.191962e+10 1.263232e+07 2.338707e+06 1.859631e+07
<GCONST> 1.916281e+02
<STATE> 5
<NUMMIXES> 3
<MIXTURE> 1 4.455540e-01
<MEAN> 12
 -9.424776e+02 1.693095e+02 1.903658e+02 8.509299e+01 4.524978e+01 6.010077e+01 4.085648e+06 2.003190e+05 4.492423e+05 -2.693802e+02 2.046015e+02 5.407165e+02
<VARIANCE> 12
 1.856064e+04 1.556451e+04 6.298899e+04 3.697490e+03 7.956295e+02 1.626019e+03 1.296798e+12 4.055504e+10 4.009731e+11 2.489416e+07 7.233546e+06 4.539078e+07
<GCONST> 2.043644e+02
<MIXTURE> 2 5.118967e-01
<MEAN> 12
 -9.376997e+02 1.530946e+02 2.638311e+02 1.355894e+01 9.481608e+00 1.203848e+01 3.982650e+06 1.493177e+05 4.845984e+05 -6.240653e+00 -1.880384e+01 9.978800e+00
<VARIANCE> 12
 5.739387e+03 9.737504e+03 3.807655e+04 1.265176e+02 2.787123e+01 6.260419e+01 3.691695e+11 2.894011e+10 3.216735e+11 2.969224e+04 1.225614e+04 3.234698e+04
<GCONST> 1.700621e+02
<MIXTURE> 3 4.254923e-02
<MEAN> 12
 -1.770930e+02 -3.735561e+02 8.901516e+02 6.137440e+01 6.817452e+01 6.203992e+01 1.927898e+05 1.003888e+06 3.619989e+06 -1.284071e+03 2.185993e+03 -1.020975e+03
<VARIANCE> 12
 1.159265e+04 8.312799e+04 1.206742e+04 1.431229e+03 1.093184e+03 9.447036e+02 2.551053e+10 3.731510e+11 7.831809e+11 1.800937e+07 1.889343e+07 9.016020e+06
<GCONST> 2.007225e+02
<STATE> 6
<NUMMIXES> 3
<MIXTURE> 1 9.887643e-01
<MEAN> 12
 -9.845180e+02 1.832253e+02 -1.795611e+01 6.732504e+00 6.947619e+00 8.654388e+00 4.362082e+06 1.667839e+05 5.607228e+03 -1.399777e+01 -1.258180e+01 1.845645e+00
<VARIANCE> 12
 7.443137e+01 3.489635e+03 9.194485e+02 1.453168e+01 1.484667e+01 2.137777e+01 5.834764e+09 9.398689e+09 1.495552e+07 2.167983e+03 3.280264e+03 2.783285e+03
<GCONST> 1.354623e+02
<MIXTURE> 3 1.123566e-02
<MEAN> 12
 -4.550937e+02 7.867026e+02 -3.567669e+01 3.084500e+02 9.953397e+01 4.539103e+02 1.962127e+06 3.729966e+06 9.547013e+05 -3.266734e+04 -6.838847e+04 1.882867e+05
<VARIANCE> 12
 2.077703e+05 2.057430e+05 9.504962e+04 3.737508e+04 5.776636e+03 1.544031e+05 5.966505e+12 8.458940e+12 2.294328e+12 3.720201e+09 1.377089e+10 8.186619e+10
<GCONST> 2.472890e+02
<TRANSP> 7
 0.000000e+00 4.959225e-01 5.040776e-01 0.000000e+00 0.000000e+00 0.000000e+00 0.000000e+00
 0.000000e+00 8.797843e-01 7.251311e-02 4.770255e-02 0.000000e+00 0.000000e+00 0.000000e+00
 0.000000e+00 0.000000e+00 8.066121e-01 3.241153e-02 1.609763e-01 0.000000e+00 0.000000e+00
 0.000000e+00 0.000000e+00 0.000000e+00 9.391376e-01 5.941648e-02 1.445965e-03 0.000000e+00
 0.000000e+00 0.000000e+00 0.000000e+00 0.000000e+00 6.421237e-01 7.952831e-02 2.783479e-01
 0.000000e+00 0.000000e+00 0.000000e+00 0.000000e+00 0.000000e+00 9.348320e-01 6.516799e-02
 0.000000e+00 0.000000e+00 0.000000e+00 0.000000e+00 0.000000e+00 0.000000e+00 0.000000e+00
<ENDHMM>
