~o
<STREAMINFO> 1 12
<VECSIZE> 12<NULLD><MFCC><DIAGC>
~h "Activity101"
<BEGINHMM>
<NUMSTATES> 7
<STATE> 2
<NUMMIXES> 3
<MIXTURE> 1 5.068589e-01
<MEAN> 12
 -1.490151e+01 1.035638e+03 7.116712e+01 3.571180e+01 1.879865e+01 3.466275e+01 3.214754e+04 4.827756e+06 9.294537e+04 1.496261e+02 9.137850e+01 -3.022939e+01
<VARIANCE> 12
 6.687410e+03 2.818562e+02 1.537233e+04 5.655652e+02 1.369520e+02 4.934812e+02 1.368572e+09 2.452087e+10 1.053923e+10 4.516738e+05 4.514782e+05 1.688243e+06
<GCONST> 1.720216e+02
<MIXTURE> 2 3.534825e-01
<MEAN> 12
 -3.627540e+01 9.775280e+02 2.273278e+02 1.081252e+02 5.811408e+01 9.274940e+01 1.262513e+05 4.356538e+06 6.035331e+05 9.431680e+02 7.504026e+02 -2.625096e+02
<VARIANCE> 12
 2.385355e+04 1.224882e+04 8.110682e+04 4.741451e+03 1.362905e+03 3.592143e+03 2.062169e+10 9.140087e+11 4.090434e+11 4.368334e+07 3.223880e+07 1.016777e+08
<GCONST> 2.080652e+02
<MIXTURE> 3 1.396585e-01
<MEAN> 12
 -7.665512e+01 9.537838e+02 3.775548e+02 2.734902e+02 1.881245e+02 3.091513e+02 4.977825e+05 4.431754e+06 1.572313e+06 1.147093e+04 2.674439e+04 -5.765410e+03
<VARIANCE> 12
 8.414903e+04 7.368805e+04 1.872094e+05 3.992235e+04 1.938772e+04 6.551982e+04 3.503898e+11 4.973110e+12 2.766978e+12 5.665828e+09 1.554133e+10 1.514068e+10
<GCONST> 2.421310e+02
<STATE> 3
<NUMMIXES> 3
<MIXTURE> 1 3.363301e-01
<MEAN> 12
 1.066515e+01 9.607883e+02 9.258960e+01 1.116009e+01 8.438950e+00 1.125897e+01 2.302751e+04 4.157634e+06 7.060454e+05 -6.512823e+00 -8.891223e+00 5.091519e+00
<VARIANCE> 12
 4.993458e+03 8.027783e+02 1.483145e+05 4.481003e+01 2.047537e+01 4.071685e+01 7.376563e+08 6.027396e+10 4.184076e+10 7.205684e+03 7.355379e+03 1.309688e+04
<GCONST> 1.566581e+02
<MIXTURE> 2 3.829251e-01
<MEAN> 12
 -1.006054e+02 9.270361e+02 4.665222e+02 2.295460e+01 1.288379e+01 1.940118e+01 1.071623e+05 3.873908e+06 1.006660e+06 1.133412e+01 -5.078608e+01 7.489652e+00
<VARIANCE> 12
 1.362569e+04 1.465752e+03 6.030367e+03 2.113156e+02 5.110292e+01 1.316331e+02 1.145602e+10 1.006143e+11 1.048198e+11 6.678235e+04 5.509713e+04 1.697374e+05
<GCONST> 1.696760e+02
<MIXTURE> 3 2.807448e-01
<MEAN> 12
 -8.393745e+01 9.073852e+02 4.812142e+02 6.008313e+01 3.058346e+01 4.448175e+01 1.165255e+05 3.726613e+06 1.167378e+06 1.595009e+02 -2.578968e+02 -4.059846e+01
<VARIANCE> 12
 1.817373e+04 4.717147e+03 2.765323e+04 1.289959e+03 3.121255e+02 6.721819e+02 2.157237e+10 3.073132e+11 3.000842e+11 3.169084e+06 1.912107e+06 7.071975e+06
<GCONST> 1.918425e+02
<STATE> 4
<NUMMIXES> 3
<MIXTURE> 1 7.149841e-01
<MEAN> 12
 -3.095191e+01 1.038834e+03 -1.150882e+01 1.356767e+01 9.585096e+00 1.434983e+01 2.005230e+04 4.856573e+06 2.720319e+04 1.406395e+00 1.622181e+01 2.453627e+00
<VARIANCE> 12
 3.474524e+03 6.136634e+01 5.888480e+03 7.982056e+01 2.942345e+01 7.602143e+01 4.444196e+08 5.368569e+09 8.797576e+08 1.641120e+04 1.819259e+04 4.542098e+04
<GCONST> 1.482474e+02
<MIXTURE> 2 4.126733e-02
<MEAN> 12
 -6.971878e+01 7.904948e+02 2.854945e+02 4.253689e+02 2.728961e+02 4.860208e+02 1.032686e+06 3.554533e+06 3.060022e+06 1.009560e+04 1.220178e+05 6.158021e+04
<VARIANCE> 12
 1.503114e+05 1.560880e+05 4.656154e+05 1.333591e+05 6.703666e+04 3.446196e+05 2.628245e+12 7.663660e+12 2.001636e+13 5.345644e+10 2.918934e+11 6.861891e+11
<GCONST> 2.618969e+02
<MIXTURE> 3 2.437486e-01
<MEAN> 12
 -4.514911e+01 5.678088e+02 4.829559e+02 4.502960e+01 2.939286e+01 3.970844e+01 2.467054e+05 1.841331e+06 2.817786e+06 1.471923e+01 2.559190e+02 2.687626e+02
<VARIANCE> 12
 5.246709e+04 8.669459e+04 3.927921e+05 1.158399e+03 4.716531e+02 8.085375e+02 1.153132e+11 1.588670e+12 1.817539e+12 3.048756e+06 2.635184e+06 4.781984e+06
<GCONST> 2.039683e+02
<STATE> 5
<NUMMIXES> 3
<MIXTURE> 1 4.690005e-01
<MEAN> 12
 -1.013223e+02 1.004234e+03 2.064695e+02 2.925059e+01 1.535367e+01 2.542770e+01 1.119767e+05 4.541850e+06 3.112757e+05 5.799444e+01 -3.956739e+01 -1.010216e+01
<VARIANCE> 12
 1.449376e+04 8.080079e+02 2.646320e+04 3.512974e+02 7.525498e+01 2.343607e+02 1.440221e+10 6.533129e+10 6.020565e+10 1.696956e+05 1.309403e+05 5.199841e+05
<GCONST> 1.742537e+02
<MIXTURE> 2 1.769527e-01
<MEAN> 12
 -1.302371e+02 8.990189e+02 4.245868e+02 1.974409e+02 1.165671e+02 1.893307e+02 4.060069e+05 3.795930e+06 1.384352e+06 2.014269e+03 8.256891e+03 -3.387183e+03
<VARIANCE> 12
 6.376376e+04 3.451271e+04 1.241128e+05 1.754114e+04 7.557239e+03 2.195840e+04 2.514934e+11 1.989153e+12 1.478293e+12 8.695340e+08 2.478951e+09 2.354102e+09
<GCONST> 2.303803e+02
<MIXTURE> 3 3.540468e-01
<MEAN> 12
 -9.493327e+01 9.823386e+02 2.779647e+02 8.553702e+01 3.958985e+01 6.619617e+01 1.497301e+05 4.362574e+06 5.154448e+05 5.663496e+02 -1.127187e+02 -1.000781e+00
<VARIANCE> 12
 2.274513e+04 4.373014e+03 3.669133e+04 2.757483e+03 5.453709e+02 1.499872e+03 3.336305e+10 3.329083e+11 1.941712e+11 1.049713e+07 7.069151e+06 2.970478e+07
<GCONST> 1.984153e+02
<STATE> 6
<NUMMIXES> 3
<MIXTURE> 1 4.656462e-01
<MEAN> 12
 -4.976473e+01 1.025709e+03 1.301649e+02 1.156644e+01 9.596756e+00 1.272787e+01 4.542172e+04 4.734888e+06 1.551070e+05 -1.006551e+01 -1.084806e+01 -1.467422e+00
<VARIANCE> 12
 7.607691e+03 1.161510e+02 1.751740e+04 4.783105e+01 2.732384e+01 5.334163e+01 2.641095e+09 9.884615e+09 1.044350e+10 1.047037e+04 1.189579e+04 1.860821e+04
<GCONST> 1.529190e+02
<MIXTURE> 2 2.870261e-01
<MEAN> 12
 -1.385510e+02 8.363453e+02 6.101128e+02 1.772016e+01 1.046617e+01 1.505232e+01 1.206028e+05 3.159571e+06 1.698579e+06 -5.834337e+00 -3.797984e+01 -1.410028e+01
<VARIANCE> 12
 7.569651e+03 2.650139e+03 5.206985e+03 1.506335e+02 3.481430e+01 7.835158e+01 1.260876e+10 1.465251e+11 1.603074e+11 3.238584e+04 2.320769e+04 7.005370e+04
<GCONST> 1.667159e+02
<MIXTURE> 3 2.473276e-01
<MEAN> 12
 6.168511e+00 8.329046e+02 1.432089e+02 4.296766e+01 2.241375e+01 3.083503e+01 2.643191e+05 3.153270e+06 1.438410e+06 1.301757e+01 -7.488314e+01 6.241597e+01
<VARIANCE> 12
 5.835880e+04 6.955650e+03 2.990424e+05 1.001609e+03 2.153193e+02 4.373253e+02 7.821080e+10 3.842559e+11 3.347996e+11 1.277041e+06 6.906551e+05 2.378254e+06
<GCONST> 1.933281e+02
<TRANSP> 7
 0.000000e+00 5.664675e-01 4.335325e-01 0.000000e+00 0.000000e+00 0.000000e+00 0.000000e+00
 0.000000e+00 8.458793e-01 6.331348e-02 9.080725e-02 0.000000e+00 0.000000e+00 0.000000e+00
 0.000000e+00 0.000000e+00 8.763798e-01 1.294691e-02 1.106733e-01 0.000000e+00 0.000000e+00
 0.000000e+00 0.000000e+00 0.000000e+00 8.508707e-01 8.780397e-02 6.132530e-02 0.000000e+00
 0.000000e+00 0.000000e+00 0.000000e+00 0.000000e+00 8.512390e-01 3.564133e-02 1.131197e-01
 0.000000e+00 0.000000e+00 0.000000e+00 0.000000e+00 0.000000e+00 8.605168e-01 1.394832e-01
 0.000000e+00 0.000000e+00 0.000000e+00 0.000000e+00 0.000000e+00 0.000000e+00 0.000000e+00
<ENDHMM>
