~o
<STREAMINFO> 1 12
<VECSIZE> 12<NULLD><MFCC><DIAGC>
~h "Activity104"
<BEGINHMM>
<NUMSTATES> 7
<STATE> 2
<NUMMIXES> 3
<MIXTURE> 1 3.168013e-01
<MEAN> 12
 -4.088271e+02 -1.322912e+02 9.014467e+02 1.205355e+01 9.832622e+00 1.245696e+01 8.622175e+05 1.511688e+05 3.671264e+06 -4.395194e+00 3.066516e+00 -2.082169e+00
<VARIANCE> 12
 2.445450e+04 1.609086e+04 3.220598e+03 6.462418e+01 3.239465e+01 5.047731e+01 1.719643e+11 5.502812e+09 2.297186e+11 1.862096e+04 1.455575e+04 2.745783e+04
<GCONST> 1.655879e+02
<MIXTURE> 2 5.747887e-01
<MEAN> 12
 -1.394569e+02 5.445495e+02 8.731041e+02 9.548991e+00 8.362475e+00 1.028664e+01 1.379075e+05 1.338943e+06 3.432558e+06 -2.638065e+01 -1.033267e+01 1.586878e+01
<VARIANCE> 12
 1.118750e+04 1.006163e+03 4.744878e+02 3.496110e+01 2.143166e+01 3.253666e+01 1.451614e+10 2.386888e+10 2.883975e+10 6.345336e+03 6.767899e+03 1.028816e+04
<GCONST> 1.527483e+02
<MIXTURE> 3 1.084099e-01
<MEAN> 12
 -1.080079e+02 6.778892e+02 5.815028e+02 8.587156e+01 5.638168e+01 7.811068e+01 2.099764e+05 2.798042e+06 2.082163e+06 2.000288e+03 1.971207e+03 -5.407358e+00
<VARIANCE> 12
 3.192301e+04 1.619780e+05 1.233068e+05 7.762567e+03 4.428909e+03 7.745098e+03 1.029819e+11 3.633118e+12 2.620238e+12 2.482470e+08 2.604900e+08 1.026105e+09
<GCONST> 2.247813e+02
<STATE> 3
<NUMMIXES> 3
<MIXTURE> 1 5.103667e-01
<MEAN> 12
 -3.918926e+01 3.897828e+02 9.560141e+02 8.680483e+00 7.670504e+00 1.008785e+01 6.995866e+04 6.855256e+05 4.113220e+06 -1.164797e+01 -1.820191e+00 5.486276e-01
<VARIANCE> 12
 1.400327e+04 4.077762e+02 8.277673e+01 2.185308e+01 1.631275e+01 2.813956e+01 3.182179e+09 4.983086e+09 6.132045e+09 3.149601e+03 4.269093e+03 5.624163e+03
<GCONST> 1.430379e+02
<MIXTURE> 2 2.685815e-01
<MEAN> 12
 -4.571891e+01 4.412710e+02 9.348733e+02 9.229283e+00 8.191207e+00 9.679847e+00 5.004270e+04 8.782013e+05 3.933407e+06 -1.413358e+01 -2.547347e+00 3.186714e+00
<VARIANCE> 12
 9.023586e+03 4.339435e+02 1.005585e+02 2.844916e+01 1.868787e+01 2.698270e+01 1.302813e+09 6.923226e+09 7.092118e+09 4.454802e+03 4.731295e+03 5.707230e+03
<GCONST> 1.432583e+02
<MIXTURE> 3 2.210518e-01
<MEAN> 12
 -3.943463e+01 3.969528e+02 9.512431e+02 2.115274e+01 1.452958e+01 1.756756e+01 7.203758e+04 7.183291e+05 4.074536e+06 -7.599678e+01 9.727686e+01 3.752146e+01
<VARIANCE> 12
 1.437202e+04 2.036676e+03 5.543330e+02 1.465357e+02 5.493652e+01 9.684795e+01 4.835524e+09 2.572869e+10 4.044452e+10 1.014058e+05 8.034316e+04 1.263696e+05
<GCONST> 1.643922e+02
<STATE> 4
<NUMMIXES> 3
<MIXTURE> 1 4.368746e-01
<MEAN> 12
 -1.426808e+02 1.743751e+02 9.982941e+02 1.055337e+01 8.494035e+00 1.222748e+01 1.270843e+05 1.868763e+05 4.485946e+06 -2.828693e+01 7.423296e+00 9.829388e+00
<VARIANCE> 12
 7.872151e+03 1.111818e+04 2.786337e+02 4.184534e+01 2.098026e+01 5.002266e+01 1.349305e+10 2.471421e+10 2.256015e+10 7.282367e+03 9.604495e+03 1.546904e+04
<GCONST> 1.554672e+02
<MIXTURE> 2 1.641283e-01
<MEAN> 12
 -2.232057e+02 2.430974e+02 8.642129e+02 9.893042e+01 5.984204e+01 9.244852e+01 5.215018e+05 8.838577e+05 3.530641e+06 -7.125092e+01 3.032401e+03 1.234427e+03
<VARIANCE> 12
 6.447450e+04 1.369657e+05 3.676720e+04 4.608895e+03 1.406581e+03 3.895051e+03 5.142165e+11 1.068744e+12 1.690673e+12 4.875289e+07 5.634600e+07 1.323713e+08
<GCONST> 2.164905e+02
<MIXTURE> 3 3.989972e-01
<MEAN> 12
 -1.749241e+02 3.048264e+02 9.166046e+02 3.162594e+01 1.902982e+01 2.751336e+01 2.516066e+05 7.824734e+05 3.812641e+06 -1.889206e+02 2.121962e+02 1.913016e+02
<VARIANCE> 12
 2.513307e+04 8.093052e+04 6.988370e+03 3.950070e+02 1.420109e+02 3.265342e+02 9.419758e+10 3.893162e+11 4.646411e+11 4.163733e+05 3.301182e+05 9.837631e+05
<GCONST> 1.873297e+02
<STATE> 5
<NUMMIXES> 3
<MIXTURE> 1 6.532103e-01
<MEAN> 12
 1.139560e+02 3.602226e+02 9.620814e+02 1.130727e+01 9.070028e+00 1.066339e+01 1.003362e+05 5.854417e+05 4.165884e+06 -1.211726e+01 1.201817e+01 -1.874386e+00
<VARIANCE> 12
 9.294463e+03 3.352068e+02 1.488738e+02 5.086154e+01 2.506437e+01 3.304186e+01 5.287947e+09 3.563090e+09 1.118485e+10 1.109926e+04 7.918307e+03 1.472040e+04
<GCONST> 1.480668e+02
<MIXTURE> 2 3.236075e-01
<MEAN> 12
 -1.380355e+02 4.703080e+02 9.172914e+02 1.060376e+01 8.605976e+00 1.092442e+01 1.057369e+05 9.977896e+05 3.787327e+06 -2.773319e+01 -5.457081e-01 1.694782e+01
<VARIANCE> 12
 4.429263e+03 5.384207e+02 1.985226e+02 4.516935e+01 2.247386e+01 3.801245e+01 4.558614e+09 9.308707e+09 1.357341e+10 8.779478e+03 9.380376e+03 1.411907e+04
<GCONST> 1.488985e+02
<MIXTURE> 3 2.318227e-02
<MEAN> 12
 -1.573555e+02 6.113937e+02 5.392481e+02 1.900543e+02 1.312001e+02 2.115401e+02 6.545768e+05 2.988482e+06 2.063539e+06 8.759172e+03 2.625635e+04 3.742554e+03
<VARIANCE> 12
 1.097148e+05 2.898429e+05 1.514031e+05 2.741710e+04 1.380695e+04 5.976828e+04 9.633865e+11 6.100708e+12 3.359696e+12 1.893618e+09 1.239182e+10 8.087608e+09
<GCONST> 2.422067e+02
<STATE> 6
<NUMMIXES> 3
<MIXTURE> 1 6.194220e-01
<MEAN> 12
 -4.814320e+01 1.562690e+02 1.012747e+03 8.679396e+00 8.059189e+00 1.098575e+01 2.828326e+04 1.582467e+05 4.616484e+06 -1.922252e+01 -8.279427e+00 7.383176e+00
<VARIANCE> 12
 3.958610e+03 1.074242e+04 2.243645e+02 2.562249e+01 1.875095e+01 3.943258e+01 1.110404e+09 2.035884e+10 1.859308e+10 4.440264e+03 6.756832e+03 8.299258e+03
<GCONST> 1.493342e+02
<MIXTURE> 2 2.581762e-01
<MEAN> 12
 -1.991923e+02 5.706981e+02 8.466779e+02 1.327202e+01 1.027301e+01 1.180475e+01 2.075368e+05 1.471840e+06 3.230935e+06 -3.957558e+01 4.902348e+00 4.875622e+01
<VARIANCE> 12
 6.414205e+03 1.373568e+03 1.112698e+03 7.363230e+01 3.775068e+01 4.110978e+01 2.211733e+10 3.617181e+10 6.354577e+10 1.996889e+04 1.566489e+04 2.497017e+04
<GCONST> 1.593996e+02
<MIXTURE> 3 1.224018e-01
<MEAN> 12
 -1.160764e+02 5.684575e+02 6.232608e+02 4.015083e+01 2.605866e+01 3.834303e+01 2.251893e+05 2.243519e+06 2.456326e+06 -1.336490e+02 4.854111e+02 2.835046e+02
<VARIANCE> 12
 3.621675e+04 1.753278e+05 1.570983e+05 9.256996e+02 4.982015e+02 1.196087e+03 1.066567e+11 3.775143e+12 3.137464e+12 2.857035e+06 5.210466e+06 5.138986e+06
<GCONST> 2.056298e+02
<TRANSP> 7
 0.000000e+00 3.313370e-01 6.686630e-01 0.000000e+00 0.000000e+00 0.000000e+00 0.000000e+00
 0.000000e+00 8.373228e-01 1.292766e-02 1.497495e-01 0.000000e+00 0.000000e+00 0.000000e+00
 0.000000e+00 0.000000e+00 9.092215e-01 1.469187e-02 7.608656e-02 0.000000e+00 0.000000e+00
 0.000000e+00 0.000000e+00 0.000000e+00 8.178331e-01 3.539449e-02 1.467725e-01 0.000000e+00
 0.000000e+00 0.000000e+00 0.000000e+00 0.000000e+00 8.664953e-01 7.857474e-03 1.256472e-01
 0.000000e+00 0.000000e+00 0.000000e+00 0.000000e+00 0.000000e+00 8.766924e-01 1.233077e-01
 0.000000e+00 0.000000e+00 0.000000e+00 0.000000e+00 0.000000e+00 0.000000e+00 0.000000e+00
<ENDHMM>
