~o
<STREAMINFO> 1 12
<VECSIZE> 12<NULLD><MFCC><DIAGC>
~h "Activity101"
<BEGINHMM>
<NUMSTATES> 7
<STATE> 2
<NUMMIXES> 3
<MIXTURE> 1 3.871011e-01
<MEAN> 12
 4.005210e+01 1.065521e+03 3.083545e+02 5.190326e+01 3.346180e+01 2.162043e+01 4.812891e+03 5.109911e+06 4.282427e+05 -1.309271e+03 -3.758413e+02 -1.931524e+02
<VARIANCE> 12
 6.181416e+03 3.126343e+02 1.347367e+04 6.785674e+02 1.693999e+02 5.978620e+02 1.180049e+09 2.736423e+10 8.176110e+09 7.064566e+05 7.409793e+05 2.854898e+06
<GCONST> 1.736771e+02
<MIXTURE> 2 4.557067e-01
<MEAN> 12
 2.707789e+01 9.248262e+02 4.908754e+02 1.034062e+02 4.725843e+01 5.432859e+01 8.423673e+04 3.894128e+06 1.171727e+06 -8.454281e+02 1.644869e+03 3.531165e+01
<VARIANCE> 12
 2.527813e+04 1.155111e+04 7.894987e+04 4.147045e+03 1.089377e+03 2.795169e+03 2.520732e+10 8.381922e+11 4.911906e+11 2.651290e+07 2.089252e+07 6.474322e+07
<GCONST> 2.063415e+02
<MIXTURE> 3 1.571922e-01
<MEAN> 12
 -3.701182e+01 7.606761e+02 7.676771e+02 1.909648e+02 2.222235e+02 1.951308e+02 1.752635e+05 2.707654e+06 2.805228e+06 2.659633e+04 2.052868e+04 -1.453959e+04
<VARIANCE> 12
 7.407106e+04 6.782214e+04 1.758427e+05 3.573123e+04 1.628152e+04 4.774620e+04 3.027433e+11 3.978742e+12 2.600056e+12 4.175127e+09 1.119519e+10 1.068461e+10
<GCONST> 2.398424e+02
<STATE> 3
<NUMMIXES> 3
<MIXTURE> 1 4.148093e-01
<MEAN> 12
 -1.243333e+02 1.027000e+03 1.653333e+02 2.557994e+01 6.928203e+00 1.553491e+01 7.018714e+04 4.746244e+06 1.230075e+05 -1.400000e+01 -2.800000e+01 -3.743334e+02
<VARIANCE> 12
 3.489386e+03 5.200988e+01 5.114325e+03 7.211495e+01 2.727873e+01 6.976076e+01 4.307651e+08 4.556749e+09 6.425615e+08 1.340159e+04 1.572462e+04 3.751363e+04
<GCONST> 1.466332e+02
<MIXTURE> 2 3.061273e-01
<MEAN> 12
 5.010245e+00 1.007104e+03 2.823541e+02 1.688020e+01 9.366022e+00 1.265867e+01 3.937948e+04 4.564831e+06 3.747541e+05 -2.340980e+01 -3.540229e+01 -1.432273e+01
<VARIANCE> 12
 9.142872e+03 1.902554e+02 2.157755e+04 5.821924e+01 2.960267e+01 5.716333e+01 6.026920e+09 1.583362e+10 2.095796e+10 1.279552e+04 1.309543e+04 2.362022e+04
<GCONST> 1.566784e+02
<MIXTURE> 3 2.790634e-01
<MEAN> 12
 8.452721e+01 9.725845e+02 3.752457e+02 3.754018e+01 1.680323e+01 2.656433e+01 8.967555e+04 4.261686e+06 6.629001e+05 -1.091808e+02 -1.647501e+02 9.817533e+01
<VARIANCE> 12
 1.843775e+04 1.229507e+03 5.058854e+04 4.424645e+02 9.055359e+01 2.955740e+02 2.343995e+10 9.589605e+10 1.044655e+11 3.118678e+05 2.422735e+05 9.946601e+05
<GCONST> 1.795044e+02
<STATE> 4
<NUMMIXES> 3
<MIXTURE> 1 5.906583e-01
<MEAN> 12
 1.065555e-01 9.035806e+02 5.236145e+02 2.403510e+01 1.457549e+01 1.298210e+01 1.980268e+04 3.685408e+06 1.256370e+06 5.166044e+01 1.039133e+01 -9.673419e+01
<VARIANCE> 12
 1.130899e+04 3.044914e+03 6.891304e+03 2.381563e+02 5.422795e+01 1.151884e+02 1.014227e+10 1.827378e+11 1.772191e+11 6.834795e+04 4.148683e+04 1.434627e+05
<GCONST> 1.709711e+02
<MIXTURE> 2 3.533278e-02
<MEAN> 12
 2.430285e+01 7.199463e+02 8.028837e+02 2.454091e+02 3.129096e+02 1.428615e+02 2.353867e+05 2.468732e+06 2.958374e+06 6.512023e+04 4.203948e+04 8.817223e+03
<VARIANCE> 12
 1.329154e+05 1.831774e+05 5.026011e+05 1.348843e+05 6.304693e+04 3.602927e+05 2.660096e+12 9.806884e+12 1.954717e+13 5.303662e+10 2.922081e+11 7.255563e+11
<GCONST> 2.622888e+02
<MIXTURE> 3 3.740088e-01
<MEAN> 12
 8.919767e+01 7.175364e+02 7.572007e+02 4.986080e+01 3.204919e+01 3.740480e+01 8.761267e+04 2.428000e+06 2.685726e+06 -9.122019e+01 -3.374871e+02 -1.363935e+02
<VARIANCE> 12
 4.620852e+04 7.296848e+04 2.968301e+05 1.162483e+03 3.541587e+02 6.162991e+02 8.794649e+10 1.574596e+12 1.593110e+12 2.639925e+06 1.892344e+06 4.373876e+06
<GCONST> 2.018584e+02
<STATE> 5
<NUMMIXES> 3
<MIXTURE> 1 3.808274e-01
<MEAN> 12
 2.890657e+01 9.887649e+02 3.504232e+02 3.859502e+01 1.963122e+01 2.475995e+01 2.667414e+04 4.401115e+06 5.667012e+05 -4.720600e+00 -2.255917e+02 2.482075e+01
<VARIANCE> 12
 1.098318e+04 4.740710e+02 1.970607e+04 4.600294e+02 9.957121e+01 3.249208e+02 4.726423e+09 4.016250e+10 3.198886e+10 2.796875e+05 2.253747e+05 9.270197e+05
<GCONST> 1.734124e+02
<MIXTURE> 2 1.836606e-01
<MEAN> 12
 -8.473340e+01 8.810417e+02 5.467741e+02 1.954318e+02 1.420610e+02 1.818940e+02 2.255817e+05 3.596338e+06 1.774146e+06 5.381141e+03 1.069958e+04 -8.853228e+03
<VARIANCE> 12
 6.709259e+04 4.382909e+04 1.466836e+05 1.882020e+04 8.366932e+03 2.765813e+04 2.487839e+11 2.507764e+12 1.650664e+12 1.001152e+09 3.131867e+09 2.973680e+09
<GCONST> 2.321797e+02
<MIXTURE> 3 4.355121e-01
<MEAN> 12
 -1.000946e+01 9.289832e+02 4.444652e+02 9.778440e+01 4.979897e+01 6.662098e+01 8.879659e+04 3.909430e+06 9.546111e+05 -7.527606e+02 -2.295975e+01 -2.514924e+03
<VARIANCE> 12
 2.335497e+04 5.366500e+03 4.174029e+04 2.729533e+03 5.914579e+02 1.692384e+03 2.657780e+10 3.987991e+11 2.610160e+11 1.129470e+07 8.295964e+06 3.288164e+07
<GCONST> 1.995511e+02
<STATE> 6
<NUMMIXES> 3
<MIXTURE> 1 3.731250e-01
<MEAN> 12
 9.448425e+00 9.585675e+02 4.205780e+02 2.096720e+01 1.160986e+01 1.481084e+01 7.097788e+04 4.136403e+06 8.016274e+05 -2.005431e+01 -2.398057e+01 -8.675314e+01
<VARIANCE> 12
 9.303396e+03 3.385326e+02 1.934680e+03 7.543677e+01 2.691605e+01 6.773582e+01 1.468385e+09 2.588240e+10 2.358481e+10 1.450068e+04 1.490939e+04 3.288916e+04
<GCONST> 1.549773e+02
<MIXTURE> 2 2.948335e-01
<MEAN> 12
 6.052661e+00 9.163550e+02 5.136084e+02 1.633510e+01 1.087441e+01 1.170918e+01 5.777895e+03 3.780216e+06 1.191834e+06 2.065768e+01 -1.642223e+01 -2.926997e+01
<VARIANCE> 12
 6.184074e+02 2.377532e+02 1.061152e+05 4.345693e+01 1.938476e+01 3.568113e+01 2.545431e+07 1.684082e+10 2.520237e+10 6.933030e+03 6.591141e+03 1.132182e+04
<GCONST> 1.473578e+02
<MIXTURE> 3 3.320415e-01
<MEAN> 12
 3.924490e+00 9.255070e+02 4.752726e+02 3.934625e+01 2.364780e+01 2.548302e+01 5.713886e+04 3.872377e+06 1.059414e+06 6.291940e+01 -1.797184e+02 -2.613523e+02
<VARIANCE> 12
 3.880226e+04 5.192028e+03 2.240201e+05 5.165063e+02 1.397815e+02 3.189392e+02 4.935392e+10 3.184289e+11 1.982120e+11 4.598915e+05 4.051406e+05 1.081032e+06
<GCONST> 1.874130e+02
<TRANSP> 7
 0.000000e+00 3.532359e-01 6.467640e-01 0.000000e+00 0.000000e+00 0.000000e+00 0.000000e+00
 0.000000e+00 7.563916e-01 6.927333e-02 1.743350e-01 0.000000e+00 0.000000e+00 0.000000e+00
 0.000000e+00 0.000000e+00 8.536612e-01 5.944268e-02 8.689608e-02 0.000000e+00 0.000000e+00
 0.000000e+00 0.000000e+00 0.000000e+00 8.753422e-01 9.257001e-02 3.208773e-02 0.000000e+00
 0.000000e+00 0.000000e+00 0.000000e+00 0.000000e+00 8.060462e-01 6.905440e-02 1.248994e-01
 0.000000e+00 0.000000e+00 0.000000e+00 0.000000e+00 0.000000e+00 9.017799e-01 9.822005e-02
 0.000000e+00 0.000000e+00 0.000000e+00 0.000000e+00 0.000000e+00 0.000000e+00 0.000000e+00
<ENDHMM>
~h "Activity102"
<BEGINHMM>
<NUMSTATES> 7
<STATE> 2
<NUMMIXES> 3
<MIXTURE> 1 1.959142e-01
<MEAN> 12
 1.992618e+02 1.003685e+03 4.983486e+02 2.247098e+02 1.301198e+02 1.799174e+02 3.422710e+05 4.575552e+06 1.256315e+06 -2.763254e+04 4.801129e+03 5.095865e+03
<VARIANCE> 12
 7.231488e+04 1.202186e+04 4.939146e+04 1.767252e+04 6.221575e+03 1.615499e+04 1.941799e+11 1.060043e+12 3.003688e+11 8.177762e+08 9.682532e+08 2.559049e+09
<GCONST> 2.246365e+02
<MIXTURE> 2 3.354475e-01
<MEAN> 12
 9.847758e+01 1.012925e+03 2.629181e+02 6.795916e+01 1.145703e+01 3.064874e+01 4.865513e+04 4.618043e+06 3.168288e+05 2.869878e+02 2.209610e+00 -1.889658e+03
<VARIANCE> 12
 7.549316e+03 2.514665e+02 1.052329e+04 4.443765e+02 1.008747e+02 3.257536e+02 1.794423e+09 2.186923e+10 4.063864e+09 2.391879e+05 1.989719e+05 7.982671e+05
<GCONST> 1.676869e+02
<MIXTURE> 3 4.686382e-01
<MEAN> 12
 9.851295e+01 9.669799e+02 3.535167e+02 8.379536e+01 3.725465e+01 5.639405e+01 1.025756e+05 4.220354e+06 6.032398e+05 -6.177578e+02 -1.225413e+03 -7.991256e+02
<VARIANCE> 12
 2.142650e+04 3.728714e+03 2.732581e+04 2.200556e+03 5.142173e+02 1.749053e+03 1.639346e+10 3.026588e+11 7.353665e+10 8.248230e+06 5.785288e+06 2.899878e+07
<GCONST> 1.955284e+02
<STATE> 3
<NUMMIXES> 3
<MIXTURE> 1 2.377551e-01
<MEAN> 12
 9.913358e+01 9.543044e+02 6.041110e+02 6.607264e+02 3.813193e+02 7.967538e+02 1.054267e+06 4.352130e+06 3.228682e+06 9.157155e+04 5.597255e+04 -1.171361e+05
<VARIANCE> 12
 1.539594e+05 1.375640e+05 5.058439e+05 1.169683e+05 7.485943e+04 1.689400e+05 1.673570e+12 1.251315e+13 1.348079e+13 1.070765e+11 1.727536e+11 2.265308e+11
<GCONST> 2.598493e+02
<MIXTURE> 2 3.828270e-01
<MEAN> 12
 2.349710e+01 1.102183e+03 4.971129e+02 2.537999e+02 1.606993e+02 2.741482e+02 2.992292e+05 5.875714e+06 2.030996e+06 7.416360e+03 4.866117e+03 -1.159405e+04
<VARIANCE> 12
 7.765884e+04 1.474244e+05 3.276793e+05 1.811441e+04 1.020347e+04 2.752488e+04 1.608347e+11 1.164366e+13 3.074840e+12 1.131658e+09 1.677335e+09 2.425514e+09
<GCONST> 2.355137e+02
<MIXTURE> 3 3.794178e-01
<MEAN> 12
 -5.469714e+01 9.953301e+02 1.942286e+01 1.333325e+02 1.104084e+02 6.773138e+01 1.897372e+05 4.609483e+06 2.299080e+05 -2.743240e+03 1.923820e+03 -4.361141e+03
<VARIANCE> 12
 2.690567e+04 1.575020e+04 1.759508e+04 8.001203e+03 2.095145e+03 2.881632e+03 2.094195e+10 1.434007e+12 1.140433e+10 1.280890e+08 5.124965e+07 1.562766e+08
<GCONST> 2.064968e+02
<STATE> 4
<NUMMIXES> 3
<MIXTURE> 1 2.454238e-01
<MEAN> 12
 2.780417e+01 1.165574e+03 5.123450e+02 4.440701e+02 1.951803e+02 4.518570e+02 6.382616e+05 6.377297e+06 2.048486e+06 1.957068e+04 -1.670372e+04 -9.797223e+04
<VARIANCE> 12
 1.637242e+05 7.670790e+04 2.448889e+05 6.073497e+04 3.650809e+04 5.304905e+04 1.326560e+12 1.133881e+13 7.157670e+12 2.807561e+10 2.603124e+10 3.574774e+10
<GCONST> 2.500279e+02
<MIXTURE> 2 4.198049e-01
<MEAN> 12
 7.397131e+01 9.812793e+02 3.296662e+02 5.234526e+01 2.234124e+01 3.626509e+01 4.364393e+04 4.338088e+06 5.169988e+05 1.392942e+02 -2.889467e+02 -8.516034e+02
<VARIANCE> 12
 6.293766e+03 2.306638e+03 2.550519e+04 1.228409e+03 3.816751e+02 9.549769e+02 1.059116e+09 1.872474e+11 9.634001e+10 2.840984e+06 2.325583e+06 7.849050e+06
<GCONST> 1.860343e+02
<MIXTURE> 3 3.347714e-01
<MEAN> 12
 6.101580e+01 1.016019e+03 4.604346e+02 1.627443e+02 9.048048e+01 1.353461e+02 9.889730e+04 4.740654e+06 1.400544e+06 -3.278204e+02 1.842389e+03 -5.991237e+03
<VARIANCE> 12
 1.539828e+04 2.052039e+04 7.330991e+04 4.948757e+03 2.236417e+03 8.715647e+03 7.456513e+09 1.761967e+12 9.655847e+11 1.161569e+08 1.716325e+08 4.043060e+08
<GCONST> 2.139954e+02
<STATE> 5
<NUMMIXES> 3
<MIXTURE> 1 2.790367e-01
<MEAN> 12
 5.752728e+01 1.420804e+03 -6.078022e+00 3.063312e+02 1.363149e+02 1.399009e+02 5.089819e+05 9.254010e+06 1.115993e+05 1.761402e+03 -5.424714e+03 2.200907e+04
<VARIANCE> 12
 1.590656e+05 6.385352e+04 2.461605e+04 4.667605e+04 1.024340e+04 4.877061e+03 6.300871e+11 1.267390e+13 4.281379e+10 2.978904e+09 7.124252e+08 1.541162e+09
<GCONST> 2.288594e+02
<MIXTURE> 2 2.812243e-01
<MEAN> 12
 -4.144620e+00 8.905896e+02 3.188463e+02 6.263210e+01 3.676190e+01 3.851255e+01 1.239356e+05 3.684920e+06 7.725551e+05 2.348630e+02 -7.985551e+02 1.753109e+02
<VARIANCE> 12
 5.228218e+04 1.591880e+05 2.480646e+05 1.321386e+03 3.474199e+02 7.004986e+02 8.082121e+10 2.295444e+12 1.899067e+12 2.104282e+06 1.193603e+06 4.518589e+06
<GCONST> 2.026325e+02
<MIXTURE> 3 4.397390e-01
<MEAN> 12
 -9.131210e+01 1.021760e+03 3.418979e+01 1.204907e+02 1.182871e+02 7.548098e+01 2.257621e+05 4.942650e+06 4.385058e+05 -9.383041e+02 3.184391e+03 5.974964e+02
<VARIANCE> 12
 8.699766e+04 7.978800e+04 1.646628e+05 3.233323e+03 5.645369e+03 2.421797e+03 1.835723e+11 4.676064e+12 7.224795e+11 1.606475e+08 1.185881e+08 7.327476e+07
<GCONST> 2.192500e+02
<STATE> 6
<NUMMIXES> 3
<MIXTURE> 1 2.688778e-01
<MEAN> 12
 1.229306e+02 8.227656e+02 7.118732e+02 6.373575e+02 3.391126e+02 7.323199e+02 1.539384e+06 3.219894e+06 3.358335e+06 3.282463e+04 5.869474e+04 -7.989317e+04
<VARIANCE> 12
 1.100966e+05 1.030066e+05 4.752435e+05 8.678099e+04 6.974570e+04 1.695680e+05 7.777299e+11 6.854342e+12 1.374528e+13 6.236925e+10 1.702930e+11 1.602748e+11
<GCONST> 2.565471e+02
<MIXTURE> 2 3.441419e-01
<MEAN> 12
 7.220648e+01 9.442408e+02 3.710737e+02 2.311599e+02 1.357040e+02 3.157297e+02 2.695123e+05 4.228850e+06 1.202957e+06 -4.386970e+03 2.089971e+04 3.468111e+04
<VARIANCE> 12
 5.206277e+04 6.288346e+04 1.524718e+05 1.670489e+04 8.999276e+03 2.430521e+04 8.050625e+10 5.060199e+12 8.821803e+11 1.153129e+09 1.541913e+09 2.813061e+09
<GCONST> 2.304746e+02
<MIXTURE> 3 3.869803e-01
<MEAN> 12
 3.109780e+01 9.918212e+02 1.857771e+02 1.160287e+02 4.092883e+01 4.994313e+01 1.097803e+05 4.444700e+06 3.800985e+05 1.333699e+03 -3.557775e+02 -4.243478e+03
<VARIANCE> 12
 1.604513e+04 3.174421e+03 2.524384e+04 4.192240e+03 9.973011e+02 2.051995e+03 8.048045e+09 2.699697e+11 5.804229e+10 2.312257e+07 1.100403e+07 4.415672e+07
<GCONST> 1.974976e+02
<TRANSP> 7
 0.000000e+00 6.980132e-01 3.019869e-01 0.000000e+00 0.000000e+00 0.000000e+00 0.000000e+00
 0.000000e+00 6.409313e-01 2.044580e-01 1.546108e-01 0.000000e+00 0.000000e+00 0.000000e+00
 0.000000e+00 0.000000e+00 8.437050e-01 1.562893e-01 5.639129e-06 0.000000e+00 0.000000e+00
 0.000000e+00 0.000000e+00 0.000000e+00 8.875497e-01 1.012358e-01 1.121439e-02 0.000000e+00
 0.000000e+00 0.000000e+00 0.000000e+00 0.000000e+00 6.105502e-01 2.602051e-01 1.292448e-01
 0.000000e+00 0.000000e+00 0.000000e+00 0.000000e+00 0.000000e+00 7.049487e-01 2.950513e-01
 0.000000e+00 0.000000e+00 0.000000e+00 0.000000e+00 0.000000e+00 0.000000e+00 0.000000e+00
<ENDHMM>
~h "Activity104"
<BEGINHMM>
<NUMSTATES> 7
<STATE> 2
<NUMMIXES> 3
<MIXTURE> 1 4.066240e-01
<MEAN> 12
 9.967833e+01 1.786280e+02 1.012723e+03 1.004808e+01 9.702511e+00 1.002929e+01 5.995780e+04 1.525476e+05 4.617010e+06 1.337529e+00 5.621346e+00 9.617943e+00
<VARIANCE> 12
 2.310038e+04 1.733371e+04 4.201325e+03 5.821230e+01 2.856405e+01 4.793041e+01 1.973145e+11 7.748775e+09 2.970516e+11 1.602518e+04 1.214175e+04 2.258232e+04
<GCONST> 1.657990e+02
<MIXTURE> 2 4.487071e-01
<MEAN> 12
 -2.182670e+02 5.586439e+02 8.508035e+02 1.052217e+01 8.980222e+00 1.088938e+01 2.305160e+05 1.410978e+06 3.261558e+06 -2.880487e+01 -9.251209e+00 2.886242e+01
<VARIANCE> 12
 3.571837e+03 1.466188e+03 9.158078e+02 4.562022e+01 2.906175e+01 3.552110e+01 1.442381e+10 3.750486e+10 5.235292e+10 9.066170e+03 8.931567e+03 1.341803e+04
<GCONST> 1.552406e+02
<MIXTURE> 3 1.446689e-01
<MEAN> 12
 2.810535e+02 2.978621e+02 9.105018e+02 7.079156e+01 6.626918e+01 8.400214e+01 3.932022e+05 4.844055e+05 3.801860e+06 1.481134e+03 5.957673e+03 5.016003e+03
<VARIANCE> 12
 4.176845e+04 1.658822e+05 3.834046e+04 5.379083e+03 1.856614e+03 4.858000e+03 2.221640e+11 1.644658e+12 1.319053e+12 1.551119e+08 1.145525e+08 5.736087e+08
<GCONST> 2.196197e+02
<STATE> 3
<NUMMIXES> 3
<MIXTURE> 1 5.106736e-01
<MEAN> 12
 3.415487e+01 3.674332e+02 9.587238e+02 8.811993e+00 7.886248e+00 9.630779e+00 1.074790e+05 6.084368e+05 4.136682e+06 -9.923305e+00 2.371753e-01 2.353450e-01
<VARIANCE> 12
 2.271063e+04 2.001387e+02 1.096025e+02 2.208259e+01 1.667563e+01 2.517869e+01 3.906863e+09 2.160697e+09 8.170105e+09 3.314068e+03 4.042704e+03 4.812358e+03
<GCONST> 1.425087e+02
<MIXTURE> 2 2.547657e-01
<MEAN> 12
 6.105702e+01 4.211056e+02 9.485649e+02 8.918816e+00 8.110177e+00 9.885203e+00 2.210478e+04 8.010912e+05 4.049742e+06 -6.293486e+00 7.727643e-03 -2.897766e+00
<VARIANCE> 12
 1.179090e+03 6.887317e+02 1.647825e+02 2.443817e+01 1.896764e+01 2.576042e+01 3.378054e+08 1.039536e+10 1.194201e+10 3.938776e+03 4.658729e+03 5.809170e+03
<GCONST> 1.414525e+02
<MIXTURE> 3 2.345607e-01
<MEAN> 12
 2.338657e+02 2.437425e+02 9.775152e+02 1.961916e+01 1.105847e+01 1.416605e+01 2.616028e+05 2.712358e+05 4.301944e+06 -7.569129e+00 2.503944e+01 -6.761377e+01
<VARIANCE> 12
 1.781148e+04 1.566812e+03 3.735903e+02 1.209846e+02 4.693572e+01 6.305309e+01 6.361145e+09 1.801945e+10 2.767924e+10 7.625542e+04 3.729980e+04 8.246978e+04
<GCONST> 1.612314e+02
<STATE> 4
<NUMMIXES> 3
<MIXTURE> 1 6.487723e-01
<MEAN> 12
 8.327404e+01 1.653491e+02 1.013762e+03 9.639411e+00 8.467533e+00 1.045064e+01 3.579114e+04 1.335690e+05 4.625255e+06 6.456610e+00 2.739728e+00 -1.287296e+01
<VARIANCE> 12
 3.968851e+03 5.072473e+03 1.233280e+02 3.178600e+01 1.970967e+01 4.678701e+01 1.234576e+09 3.027942e+09 1.039015e+10 5.585980e+03 7.752300e+03 1.173756e+04
<GCONST> 1.467565e+02
<MIXTURE> 2 5.430727e-02
<MEAN> 12
 2.779018e+02 3.907405e+02 9.582155e+02 1.269582e+02 1.091079e+02 1.304716e+02 3.935086e+05 7.508301e+05 4.202949e+06 1.174328e+04 1.270806e+04 9.177135e+03
<VARIANCE> 12
 4.617137e+04 2.058790e+05 1.718734e+05 2.686549e+04 1.526569e+04 5.646284e+04 1.229915e+11 5.440899e+12 4.735736e+12 1.833319e+09 1.171376e+10 7.688162e+09
<GCONST> 2.391804e+02
<MIXTURE> 3 2.969203e-01
<MEAN> 12
 1.067636e+02 3.204536e+02 9.657800e+02 4.121139e+01 2.826224e+01 3.470514e+01 9.352220e+04 6.195185e+05 4.228656e+06 2.585182e+02 2.941842e+02 6.538618e+01
<VARIANCE> 12
 2.788207e+04 9.616373e+04 7.561038e+03 7.151252e+02 2.846830e+02 5.532585e+02 9.838200e+10 4.033052e+11 5.053433e+11 1.272668e+06 9.810473e+05 2.530041e+06
<GCONST> 1.928148e+02
<STATE> 5
<NUMMIXES> 3
<MIXTURE> 1 5.913447e-01
<MEAN> 12
 1.915987e+02 2.250277e+02 9.883207e+02 9.487749e+00 8.115434e+00 9.627949e+00 1.792038e+05 2.326180e+05 4.396582e+06 -1.374993e+01 -4.924313e+00 2.381008e+00
<VARIANCE> 12
 1.066157e+04 2.916452e+03 3.238237e+02 3.133355e+01 2.025272e+01 3.693837e+01 3.515369e+09 2.215803e+10 2.523718e+10 5.701025e+03 7.636564e+03 9.501757e+03
<GCONST> 1.516513e+02
<MIXTURE> 2 3.479208e-01
<MEAN> 12
 -1.730416e+02 4.419250e+02 9.238007e+02 1.055032e+01 8.692912e+00 1.116065e+01 1.462546e+05 8.847929e+05 3.841948e+06 -3.017339e+01 -3.148220e-01 1.899085e+01
<VARIANCE> 12
 2.544540e+03 1.321081e+03 3.506687e+02 4.395776e+01 2.167356e+01 4.072734e+01 3.908027e+09 2.066205e+10 2.417215e+10 7.396888e+03 8.524583e+03 1.511164e+04
<GCONST> 1.508376e+02
<MIXTURE> 3 6.073449e-02
<MEAN> 12
 1.630314e+02 6.789011e+02 7.410500e+02 7.209908e+01 3.312659e+01 4.311009e+01 2.714609e+05 2.085523e+06 2.491328e+06 1.114321e+03 -1.604301e+03 -2.300525e+03
<VARIANCE> 12
 7.156164e+04 8.815755e+04 2.442378e+04 7.434878e+03 1.942971e+03 3.562603e+03 1.113773e+12 2.349101e+11 1.451758e+12 8.361084e+07 7.091743e+07 2.089156e+08
<GCONST> 2.167884e+02
<STATE> 6
<NUMMIXES> 3
<MIXTURE> 1 4.143798e-01
<MEAN> 12
 1.932871e+02 2.115334e+02 9.895439e+02 3.400981e+01 2.031845e+01 1.439716e+01 2.121630e+05 2.242809e+05 4.411503e+06 3.925913e+02 1.819669e+02 2.440620e+02
<VARIANCE> 12
 1.413460e+04 1.614005e+04 1.047402e+03 1.810601e+02 8.219469e+01 2.063112e+02 6.935861e+09 7.869512e+10 8.157406e+10 1.466769e+05 1.748876e+05 2.957517e+05
<GCONST> 1.726301e+02
<MIXTURE> 2 1.883952e-01
<MEAN> 12
 1.315060e+02 7.831539e+02 6.802644e+02 7.439439e+01 2.987003e+01 3.098270e+01 1.293709e+05 2.787249e+06 2.093545e+06 9.891707e+02 -1.018826e+03 -1.701641e+03
<VARIANCE> 12
 1.705506e+04 7.867735e+03 4.973497e+04 3.763677e+03 1.987340e+03 5.832404e+03 1.727833e+10 6.389166e+11 3.153166e+11 3.034466e+07 2.772865e+08 2.377882e+08
<GCONST> 2.092708e+02
<MIXTURE> 3 3.972250e-01
<MEAN> 12
 3.516991e+02 2.782062e+02 9.311506e+02 1.709802e+01 1.078039e+01 2.104250e+01 5.628748e+05 3.491633e+05 3.903060e+06 9.330891e+00 9.799540e+01 -4.337986e+01
<VARIANCE> 12
 3.373898e+04 4.443106e+04 1.721081e+03 1.438118e+02 4.674018e+01 5.918465e+01 7.036015e+10 1.780489e+11 1.017586e+11 4.999839e+04 2.620512e+04 9.377417e+04
<GCONST> 1.721973e+02
<TRANSP> 7
 0.000000e+00 6.296527e-01 3.703473e-01 0.000000e+00 0.000000e+00 0.000000e+00 0.000000e+00
 0.000000e+00 3.703481e-01 5.000008e-02 5.796519e-01 0.000000e+00 0.000000e+00 0.000000e+00
 0.000000e+00 0.000000e+00 8.073030e-01 4.664012e-02 1.460570e-01 0.000000e+00 0.000000e+00
 0.000000e+00 0.000000e+00 0.000000e+00 9.262233e-01 5.483297e-02 1.894375e-02 0.000000e+00
 0.000000e+00 0.000000e+00 0.000000e+00 0.000000e+00 8.550389e-01 3.194958e-02 1.130115e-01
 0.000000e+00 0.000000e+00 0.000000e+00 0.000000e+00 0.000000e+00 8.113449e-01 1.886552e-01
 0.000000e+00 0.000000e+00 0.000000e+00 0.000000e+00 0.000000e+00 0.000000e+00 0.000000e+00
<ENDHMM>
~h "Activity105"
<BEGINHMM>
<NUMSTATES> 7
<STATE> 2
<NUMMIXES> 2
<MIXTURE> 1 6.318921e-01
<MEAN> 12
 -9.854250e+02 1.304617e+02 8.849384e+01 7.223342e+00 7.297474e+00 8.959660e+00 4.370078e+06 7.763642e+04 9.934212e+04 -1.383561e+01 -1.451272e+01 5.484045e+00
<VARIANCE> 12
 6.339557e+01 2.311137e+02 1.424484e+04 1.563710e+01 1.450831e+01 2.061047e+01 4.986982e+09 3.112786e+08 7.077629e+09 2.798283e+03 3.416426e+03 3.570754e+03
<GCONST> 1.384813e+02
<MIXTURE> 2 3.681079e-01
<MEAN> 12
 -7.572286e+02 -3.006281e+01 6.784869e+02 9.562241e+00 9.306324e+00 1.017769e+01 2.581342e+06 4.697545e+03 2.072081e+06 -1.174514e+01 -2.660742e+00 -5.677914e+00
<VARIANCE> 12
 2.277129e+02 1.301279e+02 1.151185e+02 3.970824e+01 3.000128e+01 3.301328e+01 1.138373e+10 8.964033e+06 4.240286e+09 1.176953e+04 1.009240e+04 7.488088e+03
<GCONST> 1.365228e+02
<STATE> 3
<NUMMIXES> 2
<MIXTURE> 1 6.615095e-01
<MEAN> 12
 -9.041696e+02 1.255303e+02 3.226428e+02 5.720551e+01 2.945263e+01 3.660784e+01 3.756515e+06 1.424259e+05 7.249152e+05 3.258938e+02 1.831890e+02 -3.221835e+02
<VARIANCE> 12
 1.674565e+04 1.574448e+04 5.684627e+04 2.710230e+03 5.000435e+02 8.649188e+02 1.027630e+12 3.412124e+10 5.501062e+11 3.584184e+06 1.508286e+06 9.636129e+06
<GCONST> 1.976193e+02
<MIXTURE> 2 3.384905e-01
<MEAN> 12
 9.895331e+02 6.727786e+01 -4.909103e+01 3.405657e+01 2.080500e+01 3.102701e+01 4.440856e+06 8.640930e+04 1.799503e+05 8.022449e+01 9.302683e+02 1.066189e+03
<VARIANCE> 12
 6.243911e+04 3.304501e+04 1.293249e+05 3.524912e+04 2.748434e+03 9.842268e+03 3.742729e+12 1.162278e+11 2.099435e+12 1.220453e+09 2.308015e+08 4.063672e+09
<GCONST> 2.279629e+02
<STATE> 4
<NUMMIXES> 2
<MIXTURE> 1 5.760896e-01
<MEAN> 12
 -9.656024e+02 8.803477e+01 2.708499e+02 7.301929e+00 7.546584e+00 9.300076e+00 4.196460e+06 3.797849e+04 3.445053e+05 -7.141525e+00 -1.595260e+01 2.913688e+00
<VARIANCE> 12
 1.550994e+02 6.882306e+02 3.193280e+03 1.888032e+01 1.586829e+01 2.475219e+01 1.167129e+10 3.665244e+08 1.329187e+10 2.335514e+03 4.093333e+03 3.812863e+03
<GCONST> 1.411425e+02
<MIXTURE> 2 4.239104e-01
<MEAN> 12
 -8.314839e+02 3.227266e+02 5.013510e+02 8.705738e+00 8.116880e+00 1.021374e+01 3.113005e+06 4.789986e+05 1.146147e+06 -3.087577e+00 -6.626925e+00 -1.145525e+01
<VARIANCE> 12
 4.105023e+02 2.291131e+03 3.344076e+03 2.588842e+01 1.962193e+01 2.822726e+01 2.319213e+10 1.988261e+10 5.787435e+10 4.199427e+03 6.067121e+03 8.774828e+03
<GCONST> 1.519891e+02
<STATE> 5
<NUMMIXES> 2
<MIXTURE> 1 6.418856e-01
<MEAN> 12
 -9.773997e+02 1.153817e+02 1.986585e+02 1.304226e+01 9.929131e+00 1.197880e+01 4.300377e+06 6.431826e+04 2.150681e+05 -2.285054e+01 -2.398329e+01 2.317606e+01
<VARIANCE> 12
 3.310902e+02 9.733312e+02 8.322921e+03 7.498503e+01 3.060351e+01 5.991196e+01 2.576710e+10 1.138070e+09 1.226751e+10 2.782893e+04 1.371623e+04 2.703934e+04
<GCONST> 1.536161e+02
<MIXTURE> 2 3.581143e-01
<MEAN> 12
 9.872155e+02 7.790507e+01 -4.835086e+01 1.251433e+01 1.031057e+01 1.267754e+01 4.391082e+06 7.984585e+04 1.481140e+05 3.334059e+01 3.773187e+01 -2.628785e+01
<VARIANCE> 12
 2.814046e+04 4.183891e+04 5.343123e+04 2.188369e+03 4.680175e+02 6.759261e+02 1.223603e+12 7.998348e+10 8.672819e+11 6.745042e+06 1.463703e+06 8.649260e+06
<GCONST> 2.005031e+02
<STATE> 6
<NUMMIXES> 2
<MIXTURE> 2 1.000000e+00
<MEAN> 12
 9.639703e+02 1.034694e+02 -1.189026e+02 2.421908e+01 2.034040e+01 2.429427e+01 4.187416e+06 1.212414e+05 2.258195e+05 1.097737e+03 1.300002e+03 1.301398e+03
<VARIANCE> 12
 4.708990e+04 4.727150e+05 1.567024e+05 1.049270e+04 1.718705e+03 3.161390e+04 9.955247e+11 3.704540e+12 2.596182e+12 5.154158e+08 1.947103e+09 1.208020e+10
<GCONST> 2.347289e+02
<TRANSP> 7
 0.000000e+00 0.000000e+00 1.000000e+00 0.000000e+00 0.000000e+00 0.000000e+00 0.000000e+00
 0.000000e+00 9.113458e-01 2.336036e-02 6.529386e-02 0.000000e+00 0.000000e+00 0.000000e+00
 0.000000e+00 0.000000e+00 9.459933e-01 0.000000e+00 5.400674e-02 0.000000e+00 0.000000e+00
 0.000000e+00 0.000000e+00 0.000000e+00 9.185742e-01 8.142587e-02 0.000000e+00 0.000000e+00
 0.000000e+00 0.000000e+00 0.000000e+00 0.000000e+00 1.015349e-02 2.988682e-01 6.909783e-01
 0.000000e+00 0.000000e+00 0.000000e+00 0.000000e+00 0.000000e+00 3.623983e-01 6.376017e-01
 0.000000e+00 0.000000e+00 0.000000e+00 0.000000e+00 0.000000e+00 0.000000e+00 0.000000e+00
<ENDHMM>
