~o
<STREAMINFO> 1 12
<VECSIZE> 12<NULLD><MFCC><DIAGC>
~h "Activity101"
<BEGINHMM>
<NUMSTATES> 7
<STATE> 2
<NUMMIXES> 3
<MIXTURE> 1 3.871011e-01
<MEAN> 12
 4.001686e+01 1.065395e+03 3.075940e+02 5.187756e+01 3.328088e+01 2.143177e+01 4.816762e+03 5.108702e+06 4.264619e+05 -1.304855e+03 -3.712083e+02 -1.870508e+02
<VARIANCE> 12
 6.181416e+03 3.126343e+02 1.347367e+04 6.785674e+02 1.693999e+02 5.978620e+02 1.180049e+09 2.736423e+10 8.176110e+09 7.064566e+05 7.409793e+05 2.854898e+06
<GCONST> 1.736771e+02
<MIXTURE> 2 4.557067e-01
<MEAN> 12
 2.435978e+01 9.282546e+02 4.877366e+02 1.026496e+02 4.703396e+01 5.330904e+01 8.167302e+04 3.917016e+06 1.152331e+06 -8.389882e+02 1.641004e+03 1.112903e+01
<VARIANCE> 12
 2.527813e+04 1.155111e+04 7.894987e+04 4.147045e+03 1.089377e+03 2.795169e+03 2.520732e+10 8.381922e+11 4.911906e+11 2.651290e+07 2.089252e+07 6.474322e+07
<GCONST> 2.063415e+02
<MIXTURE> 3 1.571922e-01
<MEAN> 12
 -5.176457e+01 7.627253e+02 7.683788e+02 1.763246e+02 2.061983e+02 2.035035e+02 1.497190e+05 2.712990e+06 2.820252e+06 1.576392e+04 1.956656e+04 -1.668121e+04
<VARIANCE> 12
 7.407106e+04 6.782214e+04 1.758427e+05 3.573123e+04 1.628152e+04 4.774620e+04 3.027433e+11 3.978742e+12 2.600056e+12 4.175127e+09 1.119519e+10 1.068461e+10
<GCONST> 2.398424e+02
<STATE> 3
<NUMMIXES> 3
<MIXTURE> 1 4.148093e-01
<MEAN> 12
 -3.184074e+01 1.039270e+03 -1.461280e+01 1.316686e+01 9.383468e+00 1.407600e+01 2.035769e+04 4.860608e+06 2.407862e+04 -1.162141e-01 1.611439e+01 2.592488e+00
<VARIANCE> 12
 3.489386e+03 5.200988e+01 5.114325e+03 7.211495e+01 2.727873e+01 6.976076e+01 4.307651e+08 4.556749e+09 6.425615e+08 1.340159e+04 1.572462e+04 3.751363e+04
<GCONST> 1.466332e+02
<MIXTURE> 2 3.061273e-01
<MEAN> 12
 -4.818230e+00 1.009231e+03 2.715537e+02 1.676900e+01 9.392420e+00 1.175786e+01 4.592333e+04 4.584082e+06 3.492330e+05 -1.573362e+01 -3.411475e+01 -1.887709e+01
<VARIANCE> 12
 9.142872e+03 1.902554e+02 2.157755e+04 5.821924e+01 2.960267e+01 5.716333e+01 6.026920e+09 1.583362e+10 2.095796e+10 1.279552e+04 1.309543e+04 2.362022e+04
<GCONST> 1.566784e+02
<MIXTURE> 3 2.790634e-01
<MEAN> 12
 7.134132e+01 9.780739e+02 3.659120e+02 3.526691e+01 1.758068e+01 2.624726e+01 7.151019e+04 4.308632e+06 6.253744e+05 -9.559052e+01 -1.735442e+02 1.755034e+02
<VARIANCE> 12
 1.843775e+04 1.229507e+03 5.058854e+04 4.424645e+02 9.055359e+01 2.955740e+02 2.343995e+10 9.589605e+10 1.044655e+11 3.118678e+05 2.422735e+05 9.946601e+05
<GCONST> 1.795044e+02
<STATE> 4
<NUMMIXES> 3
<MIXTURE> 1 5.906583e-01
<MEAN> 12
 6.454636e+00 9.019604e+02 5.278821e+02 2.243799e+01 1.342159e+01 1.246212e+01 1.626885e+04 3.672067e+06 1.275942e+06 4.529884e+01 -1.987732e+01 -9.087535e+01
<VARIANCE> 12
 1.130899e+04 3.044914e+03 6.891304e+03 2.381563e+02 5.422795e+01 1.151884e+02 1.014227e+10 1.827378e+11 1.772191e+11 6.834795e+04 4.148683e+04 1.434627e+05
<GCONST> 1.709711e+02
<MIXTURE> 2 3.533278e-02
<MEAN> 12
 3.638477e+01 7.194807e+02 7.996769e+02 2.562637e+02 3.215493e+02 1.366829e+02 2.589999e+05 2.474052e+06 2.932520e+06 7.412420e+04 4.086109e+04 9.146352e+03
<VARIANCE> 12
 1.329154e+05 1.831774e+05 5.026011e+05 1.348843e+05 6.304693e+04 3.602927e+05 2.660096e+12 9.806884e+12 1.954717e+13 5.303662e+10 2.922081e+11 7.255563e+11
<GCONST> 2.622888e+02
<MIXTURE> 3 3.740088e-01
<MEAN> 12
 8.815833e+01 7.202966e+02 7.528714e+02 5.041782e+01 3.245080e+01 3.809451e+01 8.691353e+04 2.449747e+06 2.662313e+06 -8.444888e+01 -3.463020e+02 -1.089109e+02
<VARIANCE> 12
 4.620852e+04 7.296848e+04 2.968301e+05 1.162483e+03 3.541587e+02 6.162991e+02 8.794649e+10 1.574596e+12 1.593110e+12 2.639925e+06 1.892344e+06 4.373876e+06
<GCONST> 2.018584e+02
<STATE> 5
<NUMMIXES> 3
<MIXTURE> 1 3.808274e-01
<MEAN> 12
 1.729504e+01 1.004763e+03 3.005544e+02 3.838784e+01 2.003652e+01 2.449075e+01 3.997964e+04 4.545191e+06 4.189612e+05 2.323332e+01 -2.635050e+02 -9.367211e+01
<VARIANCE> 12
 1.098318e+04 4.740710e+02 1.970607e+04 4.600294e+02 9.957121e+01 3.249208e+02 4.726423e+09 4.016250e+10 3.198886e+10 2.796875e+05 2.253747e+05 9.270197e+05
<GCONST> 1.734124e+02
<MIXTURE> 2 1.836606e-01
<MEAN> 12
 -8.173289e+01 8.731792e+02 5.626064e+02 1.978045e+02 1.423567e+02 1.780946e+02 2.290489e+05 3.525172e+06 1.812190e+06 5.236839e+03 1.052936e+04 -8.832270e+03
<VARIANCE> 12
 6.709259e+04 4.382909e+04 1.466836e+05 1.882020e+04 8.366932e+03 2.765813e+04 2.487839e+11 2.507764e+12 1.650664e+12 1.001152e+09 3.131867e+09 2.973680e+09
<GCONST> 2.321797e+02
<MIXTURE> 3 4.355121e-01
<MEAN> 12
 -6.566566e+00 9.388021e+02 4.325503e+02 9.149409e+01 4.483771e+01 6.203875e+01 7.949478e+04 3.989735e+06 9.063027e+05 -5.856323e+02 -2.684915e+01 -2.199546e+03
<VARIANCE> 12
 2.335497e+04 5.366500e+03 4.174029e+04 2.729533e+03 5.914579e+02 1.692384e+03 2.657780e+10 3.987991e+11 2.610160e+11 1.129470e+07 8.295964e+06 3.288164e+07
<GCONST> 1.995511e+02
<STATE> 6
<NUMMIXES> 3
<MIXTURE> 1 3.731250e-01
<MEAN> 12
 1.590496e+01 9.692878e+02 3.947975e+02 1.936803e+01 1.128139e+01 1.446581e+01 5.523642e+04 4.230622e+06 7.155550e+05 -2.179646e+01 -2.980117e+01 -6.685297e+01
<VARIANCE> 12
 9.303396e+03 3.385326e+02 1.934680e+03 7.543677e+01 2.691605e+01 6.773582e+01 1.468385e+09 2.588240e+10 2.358481e+10 1.450068e+04 1.490939e+04 3.288916e+04
<GCONST> 1.549773e+02
<MIXTURE> 2 2.948335e-01
<MEAN> 12
 5.336674e+00 9.284834e+02 4.907392e+02 1.605239e+01 1.273620e+01 1.359585e+01 6.502672e+03 3.880651e+06 1.086903e+06 -6.096437e+00 -1.539697e+01 -2.040408e+01
<VARIANCE> 12
 6.184074e+02 2.377532e+02 1.061152e+05 4.345693e+01 1.938476e+01 3.568113e+01 2.545431e+07 1.684082e+10 2.520237e+10 6.933030e+03 6.591141e+03 1.132182e+04
<GCONST> 1.473578e+02
<MIXTURE> 3 3.320415e-01
<MEAN> 12
 2.989001e+00 9.285760e+02 4.690921e+02 3.976012e+01 2.215543e+01 2.518290e+01 5.734088e+04 3.898575e+06 1.035032e+06 2.461518e+01 -1.294757e+02 -3.098672e+02
<VARIANCE> 12
 3.880226e+04 5.192028e+03 2.240201e+05 5.165063e+02 1.397815e+02 3.189392e+02 4.935392e+10 3.184289e+11 1.982120e+11 4.598915e+05 4.051406e+05 1.081032e+06
<GCONST> 1.874130e+02
<TRANSP> 7
 0.000000e+00 3.709198e-01 6.290802e-01 0.000000e+00 0.000000e+00 0.000000e+00 0.000000e+00
 0.000000e+00 7.396172e-01 7.194190e-02 1.884409e-01 0.000000e+00 0.000000e+00 0.000000e+00
 0.000000e+00 0.000000e+00 8.607792e-01 5.413559e-02 8.508521e-02 0.000000e+00 0.000000e+00
 0.000000e+00 0.000000e+00 0.000000e+00 8.938883e-01 7.699158e-02 2.912018e-02 0.000000e+00
 0.000000e+00 0.000000e+00 0.000000e+00 0.000000e+00 7.539951e-01 1.160731e-01 1.299318e-01
 0.000000e+00 0.000000e+00 0.000000e+00 0.000000e+00 0.000000e+00 8.816028e-01 1.183973e-01
 0.000000e+00 0.000000e+00 0.000000e+00 0.000000e+00 0.000000e+00 0.000000e+00 0.000000e+00
<ENDHMM>
~h "Activity102"
<BEGINHMM>
<NUMSTATES> 7
<STATE> 2
<NUMMIXES> 3
<MIXTURE> 1 1.959142e-01
<MEAN> 12
 1.668115e+02 1.045152e+03 4.150662e+02 2.111525e+02 1.065437e+02 1.240620e+02 3.683010e+05 4.945164e+06 8.647069e+05 -1.560860e+04 5.500097e+03 -7.705375e+03
<VARIANCE> 12
 7.231488e+04 1.202186e+04 4.939146e+04 1.767252e+04 6.221575e+03 1.615499e+04 1.941799e+11 1.060043e+12 3.003688e+11 8.177762e+08 9.682532e+08 2.559049e+09
<GCONST> 2.246365e+02
<MIXTURE> 2 3.354475e-01
<MEAN> 12
 1.300861e+02 1.008625e+03 2.025055e+02 7.386147e+01 1.075311e+01 2.344751e+01 8.060816e+04 4.577889e+06 1.852022e+05 5.337002e+02 -1.668328e+02 -1.706945e+03
<VARIANCE> 12
 7.549316e+03 2.514665e+02 1.052329e+04 4.443765e+02 1.008747e+02 3.257536e+02 1.794423e+09 2.186923e+10 4.063864e+09 2.391879e+05 1.989719e+05 7.982671e+05
<GCONST> 1.676869e+02
<MIXTURE> 3 4.686382e-01
<MEAN> 12
 1.034814e+02 9.757480e+02 3.336902e+02 7.731823e+01 3.217584e+01 5.466219e+01 8.735509e+04 4.294384e+06 5.399241e+05 -2.198115e+02 -7.634958e+02 -1.237492e+03
<VARIANCE> 12
 2.142650e+04 3.728714e+03 2.732581e+04 2.200556e+03 5.142173e+02 1.749053e+03 1.639346e+10 3.026588e+11 7.353665e+10 8.248230e+06 5.785288e+06 2.899878e+07
<GCONST> 1.955284e+02
<STATE> 3
<NUMMIXES> 3
<MIXTURE> 1 2.377551e-01
<MEAN> 12
 9.193843e+01 9.641901e+02 5.918120e+02 6.533035e+02 3.726887e+02 7.636262e+02 1.019272e+06 4.449358e+06 3.090869e+06 8.298441e+04 5.498667e+04 -1.158170e+05
<VARIANCE> 12
 1.539594e+05 1.375640e+05 5.058439e+05 1.169683e+05 7.485943e+04 1.689400e+05 1.673570e+12 1.251315e+13 1.348079e+13 1.070765e+11 1.727536e+11 2.265308e+11
<GCONST> 2.598493e+02
<MIXTURE> 2 3.828270e-01
<MEAN> 12
 1.694866e+01 1.054653e+03 4.437458e+02 2.385777e+02 1.619183e+02 2.479413e+02 3.004653e+05 5.386740e+06 1.809962e+06 3.167732e+03 4.440801e+03 -9.450828e+03
<VARIANCE> 12
 7.765884e+04 1.474244e+05 3.276793e+05 1.811441e+04 1.020347e+04 2.752488e+04 1.608347e+11 1.164366e+13 3.074840e+12 1.131658e+09 1.677335e+09 2.425514e+09
<GCONST> 2.355137e+02
<MIXTURE> 3 3.794178e-01
<MEAN> 12
 -3.205066e+01 1.030822e+03 4.045391e+01 1.392014e+02 9.723561e+01 6.732356e+01 1.854382e+05 4.919544e+06 2.000193e+05 -2.236183e+03 1.961202e+03 -3.907146e+03
<VARIANCE> 12
 2.690567e+04 1.575020e+04 1.759508e+04 8.001203e+03 2.095145e+03 2.881632e+03 2.094195e+10 1.434007e+12 1.140433e+10 1.280890e+08 5.124965e+07 1.562766e+08
<GCONST> 2.064968e+02
<STATE> 4
<NUMMIXES> 3
<MIXTURE> 1 2.454238e-01
<MEAN> 12
 4.550401e+01 1.178402e+03 5.439535e+02 4.407934e+02 1.914726e+02 4.653601e+02 6.257312e+05 6.510548e+06 2.235096e+06 2.462428e+04 -1.851050e+04 -9.848297e+04
<VARIANCE> 12
 1.637242e+05 7.670790e+04 2.448889e+05 6.073497e+04 3.650809e+04 5.304905e+04 1.326560e+12 1.133881e+13 7.157670e+12 2.807561e+10 2.603124e+10 3.574774e+10
<GCONST> 2.500279e+02
<MIXTURE> 2 4.198049e-01
<MEAN> 12
 7.232205e+01 9.829919e+02 3.268914e+02 5.386456e+01 2.297676e+01 3.622205e+01 4.162293e+04 4.353502e+06 5.109636e+05 5.170493e+01 -3.180604e+02 -7.713774e+02
<VARIANCE> 12
 6.293766e+03 2.306638e+03 2.550519e+04 1.228409e+03 3.816751e+02 9.549769e+02 1.059116e+09 1.872474e+11 9.634001e+10 2.840984e+06 2.325583e+06 7.849050e+06
<GCONST> 1.860343e+02
<MIXTURE> 3 3.347714e-01
<MEAN> 12
 5.075381e+01 1.022245e+03 4.410086e+02 1.549236e+02 8.712405e+01 1.331705e+02 1.051429e+05 4.807508e+06 1.305847e+06 -2.507993e+02 1.185518e+03 -5.213508e+03
<VARIANCE> 12
 1.539828e+04 2.052039e+04 7.330991e+04 4.948757e+03 2.236417e+03 8.715647e+03 7.456513e+09 1.761967e+12 9.655847e+11 1.161569e+08 1.716325e+08 4.043060e+08
<GCONST> 2.139954e+02
<STATE> 5
<NUMMIXES> 3
<MIXTURE> 1 2.790367e-01
<MEAN> 12
 3.443488e+01 1.431439e+03 -2.262574e+01 3.060176e+02 1.537168e+02 1.338785e+02 5.606344e+05 9.399758e+06 1.235713e+05 3.082026e+02 -4.166889e+03 2.407907e+04
<VARIANCE> 12
 1.590656e+05 6.385352e+04 2.461605e+04 4.667605e+04 1.024340e+04 4.877061e+03 6.300871e+11 1.267390e+13 4.281379e+10 2.978904e+09 7.124252e+08 1.541162e+09
<GCONST> 2.288594e+02
<MIXTURE> 2 2.812243e-01
<MEAN> 12
 -7.235062e+00 8.772781e+02 3.363030e+02 6.101223e+01 3.644275e+01 3.862366e+01 1.298856e+05 3.567092e+06 8.233494e+05 1.456409e+02 -8.088939e+02 8.185150e+01
<VARIANCE> 12
 5.228218e+04 1.591880e+05 2.480646e+05 1.321386e+03 3.474199e+02 7.004986e+02 8.082121e+10 2.295444e+12 1.899067e+12 2.104282e+06 1.193603e+06 4.518589e+06
<GCONST> 2.026325e+02
<MIXTURE> 3 4.397390e-01
<MEAN> 12
 -9.053669e+01 9.888600e+02 4.532552e+01 1.170586e+02 1.257363e+02 7.592622e+01 2.379878e+05 4.646530e+06 5.102143e+05 -6.134740e+02 3.078554e+03 5.284299e+02
<VARIANCE> 12
 8.699766e+04 7.978800e+04 1.646628e+05 3.233323e+03 5.645369e+03 2.421797e+03 1.835723e+11 4.676064e+12 7.224795e+11 1.606475e+08 1.185881e+08 7.327476e+07
<GCONST> 2.192500e+02
<STATE> 6
<NUMMIXES> 3
<MIXTURE> 1 2.688778e-01
<MEAN> 12
 1.193063e+02 8.315656e+02 7.140771e+02 6.090647e+02 3.317285e+02 7.280641e+02 1.449759e+06 3.290524e+06 3.357465e+06 3.115307e+04 5.731884e+04 -7.412639e+04
<VARIANCE> 12
 1.100966e+05 1.030066e+05 4.752435e+05 8.678099e+04 6.974570e+04 1.695680e+05 7.777299e+11 6.854342e+12 1.374528e+13 6.236925e+10 1.702930e+11 1.602748e+11
<GCONST> 2.565471e+02
<MIXTURE> 2 3.441419e-01
<MEAN> 12
 4.794921e+01 9.560712e+02 3.021285e+02 2.337637e+02 1.263432e+02 2.643602e+02 2.788882e+05 4.347050e+06 1.001579e+06 -4.066225e+03 1.450281e+04 2.697084e+04
<VARIANCE> 12
 5.206277e+04 6.288346e+04 1.524718e+05 1.670489e+04 8.999276e+03 2.430521e+04 8.050625e+10 5.060199e+12 8.821803e+11 1.153129e+09 1.541913e+09 2.813061e+09
<GCONST> 2.304746e+02
<MIXTURE> 3 3.869803e-01
<MEAN> 12
 4.504636e+01 1.006186e+03 1.763472e+02 1.168416e+02 4.083832e+01 5.201472e+01 9.919365e+04 4.575594e+06 3.728947e+05 1.480150e+03 -1.913790e+01 -3.214292e+03
<VARIANCE> 12
 1.604513e+04 3.174421e+03 2.524384e+04 4.192240e+03 9.973011e+02 2.051995e+03 8.048045e+09 2.699697e+11 5.804229e+10 2.312257e+07 1.100403e+07 4.415672e+07
<GCONST> 1.974976e+02
<TRANSP> 7
 0.000000e+00 6.521900e-01 3.478101e-01 0.000000e+00 0.000000e+00 0.000000e+00 0.000000e+00
 0.000000e+00 5.707880e-01 2.572800e-01 1.719320e-01 0.000000e+00 0.000000e+00 0.000000e+00
 0.000000e+00 0.000000e+00 8.403285e-01 1.591058e-01 5.657767e-04 0.000000e+00 0.000000e+00
 0.000000e+00 0.000000e+00 0.000000e+00 8.915563e-01 9.189035e-02 1.655337e-02 0.000000e+00
 0.000000e+00 0.000000e+00 0.000000e+00 0.000000e+00 5.804623e-01 2.974401e-01 1.220975e-01
 0.000000e+00 0.000000e+00 0.000000e+00 0.000000e+00 0.000000e+00 7.142231e-01 2.857769e-01
 0.000000e+00 0.000000e+00 0.000000e+00 0.000000e+00 0.000000e+00 0.000000e+00 0.000000e+00
<ENDHMM>
~h "Activity104"
<BEGINHMM>
<NUMSTATES> 7
<STATE> 2
<NUMMIXES> 3
<MIXTURE> 1 4.066240e-01
<MEAN> 12
 9.643082e+01 1.765573e+02 1.014365e+03 1.026672e+01 9.686703e+00 9.491533e+00 5.150744e+04 1.505108e+05 4.631362e+06 1.094168e+01 -3.467775e+00 1.378063e+01
<VARIANCE> 12
 2.310038e+04 1.733371e+04 4.201325e+03 5.821230e+01 2.856405e+01 4.793041e+01 1.973145e+11 7.748775e+09 2.970516e+11 1.602518e+04 1.214175e+04 2.258232e+04
<GCONST> 1.657990e+02
<MIXTURE> 2 4.487071e-01
<MEAN> 12
 -2.182670e+02 5.586439e+02 8.508035e+02 1.052217e+01 8.980222e+00 1.088938e+01 2.305160e+05 1.410978e+06 3.261558e+06 -2.880487e+01 -9.251209e+00 2.886242e+01
<VARIANCE> 12
 3.571837e+03 1.466188e+03 9.158078e+02 4.562022e+01 2.906175e+01 3.552110e+01 1.442381e+10 3.750486e+10 5.235292e+10 9.066170e+03 8.931567e+03 1.341803e+04
<GCONST> 1.552406e+02
<MIXTURE> 3 1.446689e-01
<MEAN> 12
 2.835812e+02 3.086663e+02 8.978836e+02 8.838101e+01 7.082196e+01 8.986486e+01 4.098678e+05 5.336596e+05 3.713879e+06 1.775598e+03 6.931834e+03 5.942304e+03
<VARIANCE> 12
 4.176845e+04 1.658822e+05 3.834046e+04 5.379083e+03 1.856614e+03 4.858000e+03 2.221640e+11 1.644658e+12 1.319053e+12 1.551119e+08 1.145525e+08 5.736087e+08
<GCONST> 2.196197e+02
<STATE> 3
<NUMMIXES> 3
<MIXTURE> 1 5.106736e-01
<MEAN> 12
 3.415487e+01 3.674332e+02 9.587238e+02 8.811993e+00 7.886248e+00 9.630779e+00 1.074790e+05 6.084368e+05 4.136682e+06 -9.923305e+00 2.371753e-01 2.353450e-01
<VARIANCE> 12
 2.271063e+04 2.001387e+02 1.096025e+02 2.208259e+01 1.667563e+01 2.517869e+01 3.906863e+09 2.160697e+09 8.170106e+09 3.314068e+03 4.042704e+03 4.812358e+03
<GCONST> 1.425087e+02
<MIXTURE> 2 2.547657e-01
<MEAN> 12
 6.105702e+01 4.211056e+02 9.485649e+02 8.918816e+00 8.110177e+00 9.885203e+00 2.210478e+04 8.010912e+05 4.049742e+06 -6.293486e+00 7.727643e-03 -2.897766e+00
<VARIANCE> 12
 1.179090e+03 6.887317e+02 1.647825e+02 2.443817e+01 1.896764e+01 2.576042e+01 3.378054e+08 1.039536e+10 1.194201e+10 3.938776e+03 4.658729e+03 5.809170e+03
<GCONST> 1.414525e+02
<MIXTURE> 3 2.345607e-01
<MEAN> 12
 2.317483e+02 2.516912e+02 9.767216e+02 1.458087e+01 7.364467e+00 1.421012e+01 2.553666e+05 2.883786e+05 4.294088e+06 -1.396230e+01 1.353704e+01 -3.307221e+01
<VARIANCE> 12
 1.781148e+04 1.566812e+03 3.735903e+02 1.209846e+02 4.693572e+01 6.305309e+01 6.361145e+09 1.801945e+10 2.767924e+10 7.625542e+04 3.729980e+04 8.246978e+04
<GCONST> 1.612314e+02
<STATE> 4
<NUMMIXES> 3
<MIXTURE> 1 6.487723e-01
<MEAN> 12
 8.591909e+01 1.511054e+02 1.015790e+03 9.382166e+00 8.639121e+00 1.006479e+01 3.562666e+04 1.105776e+05 4.643687e+06 8.131933e+00 1.153252e+01 -1.398137e+01
<VARIANCE> 12
 3.968851e+03 5.072473e+03 1.233280e+02 3.178600e+01 1.970967e+01 4.678701e+01 1.234576e+09 3.027942e+09 1.039015e+10 5.585980e+03 7.752300e+03 1.173756e+04
<GCONST> 1.467565e+02
<MIXTURE> 2 5.430727e-02
<MEAN> 12
 2.568756e+02 4.661099e+02 8.751068e+02 1.350759e+02 8.549368e+01 1.053288e+02 3.450029e+05 1.109059e+06 3.546105e+06 8.733053e+03 6.886604e+03 3.415275e+03
<VARIANCE> 12
 4.617137e+04 2.058790e+05 1.718734e+05 2.686549e+04 1.526569e+04 5.646284e+04 1.229915e+11 5.440899e+12 4.735736e+12 1.833319e+09 1.171376e+10 7.688162e+09
<GCONST> 2.391804e+02
<MIXTURE> 3 2.969203e-01
<MEAN> 12
 1.713380e+02 3.879875e+02 9.129590e+02 3.861634e+01 2.588579e+01 3.169181e+01 2.120368e+05 8.919536e+05 3.815938e+06 2.609285e+02 2.220240e+02 1.758065e+02
<VARIANCE> 12
 2.788207e+04 9.616373e+04 7.561038e+03 7.151252e+02 2.846830e+02 5.532585e+02 9.838200e+10 4.033052e+11 5.053433e+11 1.272668e+06 9.810474e+05 2.530041e+06
<GCONST> 1.928148e+02
<STATE> 5
<NUMMIXES> 3
<MIXTURE> 1 5.913447e-01
<MEAN> 12
 1.717579e+02 2.277008e+02 9.908188e+02 9.400681e+00 7.912359e+00 1.005594e+01 1.570510e+05 2.376780e+05 4.418926e+06 -1.156530e+01 -1.048341e+01 -3.941946e-01
<VARIANCE> 12
 1.066157e+04 2.916452e+03 3.238237e+02 3.133355e+01 2.025272e+01 3.693837e+01 3.515369e+09 2.215803e+10 2.523718e+10 5.701025e+03 7.636564e+03 9.501757e+03
<GCONST> 1.516513e+02
<MIXTURE> 2 3.479208e-01
<MEAN> 12
 -1.730416e+02 4.419250e+02 9.238007e+02 1.055032e+01 8.692912e+00 1.116065e+01 1.462546e+05 8.847929e+05 3.841948e+06 -3.017339e+01 -3.148220e-01 1.899085e+01
<VARIANCE> 12
 2.544540e+03 1.321081e+03 3.506687e+02 4.395776e+01 2.167356e+01 4.072734e+01 3.908027e+09 2.066205e+10 2.417215e+10 7.396888e+03 8.524583e+03 1.511164e+04
<GCONST> 1.508376e+02
<MIXTURE> 3 6.073449e-02
<MEAN> 12
 -1.385236e+01 6.213856e+02 8.258948e+02 2.961577e+01 2.688879e+01 4.989956e+01 6.223250e+03 1.738410e+06 3.073828e+06 -1.295722e+02 -7.903901e+02 1.117175e+03
<VARIANCE> 12
 7.156164e+04 8.815755e+04 2.442378e+04 7.434878e+03 1.942971e+03 3.562603e+03 1.113773e+12 2.349101e+11 1.451758e+12 8.361084e+07 7.091743e+07 2.089156e+08
<GCONST> 2.167884e+02
<STATE> 6
<NUMMIXES> 3
<MIXTURE> 1 4.143798e-01
<MEAN> 12
 1.659284e+02 2.112822e+02 9.972315e+02 2.014268e+01 1.423112e+01 1.496225e+01 1.516283e+05 2.198697e+05 4.477736e+06 -4.940862e+01 1.298527e+02 -2.384634e+01
<VARIANCE> 12
 1.413460e+04 1.614005e+04 1.047402e+03 1.810601e+02 8.219469e+01 2.063112e+02 6.935861e+09 7.869512e+10 8.157406e+10 1.466769e+05 1.748876e+05 2.957517e+05
<GCONST> 1.726301e+02
<MIXTURE> 2 1.883952e-01
<MEAN> 12
 6.108558e+01 8.334106e+02 6.813236e+02 8.018656e+01 3.240207e+01 2.986658e+01 8.581052e+04 3.134060e+06 2.099421e+06 1.714682e+03 -1.029718e+03 -1.721062e+03
<VARIANCE> 12
 1.705506e+04 7.867736e+03 4.973497e+04 3.763677e+03 1.987340e+03 5.832404e+03 1.727833e+10 6.389166e+11 3.153166e+11 3.034466e+07 2.772865e+08 2.377882e+08
<GCONST> 2.092708e+02
<MIXTURE> 3 3.972250e-01
<MEAN> 12
 3.384747e+02 2.702504e+02 9.317853e+02 1.646144e+01 1.049274e+01 1.786124e+01 5.237242e+05 3.363711e+05 3.908818e+06 -4.346115e+01 3.868159e+01 -1.075585e+02
<VARIANCE> 12
 3.373898e+04 4.443106e+04 1.721081e+03 1.438118e+02 4.674018e+01 5.918465e+01 7.036015e+10 1.780489e+11 1.017586e+11 4.999839e+04 2.620512e+04 9.377417e+04
<GCONST> 1.721973e+02
<TRANSP> 7
 0.000000e+00 6.026348e-01 3.973652e-01 0.000000e+00 0.000000e+00 0.000000e+00 0.000000e+00
 0.000000e+00 2.786045e-01 8.723028e-05 7.213083e-01 0.000000e+00 0.000000e+00 0.000000e+00
 0.000000e+00 0.000000e+00 4.314663e-01 1.638444e-01 4.046893e-01 0.000000e+00 0.000000e+00
 0.000000e+00 0.000000e+00 0.000000e+00 9.138325e-01 3.941322e-02 4.675426e-02 0.000000e+00
 0.000000e+00 0.000000e+00 0.000000e+00 0.000000e+00 9.063677e-01 1.553655e-02 7.809576e-02
 0.000000e+00 0.000000e+00 0.000000e+00 0.000000e+00 0.000000e+00 8.644721e-01 1.355278e-01
 0.000000e+00 0.000000e+00 0.000000e+00 0.000000e+00 0.000000e+00 0.000000e+00 0.000000e+00
<ENDHMM>
~h "Activity105"
<BEGINHMM>
<NUMSTATES> 7
<STATE> 2
<NUMMIXES> 2
<MIXTURE> 1 6.318921e-01
<MEAN> 12
 -9.854250e+02 1.304617e+02 8.849384e+01 7.223342e+00 7.297474e+00 8.959660e+00 4.370078e+06 7.763642e+04 9.934212e+04 -1.383561e+01 -1.451272e+01 5.484045e+00
<VARIANCE> 12
 6.339557e+01 2.311137e+02 1.424484e+04 1.563710e+01 1.450831e+01 2.061047e+01 4.986982e+09 3.112786e+08 7.077629e+09 2.798283e+03 3.416426e+03 3.570754e+03
<GCONST> 1.384813e+02
<MIXTURE> 2 3.681079e-01
<MEAN> 12
 -7.572286e+02 -3.006281e+01 6.784869e+02 9.562241e+00 9.306324e+00 1.017769e+01 2.581342e+06 4.697545e+03 2.072081e+06 -1.174514e+01 -2.660742e+00 -5.677914e+00
<VARIANCE> 12
 2.277129e+02 1.301279e+02 1.151185e+02 3.970824e+01 3.000128e+01 3.301328e+01 1.138373e+10 8.964033e+06 4.240286e+09 1.176953e+04 1.009240e+04 7.488088e+03
<GCONST> 1.365228e+02
<STATE> 3
<NUMMIXES> 2
<MIXTURE> 1 6.615095e-01
<MEAN> 12
 -9.041696e+02 1.255303e+02 3.226428e+02 5.720551e+01 2.945263e+01 3.660784e+01 3.756515e+06 1.424259e+05 7.249152e+05 3.258938e+02 1.831890e+02 -3.221835e+02
<VARIANCE> 12
 1.674565e+04 1.574448e+04 5.684627e+04 2.710230e+03 5.000435e+02 8.649188e+02 1.027630e+12 3.412124e+10 5.501062e+11 3.584184e+06 1.508286e+06 9.636129e+06
<GCONST> 1.976193e+02
<MIXTURE> 2 3.384905e-01
<MEAN> 12
 1.006993e+03 5.545112e+01 -3.415997e+01 8.419234e+01 5.065325e+01 8.517862e+01 4.702942e+06 6.841694e+04 2.465068e+05 -8.353081e+02 4.705912e+03 5.742779e+03
<VARIANCE> 12
 6.243911e+04 3.304501e+04 1.293249e+05 3.524912e+04 2.748434e+03 9.842268e+03 3.742729e+12 1.162278e+11 2.099435e+12 1.220453e+09 2.308015e+08 4.063672e+09
<GCONST> 2.279629e+02
<STATE> 4
<NUMMIXES> 2
<MIXTURE> 1 5.760896e-01
<MEAN> 12
 -9.656024e+02 8.803477e+01 2.708499e+02 7.301929e+00 7.546584e+00 9.300076e+00 4.196460e+06 3.797849e+04 3.445053e+05 -7.141525e+00 -1.595260e+01 2.913688e+00
<VARIANCE> 12
 1.550994e+02 6.882306e+02 3.193280e+03 1.888032e+01 1.586829e+01 2.475219e+01 1.167129e+10 3.665244e+08 1.329187e+10 2.335514e+03 4.093333e+03 3.812863e+03
<GCONST> 1.411425e+02
<MIXTURE> 2 4.239104e-01
<MEAN> 12
 -8.314839e+02 3.227266e+02 5.013510e+02 8.705738e+00 8.116880e+00 1.021374e+01 3.113005e+06 4.789986e+05 1.146147e+06 -3.087577e+00 -6.626925e+00 -1.145525e+01
<VARIANCE> 12
 4.105023e+02 2.291131e+03 3.344076e+03 2.588842e+01 1.962193e+01 2.822726e+01 2.319213e+10 1.988261e+10 5.787435e+10 4.199427e+03 6.067121e+03 8.774828e+03
<GCONST> 1.519891e+02
<STATE> 5
<NUMMIXES> 2
<MIXTURE> 1 6.418856e-01
<MEAN> 12
 -9.773997e+02 1.153817e+02 1.986585e+02 1.304226e+01 9.929131e+00 1.197880e+01 4.300377e+06 6.431826e+04 2.150681e+05 -2.285054e+01 -2.398329e+01 2.317606e+01
<VARIANCE> 12
 3.310902e+02 9.733311e+02 8.322921e+03 7.498503e+01 3.060351e+01 5.991196e+01 2.576710e+10 1.138070e+09 1.226751e+10 2.782893e+04 1.371623e+04 2.703934e+04
<GCONST> 1.536161e+02
<MIXTURE> 2 3.581143e-01
<MEAN> 12
 9.759586e+02 6.451963e+01 -5.969354e+01 1.738069e+01 1.121216e+01 1.693967e+01 4.293120e+06 8.745738e+04 1.721506e+05 1.191809e+02 5.598432e+01 3.940839e+01
<VARIANCE> 12
 2.814046e+04 4.183891e+04 5.343123e+04 2.188369e+03 4.680175e+02 6.759261e+02 1.223603e+12 7.998348e+10 8.672819e+11 6.745042e+06 1.463703e+06 8.649260e+06
<GCONST> 2.005031e+02
<STATE> 6
<NUMMIXES> 2
<MIXTURE> 2 1.000000e+00
<MEAN> 12
 9.853890e+02 7.203560e+01 -5.399554e+01 2.168972e+01 1.373942e+01 1.785716e+01 4.378051e+06 9.119225e+04 1.642031e+05 3.201775e+02 5.620459e+01 -2.608398e+01
<VARIANCE> 12
 4.708990e+04 4.727150e+05 1.567024e+05 1.049270e+04 1.718705e+03 3.161390e+04 9.955247e+11 3.704540e+12 2.596182e+12 5.154158e+08 1.947103e+09 1.208020e+10
<GCONST> 2.347289e+02
<TRANSP> 7
 0.000000e+00 0.000000e+00 1.000000e+00 0.000000e+00 0.000000e+00 0.000000e+00 0.000000e+00
 0.000000e+00 9.113458e-01 2.336036e-02 6.529386e-02 0.000000e+00 0.000000e+00 0.000000e+00
 0.000000e+00 0.000000e+00 7.224891e-01 0.000000e+00 2.775110e-01 0.000000e+00 0.000000e+00
 0.000000e+00 0.000000e+00 0.000000e+00 9.185741e-01 8.142585e-02 0.000000e+00 0.000000e+00
 0.000000e+00 0.000000e+00 0.000000e+00 0.000000e+00 5.614254e-09 9.171094e-01 8.289059e-02
 0.000000e+00 0.000000e+00 0.000000e+00 0.000000e+00 0.000000e+00 9.404341e-01 5.956594e-02
 0.000000e+00 0.000000e+00 0.000000e+00 0.000000e+00 0.000000e+00 0.000000e+00 0.000000e+00
<ENDHMM>
