~o
<STREAMINFO> 1 12
<VECSIZE> 12<NULLD><MFCC><DIAGC>
~h "Activity101"
<BEGINHMM>
<NUMSTATES> 7
<STATE> 2
<NUMMIXES> 3
<MIXTURE> 1 3.243808e-01
<MEAN> 12
 4.003965e+01 1.065556e+03 3.083495e+02 5.191948e+01 3.347123e+01 2.159211e+01 4.805645e+03 5.110236e+06 4.282266e+05 -1.310282e+03 -3.753613e+02 -1.922793e+02
<VARIANCE> 12
 5.868267e+03 3.189054e+02 1.511244e+04 6.719849e+02 1.624268e+02 5.975403e+02 9.424158e+08 2.789306e+10 9.779446e+09 6.864042e+05 7.543067e+05 2.737645e+06
<GCONST> 1.736278e+02
<MIXTURE> 2 4.888994e-01
<MEAN> 12
 2.508391e+01 9.282068e+02 4.875430e+02 1.035938e+02 4.744211e+01 5.371606e+01 8.278152e+04 3.917860e+06 1.152965e+06 -8.452627e+02 1.657453e+03 6.371933e+00
<VARIANCE> 12
 1.952425e+04 1.203819e+04 5.152287e+04 4.192649e+03 1.261838e+03 2.688612e+03 1.515964e+10 8.282564e+11 5.328946e+11 2.737806e+07 1.991950e+07 6.294589e+07
<GCONST> 2.053341e+02
<MIXTURE> 3 1.866944e-01
<MEAN> 12
 -5.658600e+01 7.624661e+02 7.682719e+02 1.706248e+02 2.004573e+02 2.058297e+02 1.395409e+05 2.709536e+06 2.822478e+06 1.132599e+04 1.883602e+04 -1.762257e+04
<VARIANCE> 12
 5.065953e+04 6.106559e+04 1.300049e+05 3.328099e+04 1.639508e+04 4.115678e+04 1.681551e+11 3.873279e+12 2.662849e+12 3.328968e+09 4.593789e+09 9.642698e+09
<GCONST> 2.370321e+02
<STATE> 3
<NUMMIXES> 3
<MIXTURE> 1 3.156017e-01
<MEAN> 12
 -1.243333e+02 1.027000e+03 1.653333e+02 2.557994e+01 6.928203e+00 1.553491e+01 7.018714e+04 4.746244e+06 1.230075e+05 -1.400000e+01 -2.800000e+01 -3.743334e+02
<VARIANCE> 12
 3.744801e+03 5.081982e+01 4.828804e+03 7.281535e+01 2.659969e+01 7.103973e+01 4.381636e+08 4.449260e+09 6.312227e+08 1.319205e+04 1.528719e+04 3.755577e+04
<GCONST> 1.465583e+02
<MIXTURE> 2 3.842545e-01
<MEAN> 12
 5.464936e+00 1.007220e+03 2.823376e+02 1.700611e+01 9.348618e+00 1.249493e+01 3.926060e+04 4.565872e+06 3.746108e+05 -2.363420e+01 -3.404504e+01 -1.612579e+01
<VARIANCE> 12
 1.027062e+04 1.633126e+02 1.590978e+04 6.191371e+01 2.866361e+01 5.356460e+01 2.860514e+09 1.357962e+10 1.885809e+10 1.303878e+04 1.258109e+04 2.392930e+04
<GCONST> 1.552890e+02
<MIXTURE> 3 3.001135e-01
<MEAN> 12
 8.405309e+01 9.740756e+02 3.729266e+02 3.744963e+01 1.679544e+01 2.662431e+01 8.763211e+04 4.274410e+06 6.537358e+05 -1.016736e+02 -1.644298e+02 9.444864e+01
<VARIANCE> 12
 1.455555e+04 1.055345e+03 1.888574e+04 4.240927e+02 9.249535e+01 2.566466e+02 7.806624e+09 8.211206e+10 8.734471e+10 3.104759e+05 1.985263e+05 8.418612e+05
<GCONST> 1.761635e+02
<STATE> 4
<NUMMIXES> 3
<MIXTURE> 1 6.334769e-01
<MEAN> 12
 -5.101451e+00 9.052466e+02 5.239448e+02 2.244482e+01 1.359902e+01 1.228484e+01 1.306958e+04 3.695357e+06 1.251877e+06 6.290734e+01 1.436102e+01 -8.642622e+01
<VARIANCE> 12
 1.027219e+04 1.830779e+03 4.977073e+03 2.041172e+02 5.421906e+01 1.037245e+02 4.435525e+09 1.141320e+11 1.184447e+11 6.274198e+04 3.598316e+04 1.157187e+05
<GCONST> 1.676380e+02
<MIXTURE> 2 2.944049e-02
<MEAN> 12
 3.948266e+01 7.219311e+02 7.983885e+02 2.614682e+02 3.258845e+02 1.365182e+02 2.685413e+05 2.490341e+06 2.923263e+06 7.781416e+04 4.122413e+04 9.493183e+03
<VARIANCE> 12
 9.661291e+04 2.038666e+05 1.517379e+05 7.216812e+04 5.912628e+04 2.299385e+05 1.358923e+12 6.944328e+12 5.308130e+12 1.845942e+10 2.000097e+11 6.894862e+10
<GCONST> 2.536319e+02
<MIXTURE> 3 3.370914e-01
<MEAN> 12
 8.480019e+01 7.163587e+02 7.522164e+02 4.633236e+01 3.040098e+01 3.682344e+01 7.443508e+04 2.416268e+06 2.649794e+06 -7.928997e+01 -3.225788e+02 1.512691e+01
<VARIANCE> 12
 1.572427e+04 6.887129e+04 4.224521e+04 1.072426e+03 4.148368e+02 5.690663e+02 2.069571e+10 1.622563e+12 1.734633e+12 2.635700e+06 1.684913e+06 3.750418e+06
<GCONST> 1.971676e+02
<STATE> 5
<NUMMIXES> 3
<MIXTURE> 1 3.925622e-01
<MEAN> 12
 2.279550e+01 9.880909e+02 3.531077e+02 3.763913e+01 1.980343e+01 2.403436e+01 2.475018e+04 4.395122e+06 5.752908e+05 2.967694e+00 -2.098067e+02 2.386691e+01
<VARIANCE> 12
 9.455931e+03 4.757522e+02 1.659070e+04 4.498409e+02 9.523904e+01 2.823430e+02 2.361851e+09 4.009803e+10 3.383117e+10 2.637105e+05 1.894097e+05 8.270552e+05
<GCONST> 1.719007e+02
<MIXTURE> 2 1.856529e-01
<MEAN> 12
 -5.720554e+01 8.767536e+02 5.601809e+02 1.852579e+02 1.310929e+02 1.678755e+02 2.408729e+05 3.563229e+06 1.847641e+06 4.467595e+03 9.571563e+03 -8.010899e+03
<VARIANCE> 12
 4.372318e+04 4.528771e+04 8.116663e+04 1.802071e+04 1.185312e+04 2.738447e+04 1.206038e+11 2.414500e+12 1.832958e+12 1.412005e+09 2.981023e+09 3.015795e+09
<GCONST> 2.311388e+02
<MIXTURE> 3 4.218220e-01
<MEAN> 12
 -5.715514e+00 9.271506e+02 4.494867e+02 9.557013e+01 4.892208e+01 6.468839e+01 8.601734e+04 3.892712e+06 9.668272e+05 -6.332912e+02 -1.611512e+02 -2.522997e+03
<VARIANCE> 12
 1.856466e+04 5.156520e+03 2.530019e+04 2.463578e+03 6.987186e+02 1.651687e+03 1.321276e+10 3.752930e+11 2.525240e+11 1.100364e+07 7.904518e+06 2.922125e+07
<GCONST> 1.978356e+02
<STATE> 6
<NUMMIXES> 3
<MIXTURE> 1 5.624658e-01
<MEAN> 12
 8.369444e+00 9.591776e+02 4.188881e+02 2.113391e+01 1.166312e+01 1.466978e+01 7.100811e+04 4.141662e+06 7.951918e+05 -2.367460e+01 -3.287225e+01 -8.140129e+01
<VARIANCE> 12
 6.430111e+03 4.182974e+02 2.587383e+03 1.122653e+02 3.097768e+01 6.851430e+01 1.386171e+09 3.214211e+10 3.018748e+10 2.069631e+04 1.656401e+04 4.641145e+04
<GCONST> 1.568710e+02
<MIXTURE> 2 8.465799e-02
<MEAN> 12
 4.169271e+00 9.226857e+02 5.023230e+02 1.724899e+01 1.159569e+01 1.210094e+01 7.483604e+03 3.832524e+06 1.139826e+06 1.943845e+01 -1.094267e+01 -2.992348e+01
<VARIANCE> 12
 9.918691e+02 2.337872e+02 1.034500e+03 5.637982e+01 2.228210e+01 4.593232e+01 2.743397e+07 1.648141e+10 1.913454e+10 7.997412e+03 7.574758e+03 1.535853e+04
<GCONST> 1.441997e+02
<MIXTURE> 3 3.528698e-01
<MEAN> 12
 1.084265e+00 9.356702e+02 4.603095e+02 4.057732e+01 2.388672e+01 2.554304e+01 5.748212e+04 3.947814e+06 9.762479e+05 4.267039e+01 -1.829665e+02 -3.113647e+02
<VARIANCE> 12
 1.226581e+04 3.450106e+03 9.966008e+03 5.441469e+02 1.687024e+02 2.861099e+02 7.140264e+09 2.182416e+11 2.083779e+11 5.898820e+05 3.701018e+05 1.260422e+06
<GCONST> 1.809226e+02
<TRANSP> 7
 0.000000e+00 3.601510e-01 6.398490e-01 0.000000e+00 0.000000e+00 0.000000e+00 0.000000e+00
 0.000000e+00 7.444235e-01 7.210428e-02 1.834722e-01 0.000000e+00 0.000000e+00 0.000000e+00
 0.000000e+00 0.000000e+00 8.611613e-01 5.425444e-02 8.458427e-02 0.000000e+00 0.000000e+00
 0.000000e+00 0.000000e+00 0.000000e+00 8.823923e-01 9.553491e-02 2.207282e-02 0.000000e+00
 0.000000e+00 0.000000e+00 0.000000e+00 0.000000e+00 7.928066e-01 7.631718e-02 1.308761e-01
 0.000000e+00 0.000000e+00 0.000000e+00 0.000000e+00 0.000000e+00 8.982458e-01 1.017541e-01
 0.000000e+00 0.000000e+00 0.000000e+00 0.000000e+00 0.000000e+00 0.000000e+00 0.000000e+00
<ENDHMM>
~h "Activity102"
<BEGINHMM>
<NUMSTATES> 7
<STATE> 2
<NUMMIXES> 3
<MIXTURE> 1 1.987569e-01
<MEAN> 12
 1.989543e+02 1.001350e+03 5.128878e+02 2.154458e+02 1.288669e+02 1.791777e+02 3.301928e+05 4.552236e+06 1.327382e+06 -2.591036e+04 5.376132e+03 4.259157e+03
<VARIANCE> 12
 5.716906e+04 1.267550e+04 4.532901e+04 1.786010e+04 6.256873e+03 1.674398e+04 1.199608e+11 1.120933e+12 4.045080e+11 8.119216e+08 7.305370e+08 2.355343e+09
<GCONST> 2.239207e+02
<MIXTURE> 2 2.818541e-01
<MEAN> 12
 9.837244e+01 1.012946e+03 2.625586e+02 6.795712e+01 1.133192e+01 3.055116e+01 4.855920e+04 4.618222e+06 3.160699e+05 2.913221e+02 4.308563e+00 -1.895812e+03
<VARIANCE> 12
 7.862410e+03 2.418280e+02 1.236621e+04 4.229770e+02 9.865747e+01 3.311726e+02 1.550123e+09 2.102441e+10 4.432018e+09 1.975428e+05 1.962653e+05 7.016946e+05
<GCONST> 1.673618e+02
<MIXTURE> 3 5.193946e-01
<MEAN> 12
 9.643092e+01 9.663712e+02 3.525855e+02 8.277148e+01 3.654592e+01 5.643390e+01 1.000093e+05 4.216626e+06 6.019197e+05 -5.304006e+02 -1.143954e+03 -7.987924e+02
<VARIANCE> 12
 1.767861e+04 4.072553e+03 2.868057e+04 2.479360e+03 5.273185e+02 1.651410e+03 9.859724e+09 3.292869e+11 9.366834e+10 7.615678e+06 5.164564e+06 2.787579e+07
<GCONST> 1.951449e+02
<STATE> 3
<NUMMIXES> 3
<MIXTURE> 1 2.163501e-01
<MEAN> 12
 9.842834e+01 9.468513e+02 6.096595e+02 6.598508e+02 3.929329e+02 7.873823e+02 1.067695e+06 4.275906e+06 3.251607e+06 9.170702e+04 5.737539e+04 -1.154354e+05
<VARIANCE> 12
 1.114351e+05 9.087102e+04 3.025930e+05 1.318346e+05 6.361017e+04 1.431708e+05 1.235275e+12 1.006118e+13 9.342601e+12 7.248938e+10 1.354922e+11 1.691730e+11
<GCONST> 2.565754e+02
<MIXTURE> 2 3.834636e-01
<MEAN> 12
 3.022160e+01 1.110754e+03 5.209532e+02 2.599436e+02 1.618815e+02 2.876641e+02 2.918340e+05 5.954584e+06 2.120459e+06 7.563390e+03 4.325038e+03 -1.149003e+04
<VARIANCE> 12
 5.723528e+04 1.109755e+05 2.374810e+05 2.019577e+04 9.793447e+03 2.951426e+04 1.130108e+11 8.565636e+12 3.777271e+12 1.219517e+09 1.672652e+09 3.089075e+09
<GCONST> 2.345998e+02
<MIXTURE> 3 4.001747e-01
<MEAN> 12
 -6.278482e+01 9.887366e+02 1.360784e+01 1.347667e+02 1.118281e+02 7.127201e+01 1.952674e+05 4.578978e+06 2.316639e+05 -2.301646e+03 1.642902e+03 -4.124404e+03
<VARIANCE> 12
 2.625237e+04 2.112725e+04 1.928041e+04 7.814767e+03 2.260949e+03 2.726539e+03 1.779697e+10 1.845270e+12 1.203496e+10 1.344261e+08 4.612927e+07 1.456901e+08
<GCONST> 2.068708e+02
<STATE> 4
<NUMMIXES> 3
<MIXTURE> 1 1.834439e-01
<MEAN> 12
 2.396142e+01 1.173370e+03 5.021850e+02 4.340947e+02 1.828493e+02 4.428785e+02 6.181130e+05 6.436014e+06 1.985900e+06 1.808146e+04 -1.766345e+04 -9.742343e+04
<VARIANCE> 12
 7.226713e+04 6.262993e+04 1.933377e+05 5.168002e+04 1.999926e+04 4.973259e+04 3.929014e+11 7.874249e+12 6.115126e+12 1.136053e+10 1.183695e+10 3.256352e+10
<GCONST> 2.444181e+02
<MIXTURE> 2 4.516981e-01
<MEAN> 12
 7.627050e+01 9.816635e+02 3.316015e+02 5.330980e+01 2.188373e+01 3.548087e+01 4.561652e+04 4.341394e+06 5.208111e+05 1.619669e+02 -2.262118e+02 -9.118890e+02
<VARIANCE> 12
 6.047252e+03 2.002109e+03 1.788659e+04 1.527224e+03 3.599188e+02 8.245662e+02 1.543536e+09 1.592717e+11 8.018878e+10 3.030412e+06 1.702168e+06 7.276790e+06
<GCONST> 1.852183e+02
<MIXTURE> 3 3.648649e-01
<MEAN> 12
 6.298855e+01 1.007435e+03 4.754066e+02 1.603291e+02 9.104963e+01 1.343313e+02 9.809770e+04 4.653927e+06 1.447194e+06 -5.583865e+02 1.798187e+03 -5.499956e+03
<VARIANCE> 12
 1.740116e+04 2.271423e+04 6.593567e+04 5.634838e+03 2.649574e+03 9.281226e+03 7.878900e+09 1.904576e+12 1.126503e+12 1.170089e+08 1.509964e+08 3.834046e+08
<GCONST> 2.145886e+02
<STATE> 5
<NUMMIXES> 3
<MIXTURE> 1 3.188201e-01
<MEAN> 12
 6.654088e+01 1.417036e+03 -2.318367e+00 3.029234e+02 1.290339e+02 1.415886e+02 4.880487e+05 9.198878e+06 1.078148e+05 2.659757e+03 -5.275597e+03 2.185745e+04
<VARIANCE> 12
 1.105452e+05 4.656844e+04 2.159335e+04 4.783557e+04 7.918590e+03 4.335305e+03 4.466753e+11 7.950593e+12 2.367285e+10 3.622596e+09 5.535242e+08 1.602591e+09
<GCONST> 2.262777e+02
<MIXTURE> 2 2.459010e-01
<MEAN> 12
 -1.727098e+00 8.958964e+02 3.129776e+02 6.250598e+01 3.694911e+01 3.801327e+01 1.169402e+05 3.724358e+06 7.383194e+05 3.564987e+02 -7.980420e+02 2.270651e+02
<VARIANCE> 12
 3.287060e+04 1.930375e+05 1.217196e+05 1.225286e+03 3.704848e+02 7.181089e+02 3.604683e+10 2.467568e+12 2.273290e+12 2.060750e+06 1.101355e+06 4.657362e+06
<GCONST> 2.010365e+02
<MIXTURE> 3 4.352782e-01
<MEAN> 12
 -1.233267e+02 1.046054e+03 -2.901620e+01 1.153875e+02 1.195946e+02 6.949123e+01 1.720009e+05 5.165857e+06 2.701952e+05 -1.369624e+03 3.438965e+03 -4.888813e+02
<VARIANCE> 12
 3.528263e+04 7.711380e+04 1.291330e+05 3.501230e+03 4.296482e+03 2.146750e+03 8.592679e+10 4.535358e+12 5.622323e+11 1.886938e+08 9.755054e+07 6.053762e+07
<GCONST> 2.164906e+02
<STATE> 6
<NUMMIXES> 3
<MIXTURE> 1 2.680297e-01
<MEAN> 12
 1.286062e+02 8.342404e+02 6.956076e+02 6.189417e+02 3.332034e+02 7.188231e+02 1.514486e+06 3.311750e+06 3.242221e+06 3.198776e+04 6.277749e+04 -7.421261e+04
<VARIANCE> 12
 9.628961e+04 7.040023e+04 2.969417e+05 9.538762e+04 5.623264e+04 1.248231e+05 6.116187e+11 5.613817e+12 1.018626e+13 3.518286e+10 1.033171e+11 1.094995e+11
<GCONST> 2.529423e+02
<MIXTURE> 2 3.380085e-01
<MEAN> 12
 1.055995e+02 9.210178e+02 4.140806e+02 2.323190e+02 1.250697e+02 2.950944e+02 3.029677e+05 4.020460e+06 1.310570e+06 -4.538324e+03 1.372371e+04 3.217802e+04
<VARIANCE> 12
 4.611200e+04 5.456251e+04 1.378584e+05 1.806954e+04 8.403041e+03 2.626965e+04 6.824585e+10 4.783124e+12 1.140527e+12 1.177126e+09 1.352344e+09 3.228580e+09
<GCONST> 2.302607e+02
<MIXTURE> 3 3.939734e-01
<MEAN> 12
 3.015860e+01 9.889418e+02 2.023405e+02 1.155351e+02 4.155105e+01 5.059167e+01 1.105124e+05 4.417488e+06 3.962356e+05 1.205860e+03 -4.538005e+02 -4.565966e+03
<VARIANCE> 12
 1.469792e+04 3.445938e+03 2.868734e+04 4.232088e+03 1.007350e+03 1.868683e+03 7.166416e+09 2.877467e+11 7.519732e+10 2.414865e+07 9.543470e+06 4.362620e+07
<GCONST> 1.976413e+02
<TRANSP> 7
 0.000000e+00 6.905077e-01 3.094923e-01 0.000000e+00 0.000000e+00 0.000000e+00 0.000000e+00
 0.000000e+00 6.434878e-01 1.989206e-01 1.575917e-01 0.000000e+00 0.000000e+00 0.000000e+00
 0.000000e+00 0.000000e+00 8.443480e-01 1.556518e-01 1.789198e-07 0.000000e+00 0.000000e+00
 0.000000e+00 0.000000e+00 0.000000e+00 8.867234e-01 1.035536e-01 9.722969e-03 0.000000e+00
 0.000000e+00 0.000000e+00 0.000000e+00 0.000000e+00 6.153169e-01 2.594086e-01 1.252744e-01
 0.000000e+00 0.000000e+00 0.000000e+00 0.000000e+00 0.000000e+00 7.067890e-01 2.932110e-01
 0.000000e+00 0.000000e+00 0.000000e+00 0.000000e+00 0.000000e+00 0.000000e+00 0.000000e+00
<ENDHMM>
~h "Activity104"
<BEGINHMM>
<NUMSTATES> 7
<STATE> 2
<NUMMIXES> 3
<MIXTURE> 1 7.726743e-01
<MEAN> 12
 9.080635e+01 1.786634e+02 1.016022e+03 1.013218e+01 9.186728e+00 1.006538e+01 4.266440e+04 1.527060e+05 4.645852e+06 3.560590e+00 -7.169405e+00 1.383668e+01
<VARIANCE> 12
 6.910225e+04 2.442127e+04 3.857730e+03 6.268917e+01 3.008570e+01 4.658021e+01 2.161654e+11 4.337745e+09 2.738613e+11 1.750736e+04 1.193745e+04 2.206744e+04
<GCONST> 1.667278e+02
<MIXTURE> 2 8.971326e-03
<MEAN> 12
 1.161667e+00 5.231586e+02 8.987901e+02 1.291418e+01 1.070925e+01 1.192223e+01 2.591078e+03 1.233611e+06 3.636697e+06 1.314089e+01 -1.550216e+01 2.241274e+01
<VARIANCE> 12
 5.504062e+02 4.335500e+02 3.091521e+02 3.585999e+01 2.205857e+01 1.401802e+02 3.354624e+06 1.029292e+10 1.942297e+10 1.303814e+04 4.859795e+03 3.668156e+04
<GCONST> 1.420320e+02
<MIXTURE> 3 2.183550e-01
<MEAN> 12
 2.807687e+02 3.027744e+02 9.067138e+02 7.542010e+01 6.955254e+01 8.709336e+01 3.957869e+05 5.035117e+05 3.776219e+06 1.596388e+03 6.388794e+03 5.386490e+03
<VARIANCE> 12
 1.859545e+05 2.194110e+05 6.192536e+04 9.196179e+03 2.345672e+03 7.117487e+03 9.828166e+11 1.777795e+12 2.038098e+12 2.446443e+08 1.781850e+08 9.919684e+08
<GCONST> 2.264693e+02
<STATE> 3
<NUMMIXES> 3
<MIXTURE> 1 4.260957e-01
<MEAN> 12
 1.368082e+02 3.654998e+02 9.598544e+02 8.973258e+00 8.000377e+00 9.552220e+00 1.023811e+05 6.021539e+05 4.146466e+06 -5.971843e+00 3.976558e+00 -8.340354e-01
<VARIANCE> 12
 4.029004e+03 2.209778e+02 1.153681e+02 2.237753e+01 1.730372e+01 2.440728e+01 5.002541e+09 2.363885e+09 8.620613e+09 3.448823e+03 4.006959e+03 4.819553e+03
<GCONST> 1.413721e+02
<MIXTURE> 2 3.238794e-01
<MEAN> 12
 6.178801e+01 4.210650e+02 9.486024e+02 8.917425e+00 8.117861e+00 9.886236e+00 2.209267e+04 8.009438e+05 4.050066e+06 -6.342600e+00 5.133192e-02 -2.866767e+00
<VARIANCE> 12
 1.086640e+03 6.901734e+02 1.652551e+02 2.431943e+01 1.896039e+01 2.573629e+01 3.383980e+08 1.041543e+10 1.197648e+10 3.950952e+03 4.676838e+03 5.814250e+03
<GCONST> 1.413840e+02
<MIXTURE> 3 2.499971e-01
<MEAN> 12
 2.628691e+02 2.502760e+02 9.681011e+02 1.931608e+01 1.006144e+01 1.663963e+01 3.182514e+05 2.841174e+05 4.218871e+06 -4.767222e+01 4.308620e+01 -1.033571e+02
<VARIANCE> 12
 6.584810e+03 2.716460e+03 3.110476e+02 1.193319e+02 4.736161e+01 5.570544e+01 9.529417e+09 2.616341e+10 2.322163e+10 7.212405e+04 3.166737e+04 7.256514e+04
<GCONST> 1.607289e+02
<STATE> 4
<NUMMIXES> 3
<MIXTURE> 1 7.491827e-01
<MEAN> 12
 8.736545e+01 1.662790e+02 1.012993e+03 9.562394e+00 8.270220e+00 1.045424e+01 3.943711e+04 1.345362e+05 4.618204e+06 5.099861e+00 -6.937490e-01 -1.313623e+01
<VARIANCE> 12
 1.881066e+03 2.034806e+03 7.811245e+01 3.869156e+01 2.118088e+01 3.503040e+01 8.501885e+08 3.119977e+09 6.522464e+09 6.837607e+03 6.333761e+03 1.072252e+04
<GCONST> 1.437199e+02
<MIXTURE> 2 5.702053e-02
<MEAN> 12
 2.793313e+02 3.782993e+02 9.780923e+02 1.283167e+02 1.132719e+02 1.346474e+02 3.991577e+05 6.907606e+05 4.358288e+06 1.232315e+04 1.411244e+04 1.056752e+04
<VARIANCE> 12
 7.336577e+04 2.533176e+05 1.662182e+05 2.818119e+04 1.138971e+04 4.932610e+04 4.742229e+11 5.449078e+12 4.917575e+12 4.464036e+09 7.828270e+09 6.464907e+09
<GCONST> 2.411395e+02
<MIXTURE> 3 1.937995e-01
<MEAN> 12
 1.085002e+02 3.057949e+02 9.731213e+02 3.845687e+01 2.821028e+01 3.382867e+01 9.223459e+04 5.560828e+05 4.287046e+06 2.601947e+02 3.164386e+02 6.526525e+01
<VARIANCE> 12
 4.965098e+04 8.533484e+04 8.394417e+03 8.231856e+02 3.328399e+02 5.139495e+02 1.162480e+11 4.128326e+11 5.399241e+11 1.566408e+06 1.059460e+06 2.304655e+06
<GCONST> 1.940479e+02
<STATE> 5
<NUMMIXES> 3
<MIXTURE> 1 8.860621e-01
<MEAN> 12
 2.089140e+02 2.306310e+02 9.838320e+02 9.754858e+00 8.262167e+00 9.605372e+00 2.093440e+05 2.447353e+05 4.356796e+06 -1.374269e+01 -9.378152e-01 4.813754e+00
<VARIANCE> 12
 5.188594e+03 3.810429e+03 3.294881e+02 3.424934e+01 2.216138e+01 3.120971e+01 9.626470e+09 2.526364e+10 2.585582e+10 6.669089e+03 6.894492e+03 9.749379e+03
<GCONST> 1.524694e+02
<MIXTURE> 2 9.393552e-03
<MEAN> 12
 3.102655e+01 4.570432e+02 9.282682e+02 1.069756e+01 8.815068e+00 1.086776e+01 9.663609e+03 9.431837e+05 3.878135e+06 -3.566168e+00 1.863177e+01 1.078863e+01
<VARIANCE> 12
 1.163902e+03 7.108863e+02 1.098860e+02 3.958756e+01 2.001256e+01 4.582516e+01 1.865196e+08 1.192665e+10 7.639618e+09 6.001261e+03 6.557263e+03 1.006383e+04
<GCONST> 1.425872e+02
<MIXTURE> 3 1.045442e-01
<MEAN> 12
 -5.091553e+00 6.195663e+02 8.230704e+02 3.085328e+01 2.908579e+01 5.169757e+01 1.427191e+04 1.727565e+06 3.053652e+06 1.838475e+02 -1.024149e+03 7.298179e+02
<VARIANCE> 12
 3.378982e+05 7.235303e+04 5.933691e+04 1.059077e+04 2.229802e+03 5.673734e+03 1.995082e+12 2.584022e+11 2.290245e+12 2.701380e+08 2.183203e+08 1.924786e+09
<GCONST> 2.256395e+02
<STATE> 6
<NUMMIXES> 3
<MIXTURE> 1 6.304044e-01
<MEAN> 12
 1.611735e+02 2.176204e+02 9.963992e+02 2.442038e+01 1.396371e+01 1.198457e+01 1.432559e+05 2.189919e+05 4.469980e+06 1.452192e+02 3.439523e+01 7.051698e+01
<VARIANCE> 12
 7.799565e+03 8.632036e+03 6.745965e+02 1.970811e+02 8.002595e+01 1.411928e+02 1.423658e+10 4.778813e+10 5.320773e+10 1.202521e+05 1.297191e+05 1.994773e+05
<GCONST> 1.695503e+02
<MIXTURE> 2 2.240925e-01
<MEAN> 12
 1.439955e+02 7.589556e+02 6.930115e+02 7.493815e+01 3.087055e+01 3.383264e+01 1.714192e+05 2.622924e+06 2.176118e+06 1.052103e+03 -1.190026e+03 -1.946913e+03
<VARIANCE> 12
 1.648178e+04 7.063980e+03 4.935488e+04 3.519463e+03 1.252864e+03 4.741283e+03 1.903811e+10 5.960512e+11 3.137058e+11 2.265444e+07 1.576132e+08 1.313864e+08
<GCONST> 2.069576e+02
<MIXTURE> 3 1.455172e-01
<MEAN> 12
 3.600681e+02 2.797526e+02 9.276557e+02 1.702151e+01 1.041177e+01 2.165772e+01 5.868829e+05 3.526962e+05 3.873444e+06 1.701795e+01 1.036339e+02 -5.337663e+01
<VARIANCE> 12
 1.075221e+05 7.956792e+04 1.359260e+03 1.011615e+02 3.350166e+01 5.602599e+01 1.341655e+11 1.753561e+11 8.789770e+10 2.551321e+04 1.539537e+04 4.953553e+04
<GCONST> 1.716042e+02
<TRANSP> 7
 0.000000e+00 6.498563e-01 3.501436e-01 0.000000e+00 0.000000e+00 0.000000e+00 0.000000e+00
 0.000000e+00 3.182724e-01 4.278624e-02 6.389413e-01 0.000000e+00 0.000000e+00 0.000000e+00
 0.000000e+00 0.000000e+00 6.441216e-01 9.115729e-02 2.647210e-01 0.000000e+00 0.000000e+00
 0.000000e+00 0.000000e+00 0.000000e+00 9.272215e-01 4.223221e-02 3.054628e-02 0.000000e+00
 0.000000e+00 0.000000e+00 0.000000e+00 0.000000e+00 8.671447e-01 2.848032e-02 1.043750e-01
 0.000000e+00 0.000000e+00 0.000000e+00 0.000000e+00 0.000000e+00 8.463444e-01 1.536556e-01
 0.000000e+00 0.000000e+00 0.000000e+00 0.000000e+00 0.000000e+00 0.000000e+00 0.000000e+00
<ENDHMM>
~h "Activity105"
<BEGINHMM>
<NUMSTATES> 7
<STATE> 2
<NUMMIXES> 2
<MIXTURE> 2 1.000000e+00
<MEAN> 12
 -7.572286e+02 -3.006283e+01 6.784869e+02 9.562247e+00 9.306334e+00 1.017770e+01 2.581342e+06 4.697550e+03 2.072081e+06 -1.174521e+01 -2.660587e+00 -5.678010e+00
<VARIANCE> 12
 2.277134e+02 1.301277e+02 1.151178e+02 3.970824e+01 3.000130e+01 3.301316e+01 1.138373e+10 8.964069e+06 4.240276e+09 1.176957e+04 1.009245e+04 7.488078e+03
<GCONST> 1.365228e+02
<STATE> 3
<NUMMIXES> 2
<MIXTURE> 1 1.998670e-01
<MEAN> 12
 -8.042825e+02 1.733871e+02 5.646657e+02 4.942238e+01 2.191860e+01 3.358552e+01 2.976956e+06 2.587342e+05 1.493799e+06 4.176006e+02 1.918713e+02 -1.252930e+01
<VARIANCE> 12
 1.430416e+04 2.733341e+04 1.293680e+04 2.836952e+03 2.976414e+02 8.773911e+02 7.159729e+11 5.535276e+10 3.574061e+11 2.765848e+06 1.191656e+06 8.600850e+06
<GCONST> 1.951570e+02
<MIXTURE> 2 8.001351e-01
<MEAN> 12
 9.980707e+02 -7.631217e+00 -4.590282e+01 1.156269e+02 6.500604e+01 1.060143e+02 4.680205e+06 1.016377e+05 3.509832e+05 -1.784588e+02 6.320420e+03 7.082024e+03
<VARIANCE> 12
 5.316495e+05 2.186533e+04 1.160076e+05 2.523756e+04 3.361876e+03 1.381743e+04 2.760464e+12 4.947936e+10 1.139719e+12 6.515247e+08 2.688542e+08 1.645897e+09
<GCONST> 2.266415e+02
<STATE> 4
<NUMMIXES> 2
<MIXTURE> 2 1.000000e+00
<MEAN> 12
 -8.314839e+02 3.227263e+02 5.013511e+02 8.705733e+00 8.116876e+00 1.021373e+01 3.113005e+06 4.789978e+05 1.146148e+06 -3.087740e+00 -6.627017e+00 -1.145543e+01
<VARIANCE> 12
 4.104977e+02 2.291137e+03 3.344079e+03 2.588817e+01 1.962173e+01 2.822730e+01 2.319189e+10 1.988265e+10 5.787423e+10 4.199382e+03 6.067079e+03 8.774729e+03
<GCONST> 1.519890e+02
<STATE> 5
<NUMMIXES> 2
<MIXTURE> 2 1.000000e+00
<MEAN> 12
 9.864901e+02 8.057510e+01 -5.390050e+01 1.787413e+01 1.234758e+01 1.635256e+01 4.386252e+06 8.717435e+04 1.600555e+05 6.664838e+01 6.068058e+00 -1.436497e+01
<VARIANCE> 12
 7.442209e+05 3.125503e+04 1.316437e+05 1.230298e+03 2.079889e+02 3.689304e+02 1.050225e+12 5.278045e+10 8.584810e+11 1.132568e+06 5.611621e+05 2.438463e+06
<GCONST> 1.978080e+02
<STATE> 6
<NUMMIXES> 2
<MIXTURE> 2 1.000000e+00
<MEAN> 12
 1.005490e+03 7.389404e+01 -2.734872e+00 6.519938e+01 3.570477e+01 5.872891e+01 4.562027e+06 3.510171e+04 2.166199e+04 1.683141e+03 1.339022e+03 2.275259e+03
<VARIANCE> 12
 5.090562e+04 3.198645e+04 5.967579e+04 4.241556e+03 2.898746e+03 3.871306e+03 7.852628e+11 2.879282e+11 3.850471e+11 9.923318e+08 7.962019e+08 4.789987e+08
<GCONST> 2.204981e+02
<TRANSP> 7
 0.000000e+00 0.000000e+00 1.000000e+00 0.000000e+00 0.000000e+00 0.000000e+00 0.000000e+00
 0.000000e+00 9.424084e-01 5.759162e-02 4.338880e-13 0.000000e+00 0.000000e+00 0.000000e+00
 0.000000e+00 0.000000e+00 6.205855e-01 0.000000e+00 3.794145e-01 0.000000e+00 0.000000e+00
 0.000000e+00 0.000000e+00 0.000000e+00 9.368120e-01 6.318799e-02 0.000000e+00 0.000000e+00
 0.000000e+00 0.000000e+00 0.000000e+00 0.000000e+00 9.394962e-01 6.050401e-03 5.445337e-02
 0.000000e+00 0.000000e+00 0.000000e+00 0.000000e+00 0.000000e+00 8.804483e-01 1.195517e-01
 0.000000e+00 0.000000e+00 0.000000e+00 0.000000e+00 0.000000e+00 0.000000e+00 0.000000e+00
<ENDHMM>
