~o
<STREAMINFO> 1 12
<VECSIZE> 12<NULLD><MFCC><DIAGC>
~h "Activity101"
<BEGINHMM>
<NUMSTATES> 7
<STATE> 2
<NUMMIXES> 3
<MIXTURE> 1 3.243808e-01
<MEAN> 12
 4.001968e+01 1.065569e+03 3.081990e+02 5.193185e+01 3.344675e+01 2.152599e+01 4.798676e+03 5.110352e+06 4.278700e+05 -1.310515e+03 -3.739671e+02 -1.901868e+02
<VARIANCE> 12
 5.868267e+03 3.189054e+02 1.511244e+04 6.719849e+02 1.624268e+02 5.975403e+02 9.424158e+08 2.789306e+10 9.779446e+09 6.864042e+05 7.543067e+05 2.737645e+06
<GCONST> 1.736278e+02
<MIXTURE> 2 4.888994e-01
<MEAN> 12
 2.463262e+01 9.275042e+02 4.884488e+02 1.024381e+02 4.703340e+01 5.308178e+01 8.179777e+04 3.911947e+06 1.156469e+06 -8.140046e+02 1.636490e+03 5.966553e+00
<VARIANCE> 12
 1.952425e+04 1.203819e+04 5.152287e+04 4.192649e+03 1.261838e+03 2.688612e+03 1.515964e+10 8.282564e+11 5.328946e+11 2.737806e+07 1.991950e+07 6.294589e+07
<GCONST> 2.053341e+02
<MIXTURE> 3 1.866944e-01
<MEAN> 12
 -5.781789e+01 7.643830e+02 7.670620e+02 1.712678e+02 1.992129e+02 2.038985e+02 1.405389e+05 2.722534e+06 2.813693e+06 1.114303e+04 1.750881e+04 -1.829333e+04
<VARIANCE> 12
 5.065953e+04 6.106559e+04 1.300049e+05 3.328099e+04 1.639508e+04 4.115678e+04 1.681551e+11 3.873279e+12 2.662849e+12 3.328968e+09 4.593789e+09 9.642698e+09
<GCONST> 2.370321e+02
<STATE> 3
<NUMMIXES> 3
<MIXTURE> 1 3.156017e-01
<MEAN> 12
 -2.941463e+01 1.038846e+03 -2.243485e+01 1.311802e+01 9.262313e+00 1.410587e+01 2.084154e+04 4.856632e+06 2.409486e+04 4.103098e+00 2.055196e+01 7.478121e+00
<VARIANCE> 12
 3.744801e+03 5.081982e+01 4.828804e+03 7.281535e+01 2.659969e+01 7.103973e+01 4.381636e+08 4.449260e+09 6.312227e+08 1.319205e+04 1.528719e+04 3.755577e+04
<GCONST> 1.465583e+02
<MIXTURE> 2 3.842545e-01
<MEAN> 12
 -1.567719e+00 1.008766e+03 2.738721e+02 1.704621e+01 9.376822e+00 1.184634e+01 4.572795e+04 4.579875e+06 3.548831e+05 -1.477793e+01 -3.374732e+01 -2.078380e+01
<VARIANCE> 12
 1.027062e+04 1.633126e+02 1.590978e+04 6.191371e+01 2.866361e+01 5.356460e+01 2.860514e+09 1.357962e+10 1.885809e+10 1.303878e+04 1.258109e+04 2.392930e+04
<GCONST> 1.552890e+02
<MIXTURE> 3 3.001135e-01
<MEAN> 12
 7.382350e+01 9.776414e+02 3.675453e+02 3.571075e+01 1.747282e+01 2.635274e+01 7.438152e+04 4.304703e+06 6.305033e+05 -8.836339e+01 -1.683985e+02 1.550505e+02
<VARIANCE> 12
 1.455555e+04 1.055345e+03 1.888574e+04 4.240927e+02 9.249535e+01 2.566466e+02 7.806624e+09 8.211206e+10 8.734471e+10 3.104759e+05 1.985263e+05 8.418612e+05
<GCONST> 1.761635e+02
<STATE> 4
<NUMMIXES> 3
<MIXTURE> 1 6.334769e-01
<MEAN> 12
 3.473940e+00 9.068493e+02 5.212303e+02 2.234329e+01 1.329092e+01 1.202491e+01 1.535250e+04 3.708751e+06 1.240250e+06 5.560779e+01 -4.830580e+00 -8.469524e+01
<VARIANCE> 12
 1.027219e+04 1.830779e+03 4.977073e+03 2.041172e+02 5.421906e+01 1.037245e+02 4.435525e+09 1.141320e+11 1.184447e+11 6.274198e+04 3.598316e+04 1.157187e+05
<GCONST> 1.676380e+02
<MIXTURE> 2 2.944049e-02
<MEAN> 12
 4.003997e+01 7.205886e+02 7.996201e+02 2.602245e+02 3.262107e+02 1.401737e+02 2.666102e+05 2.480981e+06 2.933809e+06 7.735682e+04 4.257955e+04 9.914920e+03
<VARIANCE> 12
 9.661291e+04 2.038666e+05 1.517379e+05 7.216812e+04 5.912628e+04 2.299385e+05 1.358923e+12 6.944328e+12 5.308130e+12 1.845942e+10 2.000097e+11 6.894862e+10
<GCONST> 2.536319e+02
<MIXTURE> 3 3.370914e-01
<MEAN> 12
 8.312229e+01 7.146992e+02 7.536983e+02 4.647434e+01 3.053763e+01 3.679286e+01 7.292529e+04 2.406089e+06 2.660147e+06 -7.098452e+01 -3.225746e+02 2.007436e+01
<VARIANCE> 12
 1.572427e+04 6.887129e+04 4.224521e+04 1.072426e+03 4.148368e+02 5.690663e+02 2.069571e+10 1.622563e+12 1.734633e+12 2.635700e+06 1.684913e+06 3.750418e+06
<GCONST> 1.971676e+02
<STATE> 5
<NUMMIXES> 3
<MIXTURE> 1 3.925622e-01
<MEAN> 12
 2.699286e+00 1.004618e+03 3.038656e+02 3.429790e+01 2.064468e+01 2.378191e+01 2.967355e+04 4.544213e+06 4.315291e+05 -1.165076e+01 -2.453493e+02 -6.736981e+01
<VARIANCE> 12
 9.455931e+03 4.757522e+02 1.659070e+04 4.498409e+02 9.523904e+01 2.823430e+02 2.361851e+09 4.009803e+10 3.383117e+10 2.637105e+05 1.894097e+05 8.270552e+05
<GCONST> 1.719007e+02
<MIXTURE> 2 1.856529e-01
<MEAN> 12
 -5.624708e+01 8.712071e+02 5.702181e+02 1.860576e+02 1.310210e+02 1.655955e+02 2.407216e+05 3.514553e+06 1.872954e+06 4.410135e+03 9.477660e+03 -7.984799e+03
<VARIANCE> 12
 4.372318e+04 4.528771e+04 8.116663e+04 1.802071e+04 1.185312e+04 2.738447e+04 1.206038e+11 2.414500e+12 1.832958e+12 1.412005e+09 2.981023e+09 3.015795e+09
<GCONST> 2.311388e+02
<MIXTURE> 3 4.218220e-01
<MEAN> 12
 -3.251327e+00 9.348107e+02 4.419966e+02 9.033694e+01 4.496414e+01 6.111440e+01 8.005474e+04 3.955074e+06 9.376069e+05 -5.231579e+02 -1.624186e+02 -2.242071e+03
<VARIANCE> 12
 1.856466e+04 5.156520e+03 2.530019e+04 2.463578e+03 6.987186e+02 1.651687e+03 1.321276e+10 3.752930e+11 2.525240e+11 1.100364e+07 7.904518e+06 2.922125e+07
<GCONST> 1.978356e+02
<STATE> 6
<NUMMIXES> 3
<MIXTURE> 1 5.624658e-01
<MEAN> 12
 1.038911e+01 9.710802e+02 3.900200e+02 1.987025e+01 1.113303e+01 1.437662e+01 5.265316e+04 4.246242e+06 6.982096e+05 -3.153077e+01 -3.794932e+01 -6.817046e+01
<VARIANCE> 12
 6.430111e+03 4.182974e+02 2.587383e+03 1.122653e+02 3.097768e+01 6.851430e+01 1.386171e+09 3.214211e+10 3.018748e+10 2.069631e+04 1.656401e+04 4.641145e+04
<GCONST> 1.568710e+02
<MIXTURE> 2 8.465799e-02
<MEAN> 12
 1.939404e+00 9.291033e+02 4.909097e+02 1.710123e+01 1.239698e+01 1.267250e+01 7.700883e+03 3.886008e+06 1.088491e+06 5.998158e+00 -7.036495e+00 -2.245586e+01
<VARIANCE> 12
 9.918691e+02 2.337872e+02 1.034500e+03 5.637982e+01 2.228210e+01 4.593232e+01 2.743397e+07 1.648141e+10 1.913454e+10 7.997412e+03 7.574758e+03 1.535853e+04
<GCONST> 1.441997e+02
<MIXTURE> 3 3.528698e-01
<MEAN> 12
 3.674965e-01 9.390762e+02 4.516375e+02 4.107553e+01 2.305509e+01 2.536043e+01 5.855641e+04 3.976704e+06 9.407230e+05 2.624338e+01 -1.421066e+02 -3.687584e+02
<VARIANCE> 12
 1.226581e+04 3.450106e+03 9.966008e+03 5.441469e+02 1.687024e+02 2.861099e+02 7.140264e+09 2.182416e+11 2.083779e+11 5.898820e+05 3.701018e+05 1.260422e+06
<GCONST> 1.809226e+02
<TRANSP> 7
 0.000000e+00 3.726306e-01 6.273694e-01 0.000000e+00 0.000000e+00 0.000000e+00 0.000000e+00
 0.000000e+00 7.373934e-01 7.460718e-02 1.879994e-01 0.000000e+00 0.000000e+00 0.000000e+00
 0.000000e+00 0.000000e+00 8.662792e-01 5.553923e-02 7.818156e-02 0.000000e+00 0.000000e+00
 0.000000e+00 0.000000e+00 0.000000e+00 8.856964e-01 8.702050e-02 2.728318e-02 0.000000e+00
 0.000000e+00 0.000000e+00 0.000000e+00 0.000000e+00 7.511929e-01 1.154652e-01 1.333419e-01
 0.000000e+00 0.000000e+00 0.000000e+00 0.000000e+00 0.000000e+00 8.839452e-01 1.160548e-01
 0.000000e+00 0.000000e+00 0.000000e+00 0.000000e+00 0.000000e+00 0.000000e+00 0.000000e+00
<ENDHMM>
~h "Activity102"
<BEGINHMM>
<NUMSTATES> 7
<STATE> 2
<NUMMIXES> 3
<MIXTURE> 1 1.987569e-01
<MEAN> 12
 1.774367e+02 1.040820e+03 4.566029e+02 1.988809e+02 1.074633e+02 1.435039e+02 3.693291e+05 4.902246e+06 1.053470e+06 -1.476001e+04 9.227890e+03 -7.157647e+03
<VARIANCE> 12
 5.716906e+04 1.267550e+04 4.532901e+04 1.786010e+04 6.256873e+03 1.674398e+04 1.199608e+11 1.120933e+12 4.045080e+11 8.119216e+08 7.305370e+08 2.355343e+09
<GCONST> 2.239207e+02
<MIXTURE> 2 2.818541e-01
<MEAN> 12
 1.305627e+02 1.008181e+03 2.016552e+02 7.414751e+01 1.075559e+01 2.287545e+01 8.125878e+04 4.573804e+06 1.835300e+05 5.495861e+02 -1.777782e+02 -1.682613e+03
<VARIANCE> 12
 7.862410e+03 2.418280e+02 1.236621e+04 4.229770e+02 9.865747e+01 3.311726e+02 1.550123e+09 2.102441e+10 4.432018e+09 1.975428e+05 1.962653e+05 7.016946e+05
<GCONST> 1.673618e+02
<MIXTURE> 3 5.193946e-01
<MEAN> 12
 1.036149e+02 9.764661e+02 3.345049e+02 7.477885e+01 3.192567e+01 5.541353e+01 8.791306e+04 4.301107e+06 5.437889e+05 -2.270798e+01 -7.427128e+02 -1.202887e+03
<VARIANCE> 12
 1.767861e+04 4.072553e+03 2.868057e+04 2.479360e+03 5.273185e+02 1.651410e+03 9.859724e+09 3.292869e+11 9.366834e+10 7.615678e+06 5.164564e+06 2.787579e+07
<GCONST> 1.951449e+02
<STATE> 3
<NUMMIXES> 3
<MIXTURE> 1 2.163501e-01
<MEAN> 12
 8.780545e+01 9.562252e+02 5.913116e+02 6.578225e+02 3.890681e+02 7.626469e+02 1.071801e+06 4.361196e+06 3.107496e+06 8.760647e+04 6.024070e+04 -1.108884e+05
<VARIANCE> 12
 1.114351e+05 9.087102e+04 3.025930e+05 1.318346e+05 6.361017e+04 1.431708e+05 1.235275e+12 1.006118e+13 9.342601e+12 7.248938e+10 1.354922e+11 1.691730e+11
<GCONST> 2.565754e+02
<MIXTURE> 2 3.834636e-01
<MEAN> 12
 2.647796e+01 1.074792e+03 4.931177e+02 2.526176e+02 1.604539e+02 2.737690e+02 2.897821e+05 5.598581e+06 1.965466e+06 3.688758e+03 3.173290e+03 -1.115280e+04
<VARIANCE> 12
 5.723528e+04 1.109755e+05 2.374810e+05 2.019577e+04 9.793447e+03 2.951426e+04 1.130108e+11 8.565636e+12 3.777271e+12 1.219517e+09 1.672652e+09 3.089075e+09
<GCONST> 2.345998e+02
<MIXTURE> 3 4.001747e-01
<MEAN> 12
 -5.257475e+01 1.010669e+03 1.915039e+01 1.385722e+02 1.049619e+02 6.858060e+01 1.885782e+05 4.762680e+06 2.235225e+05 -1.620552e+03 1.687255e+03 -3.677531e+03
<VARIANCE> 12
 2.625237e+04 2.112725e+04 1.928041e+04 7.814767e+03 2.260949e+03 2.726539e+03 1.779697e+10 1.845270e+12 1.203496e+10 1.344261e+08 4.612927e+07 1.456901e+08
<GCONST> 2.068708e+02
<STATE> 4
<NUMMIXES> 3
<MIXTURE> 1 1.834439e-01
<MEAN> 12
 4.035965e+01 1.176200e+03 5.417784e+02 4.276245e+02 1.843463e+02 4.509479e+02 5.862483e+05 6.467494e+06 2.216486e+06 1.977412e+04 -1.778423e+04 -9.618820e+04
<VARIANCE> 12
 7.226713e+04 6.262993e+04 1.933377e+05 5.168002e+04 1.999926e+04 4.973259e+04 3.929014e+11 7.874249e+12 6.115126e+12 1.136053e+10 1.183695e+10 3.256352e+10
<GCONST> 2.444181e+02
<MIXTURE> 2 4.516981e-01
<MEAN> 12
 7.682618e+01 9.821409e+02 3.280756e+02 5.541022e+01 2.272365e+01 3.608190e+01 4.658911e+04 4.345794e+06 5.118546e+05 7.479625e+01 -2.823926e+02 -7.838315e+02
<VARIANCE> 12
 6.047252e+03 2.002109e+03 1.788659e+04 1.527224e+03 3.599188e+02 8.245662e+02 1.543536e+09 1.592717e+11 8.018878e+10 3.030412e+06 1.702168e+06 7.276790e+06
<GCONST> 1.852183e+02
<MIXTURE> 3 3.648649e-01
<MEAN> 12
 5.481033e+01 1.013203e+03 4.535072e+02 1.546093e+02 8.900590e+01 1.304366e+02 1.030958e+05 4.719156e+06 1.338502e+06 -1.027393e+02 1.305455e+03 -4.683424e+03
<VARIANCE> 12
 1.740116e+04 2.271423e+04 6.593567e+04 5.634838e+03 2.649574e+03 9.281226e+03 7.878900e+09 1.904576e+12 1.126503e+12 1.170089e+08 1.509964e+08 3.834046e+08
<GCONST> 2.145886e+02
<STATE> 5
<NUMMIXES> 3
<MIXTURE> 1 3.188201e-01
<MEAN> 12
 3.503962e+01 1.425524e+03 -1.718634e+01 2.980764e+02 1.441080e+02 1.360141e+02 5.263743e+05 9.312286e+06 1.158698e+05 1.375253e+03 -4.163377e+03 2.194171e+04
<VARIANCE> 12
 1.105452e+05 4.656844e+04 2.159335e+04 4.783557e+04 7.918590e+03 4.335305e+03 4.466753e+11 7.950593e+12 2.367285e+10 3.622596e+09 5.535242e+08 1.602591e+09
<GCONST> 2.262777e+02
<MIXTURE> 2 2.459010e-01
<MEAN> 12
 -5.528263e+00 8.789957e+02 3.369488e+02 6.120462e+01 3.632888e+01 3.878936e+01 1.295932e+05 3.583952e+06 8.205048e+05 1.717532e+02 -8.152885e+02 1.003730e+02
<VARIANCE> 12
 3.287060e+04 1.930375e+05 1.217196e+05 1.225286e+03 3.704848e+02 7.181089e+02 3.604683e+10 2.467568e+12 2.273290e+12 2.060750e+06 1.101355e+06 4.657362e+06
<GCONST> 2.010365e+02
<MIXTURE> 3 4.352782e-01
<MEAN> 12
 -1.160378e+02 1.011938e+03 -1.239062e+01 1.144677e+02 1.217423e+02 7.062774e+01 1.743819e+05 4.848198e+06 3.541486e+05 -1.045694e+03 3.496767e+03 -3.970138e+02
<VARIANCE> 12
 3.528263e+04 7.711380e+04 1.291330e+05 3.501230e+03 4.296482e+03 2.146750e+03 8.592679e+10 4.535358e+12 5.622323e+11 1.886938e+08 9.755054e+07 6.053762e+07
<GCONST> 2.164906e+02
<STATE> 6
<NUMMIXES> 3
<MIXTURE> 1 2.680297e-01
<MEAN> 12
 1.313385e+02 8.330255e+02 7.091052e+02 5.923417e+02 3.223433e+02 7.125386e+02 1.445142e+06 3.298643e+06 3.287687e+06 2.995614e+04 5.567161e+04 -7.166276e+04
<VARIANCE> 12
 9.628961e+04 7.040023e+04 2.969417e+05 9.538762e+04 5.623264e+04 1.248231e+05 6.116187e+11 5.613817e+12 1.018626e+13 3.518286e+10 1.033171e+11 1.094995e+11
<GCONST> 2.529423e+02
<MIXTURE> 2 3.380085e-01
<MEAN> 12
 7.956710e+01 9.472432e+02 3.477438e+02 2.418853e+02 1.240959e+02 2.706330e+02 2.919810e+05 4.251936e+06 1.096046e+06 -4.500602e+03 1.371788e+04 2.868163e+04
<VARIANCE> 12
 4.611200e+04 5.456251e+04 1.378584e+05 1.806954e+04 8.403041e+03 2.626965e+04 6.824585e+10 4.783124e+12 1.140527e+12 1.177126e+09 1.352344e+09 3.228580e+09
<GCONST> 2.302607e+02
<MIXTURE> 3 3.939734e-01
<MEAN> 12
 3.894084e+01 9.942721e+02 2.044247e+02 1.133842e+02 4.035030e+01 5.071452e+01 1.023394e+05 4.464338e+06 4.027158e+05 1.279498e+03 -3.853550e+02 -4.160500e+03
<VARIANCE> 12
 1.469792e+04 3.445938e+03 2.868734e+04 4.232088e+03 1.007350e+03 1.868683e+03 7.166416e+09 2.877467e+11 7.519732e+10 2.414865e+07 9.543470e+06 4.362620e+07
<GCONST> 1.976413e+02
<TRANSP> 7
 0.000000e+00 6.504701e-01 3.495300e-01 0.000000e+00 0.000000e+00 0.000000e+00 0.000000e+00
 0.000000e+00 5.633345e-01 2.531192e-01 1.835462e-01 0.000000e+00 0.000000e+00 0.000000e+00
 0.000000e+00 0.000000e+00 8.395076e-01 1.604426e-01 4.980609e-05 0.000000e+00 0.000000e+00
 0.000000e+00 0.000000e+00 0.000000e+00 8.918924e-01 9.577114e-02 1.233651e-02 0.000000e+00
 0.000000e+00 0.000000e+00 0.000000e+00 0.000000e+00 5.929084e-01 2.794994e-01 1.275921e-01
 0.000000e+00 0.000000e+00 0.000000e+00 0.000000e+00 0.000000e+00 7.177280e-01 2.822721e-01
 0.000000e+00 0.000000e+00 0.000000e+00 0.000000e+00 0.000000e+00 0.000000e+00 0.000000e+00
<ENDHMM>
~h "Activity104"
<BEGINHMM>
<NUMSTATES> 7
<STATE> 2
<NUMMIXES> 3
<MIXTURE> 1 7.726743e-01
<MEAN> 12
 8.985950e+01 1.778751e+02 1.016636e+03 1.015670e+01 9.115042e+00 1.013370e+01 4.055356e+04 1.515246e+05 4.651292e+06 5.865990e+00 -8.869781e+00 1.458832e+01
<VARIANCE> 12
 6.910225e+04 2.442127e+04 3.857730e+03 6.268917e+01 3.008570e+01 4.658021e+01 2.161654e+11 4.337745e+09 2.738613e+11 1.750736e+04 1.193745e+04 2.206744e+04
<GCONST> 1.667278e+02
<MIXTURE> 2 8.971326e-03
<MEAN> 12
 1.161667e+00 5.231586e+02 8.987901e+02 1.291418e+01 1.070925e+01 1.192223e+01 2.591078e+03 1.233611e+06 3.636697e+06 1.314089e+01 -1.550216e+01 2.241274e+01
<VARIANCE> 12
 5.504062e+02 4.335500e+02 3.091521e+02 3.585999e+01 2.205857e+01 1.401802e+02 3.354624e+06 1.029292e+10 1.942297e+10 1.303814e+04 4.859795e+03 3.668156e+04
<GCONST> 1.420320e+02
<MIXTURE> 3 2.183550e-01
<MEAN> 12
 2.804704e+02 3.181944e+02 8.947745e+02 9.295334e+01 7.741512e+01 9.718856e+01 4.061443e+05 5.665450e+05 3.697210e+06 1.978166e+03 7.727460e+03 6.690107e+03
<VARIANCE> 12
 1.859545e+05 2.194110e+05 6.192536e+04 9.196179e+03 2.345672e+03 7.117487e+03 9.828166e+11 1.777795e+12 2.038098e+12 2.446443e+08 1.781850e+08 9.919684e+08
<GCONST> 2.264693e+02
<STATE> 3
<NUMMIXES> 3
<MIXTURE> 1 4.260957e-01
<MEAN> 12
 1.368082e+02 3.654998e+02 9.598544e+02 8.973258e+00 8.000377e+00 9.552220e+00 1.023811e+05 6.021539e+05 4.146466e+06 -5.971843e+00 3.976558e+00 -8.340354e-01
<VARIANCE> 12
 4.029004e+03 2.209778e+02 1.153681e+02 2.237753e+01 1.730372e+01 2.440728e+01 5.002541e+09 2.363885e+09 8.620613e+09 3.448823e+03 4.006959e+03 4.819553e+03
<GCONST> 1.413721e+02
<MIXTURE> 2 3.238794e-01
<MEAN> 12
 6.178801e+01 4.210650e+02 9.486024e+02 8.917425e+00 8.117861e+00 9.886236e+00 2.209267e+04 8.009438e+05 4.050066e+06 -6.342600e+00 5.133192e-02 -2.866767e+00
<VARIANCE> 12
 1.086640e+03 6.901734e+02 1.652551e+02 2.431943e+01 1.896039e+01 2.573629e+01 3.383980e+08 1.041543e+10 1.197648e+10 3.950952e+03 4.676838e+03 5.814250e+03
<GCONST> 1.413840e+02
<MIXTURE> 3 2.499971e-01
<MEAN> 12
 2.551699e+02 2.536628e+02 9.708783e+02 1.709217e+01 7.892565e+00 1.592353e+01 3.016245e+05 2.925344e+05 4.242718e+06 -2.474109e+01 1.468036e+01 -9.640963e+01
<VARIANCE> 12
 6.584810e+03 2.716460e+03 3.110476e+02 1.193319e+02 4.736161e+01 5.570544e+01 9.529417e+09 2.616341e+10 2.322163e+10 7.212405e+04 3.166737e+04 7.256514e+04
<GCONST> 1.607289e+02
<STATE> 4
<NUMMIXES> 3
<MIXTURE> 1 7.491827e-01
<MEAN> 12
 9.266580e+01 1.559572e+02 1.013979e+03 9.644774e+00 8.329028e+00 1.047483e+01 4.244796e+04 1.175465e+05 4.627203e+06 8.233721e+00 4.390686e+00 -1.527710e+01
<VARIANCE> 12
 1.881066e+03 2.034806e+03 7.811245e+01 3.869156e+01 2.118088e+01 3.503040e+01 8.501885e+08 3.119977e+09 6.522464e+09 6.837607e+03 6.333761e+03 1.072252e+04
<GCONST> 1.437199e+02
<MIXTURE> 2 5.702053e-02
<MEAN> 12
 2.470507e+02 4.877762e+02 8.887784e+02 1.351204e+02 9.038049e+01 1.103637e+02 3.239592e+05 1.195542e+06 3.653162e+06 9.224674e+03 7.543889e+03 4.214438e+03
<VARIANCE> 12
 7.336577e+04 2.533176e+05 1.662182e+05 2.818119e+04 1.138971e+04 4.932610e+04 4.742229e+11 5.449078e+12 4.917575e+12 4.464036e+09 7.828270e+09 6.464907e+09
<GCONST> 2.411395e+02
<MIXTURE> 3 1.937995e-01
<MEAN> 12
 1.388921e+02 3.485062e+02 9.376817e+02 3.807545e+01 2.700442e+01 3.210421e+01 1.417563e+05 7.498896e+05 4.017311e+06 1.670997e+02 2.992505e+02 1.175681e+01
<VARIANCE> 12
 4.965098e+04 8.533484e+04 8.394417e+03 8.231856e+02 3.328399e+02 5.139495e+02 1.162480e+11 4.128326e+11 5.399241e+11 1.566408e+06 1.059460e+06 2.304655e+06
<GCONST> 1.940479e+02
<STATE> 5
<NUMMIXES> 3
<MIXTURE> 1 8.860621e-01
<MEAN> 12
 1.854116e+02 2.309548e+02 9.872275e+02 9.810623e+00 8.236129e+00 9.625848e+00 1.816780e+05 2.445796e+05 4.387098e+06 -1.686005e+01 -7.366391e+00 1.365736e+00
<VARIANCE> 12
 5.188594e+03 3.810429e+03 3.294881e+02 3.424934e+01 2.216138e+01 3.120971e+01 9.626470e+09 2.526364e+10 2.585582e+10 6.669089e+03 6.894492e+03 9.749379e+03
<GCONST> 1.524694e+02
<MIXTURE> 2 9.393552e-03
<MEAN> 12
 3.102655e+01 4.570432e+02 9.282682e+02 1.069756e+01 8.815068e+00 1.086776e+01 9.663609e+03 9.431837e+05 3.878135e+06 -3.566168e+00 1.863177e+01 1.078863e+01
<VARIANCE> 12
 1.163902e+03 7.108863e+02 1.098860e+02 3.958756e+01 2.001256e+01 4.582516e+01 1.865196e+08 1.192665e+10 7.639618e+09 6.001261e+03 6.557263e+03 1.006383e+04
<GCONST> 1.425872e+02
<MIXTURE> 3 1.045442e-01
<MEAN> 12
 -1.780586e+01 6.203796e+02 8.275807e+02 2.679587e+01 2.657807e+01 4.982164e+01 2.633625e+03 1.731431e+06 3.085708e+06 -2.027727e+02 -7.538838e+02 1.258440e+03
<VARIANCE> 12
 3.378982e+05 7.235303e+04 5.933691e+04 1.059077e+04 2.229802e+03 5.673734e+03 1.995082e+12 2.584022e+11 2.290245e+12 2.701380e+08 2.183203e+08 1.924786e+09
<GCONST> 2.256395e+02
<STATE> 6
<NUMMIXES> 3
<MIXTURE> 1 6.304044e-01
<MEAN> 12
 1.705352e+02 2.210340e+02 9.938301e+02 2.392024e+01 1.378335e+01 1.254703e+01 1.603593e+05 2.259507e+05 4.447237e+06 1.404046e+02 4.104196e+01 8.108733e+01
<VARIANCE> 12
 7.799565e+03 8.632036e+03 6.745965e+02 1.970811e+02 8.002595e+01 1.411928e+02 1.423658e+10 4.778813e+10 5.320773e+10 1.202521e+05 1.297191e+05 1.994773e+05
<GCONST> 1.695503e+02
<MIXTURE> 2 2.240925e-01
<MEAN> 12
 9.106800e+01 8.263661e+02 6.712005e+02 6.719951e+01 2.944104e+01 2.748808e+01 1.035498e+05 3.081161e+06 2.036619e+06 1.229307e+03 -8.170719e+02 -1.343046e+03
<VARIANCE> 12
 1.648178e+04 7.063980e+03 4.935488e+04 3.519463e+03 1.252864e+03 4.741283e+03 1.903811e+10 5.960512e+11 3.137058e+11 2.265444e+07 1.576132e+08 1.313864e+08
<GCONST> 2.069576e+02
<MIXTURE> 3 1.455172e-01
<MEAN> 12
 3.591485e+02 2.787902e+02 9.276412e+02 1.658264e+01 1.037386e+01 2.121044e+01 5.838461e+05 3.503609e+05 3.873300e+06 4.925967e+00 9.629926e+01 -7.540145e+01
<VARIANCE> 12
 1.075221e+05 7.956792e+04 1.359260e+03 1.011615e+02 3.350166e+01 5.602599e+01 1.341655e+11 1.753561e+11 8.789770e+10 2.551321e+04 1.539537e+04 4.953553e+04
<GCONST> 1.716042e+02
<TRANSP> 7
 0.000000e+00 6.420033e-01 3.579967e-01 0.000000e+00 0.000000e+00 0.000000e+00 0.000000e+00
 0.000000e+00 2.372281e-01 2.994634e-05 7.627419e-01 0.000000e+00 0.000000e+00 0.000000e+00
 0.000000e+00 0.000000e+00 4.452878e-01 1.550395e-01 3.996727e-01 0.000000e+00 0.000000e+00
 0.000000e+00 0.000000e+00 0.000000e+00 9.218828e-01 5.134441e-02 2.677282e-02 0.000000e+00
 0.000000e+00 0.000000e+00 0.000000e+00 0.000000e+00 8.846299e-01 2.325064e-02 9.211941e-02
 0.000000e+00 0.000000e+00 0.000000e+00 0.000000e+00 0.000000e+00 8.413606e-01 1.586394e-01
 0.000000e+00 0.000000e+00 0.000000e+00 0.000000e+00 0.000000e+00 0.000000e+00 0.000000e+00
<ENDHMM>
~h "Activity105"
<BEGINHMM>
<NUMSTATES> 7
<STATE> 2
<NUMMIXES> 2
<MIXTURE> 2 1.000000e+00
<MEAN> 12
 -7.572286e+02 -3.006283e+01 6.784869e+02 9.562247e+00 9.306334e+00 1.017770e+01 2.581342e+06 4.697550e+03 2.072081e+06 -1.174521e+01 -2.660587e+00 -5.678010e+00
<VARIANCE> 12
 2.277134e+02 1.301277e+02 1.151178e+02 3.970824e+01 3.000130e+01 3.301316e+01 1.138373e+10 8.964069e+06 4.240276e+09 1.176957e+04 1.009245e+04 7.488078e+03
<GCONST> 1.365228e+02
<STATE> 3
<NUMMIXES> 2
<MIXTURE> 1 1.998670e-01
<MEAN> 12
 -8.042825e+02 1.733871e+02 5.646657e+02 4.942238e+01 2.191860e+01 3.358552e+01 2.976956e+06 2.587342e+05 1.493799e+06 4.176006e+02 1.918713e+02 -1.252930e+01
<VARIANCE> 12
 1.430416e+04 2.733341e+04 1.293680e+04 2.836952e+03 2.976414e+02 8.773911e+02 7.159729e+11 5.535276e+10 3.574061e+11 2.765848e+06 1.191656e+06 8.600850e+06
<GCONST> 1.951570e+02
<MIXTURE> 2 8.001351e-01
<MEAN> 12
 9.980007e+02 -7.992851e+00 -4.571887e+01 1.156076e+02 6.493725e+01 1.057432e+02 4.678918e+06 1.014897e+05 3.497679e+05 -1.625150e+02 6.302062e+03 7.062385e+03
<VARIANCE> 12
 5.316495e+05 2.186533e+04 1.160076e+05 2.523756e+04 3.361876e+03 1.381743e+04 2.760464e+12 4.947936e+10 1.139719e+12 6.515247e+08 2.688542e+08 1.645897e+09
<GCONST> 2.266415e+02
<STATE> 4
<NUMMIXES> 2
<MIXTURE> 2 1.000000e+00
<MEAN> 12
 -8.314839e+02 3.227263e+02 5.013511e+02 8.705733e+00 8.116876e+00 1.021373e+01 3.113005e+06 4.789978e+05 1.146148e+06 -3.087740e+00 -6.627017e+00 -1.145543e+01
<VARIANCE> 12
 4.104977e+02 2.291137e+03 3.344079e+03 2.588817e+01 1.962173e+01 2.822730e+01 2.319189e+10 1.988265e+10 5.787423e+10 4.199382e+03 6.067079e+03 8.774729e+03
<GCONST> 1.519890e+02
<STATE> 5
<NUMMIXES> 2
<MIXTURE> 2 1.000000e+00
<MEAN> 12
 9.863314e+02 8.061562e+01 -5.359546e+01 1.747162e+01 1.219325e+01 1.593832e+01 4.384803e+06 8.759392e+04 1.607948e+05 6.362545e+01 5.581421e+00 -1.910443e+01
<VARIANCE> 12
 7.442209e+05 3.125503e+04 1.316437e+05 1.230298e+03 2.079889e+02 3.689304e+02 1.050225e+12 5.278045e+10 8.584810e+11 1.132568e+06 5.611621e+05 2.438463e+06
<GCONST> 1.978080e+02
<STATE> 6
<NUMMIXES> 2
<MIXTURE> 2 1.000000e+00
<MEAN> 12
 1.005265e+03 7.604083e+01 -1.624363e+01 6.369804e+01 3.434785e+01 5.893394e+01 4.559590e+06 3.645792e+04 3.226562e+04 1.443287e+03 1.131712e+03 1.986835e+03
<VARIANCE> 12
 5.090562e+04 3.198645e+04 5.967579e+04 4.241556e+03 2.898746e+03 3.871306e+03 7.852628e+11 2.879282e+11 3.850471e+11 9.923318e+08 7.962019e+08 4.789987e+08
<GCONST> 2.204981e+02
<TRANSP> 7
 0.000000e+00 0.000000e+00 1.000000e+00 0.000000e+00 0.000000e+00 0.000000e+00 0.000000e+00
 0.000000e+00 9.424084e-01 5.759162e-02 4.338880e-13 0.000000e+00 0.000000e+00 0.000000e+00
 0.000000e+00 0.000000e+00 6.219053e-01 0.000000e+00 3.780947e-01 0.000000e+00 0.000000e+00
 0.000000e+00 0.000000e+00 0.000000e+00 9.368120e-01 6.318799e-02 0.000000e+00 0.000000e+00
 0.000000e+00 0.000000e+00 0.000000e+00 0.000000e+00 9.388978e-01 6.114515e-03 5.498768e-02
 0.000000e+00 0.000000e+00 0.000000e+00 0.000000e+00 0.000000e+00 8.988308e-01 1.011692e-01
 0.000000e+00 0.000000e+00 0.000000e+00 0.000000e+00 0.000000e+00 0.000000e+00 0.000000e+00
<ENDHMM>
