~o
<STREAMINFO> 1 15
<VECSIZE> 15<NULLD><MFCC><DIAGC>
~h "ActivityOther"
<BEGINHMM>
<NUMSTATES> 8
<STATE> 2
<NUMMIXES> 3
<MIXTURE> 1 4.492628e-01
<MEAN> 15
 -8.167915e+00 4.529377e+00 1.074810e+00 7.851020e-01 8.898471e-01 6.246597e-01 7.253534e+02 3.406505e-15 2.685111e+02 2.700106e-15 5.450904e+01 1.115798e-15 -5.351355e-02 2.902854e-02 -3.232968e-02
<VARIANCE> 15
 5.947191e+00 6.378326e+00 4.309920e+00 1.425854e-01 1.903976e-01 1.137942e-01 1.575920e+05 1.000000e-02 4.685002e+04 1.000000e-02 3.807303e+03 1.000000e-02 1.996691e-01 1.059495e-01 9.021386e-02
<GCONST> 3.777525e+01
<MIXTURE> 2 1.580969e-01
<MEAN> 15
 -9.510043e+00 4.228122e+00 1.666839e+00 3.612114e+00 3.411312e+00 2.428227e+00 1.149552e+03 6.724122e-14 3.160317e+02 4.024532e-14 1.086549e+02 1.956819e-14 -4.532811e-02 1.192868e+00 7.426521e-01
<VARIANCE> 15
 2.687167e+01 1.473192e+01 8.544271e+00 3.319620e+00 3.862422e+00 1.921617e+00 1.148961e+06 1.000000e-02 1.296923e+05 1.000000e-02 2.290522e+04 1.000000e-02 1.002479e+02 4.825743e+01 5.404633e+01
<GCONST> 7.332375e+01
<MIXTURE> 3 3.926403e-01
<MEAN> 15
 -8.935265e+00 4.554732e+00 1.309096e+00 1.647054e+00 1.723119e+00 1.272316e+00 9.024011e+02 1.378281e-14 2.913106e+02 9.903219e-15 8.122003e+01 4.710452e-15 -7.610407e-02 1.673413e-01 5.017431e-02
<VARIANCE> 15
 1.087360e+01 8.546972e+00 6.479387e+00 5.400779e-01 5.927727e-01 3.726323e-01 3.623983e+05 1.000000e-02 6.069940e+04 1.000000e-02 9.469208e+03 1.000000e-02 3.306035e+00 1.748049e+00 1.727474e+00
<GCONST> 5.329793e+01
<STATE> 3
<NUMMIXES> 3
<MIXTURE> 1 4.523957e-01
<MEAN> 15
 -2.614991e+00 1.309078e+00 4.099104e+00 9.361047e-01 1.461661e+00 9.563898e-01 1.897045e+02 6.147642e-15 5.231915e+02 1.112211e-14 3.156805e+02 5.076516e-15 4.582619e-02 -7.473731e-02 -1.853180e-01
<VARIANCE> 15
 1.238041e+01 5.095905e+01 1.494779e+01 2.634443e-01 5.887380e-01 2.360208e-01 3.847589e+04 1.000000e-02 2.395391e+05 1.000000e-02 7.196092e+04 1.000000e-02 1.183062e+00 1.258920e+00 5.479600e-01
<GCONST> 5.352177e+01
<MIXTURE> 2 4.435151e-01
<MEAN> 15
 -2.711845e+00 3.130798e+00 3.928605e+00 3.435995e-01 5.409134e-01 3.735234e-01 1.918905e+02 6.651094e-16 4.274805e+02 1.111983e-15 2.931535e+02 5.961867e-16 6.305417e-03 -5.446131e-03 -1.190502e-02
<VARIANCE> 15
 1.185626e+01 3.296449e+01 1.389491e+01 3.603414e-02 8.895144e-02 3.545794e-02 3.838719e+04 1.000000e-02 8.150574e+04 1.000000e-02 5.626213e+04 1.000000e-02 1.677104e-02 1.998518e-02 1.000000e-02
<GCONST> 3.346574e+01
<MIXTURE> 3 1.040892e-01
<MEAN> 15
 -3.590898e+00 1.764969e+00 4.752365e+00 2.633951e+00 5.433589e+00 2.870339e+00 3.460992e+02 3.759402e-14 6.998207e+02 1.008378e-13 4.975438e+02 3.411761e-14 -1.172598e-01 -2.666490e+00 -2.189799e+00
<VARIANCE> 15
 2.302420e+01 6.685196e+01 2.808760e+01 2.615294e+00 2.753630e+01 3.069435e+00 2.246628e+05 1.000000e-02 1.040899e+06 1.000000e-02 2.425398e+05 1.000000e-02 2.573538e+02 1.434475e+03 5.635750e+01
<GCONST> 8.525297e+01
<STATE> 4
<NUMMIXES> 3
<MIXTURE> 1 4.101897e-01
<MEAN> 15
 -5.082479e+00 9.529023e+00 1.866967e+00 1.688492e+00 2.396245e+00 1.022922e+00 3.755732e+02 2.035998e-14 1.161048e+03 3.600327e-14 6.422651e+01 5.137588e-15 -1.707762e+00 1.672414e-01 1.017787e-01
<VARIANCE> 15
 1.253691e+01 2.639970e+01 3.085534e+00 8.026991e-01 1.979009e+00 2.932414e-01 1.482019e+05 1.000000e-02 9.223929e+05 1.000000e-02 5.430050e+03 1.000000e-02 1.240902e+01 3.481761e+00 1.895261e+00
<GCONST> 5.856354e+01
<MIXTURE> 2 1.017676e-01
<MEAN> 15
 -3.147113e+00 1.202206e+01 2.927843e+00 5.770273e+00 1.918585e+01 5.470637e+00 2.075085e+02 4.198007e-14 1.769212e+03 2.854578e-13 1.354958e+02 2.452445e-14 6.086462e-01 8.295639e+01 1.376383e+00
<VARIANCE> 15
 9.145898e+00 2.134031e+01 3.254703e+00 7.813841e+00 1.233958e+02 9.471861e+00 8.899327e+04 1.000000e-02 8.639989e+06 1.000000e-02 4.802014e+04 1.000000e-02 7.551860e+03 1.003540e+04 5.359836e+02
<GCONST> 9.190139e+01
<MIXTURE> 3 4.880426e-01
<MEAN> 15
 -1.527605e+00 7.187842e+00 1.077272e+00 6.467897e-01 8.837450e-01 5.680298e-01 7.503153e+01 3.111012e-15 5.970845e+02 4.004408e-15 4.098525e+01 1.473796e-15 -1.391827e-01 -5.610931e-02 -1.076169e-02
<VARIANCE> 15
 5.295093e+00 8.151727e+00 2.975402e+00 1.554449e-01 2.186116e-01 7.163396e-02 8.804554e+03 1.000000e-02 1.149532e+05 1.000000e-02 2.268415e+03 1.000000e-02 2.256615e-01 1.218154e-01 8.170801e-02
<GCONST> 3.495349e+01
<STATE> 5
<NUMMIXES> 3
<MIXTURE> 1 3.136328e-01
<MEAN> 15
 -1.147620e+01 2.830394e+00 2.333776e+00 2.160460e+00 9.909595e-01 8.346628e-01 1.422730e+03 4.043039e-14 1.422937e+02 7.212870e-15 9.392912e+01 5.158787e-15 -4.775776e-01 1.826758e-01 -1.324303e-01
<VARIANCE> 15
 1.247075e+01 6.509667e+00 4.164587e+00 1.233145e+00 3.950795e-01 2.242380e-01 6.872879e+05 1.000000e-02 1.788703e+04 1.000000e-02 1.121084e+04 1.000000e-02 4.114874e+00 7.301236e-01 3.302974e+00
<GCONST> 5.221365e+01
<MIXTURE> 2 2.790724e-01
<MEAN> 15
 -7.454827e+00 2.657543e+00 3.629066e+00 7.089399e-01 8.420326e-01 6.071099e-01 6.355978e+02 3.187115e-15 1.513854e+02 3.697824e-15 2.402461e+02 1.728060e-15 -2.983496e-02 3.510541e-02 -9.240687e-02
<VARIANCE> 15
 8.108828e+00 8.205823e+00 1.090466e+01 1.375550e-01 1.719258e-01 9.086346e-02 1.491128e+05 1.000000e-02 2.084932e+04 1.000000e-02 4.951090e+04 1.000000e-02 2.132850e-01 1.335334e-01 1.144920e-01
<GCONST> 4.113851e+01
<MIXTURE> 3 4.072948e-01
<MEAN> 15
 -8.151603e+00 2.470032e+00 1.343086e+00 7.626635e-01 3.733900e-01 3.035579e-01 7.288155e+02 5.552615e-15 9.914330e+01 8.391959e-16 3.603565e+01 5.299312e-16 -2.787767e-02 1.416864e-02 -3.685043e-02
<VARIANCE> 15
 6.691864e+00 3.841405e+00 1.818086e+00 2.516069e-01 4.170281e-02 2.247534e-02 1.962811e+05 1.000000e-02 5.303854e+03 1.000000e-02 1.283226e+03 1.000000e-02 7.136530e-02 1.000000e-02 4.680747e-02
<GCONST> 2.685855e+01
<STATE> 6
<NUMMIXES> 3
<MIXTURE> 1 1.151750e-01
<MEAN> 15
 -8.558938e+00 5.614416e+00 3.132440e+00 5.539776e+00 7.360348e+00 4.888366e+00 1.172480e+03 1.555510e-13 1.125893e+03 2.343257e-13 5.266356e+02 8.302305e-14 -8.430382e+00 1.308862e+01 -8.530611e+00
<VARIANCE> 15
 4.883089e+01 8.840739e+01 4.467139e+01 1.062526e+01 2.836721e+01 9.503922e+00 2.111053e+06 1.000000e-02 2.423926e+06 1.000000e-02 5.460376e+05 1.000000e-02 1.473197e+03 2.182304e+03 8.635765e+02
<GCONST> 9.810091e+01
<MIXTURE> 2 3.396443e-01
<MEAN> 15
 -6.480154e+00 2.552613e+00 1.884410e+00 2.469840e+00 2.880754e+00 1.946080e+00 6.722582e+02 3.655586e-14 3.888090e+02 3.278012e-14 1.726458e+02 1.496796e-14 -4.179682e-01 3.729886e-01 -1.973395e-01
<VARIANCE> 15
 2.654815e+01 3.302558e+01 1.413114e+01 1.710091e+00 2.138980e+00 7.992907e-01 5.026445e+05 1.000000e-02 1.551690e+05 1.000000e-02 3.676866e+04 1.000000e-02 2.957791e+01 1.668132e+01 1.381659e+01
<GCONST> 6.866961e+01
<MIXTURE> 3 5.451807e-01
<MEAN> 15
 -6.634553e+00 3.450898e+00 1.698094e+00 1.046071e+00 1.221093e+00 8.941048e-01 6.078601e+02 6.184502e-15 3.726067e+02 5.295262e-15 8.657465e+01 2.593988e-15 -4.832117e-02 5.788796e-02 -6.230523e-02
<VARIANCE> 15
 1.699262e+01 2.543853e+01 5.820778e+00 2.985202e-01 3.830657e-01 2.277517e-01 2.450816e+05 1.000000e-02 9.517340e+04 1.000000e-02 7.869647e+03 1.000000e-02 7.694784e-01 4.977288e-01 3.719305e-01
<GCONST> 4.882993e+01
<STATE> 7
<NUMMIXES> 3
<MIXTURE> 1 1.548152e-01
<MEAN> 15
 -4.707644e+00 2.452407e+00 7.652262e+00 1.621929e+00 2.309321e+00 1.635763e+00 3.460614e+02 1.724272e-14 1.754885e+02 2.480986e-14 6.361979e+02 1.360649e-14 3.885785e-02 -5.956651e-02 -1.382823e+00
<VARIANCE> 15
 1.316386e+01 1.225006e+01 5.470697e+00 7.584537e-01 1.889109e+00 7.638932e-01 1.093974e+05 1.000000e-02 5.810075e+04 1.000000e-02 1.293484e+05 1.000000e-02 1.098342e+01 1.285591e+01 8.232206e+00
<GCONST> 6.202654e+01
<MIXTURE> 2 3.925905e-01
<MEAN> 15
 -3.808496e+00 2.459762e+00 7.499774e+00 6.703537e-01 1.101964e+00 6.699296e-01 2.019740e+02 3.088485e-15 1.693430e+02 5.718073e-15 5.841451e+02 2.247860e-15 -6.157715e-02 -6.713615e-02 -6.456584e-02
<VARIANCE> 15
 5.820143e+00 1.104718e+01 2.239082e+00 1.088544e-01 2.731121e-01 9.233789e-02 2.942545e+04 1.000000e-02 3.610811e+04 1.000000e-02 4.866407e+04 1.000000e-02 3.021330e-01 2.951389e-01 1.261990e-01
<GCONST> 3.991378e+01
<MIXTURE> 3 4.525943e-01
<MEAN> 15
 -3.732079e+00 2.385942e+00 7.848124e+00 2.948272e-01 5.054771e-01 3.099018e-01 1.844247e+02 5.067146e-16 1.302750e+02 8.631902e-16 6.276323e+02 3.491267e-16 -6.484566e-03 -9.054450e-03 -3.513389e-03
<VARIANCE> 15
 4.532533e+00 7.344795e+00 1.176855e+00 2.389251e-02 6.867764e-02 1.948609e-02 2.213296e+04 1.000000e-02 1.719428e+04 1.000000e-02 2.848446e+04 1.000000e-02 1.055372e-02 1.092475e-02 1.000000e-02
<GCONST> 2.341128e+01
<TRANSP> 8
 0.000000e+00 4.019608e-01 5.980392e-01 0.000000e+00 0.000000e+00 0.000000e+00 0.000000e+00 0.000000e+00
 0.000000e+00 9.136415e-01 4.435633e-02 4.200223e-02 0.000000e+00 0.000000e+00 0.000000e+00 0.000000e+00
 0.000000e+00 0.000000e+00 8.559480e-01 5.204462e-02 9.200743e-02 0.000000e+00 0.000000e+00 0.000000e+00
 0.000000e+00 0.000000e+00 0.000000e+00 8.904341e-01 1.507668e-02 9.448921e-02 0.000000e+00 0.000000e+00
 0.000000e+00 0.000000e+00 0.000000e+00 0.000000e+00 8.866374e-01 6.776991e-02 4.559271e-02 0.000000e+00
 0.000000e+00 0.000000e+00 0.000000e+00 0.000000e+00 0.000000e+00 8.093804e-01 2.208835e-02 1.685313e-01
 0.000000e+00 0.000000e+00 0.000000e+00 0.000000e+00 0.000000e+00 0.000000e+00 9.478350e-01 5.216498e-02
 0.000000e+00 0.000000e+00 0.000000e+00 0.000000e+00 0.000000e+00 0.000000e+00 0.000000e+00 0.000000e+00
<ENDHMM>
