~o
<STREAMINFO> 1 15
<VECSIZE> 15<NULLD><MFCC><DIAGC>
~h "Activity4"
<BEGINHMM>
<NUMSTATES> 8
<STATE> 2
<NUMMIXES> 3
<MIXTURE> 1 2.589286e-01
<MEAN> 15
 -1.076887e+01 3.491014e+00 2.562917e+00 2.212626e+00 2.186373e+00 1.429092e+00 1.282667e+03 3.575799e-14 2.525054e+02 2.264596e-14 1.990380e+02 1.390833e-14 -3.665705e-01 4.726327e-02 -1.916551e+00
<VARIANCE> 15
 1.381405e+01 1.371442e+01 1.386353e+01 1.473579e+00 1.601042e+00 7.594231e-01 7.211544e+05 1.000000e-02 5.912923e+04 1.000000e-02 9.320898e+04 1.000000e-02 2.850331e+01 1.643705e+01 1.915051e+01
<GCONST> 6.722977e+01
<MIXTURE> 2 1.919643e-01
<MEAN> 15
 -5.403841e+00 2.123525e+00 -4.023680e-01 7.426633e-01 7.682552e-01 5.815524e-01 3.363643e+02 4.236550e-15 1.773264e+02 4.420237e-15 2.486021e+02 2.871734e-15 1.870909e-02 -2.678712e-01 -3.880682e-02
<VARIANCE> 15
 4.573101e+00 1.342428e+01 2.483001e+01 1.619020e-01 1.789125e-01 9.378150e-02 5.828761e+04 1.000000e-02 4.752786e+04 1.000000e-02 1.109163e+05 1.000000e-02 2.619546e-01 1.194091e-01 2.190451e-01
<GCONST> 4.354903e+01
<MIXTURE> 3 5.491071e-01
<MEAN> 15
 -1.156675e+01 4.189908e+00 2.025514e+00 1.103854e+00 6.779732e-01 4.140426e-01 1.395785e+03 9.061169e-15 2.160653e+02 3.016487e-15 8.016206e+01 8.488580e-16 -5.773366e-02 2.157146e-02 -3.428615e-03
<VARIANCE> 15
 6.167909e+00 4.175005e+00 3.926216e+00 3.177020e-01 1.066971e-01 4.181892e-02 3.508627e+05 1.000000e-02 2.489730e+04 1.000000e-02 7.732690e+03 1.000000e-02 3.965172e-01 4.929178e-02 1.500196e-01
<GCONST> 3.782184e+01
<STATE> 3
<NUMMIXES> 3
<MIXTURE> 1 3.364017e-01
<MEAN> 15
 -1.140867e+01 2.949743e+00 1.464461e+00 1.458401e+00 9.589483e-01 6.120037e-01 1.336633e+03 1.611095e-14 9.833852e+01 6.413648e-15 3.367640e+01 2.646423e-15 -5.993232e-01 1.438881e-01 -1.916955e-01
<VARIANCE> 15
 4.192592e+00 1.407292e+00 1.339363e+00 4.893865e-01 1.855405e-01 7.738459e-02 2.059600e+05 1.000000e-02 4.432819e+03 1.000000e-02 1.272579e+03 1.000000e-02 1.184794e+00 2.228278e-01 6.785614e-01
<GCONST> 3.692323e+01
<MIXTURE> 2 3.656904e-01
<MEAN> 15
 -9.332133e+00 2.103420e+00 2.007566e-01 7.695333e-01 4.053492e-01 2.589846e-01 9.157399e+02 4.000120e-15 4.887612e+01 8.213834e-16 4.684330e+00 2.994891e-16 -1.300851e-01 1.573412e-02 -1.683038e-02
<VARIANCE> 15
 4.624221e+00 4.862319e-01 4.371287e-01 1.948191e-01 4.561818e-02 1.354067e-02 1.677082e+05 1.000000e-02 7.744308e+02 1.000000e-02 2.816513e+01 1.000000e-02 8.292320e-02 1.000000e-02 2.099501e-02
<GCONST> 1.577188e+01
<MIXTURE> 3 2.979079e-01
<MEAN> 15
 -1.028316e+01 3.831129e+00 2.515954e+00 8.393414e-01 4.291141e-01 3.884338e-01 1.081738e+03 5.669565e-15 1.559986e+02 8.763541e-16 7.691927e+01 1.029506e-15 -4.546094e-02 2.226885e-02 1.198547e-02
<VARIANCE> 15
 2.682145e+00 9.431248e-01 1.404066e+00 2.505245e-01 3.906450e-02 3.306717e-02 1.100027e+05 1.000000e-02 5.376475e+03 1.000000e-02 3.314775e+03 1.000000e-02 6.605613e-02 1.510396e-02 8.061999e-02
<GCONST> 2.586025e+01
<STATE> 4
<NUMMIXES> 3
<MIXTURE> 1 1.195652e-01
<MEAN> 15
 -1.402904e+01 1.895078e+00 1.008619e+00 8.279357e-01 6.440339e-01 4.901151e-01 1.969427e+03 3.914609e-15 1.113831e+02 2.987509e-15 1.918676e+01 2.089112e-15 -2.025332e-01 -7.927936e-02 -2.495042e-02
<VARIANCE> 15
 2.827572e-01 7.651271e+00 1.011290e+00 8.612830e-02 9.713173e-02 2.904705e-02 2.318451e+04 1.000000e-02 2.109660e+03 1.000000e-02 3.825094e+02 1.000000e-02 1.213091e-01 4.892474e-02 1.146615e-01
<GCONST> 2.257275e+01
<MIXTURE> 2 5.217391e-01
<MEAN> 15
 -9.620597e-01 8.147077e+00 1.191547e+00 6.363401e-01 1.293894e+00 6.549947e-01 1.569465e+02 3.010100e-15 8.120016e+02 1.516466e-14 5.372887e+01 2.666293e-15 -2.404039e-01 1.638829e-01 -9.983611e-03
<VARIANCE> 15
 1.488822e+01 1.540260e+01 4.033800e+00 1.039744e-01 5.596796e-01 1.197131e-01 6.419594e+04 1.000000e-02 4.670813e+05 1.000000e-02 5.006822e+03 1.000000e-02 5.833668e-01 1.119037e+00 1.162634e-01
<GCONST> 4.567994e+01
<MIXTURE> 3 3.586957e-01
<MEAN> 15
 -1.091510e+01 2.497903e+00 3.936750e+00 9.872401e-01 1.033835e+00 6.610242e-01 1.190741e+03 9.579374e-15 6.709431e+01 8.738128e-15 1.592195e+02 5.057655e-15 -2.730014e-01 4.654221e-01 -6.686150e-02
<VARIANCE> 15
 4.494046e-01 8.935865e-01 7.050147e-01 3.719514e-01 1.756450e-01 1.769939e-01 2.090502e+04 1.000000e-02 1.979819e+03 1.000000e-02 4.363468e+03 1.000000e-02 8.092005e-01 2.096354e-01 3.296459e-01
<GCONST> 3.106654e+01
<STATE> 5
<NUMMIXES> 3
<MIXTURE> 1 3.213367e-01
<MEAN> 15
 -1.302103e+01 4.071716e+00 3.302937e+00 2.133788e+00 1.557526e+00 1.048048e+00 1.786932e+03 3.449481e-14 2.277133e+02 2.016047e-14 1.684263e+02 9.614687e-15 -4.719500e-01 4.841178e-01 -9.861093e-01
<VARIANCE> 15
 1.053738e+01 7.121849e+00 6.353347e+00 1.099440e+00 9.669718e-01 3.368807e-01 7.768737e+05 1.000000e-02 5.189750e+04 1.000000e-02 3.716894e+04 1.000000e-02 1.307449e+01 3.002821e+00 6.072943e+00
<GCONST> 5.931025e+01
<MIXTURE> 2 3.496144e-01
<MEAN> 15
 -6.986173e+00 3.283101e+00 1.595374e+00 1.044946e+00 8.997644e-01 6.161524e-01 5.141091e+02 9.327414e-15 1.535950e+02 7.151367e-15 4.266262e+01 3.600439e-15 -2.192337e-01 7.574901e-02 -3.487471e-01
<VARIANCE> 15
 3.062161e+00 4.891317e+00 1.918487e+00 2.985446e-01 2.538865e-01 1.218878e-01 6.062509e+04 1.000000e-02 2.793525e+04 1.000000e-02 2.269282e+03 1.000000e-02 7.863960e-01 3.695172e-01 3.470535e-01
<GCONST> 3.910960e+01
<MIXTURE> 3 3.290488e-01
<MEAN> 15
 -1.103057e+01 3.746342e+00 2.569926e-01 9.062343e-01 5.569644e-01 3.934036e-01 1.241696e+03 6.551411e-15 1.828046e+02 2.333561e-15 1.433243e+01 1.022057e-15 -8.966725e-02 -4.159768e-02 1.229455e-02
<VARIANCE> 15
 2.788630e+00 4.331807e+00 1.409781e+00 2.927473e-01 1.061016e-01 3.993853e-02 1.392045e+05 1.000000e-02 2.577792e+04 1.000000e-02 2.181071e+02 1.000000e-02 1.645117e-01 3.621355e-02 1.013099e-01
<GCONST> 2.986869e+01
<STATE> 6
<NUMMIXES> 3
<MIXTURE> 1 3.181818e-01
<MEAN> 15
 -1.047659e+01 3.376748e+00 3.653163e+00 1.470882e+00 9.750805e-01 6.851937e-01 1.206095e+03 1.975641e-14 1.341226e+02 7.754491e-15 1.554654e+02 4.159280e-15 -1.817285e-01 1.651957e-01 -5.717703e-01
<VARIANCE> 15
 1.178548e+01 2.378192e+00 2.402519e+00 6.237387e-01 2.278209e-01 1.225590e-01 4.239264e+05 1.000000e-02 1.157973e+04 1.000000e-02 1.571122e+04 1.000000e-02 1.623533e+00 3.715000e-01 9.129235e-01
<GCONST> 4.529174e+01
<MIXTURE> 2 3.213531e-01
<MEAN> 15
 -7.241880e+00 2.778196e+00 1.508215e+00 5.153596e-01 3.933909e-01 3.110875e-01 5.453110e+02 2.074747e-15 9.332694e+01 1.538039e-15 2.980496e+01 6.477952e-16 -2.728703e-02 4.667352e-03 -7.361918e-02
<VARIANCE> 15
 2.172123e+00 1.685071e+00 7.338229e-01 7.841269e-02 7.416273e-02 2.305050e-02 4.703603e+04 1.000000e-02 8.184301e+03 1.000000e-02 7.194523e+02 1.000000e-02 4.060316e-02 1.642850e-02 2.325206e-02
<GCONST> 2.109646e+01
<MIXTURE> 3 3.604651e-01
<MEAN> 15
 -1.068102e+01 3.929735e+00 3.421136e+00 1.072686e+00 4.212001e-01 4.357717e-01 1.165586e+03 8.790521e-15 1.859367e+02 8.169025e-16 1.237772e+02 1.414429e-15 -5.525210e-02 2.625643e-02 -1.822524e-01
<VARIANCE> 15
 2.860311e+00 3.170630e+00 7.321457e-01 2.420238e-01 3.754107e-02 5.029669e-02 1.281536e+05 1.000000e-02 1.914353e+04 1.000000e-02 3.497241e+03 1.000000e-02 1.202404e-01 1.365871e-02 1.322525e-01
<GCONST> 2.930062e+01
<STATE> 7
<NUMMIXES> 3
<MIXTURE> 1 3.401639e-01
<MEAN> 15
 -1.323245e+01 -1.188246e+00 1.223693e+00 1.455933e+00 8.582149e-01 8.350043e-01 1.820482e+03 1.748414e-14 3.779446e+01 7.497132e-15 2.264023e+01 5.480447e-15 1.806639e-01 -1.351914e-01 7.186868e-02
<VARIANCE> 15
 7.698311e+00 2.760896e+00 1.003594e+00 4.607724e-01 2.722384e-01 2.004264e-01 4.931155e+05 1.000000e-02 2.131173e+03 1.000000e-02 6.248705e+02 1.000000e-02 1.240229e+00 6.941214e-01 1.484326e+00
<GCONST> 4.058517e+01
<MIXTURE> 2 2.336066e-01
<MEAN> 15
 -7.804751e+00 9.830052e-02 1.063295e+00 7.688615e-01 2.938031e-01 2.985997e-01 6.272739e+02 5.355317e-15 1.017903e+01 5.026970e-16 7.557023e+01 7.066380e-16 4.130050e-02 1.459402e-02 -1.094786e-01
<VARIANCE> 15
 2.084777e+00 1.020376e+00 6.452826e+00 1.544676e-01 2.680226e-02 3.791261e-02 5.179275e+04 1.000000e-02 1.887769e+02 1.000000e-02 2.492627e+04 1.000000e-02 4.766017e-02 1.480369e-02 3.202286e-02
<GCONST> 2.313389e+01
<MIXTURE> 3 4.262295e-01
<MEAN> 15
 -1.102561e+01 -5.670829e-01 9.529445e-01 9.759283e-01 4.652312e-01 4.164050e-01 1.236822e+03 9.046884e-15 1.017280e+02 1.578964e-15 2.538832e+01 1.181994e-15 -2.099775e-02 -2.071853e-03 6.331082e-03
<VARIANCE> 15
 2.485512e+00 9.912029e+00 1.680826e+00 3.584984e-01 5.379564e-02 3.796236e-02 1.229726e+05 1.000000e-02 9.741300e+03 1.000000e-02 1.072701e+03 1.000000e-02 1.503131e-01 2.535444e-02 1.159913e-01
<GCONST> 3.041431e+01
<TRANSP> 8
 0.000000e+00 3.980583e-01 6.019418e-01 0.000000e+00 0.000000e+00 0.000000e+00 0.000000e+00 0.000000e+00
 0.000000e+00 8.169643e-01 1.250000e-01 5.803572e-02 0.000000e+00 0.000000e+00 0.000000e+00 0.000000e+00
 0.000000e+00 0.000000e+00 9.246862e-01 2.008368e-02 5.523013e-02 0.000000e+00 0.000000e+00 0.000000e+00
 0.000000e+00 0.000000e+00 0.000000e+00 5.978261e-01 2.608696e-01 1.413043e-01 0.000000e+00 0.000000e+00
 0.000000e+00 0.000000e+00 0.000000e+00 0.000000e+00 7.686375e-01 1.825193e-01 4.884318e-02 0.000000e+00
 0.000000e+00 0.000000e+00 0.000000e+00 0.000000e+00 0.000000e+00 9.112051e-01 1.057083e-02 7.822410e-02
 0.000000e+00 0.000000e+00 0.000000e+00 0.000000e+00 0.000000e+00 0.000000e+00 8.811476e-01 1.188525e-01
 0.000000e+00 0.000000e+00 0.000000e+00 0.000000e+00 0.000000e+00 0.000000e+00 0.000000e+00 0.000000e+00
<ENDHMM>
