~o
<STREAMINFO> 1 15
<VECSIZE> 15<NULLD><MFCC><DIAGC>
~h "Activity6"
<BEGINHMM>
<NUMSTATES> 8
<STATE> 2
<NUMMIXES> 3
<MIXTURE> 1 3.945623e-01
<MEAN> 15
 -2.605198e+00 5.071843e+00 7.878328e+00 1.365013e+00 1.333755e+00 1.008224e+00 7.349330e+01 3.928089e-15 2.635038e+02 1.954802e-15 6.245609e+02 5.535478e-16 -4.781700e-01 9.277316e-01 -2.399689e-02
<VARIANCE> 15
 5.397296e-01 5.381762e-01 3.159821e-01 4.213100e-01 3.448805e-01 1.700259e-01 1.544479e+03 1.000000e-02 5.758781e+03 1.000000e-02 7.749220e+03 1.000000e-02 7.091629e-01 7.321839e-01 4.383278e-01
<GCONST> 3.113965e+01
<MIXTURE> 2 3.037135e-01
<MEAN> 15
 -2.837065e+00 4.946832e+00 7.857072e+00 3.198157e+00 3.432806e+00 2.310641e+00 9.503262e+01 1.465825e-14 2.650837e+02 4.335469e-15 6.238348e+02 2.450806e-15 -4.357133e+00 5.953850e+00 -3.248126e-01
<VARIANCE> 15
 1.275779e+00 9.254669e-01 5.180684e-01 1.241989e+00 1.493112e+00 6.150363e-01 9.198542e+03 1.000000e-02 1.445951e+04 1.000000e-02 1.430851e+04 1.000000e-02 2.726718e+01 1.968435e+01 8.397613e+00
<GCONST> 5.008057e+01
<MIXTURE> 3 3.017241e-01
<MEAN> 15
 -6.661705e+00 2.388089e+00 6.689415e+00 1.289694e+00 1.148856e+00 9.332182e-01 4.525323e+02 3.797327e-15 7.386552e+01 1.985183e-15 4.553430e+02 1.630759e-15 3.273579e-01 2.413911e-01 4.015947e-02
<VARIANCE> 15
 8.848231e-01 1.682524e+00 7.761744e-01 3.690663e-01 3.194349e-01 1.547977e-01 1.672099e+04 1.000000e-02 2.786643e+03 1.000000e-02 1.343132e+04 1.000000e-02 7.947699e-01 3.973005e-01 4.664313e-01
<GCONST> 3.514052e+01
<STATE> 3
<NUMMIXES> 3
<MIXTURE> 1 2.336361e-01
<MEAN> 15
 -4.382442e+00 2.030720e+00 8.001941e+00 7.680955e+00 5.264592e+00 3.768759e+00 3.001870e+02 6.487480e-14 1.137745e+02 1.973002e-14 6.839359e+02 4.772444e-15 -2.547045e+00 4.190486e+00 -3.443364e+00
<VARIANCE> 15
 9.097534e+00 5.645363e+00 2.583833e+00 1.306351e+01 5.244270e+00 2.390905e+00 3.530774e+05 1.000000e-02 6.466076e+04 1.000000e-02 6.963780e+04 1.000000e-02 7.037244e+02 1.830931e+02 4.187462e+02
<GCONST> 7.654545e+01
<MIXTURE> 2 3.996242e-01
<MEAN> 15
 -6.085880e+00 8.049426e-01 7.329682e+00 4.070662e+00 3.147752e+00 2.360329e+00 4.028143e+02 1.426907e-14 3.514058e+01 1.303569e-14 5.507773e+02 5.934288e-15 2.987544e+00 5.343629e-01 7.759345e-01
<VARIANCE> 15
 2.194272e+00 2.610231e+00 1.304113e+00 2.396428e+00 1.465042e+00 8.086914e-01 4.140293e+04 1.000000e-02 5.739427e+03 1.000000e-02 2.678498e+04 1.000000e-02 3.793924e+01 1.673520e+01 2.197511e+01
<GCONST> 5.583221e+01
<MIXTURE> 3 3.667397e-01
<MEAN> 15
 -5.084714e+00 1.114430e+00 8.185905e+00 2.209330e+00 1.758882e+00 1.455883e+00 2.684085e+02 9.126819e-15 2.635081e+01 4.119164e-15 6.758083e+02 2.574312e-15 1.699459e-01 4.537796e-01 7.202408e-02
<VARIANCE> 15
 9.288498e-01 1.323061e+00 4.799110e-01 7.541960e-01 4.763125e-01 3.037466e-01 1.056134e+04 1.000000e-02 1.046977e+03 1.000000e-02 1.291398e+04 1.000000e-02 3.148028e+00 1.736632e+00 2.520550e+00
<GCONST> 3.931717e+01
<STATE> 4
<NUMMIXES> 3
<MIXTURE> 1 2.673738e-01
<MEAN> 15
 -8.164321e+00 1.266867e+00 4.982039e+00 4.160718e+00 3.176898e+00 3.008351e+00 7.009007e+02 1.789862e-14 5.592711e+01 1.166927e-14 2.826024e+02 8.667862e-15 3.985570e+00 5.069985e-01 4.842267e+00
<VARIANCE> 15
 2.596972e+00 3.837072e+00 3.087315e+00 2.070250e+00 1.515844e+00 1.241474e+00 7.849959e+04 1.000000e-02 1.233820e+04 1.000000e-02 3.202460e+04 1.000000e-02 7.139040e+01 2.477038e+01 5.446248e+01
<GCONST> 6.107983e+01
<MIXTURE> 2 3.774689e-01
<MEAN> 15
 -8.884180e+00 -1.641932e-02 4.135749e+00 1.826554e+00 1.416094e+00 1.655010e+00 7.969201e+02 4.946936e-15 1.518544e+01 2.231124e-15 1.845773e+02 4.455592e-15 7.636983e-01 1.106574e-01 1.033887e+00
<VARIANCE> 15
 5.689043e-01 1.440327e+00 1.380640e+00 5.573032e-01 3.068230e-01 4.629395e-01 1.909644e+04 1.000000e-02 5.476147e+02 1.000000e-02 8.514747e+03 1.000000e-02 2.530266e+00 1.365924e+00 2.662114e+00
<GCONST> 3.877139e+01
<MIXTURE> 3 3.551573e-01
<MEAN> 15
 -6.861666e+00 2.385171e+00 6.503420e+00 2.259568e+00 1.961474e+00 1.500441e+00 4.827526e+02 5.542034e-15 7.062803e+01 5.104899e-15 4.305549e+02 2.135708e-15 1.148765e+00 4.169948e-01 5.782160e-01
<VARIANCE> 15
 8.300216e-01 1.317724e+00 6.277099e-01 7.598895e-01 6.168627e-01 3.154900e-01 1.666878e+04 1.000000e-02 3.449202e+03 1.000000e-02 1.036796e+04 1.000000e-02 5.499161e+00 2.433360e+00 2.708484e+00
<GCONST> 4.216917e+01
<STATE> 5
<NUMMIXES> 3
<MIXTURE> 1 6.613103e-02
<MEAN> 15
 -6.244331e+00 1.703046e+00 7.176044e+00 1.263798e+01 9.603484e+00 9.493315e+00 6.230338e+02 1.270496e-13 3.324835e+02 1.073654e-13 8.093504e+02 7.148591e-14 1.008243e+01 3.257174e+01 -1.872186e+01
<VARIANCE> 15
 1.709447e+01 1.182096e+01 1.002162e+01 4.815952e+01 2.342511e+01 4.525077e+01 1.398208e+06 1.000000e-02 5.590154e+05 1.000000e-02 3.162898e+06 1.000000e-02 1.033240e+04 8.020260e+03 7.680224e+03
<GCONST> 1.017374e+02
<MIXTURE> 2 3.844252e-01
<MEAN> 15
 -4.276851e+00 4.140850e+00 7.468584e+00 2.226524e+00 2.240299e+00 1.713522e+00 2.137347e+02 8.939689e-15 2.092032e+02 2.782452e-15 5.729395e+02 2.891383e-15 -1.178139e+00 2.290899e+00 -4.977061e-01
<VARIANCE> 15
 3.013247e+00 3.226316e+00 1.392939e+00 6.638928e-01 7.919467e-01 3.449747e-01 1.803391e+04 1.000000e-02 1.771983e+04 1.000000e-02 3.157958e+04 1.000000e-02 5.709498e+00 4.914030e+00 3.148214e+00
<GCONST> 4.907502e+01
<MIXTURE> 3 5.494438e-01
<MEAN> 15
 -4.759166e+00 4.213737e+00 7.300865e+00 1.095114e+00 1.038627e+00 8.623955e-01 2.399422e+02 2.689895e-15 1.896348e+02 8.475463e-16 5.383527e+02 1.149867e-15 -1.619042e-01 4.237995e-01 -9.384842e-02
<VARIANCE> 15
 1.330328e+00 1.094332e+00 5.102035e-01 2.169665e-01 1.725103e-01 9.809661e-02 1.025828e+04 1.000000e-02 7.243861e+03 1.000000e-02 1.092714e+04 1.000000e-02 2.822757e-01 2.001745e-01 2.029206e-01
<GCONST> 3.080253e+01
<STATE> 6
<NUMMIXES> 3
<MIXTURE> 1 4.021364e-01
<MEAN> 15
 -4.167932e+00 2.863566e+00 8.152835e+00 3.682629e+00 4.022871e+00 2.703491e+00 1.908148e+02 2.485632e-14 1.205866e+02 1.790385e-15 6.756990e+02 5.241517e-15 -7.094868e-01 6.718900e+00 -8.684579e-01
<VARIANCE> 15
 1.745214e+00 2.463137e+00 6.909943e-01 1.279229e+00 1.916880e+00 7.162834e-01 1.744949e+04 1.000000e-02 1.837094e+04 1.000000e-02 1.935576e+04 1.000000e-02 3.239071e+01 2.843837e+01 1.655484e+01
<GCONST> 5.449324e+01
<MIXTURE> 2 2.170917e-01
<MEAN> 15
 -4.643921e+00 2.556157e+00 7.503021e+00 6.532663e+00 5.739015e+00 4.140049e+00 3.324728e+02 4.097141e-14 1.601776e+02 6.118576e-15 6.166318e+02 1.045093e-14 -3.550286e+00 1.276669e+01 -1.042135e+00
<VARIANCE> 15
 8.801054e+00 5.956300e+00 4.226700e+00 8.670846e+00 7.366354e+00 3.711577e+00 2.269411e+05 1.000000e-02 9.546016e+04 1.000000e-02 1.051186e+05 1.000000e-02 4.407994e+02 4.514605e+02 2.539301e+02
<GCONST> 7.772163e+01
<MIXTURE> 3 3.807719e-01
<MEAN> 15
 -4.186663e+00 2.821896e+00 8.136422e+00 2.123571e+00 2.121710e+00 1.555644e+00 1.898261e+02 8.245585e-15 9.803700e+01 2.275200e-15 6.699985e+02 1.808608e-15 -4.028900e-02 1.640808e+00 -3.036413e-01
<VARIANCE> 15
 1.354716e+00 1.588579e+00 6.593212e-01 6.977328e-01 6.080039e-01 2.448768e-01 1.052371e+04 1.000000e-02 5.521048e+03 1.000000e-02 1.750084e+04 1.000000e-02 2.933480e+00 2.347680e+00 1.923325e+00
<GCONST> 4.206942e+01
<STATE> 7
<NUMMIXES> 3
<MIXTURE> 1 2.387464e-01
<MEAN> 15
 -4.078060e+00 4.154753e+00 6.188005e+00 1.952957e+00 2.452452e+00 1.404028e+00 2.886864e+02 9.670799e-15 3.150264e+02 1.011662e-14 4.460928e+02 8.203410e-15 -1.102959e+00 4.272051e-01 -4.442942e-02
<VARIANCE> 15
 1.209997e+01 1.401926e+01 6.507138e+00 1.535044e+00 2.718765e+00 8.112030e-01 6.958436e+04 1.000000e-02 9.762945e+04 1.000000e-02 1.402770e+05 1.000000e-02 2.331398e+01 1.204139e+01 6.279942e+00
<GCONST> 6.394404e+01
<MIXTURE> 2 1.589744e-01
<MEAN> 15
 -8.135817e+00 1.072203e+00 4.934259e+00 1.097853e+00 9.497174e-01 9.920467e-01 6.772986e+02 3.103785e-15 4.177559e+01 2.323024e-15 2.745609e+02 2.944303e-15 3.581082e-02 9.224864e-02 2.132866e-01
<VARIANCE> 15
 1.513548e+00 3.078837e+00 3.126482e+00 3.202360e-01 2.348080e-01 2.101727e-01 3.799405e+04 1.000000e-02 2.399738e+03 1.000000e-02 2.886450e+04 1.000000e-02 3.075423e-01 3.332328e-01 4.358878e-01
<GCONST> 3.777428e+01
<MIXTURE> 3 6.022792e-01
<MEAN> 15
 -4.916908e+00 1.415081e+00 8.215823e+00 1.599849e+00 1.473956e+00 1.017486e+00 2.481096e+02 5.007181e-15 3.059405e+01 3.891875e-15 6.785313e+02 1.960034e-15 8.751667e-02 3.215904e-01 -8.679541e-02
<VARIANCE> 15
 5.829825e-01 1.125512e+00 3.722764e-01 4.838827e-01 4.229881e-01 1.317747e-01 6.162076e+03 1.000000e-02 9.779548e+02 1.000000e-02 1.024023e+04 1.000000e-02 1.202498e+00 6.691664e-01 7.445260e-01
<GCONST> 3.306356e+01
<TRANSP> 8
 0.000000e+00 3.041576e-01 6.958424e-01 0.000000e+00 0.000000e+00 0.000000e+00 0.000000e+00 0.000000e+00
 0.000000e+00 9.078249e-01 5.172414e-02 4.045093e-02 0.000000e+00 0.000000e+00 0.000000e+00 0.000000e+00
 0.000000e+00 0.000000e+00 8.759787e-01 4.259318e-02 8.142813e-02 0.000000e+00 0.000000e+00 0.000000e+00
 0.000000e+00 0.000000e+00 0.000000e+00 9.279444e-01 1.572787e-02 5.632773e-02 0.000000e+00 0.000000e+00
 0.000000e+00 0.000000e+00 0.000000e+00 0.000000e+00 8.127317e-01 1.273177e-01 5.995056e-02 0.000000e+00
 0.000000e+00 0.000000e+00 0.000000e+00 0.000000e+00 0.000000e+00 8.759476e-01 1.309442e-02 1.109580e-01
 0.000000e+00 0.000000e+00 0.000000e+00 0.000000e+00 0.000000e+00 0.000000e+00 9.230769e-01 7.692308e-02
 0.000000e+00 0.000000e+00 0.000000e+00 0.000000e+00 0.000000e+00 0.000000e+00 0.000000e+00 0.000000e+00
<ENDHMM>
