~o
<STREAMINFO> 1 15
<VECSIZE> 15<NULLD><MFCC><DIAGC>
~h "Activity3"
<BEGINHMM>
<NUMSTATES> 8
<STATE> 2
<NUMMIXES> 3
<MIXTURE> 1 8.372352e-01
<MEAN> 15
 -8.957366e+00 1.211893e+00 2.236987e+00 1.059486e-01 1.248750e-01 1.299666e-01 8.031925e+02 5.465316e-17 9.196263e+01 8.512526e-17 5.644107e+01 5.815534e-17 1.912065e-03 -6.762888e-05 4.473700e-04
<VARIANCE> 15
 8.670555e-02 7.730406e+00 6.416502e-01 1.000000e-02 1.000000e-02 1.000000e-02 2.824426e+03 1.000000e-02 1.911721e+03 1.000000e-02 1.148349e+03 1.000000e-02 1.000000e-02 1.000000e-02 1.000000e-02
<GCONST> 7.825731e+00
<MIXTURE> 2 1.282051e-01
<MEAN> 15
 7.574245e-02 4.291659e+00 3.027816e+00 1.546486e-01 2.461299e-01 1.921902e-01 1.416986e+02 1.446518e-16 6.548462e+02 3.673025e-16 1.415613e+02 1.540630e-16 -2.258698e-03 -6.106815e-03 -5.470142e-03
<VARIANCE> 15
 1.417036e+01 4.707886e+01 4.992858e+00 1.010661e-02 2.760339e-02 1.098009e-02 3.090905e+04 1.000000e-02 4.666046e+04 1.000000e-02 1.259232e+04 1.000000e-02 1.000000e-02 1.000000e-02 1.000000e-02
<GCONST> 2.588236e+01
<MIXTURE> 3 3.455964e-02
<MEAN> 15
 -1.762213e+00 4.926595e+00 4.580302e+00 5.224341e-01 1.025678e+00 6.344466e-01 2.046026e+02 1.985950e-15 5.656442e+02 7.744760e-15 3.064665e+02 3.622297e-15 -2.175779e-01 4.363089e-02 -8.818822e-02
<VARIANCE> 15
 1.745350e+01 3.263061e+01 9.822702e+00 9.646191e-02 3.686687e-01 1.634006e-01 1.045231e+05 1.000000e-02 1.658718e+05 1.000000e-02 1.007271e+05 1.000000e-02 3.651847e-01 4.017386e-01 9.685445e-02
<GCONST> 4.807657e+01
<STATE> 3
<NUMMIXES> 3
<MIXTURE> 1 6.173853e-01
<MEAN> 15
 -8.418017e+00 3.315808e+00 2.949221e+00 2.375710e-01 2.939481e-01 2.531510e-01 7.158651e+02 4.349817e-16 1.444822e+02 5.254167e-16 1.080510e+02 3.996940e-16 -5.014233e-03 7.711575e-03 -6.516806e-03
<VARIANCE> 15
 7.413710e-01 3.470192e+00 2.121240e+00 2.584044e-02 4.060478e-02 2.356011e-02 2.147837e+04 1.000000e-02 1.037533e+04 1.000000e-02 5.650834e+03 1.000000e-02 1.000000e-02 1.000000e-02 1.000000e-02
<GCONST> 1.888775e+01
<MIXTURE> 2 7.049966e-02
<MEAN> 15
 -6.979944e+00 4.801169e+00 3.009319e+00 1.594899e+00 2.918377e+00 1.999548e+00 6.487682e+02 1.749839e-14 5.167017e+02 5.024104e-14 2.290618e+02 1.841790e-14 -1.660881e+00 -1.158860e+00 -8.581035e-01
<VARIANCE> 15
 1.698768e+01 3.112492e+01 1.454210e+01 1.312067e+00 4.095966e+00 2.346924e+00 2.854157e+05 1.000000e-02 6.119366e+05 1.000000e-02 1.069542e+05 1.000000e-02 6.238663e+01 1.645642e+02 3.268505e+01
<GCONST> 7.542471e+01
<MIXTURE> 3 3.121150e-01
<MEAN> 15
 -6.423910e+00 3.366832e+00 3.551742e+00 6.192462e-01 9.157811e-01 6.428041e-01 5.674981e+02 3.202184e-15 2.122149e+02 5.274241e-15 2.081196e+02 2.481968e-15 -4.906847e-02 6.028962e-02 -1.011868e-01
<VARIANCE> 15
 1.563389e+01 1.004303e+01 8.273026e+00 1.750929e-01 3.216318e-01 1.301768e-01 1.337266e+05 1.000000e-02 4.983520e+04 1.000000e-02 4.692021e+04 1.000000e-02 2.486664e-01 3.177020e-01 1.572119e-01
<GCONST> 4.499410e+01
<STATE> 4
<NUMMIXES> 3
<MIXTURE> 1 6.303599e-01
<MEAN> 15
 -8.544113e+00 4.720660e+00 3.480403e-01 8.666216e-02 9.674729e-02 1.192348e-01 7.302347e+02 2.149623e-17 2.233705e+02 4.475208e-17 1.788748e+00 3.709235e-17 3.636854e-03 1.043111e-03 2.474467e-03
<VARIANCE> 15
 2.198298e-02 5.391300e-02 5.838696e-02 1.000000e-02 1.000000e-02 1.000000e-02 6.403004e+02 1.000000e-02 4.829888e+02 1.000000e-02 3.970465e+00 1.000000e-02 1.000000e-02 1.000000e-02 1.000000e-02
<GCONST> -9.436093e+00
<MIXTURE> 2 2.209703e-01
<MEAN> 15
 -8.175136e+00 4.330084e+00 2.296693e+00 1.020709e-01 1.309355e-01 1.278432e-01 6.719756e+02 5.651857e-17 2.222422e+02 9.317856e-17 5.937259e+01 4.535739e-17 2.204583e-03 9.603243e-04 7.127248e-04
<VARIANCE> 15
 3.664629e-01 3.477793e+00 6.636001e-01 1.000000e-02 1.000000e-02 1.000000e-02 1.028030e+04 1.000000e-02 9.178457e+03 1.000000e-02 1.071856e+03 1.000000e-02 1.000000e-02 1.000000e-02 1.000000e-02
<GCONST> 1.129383e+01
<MIXTURE> 3 1.486698e-01
<MEAN> 15
 -7.573525e+00 3.913661e+00 4.611142e+00 8.516363e-02 9.010657e-02 1.228659e-01 5.738746e+02 1.613144e-17 1.546492e+02 1.698526e-17 2.128703e+02 3.469174e-17 1.287491e-03 2.078874e-03 2.390896e-04
<VARIANCE> 15
 2.919875e-02 1.482788e-01 2.467550e-02 1.000000e-02 1.000000e-02 1.000000e-02 6.789323e+02 1.000000e-02 8.220767e+02 1.000000e-02 2.147993e+02 1.000000e-02 1.000000e-02 1.000000e-02 1.000000e-02
<GCONST> -4.420553e+00
<STATE> 5
<NUMMIXES> 3
<MIXTURE> 1 7.674419e-01
<MEAN> 15
 -8.239760e+00 3.406098e+00 3.754266e+00 9.795386e-02 1.049440e-01 1.251501e-01 6.794143e+02 5.077873e-17 1.171976e+02 5.129131e-17 1.424621e+02 4.954187e-17 -1.768157e-04 2.497126e-03 -4.919108e-04
<VARIANCE> 15
 4.943931e-02 1.198374e-01 1.525932e-01 1.000000e-02 1.000000e-02 1.000000e-02 1.340344e+03 1.000000e-02 5.496431e+02 1.000000e-02 8.943128e+02 1.000000e-02 1.000000e-02 1.000000e-02 1.000000e-02
<GCONST> -5.809822e-01
<MIXTURE> 2 1.178295e-01
<MEAN> 15
 -3.955865e+00 1.579786e+00 2.178691e+00 3.568088e-01 5.693944e-01 3.815392e-01 4.939521e+02 1.260391e-15 3.592678e+02 2.655296e-15 9.674717e+01 1.076849e-15 -3.332630e-02 3.318758e-02 -4.542296e-02
<VARIANCE> 15
 3.380785e+01 3.354318e+01 4.973074e+00 5.939330e-02 1.385069e-01 4.703100e-02 7.847788e+04 1.000000e-02 8.905066e+04 1.000000e-02 7.022586e+03 1.000000e-02 4.662169e-02 4.314621e-02 1.925093e-02
<GCONST> 3.589822e+01
<MIXTURE> 3 1.147287e-01
<MEAN> 15
 3.681006e+00 2.557070e+00 6.277524e+00 1.326542e-01 1.971211e-01 1.721918e-01 3.342373e+02 1.061944e-16 1.821378e+02 2.459003e-16 4.179528e+02 1.109693e-16 -7.948509e-04 6.558640e-03 -3.473879e-03
<VARIANCE> 15
 1.987735e+01 1.168247e+01 2.391019e+00 1.000000e-02 2.345739e-02 1.000000e-02 6.021461e+04 1.000000e-02 1.858883e+04 1.000000e-02 4.085841e+04 1.000000e-02 1.000000e-02 1.000000e-02 1.000000e-02
<GCONST> 2.474746e+01
<STATE> 6
<NUMMIXES> 3
<MIXTURE> 1 6.564320e-01
<MEAN> 15
 -8.815433e+00 3.126578e+00 2.380067e+00 1.803415e-01 1.918111e-01 1.656166e-01 7.796454e+02 2.901641e-16 1.148159e+02 2.903266e-16 6.660141e+01 1.453800e-16 -4.229567e-05 1.933883e-03 -4.239080e-03
<VARIANCE> 15
 2.648334e-01 1.717601e+00 1.000225e+00 1.695674e-02 1.839023e-02 1.000000e-02 8.206396e+03 1.000000e-02 3.382424e+03 1.000000e-02 2.179855e+03 1.000000e-02 1.000000e-02 1.000000e-02 1.000000e-02
<GCONST> 1.129746e+01
<MIXTURE> 2 1.778719e-01
<MEAN> 15
 1.533772e+00 9.341755e+00 6.504319e-01 1.558857e-01 3.135756e-01 2.619366e-01 7.517804e+01 1.295117e-16 8.760857e+02 7.655280e-16 2.184809e+01 5.051303e-16 -1.364198e-02 -5.101138e-03 -9.871898e-03
<VARIANCE> 15
 5.168923e+00 3.637336e-01 1.777150e+00 1.075528e-02 8.571565e-02 5.057554e-02 5.359360e+03 1.000000e-02 1.229335e+04 1.000000e-02 5.728992e+02 1.000000e-02 1.000000e-02 2.342502e-02 1.000000e-02
<GCONST> 1.637545e+01
<MIXTURE> 3 1.656961e-01
<MEAN> 15
 1.111737e+00 2.278255e+00 9.224783e+00 9.074135e-02 8.123533e-02 1.215466e-01 1.279439e+01 1.759395e-17 5.256969e+01 1.597233e-17 8.510863e+02 3.120095e-17 1.752216e-03 1.200820e-03 1.048174e-03
<VARIANCE> 15
 4.371614e-02 6.672982e-02 1.227183e-02 1.000000e-02 1.000000e-02 1.000000e-02 1.786187e+01 1.000000e-02 1.267473e+02 1.000000e-02 4.199744e+02 1.000000e-02 1.000000e-02 1.000000e-02 1.000000e-02
<GCONST> -1.035091e+01
<STATE> 7
<NUMMIXES> 3
<MIXTURE> 1 9.031349e-01
<MEAN> 15
 -9.243289e+00 1.821496e+00 1.973190e+00 8.804046e-02 1.088008e-01 1.176072e-01 8.545501e+02 2.098752e-17 5.227106e+01 5.599207e-17 4.424958e+01 2.603723e-17 1.730609e-03 -6.568652e-04 2.441747e-04
<VARIANCE> 15
 1.689316e-02 1.911079e+00 5.312038e-01 1.000000e-02 1.000000e-02 1.000000e-02 5.762228e+02 1.000000e-02 1.085055e+03 1.000000e-02 6.656422e+02 1.000000e-02 1.000000e-02 1.000000e-02 1.000000e-02
<GCONST> 1.902468e+00
<MIXTURE> 2 4.684748e-02
<MEAN> 15
 -4.020311e+00 4.683929e+00 2.885436e+00 7.341223e-01 1.217360e+00 7.853006e-01 3.915095e+02 5.020905e-15 4.678379e+02 1.181786e-14 1.704387e+02 5.018812e-15 -1.714686e-01 -4.134592e-02 -3.963236e-01
<VARIANCE> 15
 2.320390e+01 2.528811e+01 8.967247e+00 2.508458e-01 6.711522e-01 3.335196e-01 1.191822e+05 1.000000e-02 1.489826e+05 1.000000e-02 2.914684e+04 1.000000e-02 1.624405e+00 1.221564e+00 7.690907e-01
<GCONST> 5.374397e+01
<MIXTURE> 3 5.001761e-02
<MEAN> 15
 3.041802e-01 7.423741e+00 2.530987e+00 2.631844e-01 4.984624e-01 4.108599e-01 3.121213e+01 4.883732e-16 6.360938e+02 1.530871e-15 2.620364e+02 8.126257e-16 -1.479826e-02 -1.950482e-02 -2.115802e-02
<VARIANCE> 15
 3.050589e+00 8.563665e+00 1.981256e+01 1.892802e-02 9.893142e-02 6.364645e-02 1.691588e+03 1.000000e-02 6.789420e+04 1.000000e-02 5.716368e+04 1.000000e-02 1.304161e-02 3.787769e-02 1.151637e-02
<GCONST> 2.840278e+01
<TRANSP> 8
 0.000000e+00 5.952891e-01 4.047109e-01 0.000000e+00 0.000000e+00 0.000000e+00 0.000000e+00 0.000000e+00
 0.000000e+00 8.966927e-01 2.601263e-02 7.729468e-02 0.000000e+00 0.000000e+00 0.000000e+00 0.000000e+00
 0.000000e+00 0.000000e+00 8.227242e-01 5.475702e-02 1.225188e-01 0.000000e+00 0.000000e+00 0.000000e+00
 0.000000e+00 0.000000e+00 0.000000e+00 9.098592e-01 3.129890e-03 8.701096e-02 0.000000e+00 0.000000e+00
 0.000000e+00 0.000000e+00 0.000000e+00 0.000000e+00 9.023256e-01 6.873384e-02 2.894057e-02 0.000000e+00
 0.000000e+00 0.000000e+00 0.000000e+00 0.000000e+00 0.000000e+00 7.824246e-01 6.087877e-02 1.566967e-01
 0.000000e+00 0.000000e+00 0.000000e+00 0.000000e+00 0.000000e+00 0.000000e+00 9.397675e-01 6.023248e-02
 0.000000e+00 0.000000e+00 0.000000e+00 0.000000e+00 0.000000e+00 0.000000e+00 0.000000e+00 0.000000e+00
<ENDHMM>
