~o
<STREAMINFO> 1 15
<VECSIZE> 15<NULLD><MFCC><DIAGC>
~h "Activity2"
<BEGINHMM>
<NUMSTATES> 8
<STATE> 2
<NUMMIXES> 3
<MIXTURE> 1 1.338645e-01
<MEAN> 15
 2.436812e+00 7.538229e+00 1.498346e+00 2.845947e-01 6.744679e-01 5.451550e-01 1.718904e+02 3.611404e-16 5.843522e+02 2.589150e-15 2.087407e+02 1.977741e-15 8.615161e-03 -3.220133e-02 -5.435923e-02
<VARIANCE> 15
 1.126740e+01 1.711460e+00 1.870109e+01 3.686652e-02 1.947123e-01 1.224375e-01 1.834992e+04 1.000000e-02 3.837226e+04 1.000000e-02 3.944003e+04 1.000000e-02 2.152989e-02 1.512967e-01 1.539620e-02
<GCONST> 3.365820e+01
<MIXTURE> 2 6.585658e-01
<MEAN> 15
 -1.537055e+00 6.204855e+00 7.233850e+00 8.685473e-02 1.040211e-01 1.187547e-01 3.942669e+01 2.482076e-17 3.859862e+02 4.250608e-17 5.238150e+02 2.202603e-17 1.366249e-03 -1.138580e-03 1.286264e-04
<VARIANCE> 15
 1.580782e+00 9.934737e-02 5.254968e-02 1.000000e-02 1.000000e-02 1.000000e-02 5.235493e+02 1.000000e-02 1.522409e+03 1.000000e-02 1.097626e+03 1.000000e-02 1.000000e-02 1.000000e-02 1.000000e-02
<GCONST> 1.914000e+00
<MIXTURE> 3 2.075697e-01
<MEAN> 15
 -1.798567e-01 8.341573e+00 4.389122e+00 1.001404e-01 1.444139e-01 1.347597e-01 5.370888e+01 4.073196e-17 6.974699e+02 9.980499e-17 2.019844e+02 5.334943e-17 6.268743e-04 -3.079791e-03 -4.740776e-04
<VARIANCE> 15
 5.339471e+00 1.667606e-01 9.353591e-01 1.000000e-02 1.432749e-02 1.000000e-02 3.155343e+03 1.000000e-02 4.527791e+03 1.000000e-02 7.168986e+03 1.000000e-02 1.000000e-02 1.000000e-02 1.000000e-02
<GCONST> 1.165069e+01
<STATE> 3
<NUMMIXES> 3
<MIXTURE> 1 6.349925e-01
<MEAN> 15
 -1.714862e-01 8.068227e+00 2.324051e+00 9.595258e-02 1.080896e-01 1.279589e-01 1.858171e+00 3.804089e-17 8.752427e+02 4.290861e-17 7.873328e+01 5.501229e-17 9.665811e-04 -1.681356e-03 -1.666657e-04
<VARIANCE> 15
 1.574822e-01 2.242841e+01 2.473419e+00 1.000000e-02 1.000000e-02 1.000000e-02 6.825259e+00 1.000000e-02 1.172234e+03 1.000000e-02 9.676530e+02 1.000000e-02 1.000000e-02 1.000000e-02 1.000000e-02
<GCONST> 4.151278e+00
<MIXTURE> 2 1.478130e-01
<MEAN> 15
 -1.856505e+00 1.596720e+00 6.998483e+00 5.577779e-01 1.002732e+00 8.402874e-01 6.349189e+01 2.291577e-15 3.552404e+02 1.045431e-14 5.413773e+02 8.566314e-15 2.042975e-02 -1.837393e-04 -2.334401e-01
<VARIANCE> 15
 2.982277e+00 3.327217e+01 5.475517e+00 3.113008e-01 1.187062e+00 7.205542e-01 4.537802e+03 1.000000e-02 1.194470e+05 1.000000e-02 5.728982e+04 1.000000e-02 9.101447e-01 4.490278e+00 7.512151e-01
<GCONST> 5.091549e+01
<MIXTURE> 3 2.171946e-01
<MEAN> 15
 -2.583480e+00 3.545784e+00 1.958851e+00 3.844968e-01 6.614087e-01 4.216552e-01 2.711648e+02 1.386922e-15 6.141474e+02 4.213678e-15 8.618536e+01 1.440346e-15 6.930575e-02 7.333879e-03 2.838459e-03
<VARIANCE> 15
 2.050336e+01 4.901497e+01 4.828642e+00 1.416318e-01 3.365328e-01 9.769773e-02 9.636905e+04 1.000000e-02 1.539857e+05 1.000000e-02 8.883192e+03 1.000000e-02 2.615158e-01 1.797909e-01 5.517412e-02
<GCONST> 4.342845e+01
<STATE> 4
<NUMMIXES> 3
<MIXTURE> 1 2.365375e-02
<MEAN> 15
 -1.061108e+00 -1.394214e+00 3.964441e+00 2.359539e+00 3.887914e+00 3.246185e+00 6.835296e+01 7.063572e-14 7.049687e+02 1.855750e-14 2.621141e+02 5.958118e-15 1.346074e+01 1.715975e+01 1.010946e+01
<VARIANCE> 15
 1.027666e+01 7.423246e+01 1.872783e+01 2.879010e+01 2.249619e+01 2.840430e+01 1.509969e+05 1.000000e-02 5.587165e+05 1.000000e-02 2.149672e+05 1.000000e-02 5.109474e+03 2.109959e+04 9.256228e+03
<GCONST> 9.820521e+01
<MIXTURE> 2 8.198289e-01
<MEAN> 15
 -2.396658e+00 6.784085e-01 6.791066e+00 8.076716e-02 8.215318e-02 1.092687e-01 5.933224e+01 1.576401e-17 4.165024e+02 1.811801e-17 4.619111e+02 1.415904e-17 1.521776e-03 1.333257e-04 4.442153e-04
<VARIANCE> 15
 1.894197e-01 4.119020e+01 7.197724e-02 1.000000e-02 1.000000e-02 1.000000e-02 4.371937e+02 1.000000e-02 2.471901e+03 1.000000e-02 1.363201e+03 1.000000e-02 1.000000e-02 1.000000e-02 1.000000e-02
<GCONST> 6.655337e+00
<MIXTURE> 3 1.565174e-01
<MEAN> 15
 -5.708147e-01 5.264458e+00 5.866920e+00 1.914586e-01 3.800354e-01 2.779409e-01 6.128118e+01 2.042445e-16 5.164413e+02 1.095165e-15 3.669149e+02 6.328746e-16 -2.346186e-03 6.629230e-03 -1.444173e-02
<VARIANCE> 15
 5.809416e+00 2.396155e+01 2.294391e+00 2.493184e-02 1.272535e-01 4.980317e-02 1.789128e+04 1.000000e-02 3.937381e+04 1.000000e-02 2.747544e+04 1.000000e-02 1.004779e-02 2.707921e-02 1.000000e-02
<GCONST> 2.854559e+01
<STATE> 5
<NUMMIXES> 3
<MIXTURE> 1 2.012320e-01
<MEAN> 15
 -1.312482e+00 -1.448098e+00 1.194012e+00 1.663181e-01 2.358272e-01 2.011674e-01 5.687487e+01 9.690839e-17 6.741302e+02 2.211644e-16 2.274544e+02 1.724022e-16 7.357054e-03 1.143963e-03 4.489623e-04
<VARIANCE> 15
 3.962504e+00 6.531372e+01 2.132295e+01 2.240450e-02 4.068372e-02 1.669427e-02 8.805369e+03 1.000000e-02 5.506072e+04 1.000000e-02 4.287816e+04 1.000000e-02 1.000000e-02 1.000000e-02 1.000000e-02
<GCONST> 2.812531e+01
<MIXTURE> 2 6.344969e-01
<MEAN> 15
 -3.010020e+00 4.084596e+00 8.090666e+00 9.463399e-02 1.035163e-01 1.105193e-01 9.690099e+01 2.548429e-17 1.843553e+02 5.423539e-17 6.553774e+02 2.444246e-17 1.662659e-03 -4.264113e-04 3.836195e-04
<VARIANCE> 15
 6.298946e-01 1.752932e+00 7.889860e-02 1.000000e-02 1.000000e-02 1.000000e-02 2.862723e+03 1.000000e-02 8.120788e+03 1.000000e-02 2.052427e+03 1.000000e-02 1.000000e-02 1.000000e-02 1.000000e-02
<GCONST> 8.269602e+00
<MIXTURE> 3 1.642710e-01
<MEAN> 15
 9.153999e+00 -3.948351e-01 3.203988e+00 9.514299e-02 2.592751e-01 1.869532e-01 8.380559e+02 1.337696e-17 4.478707e+00 3.330280e-16 1.037360e+02 1.791542e-16 1.981833e-03 6.895164e-03 -3.914150e-03
<VARIANCE> 15
 1.000000e-02 3.056293e-01 1.158301e-01 1.000000e-02 2.363469e-02 1.000000e-02 3.260078e+02 1.000000e-02 2.497335e+01 1.000000e-02 4.862228e+02 1.000000e-02 1.000000e-02 1.000000e-02 1.000000e-02
<GCONST> -5.773031e+00
<STATE> 6
<NUMMIXES> 3
<MIXTURE> 1 4.280951e-01
<MEAN> 15
 2.316594e-01 8.298289e+00 5.012095e+00 8.364879e-02 8.856307e-02 1.108981e-01 3.942125e+00 2.203478e-17 6.897004e+02 2.393553e-17 2.538511e+02 1.902569e-17 1.402285e-03 -4.972015e-04 5.554263e-04
<VARIANCE> 15
 3.410518e-01 1.086423e-01 2.636873e-01 1.000000e-02 1.000000e-02 1.000000e-02 3.129224e+01 1.000000e-02 2.955284e+03 1.000000e-02 2.677769e+03 1.000000e-02 1.000000e-02 1.000000e-02 1.000000e-02
<GCONST> 8.206768e-01
<MIXTURE> 2 4.927762e-01
<MEAN> 15
 -7.815747e-01 6.934687e+00 6.675982e+00 8.606685e-02 9.051417e-02 1.142019e-01 1.142857e+01 2.133974e-17 4.815626e+02 2.957948e-17 4.464061e+02 1.580752e-17 1.467674e-03 -3.595659e-04 -4.588185e-05
<VARIANCE> 15
 5.323192e-01 6.701037e-02 7.119230e-02 1.000000e-02 1.000000e-02 1.000000e-02 1.440667e+02 1.000000e-02 1.294801e+03 1.000000e-02 1.253636e+03 1.000000e-02 1.000000e-02 1.000000e-02 1.000000e-02
<GCONST> -5.839767e-01
<MIXTURE> 3 7.912870e-02
<MEAN> 15
 -7.851721e+00 4.068456e+00 4.092605e+00 5.677395e-02 7.268780e-02 1.028331e-01 6.165055e+02 1.727248e-18 1.655578e+02 6.765480e-18 1.675708e+02 1.392092e-18 1.101156e-03 3.860088e-04 3.154812e-04
<VARIANCE> 15
 1.000000e-02 1.000000e-02 1.000000e-02 1.000000e-02 1.000000e-02 1.000000e-02 1.831607e+01 1.000000e-02 2.104445e+01 1.000000e-02 4.446001e+01 1.000000e-02 1.000000e-02 1.000000e-02 1.000000e-02
<GCONST> -1.794488e+01
<STATE> 7
<NUMMIXES> 3
<MIXTURE> 1 5.085778e-01
<MEAN> 15
 -1.994597e+00 -9.564078e+00 5.713863e-01 8.223003e-02 1.164810e-01 1.194691e-01 3.994343e+01 1.029752e-17 9.147525e+02 7.351087e-17 6.496868e+00 4.480045e-17 6.635126e-04 3.894750e-03 -2.757617e-04
<VARIANCE> 15
 1.568878e-02 1.000000e-02 3.242258e-01 1.000000e-02 1.000000e-02 1.000000e-02 2.533169e+01 1.000000e-02 2.099711e+02 1.000000e-02 1.662277e+01 1.000000e-02 1.000000e-02 1.000000e-02 1.000000e-02
<GCONST> -1.237487e+01
<MIXTURE> 2 1.505257e-01
<MEAN> 15
 -3.453162e-01 2.330756e+00 3.635787e+00 4.838299e-01 1.024038e+00 6.831562e-01 1.164026e+02 1.619014e-15 5.633729e+02 6.753293e-15 2.868073e+02 3.105551e-15 3.297920e-02 7.513421e-02 -1.225604e-01
<VARIANCE> 15
 1.157162e+01 5.114404e+01 1.558732e+01 1.029902e-01 4.875539e-01 1.983325e-01 2.516344e+04 1.000000e-02 1.204990e+05 1.000000e-02 6.786524e+04 1.000000e-02 3.357225e-01 6.203693e-01 1.769821e-01
<GCONST> 4.793022e+01
<MIXTURE> 3 3.408965e-01
<MEAN> 15
 -3.225698e+00 2.742619e+00 6.427534e+00 1.340854e-01 1.739457e-01 1.516912e-01 2.205189e+02 1.006426e-16 2.699136e+02 1.882974e-16 4.440176e+02 8.755050e-17 3.182243e-03 1.225076e-03 -2.877410e-04
<VARIANCE> 15
 1.165004e+01 1.947361e+01 3.090759e+00 1.000000e-02 2.058733e-02 1.000000e-02 5.612512e+04 1.000000e-02 4.020288e+04 1.000000e-02 4.203813e+04 1.000000e-02 1.000000e-02 1.000000e-02 1.000000e-02
<GCONST> 2.557986e+01
<TRANSP> 8
 0.000000e+00 6.136866e-01 3.863135e-01 0.000000e+00 0.000000e+00 0.000000e+00 0.000000e+00 0.000000e+00
 0.000000e+00 8.892430e-01 1.075697e-02 9.999999e-02 0.000000e+00 0.000000e+00 0.000000e+00 0.000000e+00
 0.000000e+00 0.000000e+00 8.476622e-01 5.279034e-02 9.954751e-02 0.000000e+00 0.000000e+00 0.000000e+00
 0.000000e+00 0.000000e+00 0.000000e+00 8.384499e-01 3.875189e-02 1.227982e-01 0.000000e+00 0.000000e+00
 0.000000e+00 0.000000e+00 0.000000e+00 0.000000e+00 8.569473e-01 2.053389e-03 1.409993e-01 0.000000e+00
 0.000000e+00 0.000000e+00 0.000000e+00 0.000000e+00 0.000000e+00 9.450989e-01 3.111803e-03 5.178928e-02
 0.000000e+00 0.000000e+00 0.000000e+00 0.000000e+00 0.000000e+00 0.000000e+00 8.782513e-01 1.217487e-01
 0.000000e+00 0.000000e+00 0.000000e+00 0.000000e+00 0.000000e+00 0.000000e+00 0.000000e+00 0.000000e+00
<ENDHMM>
