~o
<STREAMINFO> 1 15
<VECSIZE> 15<NULLD><MFCC><DIAGC>
~h "Activity5"
<BEGINHMM>
<NUMSTATES> 8
<STATE> 2
<NUMMIXES> 3
<MIXTURE> 1 2.745098e-01
<MEAN> 15
 -1.790412e+01 2.184551e+01 -5.245494e+00 1.749794e+01 2.579127e+01 5.863554e+00 3.319333e+03 1.831982e-12 7.985429e+03 5.885794e-12 7.087796e+02 4.315976e-13 -3.937303e+02 -1.161528e+02 5.612815e+01
<VARIANCE> 15
 1.105026e+02 6.629210e+02 6.399587e+01 2.265400e+01 7.080462e+01 2.391928e+01 1.914627e+07 1.000000e-02 3.651157e+07 1.000000e-02 1.009211e+06 1.000000e-02 5.483762e+04 3.547516e+04 4.821556e+03
<GCONST> 1.175431e+02
<MIXTURE> 2 5.098040e-01
<MEAN> 15
 -2.432924e+00 8.175339e+00 7.696500e-01 3.530324e+00 7.891635e+00 1.477741e+00 1.166825e+03 9.741951e-14 8.781718e+02 5.677497e-13 1.463240e+01 1.781823e-14 -2.751497e+01 4.347594e+00 -1.180162e+00
<VARIANCE> 15
 1.150729e+02 5.114635e+01 1.795946e+00 2.956497e+00 1.383404e+01 5.751523e-01 1.736672e+06 1.000000e-02 8.826194e+05 1.000000e-02 1.040703e+03 1.000000e-02 5.722423e+02 1.371969e+02 2.812968e+01
<GCONST> 7.579004e+01
<MIXTURE> 3 2.156863e-01
<MEAN> 15
 -1.878151e+01 3.163282e+01 3.478394e+00 8.961445e+00 1.176064e+01 1.821925e+00 3.679865e+03 3.888808e-13 9.479485e+03 1.283111e-12 1.452021e+02 1.727911e-14 -6.643397e+01 1.466228e+01 -1.132791e+01
<VARIANCE> 15
 2.382909e+01 1.880968e+01 3.159298e+00 6.738481e+00 2.973200e+01 4.009157e-01 3.106498e+06 1.000000e-02 1.025918e+07 1.000000e-02 1.365758e+04 1.000000e-02 3.398505e+03 9.318293e+01 1.173912e+02
<GCONST> 8.344022e+01
<STATE> 3
<NUMMIXES> 3
<MIXTURE> 1 1.740088e-01
<MEAN> 15
 -9.800644e+00 1.676599e+01 4.904817e+00 5.891423e+00 1.201705e+01 3.794093e+00 1.407766e+03 2.997089e-13 3.072128e+03 1.111694e-12 3.072455e+02 1.195684e-13 -6.345579e+01 3.962735e+01 -1.744724e+01
<VARIANCE> 15
 6.016427e+01 8.088250e+01 1.257832e+01 5.420971e+00 8.048180e+00 2.157709e+00 2.524157e+06 1.000000e-02 1.202630e+07 1.000000e-02 1.597821e+05 1.000000e-02 1.367627e+03 7.250574e+02 1.739007e+02
<GCONST> 9.131062e+01
<MIXTURE> 2 4.530103e-01
<MEAN> 15
 -5.765690e-01 -7.321599e-01 4.926433e-01 1.802553e+00 3.033009e+00 1.143916e+00 5.023253e+02 2.859960e-14 3.358108e+02 7.829863e-14 4.564987e+01 1.012339e-14 -5.227872e+00 3.216991e+00 -1.435780e+00
<VARIANCE> 15
 5.125449e+01 3.659532e+01 4.733769e+00 9.913711e-01 3.367085e+00 4.182875e-01 9.678706e+04 1.000000e-02 1.438564e+05 1.000000e-02 3.556358e+03 1.000000e-02 3.046109e+01 1.624384e+01 4.120365e+00
<GCONST> 6.233132e+01
<MIXTURE> 3 3.729809e-01
<MEAN> 15
 -9.897736e+00 1.659942e+01 6.330459e+00 4.081753e+00 6.956848e+00 2.298079e+00 1.343245e+03 1.259618e-13 3.631369e+03 3.366949e-13 5.703846e+02 3.521671e-14 -1.815436e+01 1.390519e+01 -5.984327e+00
<VARIANCE> 15
 4.159688e+01 1.017978e+02 1.830330e+01 2.679036e+00 4.703877e+00 9.237188e-01 1.312586e+06 1.000000e-02 1.034546e+07 1.000000e-02 3.568457e+05 1.000000e-02 2.673726e+02 8.205789e+01 3.181386e+01
<GCONST> 8.394583e+01
<STATE> 4
<NUMMIXES> 3
<MIXTURE> 1 1.590629e-01
<MEAN> 15
 -1.854963e+01 2.595690e+01 3.014390e+00 9.733547e+00 1.506042e+01 2.446303e+00 3.659849e+03 5.530005e-13 6.968313e+03 1.376675e-12 1.140702e+02 2.878593e-14 -1.075966e+02 2.972425e+01 -1.859044e+01
<VARIANCE> 15
 4.358369e+01 7.341904e+01 3.304147e+00 4.702605e+00 2.278237e+01 7.841437e-01 5.566240e+06 1.000000e-02 2.060291e+07 1.000000e-02 1.457040e+04 1.000000e-02 4.147896e+03 5.102259e+02 1.501683e+02
<GCONST> 8.898651e+01
<MIXTURE> 2 4.537608e-01
<MEAN> 15
 -2.078347e+00 6.413487e-01 -1.724200e-01 9.604594e-01 2.091391e+00 4.430693e-01 6.824245e+02 7.405210e-15 1.854696e+02 4.364863e-14 6.282494e+00 1.120479e-15 -2.142959e+00 1.585233e-01 -7.853714e-02
<VARIANCE> 15
 6.421342e+01 1.988153e+01 6.423535e-01 3.277626e-01 2.630568e+00 6.080665e-02 9.098948e+04 1.000000e-02 3.184862e+04 1.000000e-02 8.926961e+01 1.000000e-02 7.400659e+00 8.634039e-01 1.345980e-01
<GCONST> 4.364185e+01
<MIXTURE> 3 3.871763e-01
<MEAN> 15
 -5.970097e+00 1.685155e+01 -7.680436e-01 3.849441e+00 7.868452e+00 8.866371e-01 8.145958e+02 1.221792e-13 3.916020e+03 4.730772e-13 2.475789e+01 5.053607e-15 -2.301495e+01 -2.614257e+00 -3.994200e-01
<VARIANCE> 15
 5.074205e+01 1.297392e+02 2.087910e+00 4.549536e+00 8.218782e+00 1.574396e-01 7.684891e+05 1.000000e-02 1.725388e+07 1.000000e-02 1.165413e+03 1.000000e-02 5.459671e+02 4.996264e+01 1.140966e+01
<GCONST> 7.497868e+01
<STATE> 5
<NUMMIXES> 3
<MIXTURE> 1 2.160393e-01
<MEAN> 15
 -1.759496e+01 3.822963e+01 -9.025213e+00 1.782325e+01 3.249173e+01 9.368043e+00 4.196394e+03 1.402504e-12 1.333401e+04 5.989768e-12 9.908660e+02 4.884564e-13 -4.543453e+02 -2.409342e+02 1.154553e+02
<VARIANCE> 15
 1.564163e+02 1.129363e+02 3.786707e+01 3.838028e+01 5.625307e+01 2.554865e+01 3.013476e+07 1.000000e-02 1.029960e+08 1.000000e-02 1.799348e+06 1.000000e-02 7.174299e+04 5.364657e+04 1.517901e+04
<GCONST> 1.198571e+02
<MIXTURE> 2 4.631751e-01
<MEAN> 15
 -3.042283e-01 -1.326747e+00 -5.065095e-01 1.858223e+00 3.225022e+00 1.382293e+00 1.276201e+03 2.299713e-14 3.435695e+02 8.374705e-14 1.059621e+02 1.317262e-14 -5.092136e-01 9.680651e-01 1.467214e-01
<VARIANCE> 15
 1.282823e+02 3.588018e+01 1.090541e+01 9.224175e-01 4.365659e+00 6.242140e-01 4.136999e+05 1.000000e-02 1.951133e+05 1.000000e-02 1.360208e+04 1.000000e-02 3.140769e+01 3.037910e+01 4.833345e+00
<GCONST> 6.856662e+01
<MIXTURE> 3 3.207856e-01
<MEAN> 15
 -1.075237e+01 -4.148183e+00 -1.797787e+00 6.866017e+00 1.338276e+01 3.145073e+00 2.494180e+03 3.338903e-13 3.664542e+03 1.184991e-12 1.337848e+02 6.555479e-14 -1.512393e+01 -3.718647e+00 1.340409e-01
<VARIANCE> 15
 1.448623e+02 3.995020e+02 1.362893e+01 1.476219e+01 3.555449e+01 2.485961e+00 7.422968e+06 1.000000e-02 2.290470e+07 1.000000e-02 3.872072e+04 1.000000e-02 1.249905e+04 2.199617e+03 4.268667e+02
<GCONST> 1.010216e+02
<STATE> 6
<NUMMIXES> 3
<MIXTURE> 1 2.125604e-01
<MEAN> 15
 -2.733191e+01 1.756757e+01 1.308513e+00 1.322634e+01 1.448405e+01 6.961210e+00 1.115025e+04 1.247656e-12 9.958544e+03 1.572746e-12 8.999477e+02 4.729368e-13 -6.925765e+01 9.356661e+01 -4.879920e+01
<VARIANCE> 15
 4.126260e+02 7.527303e+02 1.163399e+02 3.568296e+01 6.192838e+01 1.519549e+01 1.798980e+08 1.000000e-02 8.113998e+07 1.000000e-02 2.742304e+06 1.000000e-02 1.108041e+04 1.745203e+04 3.999342e+03
<GCONST> 1.209950e+02
<MIXTURE> 2 4.202898e-01
<MEAN> 15
 -4.357237e+00 3.668419e+00 9.675452e-01 2.908753e+00 6.242352e+00 2.017546e+00 8.032487e+02 6.601131e-14 6.905800e+02 3.556001e-13 9.352223e+01 3.855276e-14 -1.789153e+01 9.264824e+00 -4.334852e+00
<VARIANCE> 15
 6.402755e+01 7.267350e+01 1.046477e+01 2.005189e+00 1.149630e+01 1.497804e+00 5.790908e+05 1.000000e-02 6.343191e+05 1.000000e-02 2.051333e+04 1.000000e-02 3.351168e+02 2.012874e+02 3.280067e+01
<GCONST> 7.925572e+01
<MIXTURE> 3 3.671498e-01
<MEAN> 15
 -1.017661e+01 2.302293e+01 7.693570e+00 5.563223e+00 8.461139e+00 3.182971e+00 1.619876e+03 2.924045e-13 5.486957e+03 5.451686e-13 7.906860e+02 9.092142e-14 -3.250010e+01 2.468010e+01 -1.382482e+01
<VARIANCE> 15
 7.135100e+01 4.149267e+01 2.392361e+01 9.209624e+00 9.309711e+00 2.790938e+00 2.320266e+06 1.000000e-02 9.475066e+06 1.000000e-02 5.898136e+05 1.000000e-02 1.233442e+03 4.320474e+02 2.328385e+02
<GCONST> 9.304369e+01
<STATE> 7
<NUMMIXES> 3
<MIXTURE> 1 8.695652e-02
<MEAN> 15
 -1.264582e+01 5.125634e+01 -1.295766e+01 2.133736e+01 3.786641e+01 1.179144e+01 2.299456e+03 1.129289e-12 3.320898e+04 -3.332919e-12 2.260760e+03 -3.173757e-13 -5.893907e+02 -3.805255e+02 1.499264e+02
<VARIANCE> 15
 1.337746e+01 5.029141e+00 1.034685e+01 1.071685e+01 1.677517e+01 7.004110e+00 1.011721e+07 1.000000e-02 4.811352e+07 1.000000e-02 9.914327e+05 1.000000e-02 2.828502e+04 1.171362e+04 4.214207e+03
<GCONST> 1.030269e+02
<MIXTURE> 2 6.449276e-01
<MEAN> 15
 2.908490e+00 5.647117e-01 2.411525e-01 1.801524e+00 2.566449e+00 1.271633e+00 9.634093e+02 1.787309e-14 1.513297e+02 5.454647e-14 3.715967e+01 1.283518e-14 -1.399012e+00 5.612435e-01 -9.958719e-02
<VARIANCE> 15
 8.816273e+01 1.724055e+01 4.174052e+00 9.212981e-01 3.793666e+00 6.285992e-01 2.288060e+05 1.000000e-02 5.406789e+04 1.000000e-02 2.743338e+03 1.000000e-02 2.709387e+01 1.964344e+01 5.814886e+00
<GCONST> 6.248811e+01
<MIXTURE> 3 2.681159e-01
<MEAN> 15
 -1.425923e+01 1.673522e+01 -3.565562e+00 9.028049e+00 1.475138e+01 2.723395e+00 2.077439e+03 8.607937e-13 6.478723e+03 1.829772e-12 2.482394e+02 3.702144e-14 -1.405985e+02 -1.337462e+01 6.736620e+00
<VARIANCE> 15
 4.255761e+01 4.518079e+02 1.289106e+01 4.948110e+01 6.850743e+01 1.525967e+00 3.789352e+06 1.000000e-02 5.897520e+07 1.000000e-02 9.138638e+04 1.000000e-02 3.301938e+04 7.597956e+02 2.034190e+02
<GCONST> 1.015408e+02
<TRANSP> 8
 0.000000e+00 3.018868e-01 6.981132e-01 0.000000e+00 0.000000e+00 0.000000e+00 0.000000e+00 0.000000e+00
 0.000000e+00 3.725490e-01 4.705882e-01 1.568628e-01 0.000000e+00 0.000000e+00 0.000000e+00 0.000000e+00
 0.000000e+00 0.000000e+00 9.280470e-01 3.964758e-02 3.230543e-02 0.000000e+00 0.000000e+00 0.000000e+00
 0.000000e+00 0.000000e+00 0.000000e+00 9.235511e-01 9.864367e-03 6.658446e-02 0.000000e+00 0.000000e+00
 0.000000e+00 0.000000e+00 0.000000e+00 0.000000e+00 9.148936e-01 5.891980e-02 2.618658e-02 0.000000e+00
 0.000000e+00 0.000000e+00 0.000000e+00 0.000000e+00 0.000000e+00 5.652174e-01 1.449275e-01 2.898551e-01
 0.000000e+00 0.000000e+00 0.000000e+00 0.000000e+00 0.000000e+00 0.000000e+00 6.666667e-01 3.333333e-01
 0.000000e+00 0.000000e+00 0.000000e+00 0.000000e+00 0.000000e+00 0.000000e+00 0.000000e+00 0.000000e+00
<ENDHMM>
