~o
<STREAMINFO> 1 15
<VECSIZE> 15<NULLD><MFCC><DIAGC>
~h "Activity1"
<BEGINHMM>
<NUMSTATES> 8
<STATE> 2
<NUMMIXES> 3
<MIXTURE> 1 9.525201e-01
<MEAN> 15
 4.342278e-01 4.734245e+00 8.500038e+00 7.300380e-02 6.851532e-02 1.007650e-01 1.919382e+00 1.758908e-19 2.264154e+02 4.651591e-18 7.233238e+02 2.682830e-19 1.478134e-03 -1.259392e-04 2.206869e-04
<VARIANCE> 15
 1.000000e-02 2.281485e-01 8.070233e-02 1.000000e-02 1.000000e-02 1.000000e-02 1.811488e-01 1.000000e-02 2.402807e+03 1.000000e-02 2.209426e+03 1.000000e-02 1.000000e-02 1.000000e-02 1.000000e-02
<GCONST> -8.701849e+00
<MIXTURE> 2 2.593134e-02
<MEAN> 15
 7.859138e+00 1.935830e+00 3.398644e+00 3.156429e-01 4.539453e-01 2.961946e-01 6.298151e+02 6.125088e-16 1.382953e+02 1.651105e-15 1.768011e+02 7.589559e-16 -7.079065e-03 8.982264e-03 -3.418926e-02
<VARIANCE> 15
 1.228565e+00 1.015217e+01 6.154875e+00 6.849274e-02 9.434324e-02 4.280014e-02 2.466924e+04 1.000000e-02 2.081123e+04 1.000000e-02 2.031706e+04 1.000000e-02 2.736584e-02 3.857320e-02 1.202817e-02
<GCONST> 2.860198e+01
<MIXTURE> 3 2.154857e-02
<MEAN> 15
 9.322611e-01 4.908562e+00 5.494878e+00 2.724014e-01 5.719451e-01 4.420744e-01 1.534074e+01 3.592605e-16 4.764701e+02 1.116891e-15 5.227061e+02 1.718423e-15 -6.833297e-04 2.365202e-02 -5.376454e-02
<VARIANCE> 15
 6.769289e-01 2.356157e+01 2.215270e+01 6.483251e-02 1.100555e-01 8.994913e-02 2.958674e+02 1.000000e-02 1.146561e+05 1.000000e-02 1.069346e+05 1.000000e-02 3.396335e-02 4.352053e-02 3.148192e-02
<GCONST> 3.121304e+01
<STATE> 3
<NUMMIXES> 3
<MIXTURE> 1 7.406364e-02
<MEAN> 15
 5.601386e+00 -3.029248e-01 6.607185e+00 1.296586e-01 2.446785e-01 1.796518e-01 3.288640e+02 1.697827e-16 3.859918e+01 1.300616e-15 5.693455e+02 1.616946e-16 2.182362e-02 -2.340423e-02 -2.003307e-02
<VARIANCE> 15
 1.519358e+00 3.821813e+00 1.327426e+01 2.356147e-02 1.826568e-01 4.326157e-02 1.107661e+04 1.000000e-02 3.438784e+03 1.000000e-02 1.736657e+04 1.000000e-02 4.076623e-02 7.733421e-02 1.054494e-02
<GCONST> 2.641484e+01
<MIXTURE> 2 8.918614e-01
<MEAN> 15
 6.838700e+00 2.738867e+00 6.184054e+00 7.433711e-02 1.041425e-01 1.054908e-01 4.689822e+02 7.469097e-18 8.832858e+01 5.758262e-17 3.829307e+02 1.501930e-17 2.265186e-03 -2.104428e-04 -5.831137e-04
<VARIANCE> 15
 1.301874e-01 1.333196e+00 5.025898e-02 1.000000e-02 1.000000e-02 1.000000e-02 2.278590e+03 1.000000e-02 5.538151e+03 1.000000e-02 7.534595e+02 1.000000e-02 1.000000e-02 1.000000e-02 1.000000e-02
<GCONST> 4.355258e+00
<MIXTURE> 3 3.407491e-02
<MEAN> 15
 8.060594e-01 7.438769e+00 6.103656e+00 1.085158e-01 1.730093e-01 1.783448e-01 6.577123e+00 4.936025e-17 5.543286e+02 1.487409e-16 3.733592e+02 2.328593e-16 -7.089972e-03 -3.747227e-03 -1.373575e-02
<VARIANCE> 15
 1.000000e-02 9.796898e-02 9.289842e-02 1.000000e-02 3.149201e-02 2.542103e-02 2.407348e+00 1.000000e-02 2.229901e+03 1.000000e-02 1.388129e+03 1.000000e-02 1.000000e-02 1.000000e-02 1.000000e-02
<GCONST> -5.278810e+00
<STATE> 4
<NUMMIXES> 3
<MIXTURE> 1 4.500000e-01
<MEAN> 15
 2.997964e+00 1.386070e+00 8.612472e+00 1.209330e-01 1.781850e-01 1.648020e-01 1.301486e+02 9.840599e-17 7.002172e+01 2.570126e-16 7.426807e+02 1.199060e-16 3.096793e-03 -8.129778e-03 -2.197945e-03
<VARIANCE> 15
 4.030536e+00 5.084477e+00 9.577850e-02 1.000000e-02 3.402246e-02 1.561431e-02 1.057581e+04 1.000000e-02 8.394270e+03 1.000000e-02 2.821610e+03 1.000000e-02 1.000000e-02 1.000000e-02 1.000000e-02
<GCONST> 1.471273e+01
<MIXTURE> 2 3.357143e-01
<MEAN> 15
 3.681590e+00 -3.735899e-02 4.433384e+00 7.859708e-01 1.164286e+00 8.567529e-01 2.824337e+02 5.619643e-15 1.702614e+02 1.414064e-14 5.126905e+02 6.438087e-15 2.650769e-01 -6.074782e-02 -2.150966e-01
<VARIANCE> 15
 1.490886e+01 1.758161e+01 3.185703e+01 5.197843e-01 1.012412e+00 4.868038e-01 4.673021e+04 1.000000e-02 5.465510e+04 1.000000e-02 9.821386e+04 1.000000e-02 3.086336e+00 2.507217e+00 1.412841e+00
<GCONST> 5.696841e+01
<MIXTURE> 3 2.142857e-01
<MEAN> 15
 3.998985e-01 3.489532e+00 6.700870e+00 1.057449e-01 1.341786e-01 1.252199e-01 3.606705e+00 3.178095e-17 4.819697e+02 9.848659e-17 4.544081e+02 2.659312e-17 3.345261e-03 -1.446593e-03 -3.828718e-04
<VARIANCE> 15
 2.015333e-01 3.602156e+01 5.385777e-01 1.000000e-02 2.312001e-02 1.000000e-02 7.260557e+00 1.000000e-02 8.449127e+03 1.000000e-02 9.859126e+03 1.000000e-02 1.000000e-02 1.000000e-02 1.000000e-02
<GCONST> 8.543653e+00
<STATE> 5
<NUMMIXES> 3
<MIXTURE> 1 8.245152e-01
<MEAN> 15
 5.107524e+00 6.807877e-03 8.200426e+00 7.743597e-02 7.445264e-02 1.025561e-01 2.615135e+02 1.104311e-17 1.178859e+00 1.282709e-17 6.726588e+02 1.306443e-17 1.616466e-03 1.679686e-04 6.345615e-04
<VARIANCE> 15
 6.452248e-02 1.179185e-01 1.848158e-02 1.000000e-02 1.000000e-02 1.000000e-02 6.953378e+02 1.000000e-02 7.428151e-01 1.000000e-02 4.929351e+02 1.000000e-02 1.000000e-02 1.000000e-02 1.000000e-02
<GCONST> -1.030039e+01
<MIXTURE> 2 5.027532e-02
<MEAN> 15
 6.720026e+00 1.072524e+00 6.435740e+00 7.477492e-02 9.933507e-02 1.086361e-01 4.526265e+02 6.310059e-18 7.045966e+01 5.628908e-17 4.155491e+02 1.595503e-17 1.163798e-03 8.261620e-04 -7.507848e-04
<VARIANCE> 15
 1.035525e-01 5.897194e+00 1.366618e-01 1.000000e-02 1.000000e-02 1.000000e-02 1.846957e+03 1.000000e-02 3.437534e+03 1.000000e-02 2.248405e+03 1.000000e-02 1.000000e-02 1.000000e-02 1.000000e-02
<GCONST> 7.019957e+00
<MIXTURE> 3 1.252095e-01
<MEAN> 15
 7.714593e-01 7.084736e+00 6.519509e+00 7.302913e-02 6.682462e-02 1.061019e-01 5.978282e+00 1.478376e-18 5.019651e+02 9.560982e-18 4.250998e+02 4.584284e-18 1.243054e-03 -1.193569e-03 2.585600e-04
<VARIANCE> 15
 1.000000e-02 1.000000e-02 1.000000e-02 1.000000e-02 1.000000e-02 1.000000e-02 4.932887e-01 1.000000e-02 5.641290e+01 1.000000e-02 8.423328e+01 1.000000e-02 1.000000e-02 1.000000e-02 1.000000e-02
<GCONST> -1.993426e+01
<STATE> 6
<NUMMIXES> 3
<MIXTURE> 1 1.466591e-01
<MEAN> 15
 1.688064e-01 5.672505e-01 8.990999e+00 8.932129e-02 1.296769e-01 1.299045e-01 9.073695e-01 2.930562e-17 1.353630e+02 1.760020e-16 8.105770e+02 3.661232e-17 5.153208e-03 2.294043e-03 2.411550e-04
<VARIANCE> 15
 6.313526e-02 1.322079e+01 2.194675e-01 1.000000e-02 1.588590e-02 1.000000e-02 8.418781e-01 1.000000e-02 6.778144e+03 1.000000e-02 6.783139e+03 1.000000e-02 1.000000e-02 1.000000e-02 1.000000e-02
<GCONST> 2.358768e+00
<MIXTURE> 2 1.291053e-01
<MEAN> 15
 5.551250e+00 9.736573e-01 5.499365e+00 1.556961e-01 1.839578e-01 1.907922e-01 3.439799e+02 6.598646e-16 8.261674e+01 3.742865e-16 5.149373e+02 9.883421e-16 1.247656e-02 1.810193e-02 3.857051e-02
<VARIANCE> 15
 3.617909e+00 7.321307e+00 2.130281e+01 7.214048e-02 5.570855e-02 8.586022e-02 2.567858e+04 1.000000e-02 1.003490e+04 1.000000e-02 2.602124e+04 1.000000e-02 2.031469e-02 1.896219e-02 5.024227e-01
<GCONST> 3.310024e+01
<MIXTURE> 3 7.242355e-01
<MEAN> 15
 8.164507e-01 7.505360e+00 6.022467e+00 7.360195e-02 7.747445e-02 9.753814e-02 6.684242e+00 2.385705e-18 5.634086e+02 1.055579e-17 3.628265e+02 6.355911e-18 1.384906e-03 -7.805597e-04 2.922039e-04
<VARIANCE> 15
 1.000000e-02 1.036198e-02 1.185571e-02 1.000000e-02 1.000000e-02 1.000000e-02 3.502986e-01 1.000000e-02 2.328605e+02 1.000000e-02 1.728606e+02 1.000000e-02 1.000000e-02 1.000000e-02 1.000000e-02
<GCONST> -1.793415e+01
<STATE> 7
<NUMMIXES> 3
<MIXTURE> 1 1.780930e-01
<MEAN> 15
 3.981608e+00 -3.345990e+00 -5.508018e+00 6.920391e-02 7.380375e-02 1.118679e-01 1.604115e+02 1.239724e-17 1.313651e+02 4.069514e-18 6.751212e+02 3.496281e-18 8.063439e-04 -6.260380e-04 -7.469466e-04
<VARIANCE> 15
 1.873031e-01 1.940433e+00 3.717249e+01 1.000000e-02 1.000000e-02 1.000000e-02 1.425611e+03 1.000000e-02 3.427575e+03 1.000000e-02 3.402638e+02 1.000000e-02 1.000000e-02 1.000000e-02 1.000000e-02
<GCONST> 9.956758e+00
<MIXTURE> 2 7.864460e-01
<MEAN> 15
 6.470209e+00 -2.107655e+00 6.870164e+00 7.017811e-02 7.608116e-02 1.047496e-01 4.186594e+02 6.863565e-19 4.452626e+01 5.859434e-18 4.720163e+02 2.053772e-18 1.465353e-03 3.878259e-04 4.942111e-04
<VARIANCE> 15
 1.000000e-02 1.010326e-02 1.000000e-02 1.000000e-02 1.000000e-02 1.000000e-02 3.091813e+01 1.000000e-02 1.738690e+01 1.000000e-02 2.461514e+01 1.000000e-02 1.000000e-02 1.000000e-02 1.000000e-02
<GCONST> -1.819319e+01
<MIXTURE> 3 3.546099e-02
<MEAN> 15
 1.033535e+00 7.565931e+00 4.391526e+00 2.791898e-01 5.229295e-01 4.229500e-01 1.326121e+01 5.360604e-16 5.845738e+02 2.297288e-15 3.528140e+02 1.189019e-15 -2.891862e-02 -1.868730e-02 -1.471068e-02
<VARIANCE> 15
 2.740408e-01 1.281416e+00 1.603810e+01 7.077163e-02 2.054130e-01 1.042487e-01 1.609472e+02 1.000000e-02 3.433817e+04 1.000000e-02 2.269566e+04 1.000000e-02 2.828727e-02 2.053883e-01 2.520083e-02
<GCONST> 2.571503e+01
<TRANSP> 8
 0.000000e+00 2.230920e-01 7.769080e-01 0.000000e+00 0.000000e+00 0.000000e+00 0.000000e+00 0.000000e+00
 0.000000e+00 9.583638e-01 7.304603e-04 4.090577e-02 0.000000e+00 0.000000e+00 0.000000e+00 0.000000e+00
 0.000000e+00 0.000000e+00 8.876372e-01 2.027598e-02 9.208673e-02 0.000000e+00 0.000000e+00 0.000000e+00
 0.000000e+00 0.000000e+00 0.000000e+00 6.714286e-01 1.607143e-02 3.125000e-01 0.000000e+00 0.000000e+00
 0.000000e+00 0.000000e+00 0.000000e+00 0.000000e+00 9.195595e-01 4.069906e-02 3.974144e-02 0.000000e+00
 0.000000e+00 0.000000e+00 0.000000e+00 0.000000e+00 0.000000e+00 8.046433e-01 1.075878e-02 1.845980e-01
 0.000000e+00 0.000000e+00 0.000000e+00 0.000000e+00 0.000000e+00 0.000000e+00 9.271079e-01 7.289204e-02
 0.000000e+00 0.000000e+00 0.000000e+00 0.000000e+00 0.000000e+00 0.000000e+00 0.000000e+00 0.000000e+00
<ENDHMM>
