~o
<STREAMINFO> 1 15
<VECSIZE> 15<NULLD><MFCC><DIAGC>
~h "Activity1"
<BEGINHMM>
<NUMSTATES> 8
<STATE> 2
<NUMMIXES> 3
<MIXTURE> 1 9.122990e-01
<MEAN> 15
 4.338743e-01 4.523787e+00 8.623876e+00 7.269644e-02 6.663643e-02 9.988888e-02 1.910004e+00 -3.257920e-20 2.047056e+02 3.426093e-18 7.437598e+02 -7.114111e-19 1.410371e-03 -8.950152e-05 2.376793e-04
<VARIANCE> 15
 2.113555e-03 5.582485e-03 3.696616e-03 3.050195e-04 3.522625e-04 5.276127e-04 1.518973e-01 6.795750e-34 4.526513e+01 7.332573e-34 1.101789e+02 2.335854e-33 3.005428e-06 5.220567e-06 6.383402e-06
<GCONST> -2.709869e+02
<MIXTURE> 2 4.534280e-02
<MEAN> 15
 4.842979e+00 2.933314e+00 5.137049e+00 4.445131e-01 7.146306e-01 4.828072e-01 3.305441e+02 9.916042e-16 2.309926e+02 4.190661e-15 3.992869e+02 1.661932e-15 2.030970e-02 -1.480814e-02 -8.767537e-02
<VARIANCE> 15
 9.633484e+00 1.465379e+01 1.359199e+01 7.435664e-02 2.870648e-01 1.000246e-01 6.578257e+04 6.141501e-30 7.149055e+04 2.417296e-28 9.258477e+04 1.367061e-29 1.192907e-01 1.941609e-01 3.990433e-02
<GCONST> -1.416154e+02
<MIXTURE> 3 4.235826e-02
<MEAN> 15
 8.068228e-01 5.468667e+00 6.143697e+00 1.418634e-01 3.092788e-01 2.497909e-01 1.107716e+01 5.344629e-17 4.586176e+02 5.955272e-16 4.855854e+02 2.923221e-16 -4.792223e-03 -4.989558e-03 -5.310678e-03
<VARIANCE> 15
 4.559291e-01 1.597719e+01 1.082093e+01 7.621970e-03 4.929366e-02 2.740198e-02 2.493508e+02 3.824406e-32 5.546914e+04 2.438331e-30 4.759802e+04 8.020479e-31 1.730541e-03 8.756259e-03 1.020364e-03
<GCONST> -1.801460e+02
<STATE> 3
<NUMMIXES> 3
<MIXTURE> 1 1.343842e-01
<MEAN> 15
 6.162080e+00 1.435488e+00 6.400249e+00 1.093744e-01 2.167392e-01 1.524055e-01 3.955832e+02 4.100533e-17 5.233646e+01 3.489413e-16 4.897434e+02 8.610050e-17 6.714504e-03 3.716474e-04 -4.606113e-03
<VARIANCE> 15
 1.587485e+00 3.184031e+00 8.012598e+00 3.624725e-03 2.749296e-02 7.301392e-03 2.238293e+04 1.405237e-32 3.601837e+03 9.111886e-31 2.849815e+04 1.171822e-31 6.666634e-04 1.344970e-03 3.000729e-04
<GCONST> -1.901719e+02
<MIXTURE> 2 8.240740e-01
<MEAN> 15
 6.821943e+00 2.593953e+00 6.207449e+00 6.984565e-02 8.458738e-02 1.006086e-01 4.668973e+02 1.865631e-18 8.820638e+01 1.176528e-17 3.859621e+02 5.053501e-18 1.519970e-03 2.527907e-04 1.360100e-04
<VARIANCE> 15
 1.504018e-01 2.091787e+00 6.298837e-02 3.042325e-04 7.414459e-04 6.325175e-04 2.634074e+03 6.149708e-34 6.304051e+03 2.147085e-33 9.666779e+02 2.476109e-33 5.637508e-06 1.099526e-05 6.258936e-06
<GCONST> -2.377813e+02
<MIXTURE> 3 4.154177e-02
<MEAN> 15
 7.732055e-01 7.294854e+00 6.276927e+00 8.253312e-02 1.082433e-01 1.134549e-01 6.062854e+00 6.858054e-18 5.327675e+02 7.026746e-17 3.948790e+02 5.391977e-18 1.066746e-03 -1.795824e-03 -2.566576e-04
<VARIANCE> 15
 8.111666e-03 6.477261e-02 8.665067e-02 7.115916e-04 4.377620e-03 1.244858e-03 2.060341e+00 1.774845e-33 1.372482e+03 3.368191e-32 1.375930e+03 4.934625e-33 2.755572e-05 4.937539e-05 1.634503e-05
<GCONST> -2.403288e+02
<STATE> 4
<NUMMIXES> 3
<MIXTURE> 1 3.571855e-01
<MEAN> 15
 4.878505e+00 2.748380e-01 8.356341e+00 1.004351e-01 1.127770e-01 1.234793e-01 2.401463e+02 3.991168e-17 1.175943e+00 4.421397e-17 6.989221e+02 4.389349e-17 3.596889e-03 -7.051327e-04 8.813234e-04
<VARIANCE> 15
 2.160638e-01 4.287921e-02 6.487498e-02 2.086393e-03 2.849888e-03 3.038604e-03 1.964907e+03 1.316485e-32 1.160132e+00 1.598437e-32 1.831619e+03 2.118938e-32 7.672058e-05 1.225722e-04 7.195037e-05
<GCONST> -2.300081e+02
<MIXTURE> 2 1.919592e-01
<MEAN> 15
 4.289107e+00 2.017617e-01 5.454807e+00 6.474820e-01 1.030795e+00 7.338010e-01 2.994527e+02 4.498703e-15 1.345131e+02 1.123630e-14 5.273705e+02 5.077937e-15 2.091108e-01 -7.891105e-02 -1.696472e-01
<VARIANCE> 15
 1.173136e+01 1.385464e+01 2.317335e+01 4.591343e-01 8.595645e-01 4.328210e-01 3.982921e+04 1.967436e-28 4.301374e+04 1.763278e-27 8.347766e+04 2.546839e-28 2.403316e+00 1.954702e+00 1.102256e+00
<GCONST> -1.206625e+02
<MIXTURE> 3 4.508553e-01
<MEAN> 15
 4.431880e-01 5.042469e+00 7.802049e+00 7.260130e-02 7.133068e-02 1.006247e-01 2.351522e+00 -4.453352e-19 3.379115e+02 4.302407e-18 6.127213e+02 -1.917320e-18 1.596230e-03 -9.333409e-05 2.697697e-04
<VARIANCE> 15
 3.804167e-02 8.364332e+00 3.988002e-01 3.037917e-04 4.099371e-04 5.816471e-04 1.859913e+00 6.471787e-34 7.423507e+03 1.140234e-33 8.640821e+03 2.227190e-33 3.520444e-06 6.281875e-06 7.258010e-06
<GCONST> -2.430746e+02
<STATE> 5
<NUMMIXES> 3
<MIXTURE> 1 7.564089e-01
<MEAN> 15
 5.116001e+00 -2.732863e-02 8.191808e+00 7.267670e-02 6.726459e-02 9.813251e-02 2.623307e+02 2.338196e-18 1.179806e+00 3.722754e-18 6.712230e+02 3.226518e-18 1.359757e-03 8.667597e-05 4.115224e-04
<VARIANCE> 15
 5.914473e-02 1.169785e-01 1.572048e-02 3.231324e-04 4.885947e-04 6.554126e-04 6.452523e+02 7.296493e-34 7.096187e-01 7.593991e-34 4.170189e+02 2.611913e-33 3.883472e-06 6.658178e-06 7.036117e-06
<GCONST> -2.562192e+02
<MIXTURE> 2 1.222982e-01
<MEAN> 15
 6.793773e+00 2.050247e+00 6.282966e+00 7.770109e-02 1.313255e-01 1.074026e-01 4.622142e+02 6.157181e-18 7.824409e+01 1.149115e-16 3.958460e+02 1.524384e-17 2.712580e-03 6.349172e-05 -5.143008e-04
<VARIANCE> 15
 6.559262e-02 3.624996e+00 1.085529e-01 5.487725e-04 6.192545e-03 7.708436e-04 1.154234e+03 1.126560e-33 2.043815e+03 8.436943e-32 1.804323e+03 3.601498e-33 4.385429e-05 5.411090e-05 1.433511e-05
<GCONST> -2.268095e+02
<MIXTURE> 3 1.212929e-01
<MEAN> 15
 7.762184e-01 7.089016e+00 6.512836e+00 7.169659e-02 6.074619e-02 1.036719e-01 6.046851e+00 1.460752e-18 5.025606e+02 4.125325e-18 4.242187e+02 3.151969e-18 1.228047e-03 -5.534260e-04 4.554126e-04
<VARIANCE> 15
 1.571444e-03 1.661680e-03 3.987027e-03 2.938353e-04 3.115689e-04 7.373396e-04 3.719895e-01 6.368487e-34 3.330811e+01 6.865483e-34 6.799954e+01 3.534187e-33 2.850940e-06 7.502383e-06 7.198382e-06
<GCONST> -2.714252e+02
<STATE> 6
<NUMMIXES> 3
<MIXTURE> 1 1.591291e-01
<MEAN> 15
 2.306087e-01 2.000167e+00 8.786259e+00 8.079332e-02 9.318443e-02 1.139931e-01 1.067112e+00 6.233426e-18 1.719098e+02 2.441004e-17 7.756024e+02 1.234876e-17 2.098425e-03 -4.707575e-04 2.628290e-04
<VARIANCE> 15
 5.303432e-02 1.319001e+01 3.609441e-01 4.854939e-04 2.318590e-03 9.259584e-04 9.673612e-01 1.133475e-33 1.088055e+04 5.656524e-33 1.028063e+04 5.485459e-33 1.685024e-05 3.744727e-05 1.325294e-05
<GCONST> -2.328012e+02
<MIXTURE> 2 1.464229e-01
<MEAN> 15
 4.645754e+00 1.909958e+00 6.111476e+00 1.509633e-01 2.147233e-01 2.021156e-01 2.902062e+02 4.816246e-16 1.408951e+02 3.514652e-16 5.090777e+02 8.679084e-16 6.221851e-03 4.966312e-03 2.498657e-02
<VARIANCE> 15
 7.462946e+00 1.044993e+01 1.360231e+01 5.271506e-02 3.744015e-02 7.181185e-02 3.972456e+04 3.142878e-29 3.116632e+04 2.501298e-30 3.269962e+04 7.802687e-29 1.380638e-02 1.404171e-02 4.319402e-01
<GCONST> -1.508936e+02
<MIXTURE> 3 6.944480e-01
<MEAN> 15
 8.167904e-01 7.501101e+00 6.027783e+00 7.232992e-02 7.346464e-02 9.590603e-02 6.687910e+00 1.018375e-18 5.627896e+02 3.640629e-18 3.634929e+02 4.233928e-18 1.454914e-03 -3.012724e-04 4.141049e-04
<VARIANCE> 15
 1.071826e-03 1.202597e-02 1.434460e-02 3.684141e-04 4.152654e-04 5.565430e-04 2.821979e-01 6.441049e-34 2.680467e+02 1.031154e-33 2.120901e+02 2.002200e-33 4.419262e-06 7.697139e-06 6.500399e-06
<GCONST> -2.651577e+02
<STATE> 7
<NUMMIXES> 3
<MIXTURE> 1 1.814717e-01
<MEAN> 15
 4.106279e+00 -2.981860e+00 -4.233480e+00 6.153525e-02 6.981783e-02 1.014913e-01 1.720434e+02 1.151353e-18 1.178610e+02 2.399663e-18 6.749611e+02 3.124202e-18 1.229530e-03 -2.477677e-04 2.416563e-04
<VARIANCE> 15
 3.425276e-01 2.894223e+00 4.957293e+01 2.925249e-04 3.413887e-04 5.830312e-04 2.786525e+03 3.718515e-34 4.387783e+03 7.732487e-34 1.609308e+02 2.601564e-33 2.481564e-06 7.221008e-06 5.071927e-06
<GCONST> -2.358869e+02
<MIXTURE> 2 7.656470e-01
<MEAN> 15
 6.470205e+00 -2.107744e+00 6.870101e+00 7.000533e-02 7.573156e-02 1.046635e-01 4.186585e+02 6.778091e-19 4.452926e+01 5.538122e-18 4.720075e+02 2.003626e-18 1.479400e-03 3.596981e-04 4.942782e-04
<VARIANCE> 15
 1.822111e-03 1.004014e-02 1.297120e-03 2.784248e-04 3.880816e-04 6.371678e-04 3.054502e+01 5.286891e-34 1.727895e+01 1.142157e-33 2.450166e+01 2.750494e-33 3.938867e-06 7.979071e-06 6.844553e-06
<GCONST> -2.674440e+02
<MIXTURE> 3 5.288133e-02
<MEAN> 15
 1.340755e+00 2.872854e+00 2.119153e+00 3.313851e-01 4.982165e-01 4.334494e-01 4.205849e+01 6.587297e-16 4.099326e+02 1.809719e-15 5.061984e+02 1.097316e-15 3.159892e-03 2.357926e-02 -1.397822e-02
<VARIANCE> 15
 2.429643e+00 3.278357e+01 4.616898e+01 7.191785e-02 1.531216e-01 8.123776e-02 3.475420e+03 1.002311e-29 7.022126e+04 2.945374e-29 5.403322e+04 1.132860e-29 3.105041e-02 1.399487e-01 2.329624e-02
<GCONST> -1.493465e+02
<TRANSP> 8
 0.000000e+00 2.446064e-01 7.553936e-01 0.000000e+00 0.000000e+00 0.000000e+00 0.000000e+00 0.000000e+00
 0.000000e+00 9.463587e-01 5.150058e-03 4.849122e-02 0.000000e+00 0.000000e+00 0.000000e+00 0.000000e+00
 0.000000e+00 0.000000e+00 8.796930e-01 2.847156e-02 9.183535e-02 0.000000e+00 0.000000e+00 0.000000e+00
 0.000000e+00 0.000000e+00 0.000000e+00 8.365937e-01 2.181731e-02 1.415890e-01 0.000000e+00 0.000000e+00
 0.000000e+00 0.000000e+00 0.000000e+00 0.000000e+00 9.174352e-01 3.661450e-02 4.595030e-02 0.000000e+00
 0.000000e+00 0.000000e+00 0.000000e+00 0.000000e+00 0.000000e+00 8.195701e-01 1.343859e-02 1.669913e-01
 0.000000e+00 0.000000e+00 0.000000e+00 0.000000e+00 0.000000e+00 0.000000e+00 9.196684e-01 8.033165e-02
 0.000000e+00 0.000000e+00 0.000000e+00 0.000000e+00 0.000000e+00 0.000000e+00 0.000000e+00 0.000000e+00
<ENDHMM>
