~o
<STREAMINFO> 1 15
<VECSIZE> 15<NULLD><MFCC><DIAGC>
~h "Activity5"
<BEGINHMM>
<NUMSTATES> 8
<STATE> 2
<NUMMIXES> 3
<MIXTURE> 1 2.635186e-01
<MEAN> 15
 -1.751201e+01 2.702739e+01 -4.029448e+00 1.588055e+01 2.650782e+01 6.176257e+00 3.812387e+03 1.163149e-12 7.810840e+03 6.145436e-12 5.226751e+02 3.917321e-13 -3.662682e+02 -9.973428e+01 4.321978e+01
<VARIANCE> 15
 1.193101e+02 3.859086e+02 5.507502e+01 2.425637e+01 8.754431e+01 1.481296e+01 2.284006e+07 1.690164e-24 4.163246e+07 2.955799e-23 5.580361e+05 6.039645e-25 4.792629e+04 3.939222e+04 5.760231e+03
<GCONST> -3.197061e+01
<MIXTURE> 2 4.893361e-01
<MEAN> 15
 -2.934596e+00 -4.089095e-01 -3.693015e-01 2.373636e+00 4.582027e+00 1.413294e+00 1.082394e+03 4.267738e-14 4.293689e+02 1.929874e-13 4.820593e+01 1.700662e-14 -7.230319e+00 1.160031e+00 1.642499e-01
<VARIANCE> 15
 1.013863e+02 5.194469e+01 5.477032e+00 1.580041e+00 6.842267e+00 7.180445e-01 4.966446e+05 3.898389e-27 2.691343e+05 4.916850e-26 4.968322e+03 4.830356e-28 1.414652e+02 5.062839e+01 8.543839e+00
<GCONST> -9.694283e+01
<MIXTURE> 3 2.471453e-01
<MEAN> 15
 -1.553159e+01 2.186598e+01 3.216769e-01 7.449683e+00 1.171124e+01 1.734452e+00 2.908918e+03 3.283379e-13 6.242720e+03 1.038216e-12 1.225723e+02 7.811194e-15 -6.082711e+01 3.698672e+00 -4.975082e+00
<VARIANCE> 15
 6.080882e+01 1.922734e+02 1.238850e+01 7.574032e+00 2.963997e+01 4.581826e-01 3.715670e+06 2.086412e-25 2.618954e+07 1.491779e-24 1.983873e+04 7.391932e-28 2.808316e+03 2.495065e+02 1.334108e+02
<GCONST> -6.962072e+01
<STATE> 3
<NUMMIXES> 3
<MIXTURE> 1 2.206254e-01
<MEAN> 15
 -1.038489e+01 1.756700e+01 6.526693e+00 5.696022e+00 1.057111e+01 3.715692e+00 1.422596e+03 2.846351e-13 3.395891e+03 8.979572e-13 5.301614e+02 1.155196e-13 -5.137029e+01 3.541795e+01 -1.617438e+01
<VARIANCE> 15
 4.904492e+01 7.442392e+01 1.610826e+01 4.827374e+00 9.860003e+00 1.973780e+00 1.814073e+06 6.969088e-26 1.101999e+07 5.780139e-25 3.710484e+05 1.255112e-26 1.220047e+03 5.490914e+02 1.350282e+02
<GCONST> -6.851238e+01
<MIXTURE> 2 3.856673e-01
<MEAN> 15
 5.891024e-02 -1.335348e+00 4.411406e-01 1.677715e+00 2.575567e+00 1.049759e+00 4.893162e+02 2.402323e-14 3.320838e+02 5.207374e-14 4.292393e+01 7.988892e-15 -3.952039e+00 2.497310e+00 -1.229106e+00
<VARIANCE> 15
 5.000539e+01 3.362566e+01 4.398139e+00 7.916752e-01 2.086824e+00 3.016776e-01 7.703191e+04 9.573466e-28 1.337195e+05 4.056444e-27 2.424622e+03 1.295519e-28 1.649326e+01 8.180497e+00 2.883053e+00
<GCONST> -1.146035e+02
<MIXTURE> 3 3.937072e-01
<MEAN> 15
 -8.245394e+00 1.383299e+01 5.202212e+00 3.646273e+00 6.789006e+00 2.145048e+00 1.152515e+03 9.254445e-14 2.858193e+03 3.345046e-13 4.203752e+02 3.026710e-14 -1.689610e+01 1.293546e+01 -5.201509e+00
<VARIANCE> 15
 5.101067e+01 1.100183e+02 1.625362e+01 1.939010e+00 5.398014e+00 6.388161e-01 1.198580e+06 8.662651e-27 1.008565e+07 8.949139e-26 2.631811e+05 1.058652e-27 2.196606e+02 6.575841e+01 1.911161e+01
<GCONST> -8.377778e+01
<STATE> 4
<NUMMIXES> 3
<MIXTURE> 1 2.209667e-01
<MEAN> 15
 -1.425820e+01 2.604418e+01 1.746764e+00 8.739083e+00 1.396949e+01 2.143821e+00 2.612947e+03 5.049472e-13 6.926490e+03 1.247305e-12 1.043297e+02 2.572942e-14 -9.289211e+01 1.884928e+01 -1.300531e+01
<VARIANCE> 15
 7.989603e+01 6.088889e+01 8.339054e+00 6.758491e+00 2.124787e+01 8.097025e-01 6.040295e+06 3.836767e-25 1.806259e+07 2.603350e-24 1.297735e+04 2.003207e-27 3.035519e+03 6.927770e+02 2.175857e+02
<GCONST> -6.732973e+01
<MIXTURE> 2 4.031320e-01
<MEAN> 15
 -1.354601e+00 1.747806e-01 -1.186184e-01 8.978467e-01 1.695650e+00 4.310314e-01 6.749983e+02 5.960348e-15 1.564733e+02 2.398431e-14 6.416514e+00 9.485399e-16 -1.485771e+00 1.779996e-01 -9.541097e-02
<VARIANCE> 15
 6.586745e+01 1.639213e+01 6.563457e-01 2.855532e-01 1.329151e+00 5.327326e-02 7.793403e+04 6.950620e-29 1.944521e+04 1.453926e-27 8.967799e+01 4.588358e-30 3.426148e+00 5.228236e-01 1.116071e-01
<GCONST> -1.399299e+02
<MIXTURE> 3 3.759013e-01
<MEAN> 15
 -5.750727e+00 1.408296e+01 -4.680063e-01 3.229344e+00 7.100844e+00 7.728612e-01 8.681219e+02 8.121039e-14 2.942716e+03 3.874079e-13 1.650571e+01 3.852953e-15 -1.756087e+01 -7.956720e-01 -9.441425e-01
<VARIANCE> 15
 5.651817e+01 1.142163e+02 1.592517e+00 3.679791e+00 6.277048e+00 1.262082e-01 7.384710e+05 1.061447e-26 1.384575e+07 1.143857e-25 5.186361e+02 3.696468e-29 3.471652e+02 3.008359e+01 5.989270e+00
<GCONST> -9.757855e+01
<STATE> 5
<NUMMIXES> 3
<MIXTURE> 1 2.238754e-01
<MEAN> 15
 -1.722867e+01 3.894012e+01 -9.367993e+00 1.811165e+01 3.284125e+01 9.629687e+00 4.044800e+03 1.475091e-12 1.406693e+04 5.778563e-12 1.056891e+03 4.843731e-13 -4.624784e+02 -2.518902e+02 1.202437e+02
<VARIANCE> 15
 1.563537e+02 1.115068e+02 3.759055e+01 3.995760e+01 5.219897e+01 2.656256e+01 2.973742e+07 8.585496e-24 1.091314e+08 4.890051e-23 1.923029e+06 1.148225e-24 7.325939e+04 5.315702e+04 1.576964e+04
<GCONST> -2.579055e+01
<MIXTURE> 2 4.343067e-01
<MEAN> 15
 4.937079e-01 -9.904583e-01 -4.061615e-01 1.825808e+00 3.028286e+00 1.315871e+00 1.301858e+03 1.938415e-14 3.235247e+02 6.467134e-14 1.071727e+02 9.740670e-15 -2.823918e-01 5.620918e-01 3.379656e-01
<VARIANCE> 15
 1.304218e+02 3.366336e+01 1.086695e+01 7.918659e-01 3.760289e+00 5.110270e-01 3.720893e+05 1.081740e-27 1.839975e+05 9.268484e-27 1.518738e+04 3.795050e-28 2.965542e+01 2.089618e+01 4.454013e+00
<GCONST> -1.039114e+02
<MIXTURE> 3 3.418179e-01
<MEAN> 15
 -1.081793e+01 -5.771736e+00 -2.343434e+00 6.542215e+00 1.301487e+01 3.111896e+00 2.500018e+03 2.971314e-13 3.613259e+03 1.105846e-12 1.474292e+02 6.397318e-14 -7.332566e+00 -6.632191e+00 1.786536e+00
<VARIANCE> 15
 1.414945e+02 3.718763e+02 1.260945e+01 1.515058e+01 3.777844e+01 2.363062e+00 7.621248e+06 3.381705e-25 2.295873e+07 1.520168e-24 4.153850e+04 9.100694e-27 1.220785e+04 2.197499e+03 4.080204e+02
<GCONST> -5.642149e+01
<STATE> 6
<NUMMIXES> 3
<MIXTURE> 1 1.419905e-01
<MEAN> 15
 -2.410312e+01 1.915159e+01 2.084333e+00 1.276229e+01 1.466226e+01 6.450716e+00 9.174273e+03 1.166189e-12 9.838949e+03 1.362977e-12 8.140069e+02 4.008704e-13 -7.415585e+01 7.980090e+01 -4.095536e+01
<VARIANCE> 15
 3.807189e+02 6.612946e+02 1.001976e+02 3.022234e+01 6.042270e+01 1.354991e+01 1.523724e+08 2.431136e-24 8.034335e+07 4.643061e-24 2.177938e+06 6.471262e-25 1.062896e+04 1.471317e+04 3.591617e+03
<GCONST> -3.037799e+01
<MIXTURE> 2 4.474892e-01
<MEAN> 15
 -3.151992e+00 -2.173150e-01 3.241692e-01 1.901100e+00 3.943860e+00 1.420592e+00 5.982275e+02 2.808467e-14 5.050630e+02 1.352594e-13 7.016152e+01 1.575302e-14 -6.205805e+00 4.310150e+00 -1.623425e+00
<VARIANCE> 15
 5.109871e+01 5.680934e+01 7.552201e+00 1.072801e+00 5.012276e+00 7.525615e-01 1.883209e+05 1.065337e-27 3.324866e+05 2.349613e-26 1.081025e+04 5.731505e-28 6.391899e+01 3.885838e+01 6.902092e+00
<GCONST> -1.009867e+02
<MIXTURE> 3 4.105203e-01
<MEAN> 15
 -1.076198e+01 1.702237e+01 5.434516e+00 4.683302e+00 8.666501e+00 2.974857e+00 1.688579e+03 1.709747e-13 3.963128e+03 5.587089e-13 5.477068e+02 6.809218e-14 -2.956617e+01 2.162624e+01 -9.462614e+00
<VARIANCE> 15
 6.036449e+01 1.329242e+02 2.813503e+01 3.789248e+00 7.325303e+00 2.059494e+00 1.954923e+06 3.573973e-26 1.269581e+07 2.428450e-25 4.460136e+05 7.437935e-27 6.814310e+02 3.816342e+02 9.580489e+01
<GCONST> -7.061107e+01
<STATE> 7
<NUMMIXES> 3
<MIXTURE> 1 1.017840e-01
<MEAN> 15
 -1.269651e+01 5.103193e+01 -1.312458e+01 2.163878e+01 3.814242e+01 1.205589e+01 1.917786e+03 1.665344e-12 3.358150e+04 -3.852072e-12 2.375415e+03 -3.419034e-13 -6.236944e+02 -3.925986e+02 1.621901e+02
<VARIANCE> 15
 1.585773e+01 5.609292e+00 9.610141e+00 1.126400e+01 1.785788e+01 7.924827e+00 1.113521e+07 6.693904e-24 5.468906e+07 3.798752e-23 1.046058e+06 5.673189e-25 2.694366e+04 1.267221e+04 4.079110e+03
<GCONST> -4.325575e+01
<MIXTURE> 2 5.001345e-01
<MEAN> 15
 8.129183e+00 1.167374e+00 1.054463e+00 1.991274e+00 1.752081e+00 1.268694e+00 9.874136e+02 2.885641e-14 1.017031e+02 1.086622e-14 2.968852e+01 1.332005e-14 -1.706482e+00 -7.200494e-02 4.618323e-01
<VARIANCE> 15
 3.368813e+01 8.572359e+00 2.443321e+00 7.527303e-01 1.033755e+00 5.980765e-01 1.856587e+05 1.097587e-27 1.621138e+04 5.276629e-28 1.282853e+03 3.734262e-28 8.229848e+00 7.968052e+00 7.284957e+00
<GCONST> -1.195273e+02
<MIXTURE> 3 3.980815e-01
<MEAN> 15
 -1.297322e+01 1.566988e+01 -2.238916e+00 8.417820e+00 1.353511e+01 2.421278e+00 1.845658e+03 7.534060e-13 4.294330e+03 1.790738e-12 1.606195e+02 2.958204e-14 -1.226872e+02 -9.191788e+00 1.871552e+00
<VARIANCE> 15
 4.905506e+01 2.848472e+02 1.185811e+01 4.407951e+01 5.496067e+01 1.368277e+00 3.661861e+06 1.528646e-24 3.197307e+07 6.604822e-24 5.267911e+04 4.794888e-27 2.812612e+04 6.447159e+02 1.763417e+02
<GCONST> -5.597037e+01
<TRANSP> 8
 0.000000e+00 4.258672e-01 5.741328e-01 0.000000e+00 0.000000e+00 0.000000e+00 0.000000e+00 0.000000e+00
 0.000000e+00 6.222919e-01 2.361433e-01 1.415648e-01 0.000000e+00 0.000000e+00 0.000000e+00 0.000000e+00
 0.000000e+00 0.000000e+00 9.236718e-01 5.233187e-02 2.399630e-02 0.000000e+00 0.000000e+00 0.000000e+00
 0.000000e+00 0.000000e+00 0.000000e+00 9.080210e-01 9.710179e-03 8.226877e-02 0.000000e+00 0.000000e+00
 0.000000e+00 0.000000e+00 0.000000e+00 0.000000e+00 9.329913e-01 5.788142e-02 9.127311e-03 0.000000e+00
 0.000000e+00 0.000000e+00 0.000000e+00 0.000000e+00 0.000000e+00 7.514197e-01 5.029078e-02 1.982896e-01
 0.000000e+00 0.000000e+00 0.000000e+00 0.000000e+00 0.000000e+00 0.000000e+00 7.411755e-01 2.588245e-01
 0.000000e+00 0.000000e+00 0.000000e+00 0.000000e+00 0.000000e+00 0.000000e+00 0.000000e+00 0.000000e+00
<ENDHMM>
