~o
<STREAMINFO> 1 15
<VECSIZE> 15<NULLD><MFCC><DIAGC>
~h "Activity2"
<BEGINHMM>
<NUMSTATES> 8
<STATE> 2
<NUMMIXES> 3
<MIXTURE> 1 1.556912e-01
<MEAN> 15
 -9.679860e-01 6.842556e+00 6.562981e+00 1.526758e-01 1.950619e-01 1.666803e-01 2.956641e+01 1.466237e-16 4.758982e+02 1.834058e-16 4.388792e+02 1.073102e-16 5.128349e-04 3.286120e-04 6.680018e-05
<VARIANCE> 15
 2.025401e+00 7.734305e-01 8.179138e-01 6.342531e-03 1.138602e-02 5.023540e-03 8.463200e+02 8.073064e-32 1.568059e+04 1.617107e-31 1.193126e+04 8.936337e-32 5.236771e-04 1.169927e-03 5.074625e-04
<GCONST> -1.971033e+02
<MIXTURE> 2 6.912564e-01
<MEAN> 15
 -1.732876e+00 6.331360e+00 7.075823e+00 7.720179e-02 8.231407e-02 1.069475e-01 4.445757e+01 7.940793e-18 4.019039e+02 9.742053e-18 5.014434e+02 4.440203e-18 1.480355e-03 -3.378717e-04 3.070882e-04
<VARIANCE> 15
 1.442730e+00 1.040362e-01 7.609904e-02 4.886389e-04 6.430490e-04 6.898731e-04 7.047871e+02 1.110897e-33 1.633500e+03 1.811008e-33 1.548245e+03 3.346445e-33 7.469593e-06 1.182559e-05 9.604008e-06
<GCONST> -2.386072e+02
<MIXTURE> 3 1.530525e-01
<MEAN> 15
 -3.559846e-01 8.303213e+00 4.657386e+00 7.381824e-02 8.177145e-02 1.026395e-01 3.359204e+01 6.871466e-18 6.910331e+02 9.723593e-18 2.241955e+02 8.948418e-18 1.098354e-03 -1.147783e-05 7.048548e-04
<VARIANCE> 15
 3.232220e+00 1.596722e-01 7.276077e-01 5.472173e-04 7.006278e-04 7.091257e-04 1.769289e+03 9.611956e-34 4.260912e+03 1.503544e-33 6.410804e+03 2.558165e-33 6.983375e-06 1.053999e-05 9.020434e-06
<GCONST> -2.324324e+02
<STATE> 3
<NUMMIXES> 3
<MIXTURE> 1 3.509515e-01
<MEAN> 15
 -1.601447e-01 8.130142e+00 2.356330e+00 8.027405e-02 8.016794e-02 1.098256e-01 1.619636e+00 1.267517e-17 8.760706e+02 8.583940e-18 7.902358e+01 1.328477e-17 1.183058e-03 -9.437681e-04 2.335244e-04
<VARIANCE> 15
 1.362756e-01 2.150753e+01 2.349578e+00 7.204776e-04 1.186444e-03 9.630043e-04 5.028379e+00 1.873949e-33 9.179940e+02 2.647150e-33 8.833801e+02 4.004039e-33 1.015996e-05 1.893348e-05 1.482905e-05
<GCONST> -2.346567e+02
<MIXTURE> 2 2.151466e-01
<MEAN> 15
 -8.651223e-01 4.106511e+00 4.035744e+00 6.127792e-01 1.180467e+00 8.845033e-01 1.468105e+02 2.397981e-15 5.106020e+02 8.307582e-15 3.084134e+02 6.309700e-15 8.708094e-02 1.145015e-01 -1.283550e-01
<VARIANCE> 15
 1.403313e+01 3.447716e+01 1.480294e+01 1.968919e-01 5.281756e-01 3.235135e-01 4.512925e+04 4.368884e-29 1.132859e+05 4.034200e-28 7.286234e+04 2.455686e-28 6.278557e-01 2.234741e+00 4.080622e-01
<GCONST> -1.259056e+02
<MIXTURE> 3 4.339018e-01
<MEAN> 15
 -2.124289e-01 3.935957e+00 3.706092e+00 2.017725e-01 3.823600e-01 2.961158e-01 1.298047e+02 2.020884e-16 5.819028e+02 6.881584e-16 2.394682e+02 4.563684e-16 2.086383e-03 4.023705e-04 -1.118713e-02
<VARIANCE> 15
 1.294089e+01 4.271233e+01 1.022538e+01 1.598848e-02 5.964578e-02 3.042286e-02 3.636162e+04 2.526264e-31 7.757000e+04 3.420840e-30 4.586991e+04 1.097487e-30 4.497968e-03 1.227000e-02 2.652324e-03
<GCONST> -1.647687e+02
<STATE> 4
<NUMMIXES> 3
<MIXTURE> 1 5.072450e-02
<MEAN> 15
 -2.931886e-01 6.000109e-01 3.892273e+00 1.807898e+00 3.081774e+00 2.507645e+00 7.134037e+01 4.955215e-14 7.263505e+02 2.193892e-14 2.418420e+02 7.918656e-15 9.338874e+00 1.121397e+01 6.930523e+00
<VARIANCE> 15
 1.021026e+01 7.643124e+01 1.482969e+01 2.069168e+01 1.780416e+01 2.131764e+01 1.075961e+05 1.606459e-25 5.294286e+05 3.097972e-26 1.601215e+05 1.339474e-26 3.579333e+03 1.470145e+04 6.437611e+03
<GCONST> -6.621079e+01
<MIXTURE> 2 6.191053e-01
<MEAN> 15
 -2.245600e+00 -4.744889e+00 6.825904e+00 7.064784e-02 7.217187e-02 1.036933e-01 5.256234e+01 2.075373e-18 4.096686e+02 4.780464e-18 4.677757e+02 5.522443e-18 1.602449e-03 1.980822e-04 3.020954e-04
<VARIANCE> 15
 2.130703e-01 1.845262e+01 1.837373e-01 3.149829e-04 3.664040e-04 6.067654e-04 4.591094e+02 7.017088e-34 6.235830e+03 8.125578e-34 3.621212e+03 2.914147e-33 3.567291e-06 7.039099e-06 6.490661e-06
<GCONST> -2.368783e+02
<MIXTURE> 3 3.301702e-01
<MEAN> 15
 -6.501080e-01 6.039339e+00 5.897633e+00 1.141407e-01 1.325566e-01 1.348253e-01 1.972082e+01 5.895749e-17 5.602502e+02 7.060841e-17 3.620843e+02 5.430125e-17 9.399801e-04 -1.747188e-03 5.745516e-04
<VARIANCE> 15
 1.551500e+00 1.955297e+01 1.427693e+00 2.110841e-03 3.407905e-03 2.067497e-03 7.852264e+02 1.138063e-32 2.178665e+04 2.406199e-32 1.710253e+04 1.678048e-32 8.910112e-05 1.078114e-04 8.629594e-05
<GCONST> -2.076270e+02
<STATE> 5
<NUMMIXES> 3
<MIXTURE> 1 3.174197e-01
<MEAN> 15
 -2.597643e+00 3.092999e+00 5.728990e+00 1.683944e-01 2.522337e-01 1.801587e-01 1.581117e+02 1.448172e-16 3.763188e+02 3.397250e-16 4.074064e+02 1.148237e-16 2.717647e-03 -3.386698e-03 -8.724908e-04
<VARIANCE> 15
 9.066854e+00 2.807044e+01 7.921514e+00 1.017658e-02 3.157535e-02 7.839140e-03 3.730496e+04 1.409859e-31 7.988366e+04 9.572293e-31 5.856008e+04 9.228089e-32 1.589042e-03 1.769718e-03 5.305317e-04
<GCONST> -1.768631e+02
<MIXTURE> 2 5.267223e-01
<MEAN> 15
 -2.992000e+00 4.011455e+00 8.076258e+00 8.012533e-02 8.280650e-02 9.995918e-02 9.522791e+01 8.474099e-18 1.884256e+02 9.868361e-18 6.532390e+02 6.342107e-18 1.438856e-03 -2.992924e-05 1.587853e-04
<VARIANCE> 15
 5.704222e-01 2.750299e+00 9.715236e-02 5.617831e-04 8.163522e-04 7.121894e-04 2.640820e+03 1.241866e-33 8.619334e+03 1.909121e-33 2.482795e+03 2.740408e-33 8.706977e-06 1.137283e-05 9.589038e-06
<GCONST> -2.320726e+02
<MIXTURE> 3 1.558579e-01
<MEAN> 15
 9.152580e+00 -4.022406e-01 3.202326e+00 9.145989e-02 2.488760e-01 1.837084e-01 8.377969e+02 5.623849e-18 4.477060e+00 3.398587e-16 1.036004e+02 1.696789e-16 2.570609e-03 7.720438e-03 -3.426826e-03
<VARIANCE> 15
 9.592529e-03 2.995588e-01 1.123167e-01 1.073993e-03 1.703657e-02 7.826299e-03 3.207074e+02 2.910767e-33 2.435530e+01 1.109360e-30 4.710305e+02 1.877900e-31 1.767324e-04 1.613839e-03 1.473283e-04
<GCONST> -2.196448e+02
<STATE> 6
<NUMMIXES> 3
<MIXTURE> 1 4.379440e-01
<MEAN> 15
 2.728507e-01 8.329672e+00 4.964119e+00 7.398129e-02 7.591192e-02 1.041518e-01 4.375906e+00 4.200140e-18 6.947614e+02 5.642637e-18 2.488574e+02 2.536128e-18 1.593182e-03 -1.062631e-04 6.149510e-04
<VARIANCE> 15
 3.628288e-01 9.234855e-02 2.422872e-01 4.323004e-04 4.364700e-04 6.710875e-04 3.394141e+01 9.415509e-34 2.556249e+03 1.033784e-33 2.320926e+03 2.994894e-33 5.063845e-06 8.704596e-06 8.817327e-06
<GCONST> -2.432845e+02
<MIXTURE> 2 4.630085e-01
<MEAN> 15
 -8.621877e-01 6.946437e+00 6.657479e+00 7.626066e-02 7.313289e-02 1.059277e-01 1.176462e+01 6.328160e-18 4.832426e+02 5.966119e-18 4.439451e+02 3.749687e-18 1.293458e-03 -1.467953e-04 3.463386e-04
<VARIANCE> 15
 4.328286e-01 7.112330e-02 7.133649e-02 4.765895e-04 4.715771e-04 7.081344e-04 1.721741e+02 1.241450e-33 1.364517e+03 1.119624e-33 1.257630e+03 3.019772e-33 5.581387e-06 8.491742e-06 9.483811e-06
<GCONST> -2.434699e+02
<MIXTURE> 3 9.904756e-02
<MEAN> 15
 -7.851883e+00 4.072182e+00 4.090202e+00 5.643605e-02 7.121879e-02 1.026646e-01 6.165313e+02 7.408499e-19 1.658536e+02 3.406441e-18 1.673664e+02 1.662669e-18 1.151194e-03 2.896419e-04 2.768073e-04
<VARIANCE> 15
 7.202635e-04 2.293087e-03 5.771978e-03 2.139437e-04 3.001591e-04 5.419042e-04 1.770911e+01 2.776040e-34 1.502725e+01 7.480648e-34 3.931511e+01 2.573736e-33 2.195166e-06 6.249300e-06 4.615907e-06
<GCONST> -2.716069e+02
<STATE> 7
<NUMMIXES> 3
<MIXTURE> 1 4.217107e-01
<MEAN> 15
 -1.983983e+00 -9.562803e+00 6.779171e-01 7.360007e-02 8.689950e-02 9.952062e-02 3.949223e+01 2.903624e-18 9.145062e+02 7.394743e-18 6.873145e+00 5.806439e-18 1.572477e-03 5.472444e-04 2.321473e-04
<VARIANCE> 15
 1.262883e-02 2.783632e-03 2.268697e-01 3.994221e-04 1.347233e-03 9.779755e-04 2.081628e+01 8.138066e-34 1.019506e+02 2.827354e-33 1.358016e+01 2.623025e-33 6.682842e-06 2.073425e-05 7.847232e-06
<GCONST> -2.558807e+02
<MIXTURE> 2 1.978750e-01
<MEAN> 15
 -5.490427e-01 2.954128e+00 3.077248e+00 3.888303e-01 7.531544e-01 5.305984e-01 1.063242e+02 8.962876e-16 5.569297e+02 4.884514e-15 3.024097e+02 1.761114e-15 -7.333477e-03 3.002897e-02 -9.434227e-02
<VARIANCE> 15
 1.035719e+01 4.718186e+01 2.084039e+01 6.979909e-02 3.973723e-01 1.185523e-01 2.349615e+04 6.257438e-30 1.075857e+05 3.183846e-28 7.314094e+04 2.080898e-29 2.034337e-01 2.852365e-01 6.776121e-02
<GCONST> -1.382088e+02
<MIXTURE> 3 3.804144e-01
<MEAN> 15
 -2.376949e+00 1.153350e+00 3.410264e+00 1.049746e-01 1.567575e-01 1.416290e-01 1.434319e+02 3.376175e-17 5.297421e+02 1.065928e-16 2.769061e+02 4.502801e-17 1.303046e-03 1.757006e-03 -3.619663e-06
<VARIANCE> 15
 8.693974e+00 5.164681e+01 1.606068e+01 1.772163e-03 7.842643e-03 3.025270e-03 4.589104e+04 7.158106e-33 9.543908e+04 8.048435e-32 5.364785e+04 2.335283e-32 1.022244e-04 2.850927e-04 6.977993e-05
<GCONST> -1.928125e+02
<TRANSP> 8
 0.000000e+00 5.795708e-01 4.204293e-01 0.000000e+00 0.000000e+00 0.000000e+00 0.000000e+00 0.000000e+00
 0.000000e+00 9.239831e-01 1.054556e-02 6.547138e-02 0.000000e+00 0.000000e+00 0.000000e+00 0.000000e+00
 0.000000e+00 0.000000e+00 8.854460e-01 4.235176e-02 7.220226e-02 0.000000e+00 0.000000e+00 0.000000e+00
 0.000000e+00 0.000000e+00 0.000000e+00 7.681448e-01 6.308138e-02 1.687737e-01 0.000000e+00 0.000000e+00
 0.000000e+00 0.000000e+00 0.000000e+00 0.000000e+00 8.491924e-01 1.121709e-02 1.395905e-01 0.000000e+00
 0.000000e+00 0.000000e+00 0.000000e+00 0.000000e+00 0.000000e+00 9.311576e-01 8.789926e-03 6.005251e-02
 0.000000e+00 0.000000e+00 0.000000e+00 0.000000e+00 0.000000e+00 0.000000e+00 8.649591e-01 1.350409e-01
 0.000000e+00 0.000000e+00 0.000000e+00 0.000000e+00 0.000000e+00 0.000000e+00 0.000000e+00 0.000000e+00
<ENDHMM>
