~o
<STREAMINFO> 1 15
<VECSIZE> 15<NULLD><MFCC><DIAGC>
~h "Activity4"
<BEGINHMM>
<NUMSTATES> 8
<STATE> 2
<NUMMIXES> 3
<MIXTURE> 1 1.647552e-01
<MEAN> 15
 -1.079800e+01 2.805771e+00 2.434408e+00 2.648212e+00 2.263748e+00 1.478585e+00 1.304977e+03 4.757091e-14 1.928581e+02 2.731340e-14 1.993159e+02 1.484848e-14 -1.018321e+00 5.311230e-01 -2.251289e+00
<VARIANCE> 15
 1.587786e+01 1.246745e+01 1.457922e+01 1.583281e+00 2.053415e+00 9.262504e-01 8.443302e+05 4.729305e-27 5.192718e+04 3.480920e-27 1.045030e+05 1.858361e-27 3.644386e+01 1.926864e+01 2.336731e+01
<GCONST> -1.006840e+02
<MIXTURE> 2 3.493527e-01
<MEAN> 15
 -1.024658e+01 3.597901e+00 1.340777e+00 1.026757e+00 1.214938e+00 7.128717e-01 1.195518e+03 5.516987e-15 2.316776e+02 1.098534e-14 1.876750e+02 3.784659e-15 -3.748532e-02 -1.086798e-01 -7.993939e-02
<VARIANCE> 15
 1.465791e+01 1.070063e+01 1.712461e+01 2.315229e-01 3.382699e-01 9.221310e-02 5.968339e+05 7.133146e-29 4.617653e+04 2.420688e-28 6.476986e+04 1.943341e-29 1.216250e+00 4.940377e-01 4.406095e-01
<GCONST> -1.301865e+02
<MIXTURE> 3 4.858921e-01
<MEAN> 15
 -1.061624e+01 3.832231e+00 1.672428e+00 1.002612e+00 5.674617e-01 3.336679e-01 1.205106e+03 7.919529e-15 1.893249e+02 2.241002e-15 5.870317e+01 4.239702e-16 -8.482724e-02 2.968653e-02 -5.368349e-02
<VARIANCE> 15
 8.154162e+00 4.345241e+00 3.075001e+00 2.398871e-01 6.454443e-02 1.952476e-02 3.392311e+05 1.071938e-28 2.245655e+04 9.007817e-30 3.820764e+03 7.934663e-31 2.253197e-01 2.038773e-02 7.988418e-02
<GCONST> -1.533445e+02
<STATE> 3
<NUMMIXES> 3
<MIXTURE> 1 3.756579e-01
<MEAN> 15
 -1.124854e+01 2.977231e+00 1.614917e+00 1.537014e+00 8.663831e-01 5.707071e-01 1.299092e+03 1.831375e-14 9.975829e+01 4.621098e-15 3.902086e+01 2.436748e-15 -6.103414e-01 1.548998e-01 -1.751338e-01
<VARIANCE> 15
 4.220763e+00 1.293236e+00 1.402110e+00 4.604439e-01 1.523393e-01 7.326086e-02 1.986207e+05 4.909816e-28 4.445224e+03 5.317617e-29 1.795654e+03 1.123985e-29 9.924250e-01 1.517971e-01 6.617509e-01
<GCONST> -1.445246e+02
<MIXTURE> 2 3.057762e-01
<MEAN> 15
 -9.123934e+00 2.088799e+00 1.993811e-01 7.604243e-01 3.493712e-01 2.245855e-01 8.751253e+02 3.816264e-15 4.768882e+01 4.570554e-16 4.934408e+00 1.685500e-16 -1.077437e-01 3.921318e-03 -8.636062e-03
<VARIANCE> 15
 4.399765e+00 4.107370e-01 4.565112e-01 1.941310e-01 2.775514e-02 6.931141e-03 1.517227e+05 4.767489e-29 6.606874e+02 1.103076e-30 2.874624e+01 1.393570e-31 5.976033e-02 2.816597e-03 1.407693e-02
<GCONST> -1.792317e+02
<MIXTURE> 3 3.185658e-01
<MEAN> 15
 -1.009570e+01 3.493367e+00 2.237667e+00 7.100472e-01 4.543445e-01 4.017293e-01 1.048564e+03 2.950516e-15 1.339592e+02 9.513933e-16 6.790441e+01 1.060874e-15 -5.512404e-02 2.271779e-02 -1.312439e-02
<VARIANCE> 15
 3.019416e+00 1.213482e+00 1.826471e+00 1.285654e-01 4.321952e-02 2.939463e-02 1.217948e+05 2.243513e-29 5.468357e+03 3.740160e-30 3.622753e+03 1.799905e-30 5.772671e-02 1.846606e-02 5.615436e-02
<GCONST> -1.626775e+02
<STATE> 4
<NUMMIXES> 3
<MIXTURE> 1 3.290431e-02
<MEAN> 15
 -1.388379e+01 3.568424e-01 2.085734e+00 7.032894e-01 1.165485e+00 3.260475e-01 1.928102e+03 1.443374e-15 8.772258e+01 1.078916e-14 4.708750e+01 1.596640e-16 2.245201e-02 -2.590979e-01 8.232401e-02
<VARIANCE> 15
 5.281778e-02 9.203595e+00 3.497030e-01 9.303451e-03 9.098413e-02 4.095257e-03 4.197491e+03 8.280013e-30 2.944151e+03 2.033437e-29 4.538526e+02 6.198348e-32 4.037930e-01 1.776859e-02 1.112247e-02
<GCONST> -1.786520e+02
<MIXTURE> 2 3.459908e-01
<MEAN> 15
 -1.841373e-01 8.400840e+00 9.715279e-01 5.942304e-01 1.350067e+00 6.720672e-01 9.967545e+01 2.705488e-15 8.434062e+02 1.577461e-14 4.605059e+01 2.897726e-15 -2.240803e-01 7.295822e-02 3.290872e-02
<VARIANCE> 15
 1.003591e+01 1.436584e+01 3.762003e+00 1.058135e-01 5.290427e-01 1.108206e-01 1.824975e+04 1.622381e-29 5.096629e+05 4.052019e-28 3.983166e+03 2.319804e-29 6.359892e-01 1.009248e+00 9.767551e-02
<GCONST> -1.380424e+02
<MIXTURE> 3 6.211050e-01
<MEAN> 15
 -9.020692e+00 2.002200e+00 2.993699e+00 6.790354e-01 8.876172e-01 6.999522e-01 8.678514e+02 2.664311e-15 6.611363e+01 6.828723e-15 1.039264e+02 4.382263e-15 5.294915e-03 2.194839e-01 -1.861880e-01
<VARIANCE> 15
 5.473099e+00 2.926147e+00 1.672811e+00 1.213991e-01 1.654886e-01 1.505579e-01 1.650860e+05 1.839773e-29 2.813308e+03 5.830711e-29 5.246893e+03 4.266304e-29 2.798191e-01 2.542528e-01 1.854552e-01
<GCONST> -1.472523e+02
<STATE> 5
<NUMMIXES> 3
<MIXTURE> 1 2.087377e-01
<MEAN> 15
 -1.259349e+01 4.059526e+00 3.779610e+00 2.225944e+00 1.699851e+00 1.256120e+00 1.720671e+03 4.122358e-14 2.148796e+02 2.310932e-14 1.886947e+02 1.341713e-14 -3.210711e-01 6.699100e-01 -1.362753e+00
<VARIANCE> 15
 1.530988e+01 5.959982e+00 5.206710e+00 1.196916e+00 1.052195e+00 3.268360e-01 9.806933e+05 2.744959e-27 4.634025e+04 1.401617e-27 4.245236e+04 2.602388e-28 1.546673e+01 4.440051e+00 6.978103e+00
<GCONST> -1.122961e+02
<MIXTURE> 2 3.928147e-01
<MEAN> 15
 -9.977916e+00 4.013516e+00 1.628281e+00 1.285255e+00 9.633679e-01 5.907300e-01 1.059725e+03 1.252283e-14 2.231512e+02 8.323070e-15 5.612646e+01 2.516199e-15 -2.380613e-01 -6.898281e-02 -1.535293e-01
<VARIANCE> 15
 6.969800e+00 6.586863e+00 3.073976e+00 3.948556e-01 3.249833e-01 7.933050e-02 2.746054e+05 2.145237e-28 4.525844e+04 1.460542e-28 4.133947e+03 1.112602e-29 1.273554e+00 2.432014e-01 4.737404e-01
<GCONST> -1.368895e+02
<MIXTURE> 3 3.984476e-01
<MEAN> 15
 -9.852342e+00 3.150882e+00 3.845236e-01 7.244832e-01 5.733938e-01 3.498442e-01 1.044696e+03 2.976344e-15 1.349153e+02 2.253889e-15 1.179992e+01 5.559940e-16 -1.333516e-01 5.377632e-03 -2.236105e-02
<VARIANCE> 15
 7.485034e+00 3.646164e+00 1.047281e+00 1.274396e-01 9.330995e-02 2.339918e-02 2.649061e+05 2.167434e-29 1.627949e+04 1.243750e-29 1.599329e+02 8.227579e-31 1.111058e-01 2.630910e-02 3.815391e-02
<GCONST> -1.609387e+02
<STATE> 6
<NUMMIXES> 3
<MIXTURE> 1 3.324109e-01
<MEAN> 15
 -1.030712e+01 3.433073e+00 3.665223e+00 1.477100e+00 9.283471e-01 6.724831e-01 1.175296e+03 2.047419e-14 1.359316e+02 6.895661e-15 1.567928e+02 3.955229e-15 -9.675563e-02 1.268802e-01 -5.813572e-01
<VARIANCE> 15
 1.228089e+01 2.138668e+00 2.434415e+00 6.548208e-01 1.959377e-01 1.186963e-01 4.451656e+05 6.612204e-28 1.207001e+04 6.145967e-29 1.634777e+04 2.572503e-29 1.438376e+00 3.113759e-01 9.078630e-01
<GCONST> -1.346245e+02
<MIXTURE> 2 2.516937e-01
<MEAN> 15
 -7.376621e+00 2.751969e+00 1.491928e+00 4.539395e-01 3.058729e-01 2.636220e-01 5.721823e+02 1.585162e-15 9.186793e+01 6.696364e-16 3.059056e+01 3.270158e-16 -3.250337e-02 8.459192e-03 -5.089371e-02
<VARIANCE> 15
 2.875781e+00 1.639469e+00 8.431959e-01 5.559276e-02 2.815987e-02 1.254283e-02 6.610139e+04 4.288536e-30 7.410501e+03 1.221865e-30 8.821958e+02 2.816223e-31 1.739157e-02 4.584701e-03 9.815166e-03
<GCONST> -1.760020e+02
<MIXTURE> 3 4.158954e-01
<MEAN> 15
 -1.012183e+01 3.898587e+00 3.160720e+00 1.043904e+00 4.106501e-01 4.351442e-01 1.067142e+03 7.929446e-15 1.785403e+02 8.285866e-16 1.099882e+02 1.385152e-15 -5.341089e-02 2.686072e-02 -1.882021e-01
<VARIANCE> 15
 4.600965e+00 2.675407e+00 1.068430e+00 1.947558e-01 3.183755e-02 3.859821e-02 1.827635e+05 9.892115e-29 1.712294e+04 2.216393e-30 4.223316e+03 3.298876e-30 1.258257e-01 1.779384e-02 1.208774e-01
<GCONST> -1.568441e+02
<STATE> 7
<NUMMIXES> 3
<MIXTURE> 1 2.632429e-01
<MEAN> 15
 -1.231641e+01 -7.672429e-01 1.593012e+00 1.460485e+00 1.051577e+00 9.803019e-01 1.587275e+03 1.949993e-14 4.004120e+01 1.154857e-14 3.523043e+01 8.084762e-15 -4.769957e-02 -9.826614e-02 8.590786e-02
<VARIANCE> 15
 7.916981e+00 4.051142e+00 1.366717e+00 5.836565e-01 3.474431e-01 2.308253e-01 4.987095e+05 5.415527e-28 3.242695e+03 2.379369e-28 1.961440e+03 1.186310e-28 2.128918e+00 1.064599e+00 2.121115e+00
<GCONST> -1.320478e+02
<MIXTURE> 2 1.824046e-01
<MEAN> 15
 -7.976748e+00 -4.940812e-02 9.856937e-01 6.785343e-01 2.390779e-01 2.574597e-01 6.567223e+02 3.978269e-15 8.794312e+00 2.782427e-16 8.070784e+01 4.376211e-16 4.014845e-02 -5.994645e-03 -8.834491e-02
<VARIANCE> 15
 2.236248e+00 8.840684e-01 7.110492e+00 1.086135e-01 1.171402e-02 2.378100e-02 6.055632e+04 1.601724e-29 1.251578e+02 2.979354e-31 3.015187e+04 1.009124e-30 1.870142e-02 7.001767e-03 1.954491e-02
<GCONST> -1.725762e+02
<MIXTURE> 3 5.543525e-01
<MEAN> 15
 -1.130436e+01 -7.202327e-01 8.246631e-01 1.077549e+00 4.855932e-01 4.367774e-01 1.344970e+03 9.744427e-15 7.571156e+01 1.615951e-15 2.197407e+01 1.156918e-15 3.967614e-02 -1.174080e-02 -5.276419e-03
<VARIANCE> 15
 7.096812e+00 7.115335e+00 1.559310e+00 3.296766e-01 4.812435e-02 3.868773e-02 3.691631e+05 1.361218e-28 5.522378e+03 4.535141e-30 9.111230e+02 3.004774e-30 2.038805e-01 3.266659e-02 1.701992e-01
<GCONST> -1.537008e+02
<TRANSP> 8
 0.000000e+00 4.967603e-01 5.032397e-01 0.000000e+00 0.000000e+00 0.000000e+00 0.000000e+00 0.000000e+00
 0.000000e+00 8.165881e-01 1.448846e-01 3.852723e-02 0.000000e+00 0.000000e+00 0.000000e+00 0.000000e+00
 0.000000e+00 0.000000e+00 9.170253e-01 3.621668e-02 4.675809e-02 0.000000e+00 0.000000e+00 0.000000e+00
 0.000000e+00 0.000000e+00 0.000000e+00 5.825790e-01 1.920886e-01 2.253324e-01 0.000000e+00 0.000000e+00
 0.000000e+00 0.000000e+00 0.000000e+00 0.000000e+00 8.370922e-01 1.201533e-01 4.275458e-02 0.000000e+00
 0.000000e+00 0.000000e+00 0.000000e+00 0.000000e+00 0.000000e+00 9.042675e-01 2.009460e-02 7.563791e-02
 0.000000e+00 0.000000e+00 0.000000e+00 0.000000e+00 0.000000e+00 0.000000e+00 8.477334e-01 1.522666e-01
 0.000000e+00 0.000000e+00 0.000000e+00 0.000000e+00 0.000000e+00 0.000000e+00 0.000000e+00 0.000000e+00
<ENDHMM>
