~o
<STREAMINFO> 1 15
<VECSIZE> 15<NULLD><MFCC><DIAGC>
~h "ActivityOther"
<BEGINHMM>
<NUMSTATES> 8
<STATE> 2
<NUMMIXES> 3
<MIXTURE> 1 4.003848e-01
<MEAN> 15
 -8.051286e+00 4.379506e+00 1.103597e+00 7.554309e-01 8.840725e-01 6.238320e-01 7.152209e+02 2.702825e-15 2.750939e+02 2.282489e-15 6.048779e+01 9.663309e-16 -4.017229e-02 2.636449e-02 -2.894483e-02
<VARIANCE> 15
 6.779346e+00 8.341484e+00 4.827813e+00 1.152863e-01 1.750786e-01 1.008212e-01 1.733311e+05 2.075571e-29 5.375936e+04 3.390778e-29 5.190094e+03 8.505733e-30 1.770808e-01 1.068208e-01 8.320706e-02
<GCONST> -1.464995e+02
<MIXTURE> 2 1.824913e-01
<MEAN> 15
 -9.193637e+00 4.068627e+00 1.716012e+00 3.515426e+00 3.145370e+00 2.267571e+00 1.066500e+03 7.208568e-14 3.237120e+02 3.452072e-14 1.095692e+02 1.864655e-14 -5.380752e-01 8.710717e-01 7.851126e-01
<VARIANCE> 15
 2.502523e+01 1.651432e+01 8.512535e+00 3.189780e+00 3.363383e+00 1.636195e+00 1.002388e+06 1.740651e-26 1.451103e+05 9.950061e-27 2.356261e+04 2.557683e-27 8.182341e+01 3.309694e+01 4.393261e+01
<GCONST> -9.435957e+01
<MIXTURE> 3 4.171238e-01
<MEAN> 15
 -8.742061e+00 4.194069e+00 1.335122e+00 1.591856e+00 1.629443e+00 1.208026e+00 8.819024e+02 1.220803e-14 2.929908e+02 8.242974e-15 7.811089e+01 4.375452e-15 -5.536826e-02 1.227651e-01 2.792923e-02
<VARIANCE> 15
 1.215076e+01 1.180456e+01 6.107487e+00 4.869089e-01 5.394956e-01 3.299435e-01 3.878377e+05 4.297214e-28 6.667169e+04 4.215960e-28 9.251716e+03 1.247648e-28 2.921313e+00 1.517187e+00 1.526526e+00
<GCONST> -1.233808e+02
<STATE> 3
<NUMMIXES> 3
<MIXTURE> 1 4.557433e-01
<MEAN> 15
 -2.688459e+00 2.065696e+00 3.914967e+00 8.720859e-01 1.403386e+00 9.278764e-01 1.942349e+02 4.993523e-15 5.208737e+02 9.500914e-15 3.112943e+02 4.787287e-15 2.659897e-02 -7.903687e-02 -1.758136e-01
<VARIANCE> 15
 1.238441e+01 4.808829e+01 1.596987e+01 2.145156e-01 5.244919e-01 2.178375e-01 4.112664e+04 6.508426e-29 2.226616e+05 4.104917e-28 7.979212e+04 8.222055e-29 1.007670e+00 1.160230e+00 4.637136e-01
<GCONST> -1.259978e+02
<MIXTURE> 2 4.400281e-01
<MEAN> 15
 -2.817495e+00 3.631092e+00 3.327550e+00 3.368574e-01 5.355299e-01 3.770845e-01 2.000003e+02 5.638117e-16 4.718810e+02 8.958728e-16 2.565340e+02 5.228621e-16 -1.326325e-03 -3.254397e-03 -1.717825e-02
<VARIANCE> 15
 1.207651e+01 3.400673e+01 1.458761e+01 2.983711e-02 7.609240e-02 3.179076e-02 4.291704e+04 1.147740e-30 1.076044e+05 7.171551e-30 5.882304e+04 1.582105e-30 1.685267e-02 2.077769e-02 9.223277e-03
<GCONST> -1.573438e+02
<MIXTURE> 3 1.042286e-01
<MEAN> 15
 -3.386791e+00 2.297424e+00 4.778629e+00 2.556688e+00 5.441868e+00 2.832721e+00 3.156306e+02 3.294203e-14 6.745780e+02 1.089619e-13 4.717097e+02 3.352782e-14 -5.206963e-01 -1.752578e+00 -2.350883e+00
<VARIANCE> 15
 2.107594e+01 6.289893e+01 2.524928e+01 2.383548e+00 2.628982e+01 3.043530e+00 1.889885e+05 5.817828e-27 9.753832e+05 2.333027e-25 2.277269e+05 1.193724e-26 2.528277e+02 1.312033e+03 5.994484e+01
<GCONST> -7.849767e+01
<STATE> 4
<NUMMIXES> 3
<MIXTURE> 1 4.576174e-01
<MEAN> 15
 -5.187574e+00 9.336967e+00 1.938604e+00 1.683847e+00 2.396041e+00 9.666680e-01 3.852663e+02 1.961420e-14 1.166339e+03 3.602185e-14 6.589989e+01 4.254040e-15 -1.696991e+00 2.043166e-01 1.381601e-01
<VARIANCE> 15
 1.237220e+01 3.051917e+01 2.930327e+00 7.376556e-01 1.954359e+00 2.488246e-01 1.543066e+05 8.819351e-28 9.771857e+05 4.115890e-27 5.548924e+03 7.514057e-29 1.190475e+01 3.185382e+00 1.705934e+00
<GCONST> -1.157266e+02
<MIXTURE> 2 1.259742e-01
<MEAN> 15
 -3.258459e+00 1.191098e+01 2.864832e+00 5.752090e+00 1.872557e+01 5.331442e+00 2.135493e+02 4.714405e-14 1.765957e+03 2.793289e-13 1.326768e+02 2.069143e-14 6.950803e-01 8.005408e+01 1.740559e+00
<VARIANCE> 15
 9.426501e+00 2.424750e+01 3.193648e+00 7.810320e+00 1.279718e+02 9.615288e+00 9.433317e+04 5.940973e-26 8.436583e+06 2.740724e-24 4.559895e+04 3.846942e-26 7.331033e+03 1.015507e+04 5.134370e+02
<GCONST> -6.503028e+01
<MIXTURE> 3 4.164085e-01
<MEAN> 15
 -9.697582e-01 6.490631e+00 1.291301e+00 6.892579e-01 9.299517e-01 5.777813e-01 3.918465e+01 3.159361e-15 5.350740e+02 4.208451e-15 3.646955e+01 1.504637e-15 -1.834466e-01 -6.232958e-02 4.905410e-04
<VARIANCE> 15
 3.094427e+00 1.147356e+01 2.020246e+00 1.414044e-01 2.175059e-01 6.586818e-02 2.288472e+03 2.381076e-29 1.263276e+05 6.617474e-29 1.780256e+03 9.353053e-30 3.044696e-01 1.558962e-01 9.925088e-02
<GCONST> -1.503863e+02
<STATE> 5
<NUMMIXES> 3
<MIXTURE> 1 3.143817e-01
<MEAN> 15
 -1.086591e+01 3.018435e+00 2.385434e+00 2.149836e+00 9.380162e-01 7.977579e-01 1.292331e+03 4.006192e-14 1.537746e+02 6.228464e-15 9.714161e+01 4.453068e-15 -4.270542e-01 1.788571e-01 -1.880972e-01
<VARIANCE> 15
 1.307487e+01 6.512307e+00 4.204840e+00 1.057735e+00 3.123309e-01 1.902588e-01 6.753524e+05 2.791745e-27 2.053364e+04 1.229209e-28 1.272080e+04 5.332952e-29 3.423284e+00 5.732469e-01 2.700722e+00
<GCONST> -1.253569e+02
<MIXTURE> 2 3.267646e-01
<MEAN> 15
 -8.005466e+00 2.883173e+00 3.134783e+00 6.458343e-01 7.599974e-01 5.360089e-01 7.619126e+02 2.203829e-15 1.605727e+02 2.920886e-15 1.843085e+02 1.424679e-15 -4.202336e-02 4.311558e-02 -6.203254e-02
<VARIANCE> 15
 1.216582e+01 7.835104e+00 8.649535e+00 9.714427e-02 1.267706e-01 5.744616e-02 2.916703e+05 1.278809e-29 2.335162e+04 2.453138e-29 4.483448e+04 5.683601e-30 1.480550e-01 8.693878e-02 7.599827e-02
<GCONST> -1.462948e+02
<MIXTURE> 3 3.588537e-01
<MEAN> 15
 -8.033359e+00 2.583582e+00 1.396879e+00 7.727209e-01 3.324529e-01 2.758514e-01 7.114919e+02 5.575161e-15 1.026073e+02 5.343269e-16 3.824198e+01 3.597972e-16 -2.883019e-02 1.136199e-02 -4.258461e-02
<VARIANCE> 15
 6.873525e+00 3.598506e+00 1.882049e+00 2.359658e-01 2.666332e-02 1.531053e-02 2.055325e+05 6.289316e-29 5.843832e+03 9.091228e-31 1.541540e+03 4.096951e-31 6.386551e-02 4.664802e-03 4.240700e-02
<GCONST> -1.649500e+02
<STATE> 6
<NUMMIXES> 3
<MIXTURE> 1 1.163464e-01
<MEAN> 15
 -8.468164e+00 5.215371e+00 3.170618e+00 5.478462e+00 7.168244e+00 4.792675e+00 1.123420e+03 1.632717e-13 9.977283e+02 2.359895e-13 4.902639e+02 8.504913e-14 -7.296865e+00 1.219342e+01 -8.169305e+00
<VARIANCE> 15
 4.635124e+01 8.063507e+01 4.109016e+01 1.004920e+01 2.751831e+01 9.267707e+00 1.964604e+06 1.346398e-25 2.267962e+06 5.900345e-25 5.304242e+05 8.943995e-26 1.398235e+03 2.011932e+03 7.970112e+02
<GCONST> -5.953674e+01
<MIXTURE> 2 3.593394e-01
<MEAN> 15
 -6.333936e+00 2.903311e+00 2.179064e+00 2.267477e+00 2.732713e+00 1.870798e+00 6.559165e+02 2.781148e-14 4.059529e+02 2.788912e-14 1.922254e+02 1.434541e-14 -2.753291e-01 2.799707e-01 -2.898276e-01
<VARIANCE> 15
 2.637577e+01 3.266568e+01 1.487613e+01 1.322293e+00 1.853683e+00 7.601008e-01 4.997323e+05 2.417861e-27 1.768582e+05 4.752267e-27 5.534195e+04 9.288470e-28 2.268805e+01 1.423976e+01 1.028794e+01
<GCONST> -1.022577e+02
<MIXTURE> 3 5.243143e-01
<MEAN> 15
 -6.388099e+00 3.826174e+00 1.880718e+00 1.007493e+00 1.208780e+00 8.876272e-01 5.720840e+02 5.082237e-15 3.843216e+02 4.596744e-15 1.096568e+02 2.274858e-15 -5.191888e-02 6.453564e-02 -6.745388e-02
<VARIANCE> 15
 1.655969e+01 2.382411e+01 7.452000e+00 2.443333e-01 3.439264e-01 2.067467e-01 2.295062e+05 7.897953e-29 1.165387e+05 1.349634e-28 1.400420e+04 3.920812e-29 7.212694e-01 4.920103e-01 3.576424e-01
<GCONST> -1.312955e+02
<STATE> 7
<NUMMIXES> 3
<MIXTURE> 1 1.822176e-01
<MEAN> 15
 -4.564373e+00 2.279542e+00 7.609506e+00 1.411325e+00 2.018741e+00 1.386458e+00 3.119865e+02 1.306225e-14 1.640040e+02 2.016583e-14 6.200003e+02 1.028305e-14 -4.127861e-03 -6.924464e-02 -9.678081e-01
<VARIANCE> 15
 1.090250e+01 1.182252e+01 4.450913e+00 6.015481e-01 1.496125e+00 5.832782e-01 9.218659e+04 4.672470e-28 4.368725e+04 3.244278e-27 1.019290e+05 4.594908e-28 6.964416e+00 7.064772e+00 5.159687e+00
<GCONST> -1.144100e+02
<MIXTURE> 2 4.388810e-01
<MEAN> 15
 -3.877416e+00 2.352511e+00 7.624691e+00 5.837209e-01 9.748394e-01 5.840045e-01 2.031534e+02 2.206966e-15 1.549997e+02 4.109071e-15 6.007133e+02 1.519829e-15 -5.001942e-02 -5.721407e-02 -4.135451e-02
<VARIANCE> 15
 5.369273e+00 1.007266e+01 1.975781e+00 7.446659e-02 2.072687e-01 6.889293e-02 2.909119e+04 1.060617e-29 3.068898e+04 9.142504e-29 4.377630e+04 9.650500e-30 1.862637e-01 1.804015e-01 7.349633e-02
<GCONST> -1.474024e+02
<MIXTURE> 3 3.789014e-01
<MEAN> 15
 -3.630489e+00 2.621686e+00 7.650777e+00 2.503875e-01 4.455150e-01 2.757815e-01 1.801481e+02 2.803903e-16 1.588484e+02 5.583934e-16 6.008988e+02 2.193393e-16 -1.731325e-03 -8.925762e-03 -4.258731e-03
<VARIANCE> 15
 4.841992e+00 9.008664e+00 1.556673e+00 1.407134e-02 5.091963e-02 1.395883e-02 2.227786e+04 3.017188e-31 2.640244e+04 3.268055e-30 3.316054e+04 3.594892e-31 6.080908e-03 6.665655e-03 2.222243e-03
<GCONST> -1.736173e+02
<TRANSP> 8
 0.000000e+00 4.386375e-01 5.613625e-01 0.000000e+00 0.000000e+00 0.000000e+00 0.000000e+00 0.000000e+00
 0.000000e+00 9.109616e-01 5.226560e-02 3.677282e-02 0.000000e+00 0.000000e+00 0.000000e+00 0.000000e+00
 0.000000e+00 0.000000e+00 8.628659e-01 4.798125e-02 8.915275e-02 0.000000e+00 0.000000e+00 0.000000e+00
 0.000000e+00 0.000000e+00 0.000000e+00 8.726120e-01 2.456520e-02 1.028228e-01 0.000000e+00 0.000000e+00
 0.000000e+00 0.000000e+00 0.000000e+00 0.000000e+00 8.735718e-01 7.913294e-02 4.729539e-02 0.000000e+00
 0.000000e+00 0.000000e+00 0.000000e+00 0.000000e+00 0.000000e+00 8.248422e-01 2.230329e-02 1.528545e-01
 0.000000e+00 0.000000e+00 0.000000e+00 0.000000e+00 0.000000e+00 0.000000e+00 9.460563e-01 5.394370e-02
 0.000000e+00 0.000000e+00 0.000000e+00 0.000000e+00 0.000000e+00 0.000000e+00 0.000000e+00 0.000000e+00
<ENDHMM>
