~o
<STREAMINFO> 1 15
<VECSIZE> 15<NULLD><MFCC><DIAGC>
~h "Activity6"
<BEGINHMM>
<NUMSTATES> 8
<STATE> 2
<NUMMIXES> 3
<MIXTURE> 1 3.441342e-01
<MEAN> 15
 -2.718837e+00 4.955259e+00 7.865973e+00 1.654217e+00 1.626844e+00 1.204958e+00 8.172651e+01 3.857751e-15 2.520360e+02 2.405580e-15 6.231512e+02 6.043872e-16 -7.429509e-01 1.301810e+00 -5.144052e-02
<VARIANCE> 15
 6.737840e-01 5.102719e-01 3.416650e-01 3.268262e-01 2.768945e-01 1.461649e-01 2.339549e+03 4.032368e-28 5.354065e+03 2.787292e-28 8.574512e+03 5.362236e-29 1.289555e+00 9.124870e-01 6.454003e-01
<GCONST> -1.453951e+02
<MIXTURE> 2 3.288762e-01
<MEAN> 15
 -3.002238e+00 4.902171e+00 7.841552e+00 3.208686e+00 3.445165e+00 2.312934e+00 1.060194e+02 1.703566e-14 2.678363e+02 -3.469393e-16 6.220910e+02 1.818803e-15 -4.224536e+00 5.913492e+00 -4.688882e-01
<VARIANCE> 15
 1.622489e+00 1.101060e+00 5.226301e-01 1.140243e+00 1.504110e+00 5.640019e-01 1.100588e+04 6.030154e-27 1.552982e+04 5.628874e-27 1.427327e+04 9.683577e-28 2.438939e+01 1.615189e+01 8.379151e+00
<GCONST> -1.189258e+02
<MIXTURE> 3 3.269896e-01
<MEAN> 15
 -6.818478e+00 2.471791e+00 6.494042e+00 1.410167e+00 1.227274e+00 9.395287e-01 4.761097e+02 2.968026e-15 7.989758e+01 2.475245e-15 4.294384e+02 1.024945e-15 3.402781e-01 2.738597e-01 6.389263e-03
<VARIANCE> 15
 1.043441e+00 1.889221e+00 7.121511e-01 4.268359e-01 3.376416e-01 1.205425e-01 2.100500e+04 2.951257e-28 3.788254e+03 9.598907e-29 1.043531e+04 2.572125e-29 9.935930e-01 4.470282e-01 4.899114e-01
<GCONST> -1.439592e+02
<STATE> 3
<NUMMIXES> 3
<MIXTURE> 1 2.175193e-01
<MEAN> 15
 -4.596128e+00 1.890885e+00 7.869329e+00 8.059682e+00 5.342528e+00 3.785728e+00 3.186805e+02 7.255070e-14 1.020694e+02 2.685197e-14 6.623197e+02 3.310427e-15 -2.019160e+00 3.665169e+00 -3.279648e+00
<VARIANCE> 15
 9.241768e+00 5.404885e+00 2.379621e+00 1.234004e+01 4.979885e+00 2.429697e+00 3.758332e+05 2.794825e-25 6.578895e+04 5.349644e-26 6.856966e+04 1.021138e-26 7.443954e+02 1.765444e+02 4.426334e+02
<GCONST> -8.427557e+01
<MIXTURE> 2 4.241561e-01
<MEAN> 15
 -5.829982e+00 9.960305e-01 7.495633e+00 4.059073e+00 3.101085e+00 2.402353e+00 3.781543e+02 1.569556e-14 4.193328e+01 1.078506e-14 5.786078e+02 6.311182e-15 2.529886e+00 5.303313e-01 5.931072e-01
<VARIANCE> 15
 2.943163e+00 2.870732e+00 1.540447e+00 2.176366e+00 1.423761e+00 8.059954e-01 4.546728e+04 1.293013e-26 6.235891e+03 3.877305e-27 3.276571e+04 1.166189e-27 3.977334e+01 1.831396e+01 2.439451e+01
<GCONST> -1.117462e+02
<MIXTURE> 3 3.583245e-01
<MEAN> 15
 -5.383889e+00 1.106889e+00 7.934257e+00 2.157687e+00 1.741361e+00 1.454518e+00 3.050553e+02 5.101856e-15 2.900558e+01 4.308486e-15 6.375421e+02 2.307681e-15 3.003534e-01 3.253222e-01 2.029819e-01
<VARIANCE> 15
 1.140723e+00 1.611070e+00 6.934403e-01 6.812341e-01 4.387021e-01 2.637433e-01 1.405049e+04 9.868215e-28 1.226558e+03 2.632077e-28 1.729246e+04 1.161527e-28 3.399987e+00 1.623759e+00 2.315715e+00
<GCONST> -1.357716e+02
<STATE> 4
<NUMMIXES> 3
<MIXTURE> 1 2.830250e-01
<MEAN> 15
 -8.245142e+00 1.111570e+00 4.858630e+00 4.091143e+00 3.113806e+00 3.011527e+00 7.145079e+02 1.513253e-14 4.943727e+01 1.165682e-14 2.702304e+02 8.819864e-15 3.924140e+00 5.475568e-01 4.746310e+00
<VARIANCE> 15
 2.404108e+00 3.722461e+00 3.051933e+00 2.105373e+00 1.508582e+00 1.247810e+00 7.258649e+04 1.694993e-26 1.120767e+04 6.124573e-27 3.062256e+04 4.160302e-27 6.972359e+01 2.354302e+01 5.342899e+01
<GCONST> -1.059606e+02
<MIXTURE> 2 3.955234e-01
<MEAN> 15
 -8.891344e+00 -1.140612e-02 4.096095e+00 1.763369e+00 1.368190e+00 1.619105e+00 7.984979e+02 4.404538e-15 1.597240e+01 1.518756e-15 1.813308e+02 4.093065e-15 7.048466e-01 1.017102e-01 9.775745e-01
<VARIANCE> 15
 5.742165e-01 1.477533e+00 1.363509e+00 5.277669e-01 2.816054e-01 4.228842e-01 1.925755e+04 5.999174e-28 5.528918e+02 1.383686e-28 8.340814e+03 2.781776e-28 2.214328e+00 1.260797e+00 2.468992e+00
<GCONST> -1.381906e+02
<MIXTURE> 3 3.214516e-01
<MEAN> 15
 -6.941568e+00 2.506793e+00 6.360758e+00 2.330660e+00 2.052855e+00 1.562567e+00 4.940408e+02 6.416332e-15 7.947920e+01 3.999764e-15 4.123619e+02 2.269365e-15 1.241620e+00 5.530173e-01 7.509636e-01
<VARIANCE> 15
 9.134181e-01 1.496200e+00 6.468517e-01 7.444190e-01 6.485955e-01 3.071404e-01 1.827586e+04 1.403800e-27 4.158792e+03 4.719710e-28 9.916937e+03 1.772801e-28 7.052066e+00 2.902802e+00 2.942396e+00
<GCONST> -1.316682e+02
<STATE> 5
<NUMMIXES> 3
<MIXTURE> 1 5.558195e-02
<MEAN> 15
 -6.071535e+00 1.698462e+00 7.312177e+00 1.235503e+01 9.490942e+00 9.291805e+00 6.092883e+02 1.072467e-13 2.917134e+02 1.370335e-13 8.132104e+02 7.663489e-14 8.860494e+00 3.143425e+01 -1.690808e+01
<VARIANCE> 15
 1.667041e+01 1.092780e+01 9.904050e+00 4.854885e+01 2.292105e+01 4.384495e+01 1.353871e+06 1.470201e-24 5.186356e+05 6.993462e-25 3.022611e+06 5.757680e-25 9.915660e+03 7.672373e+03 7.409277e+03
<GCONST> -5.119225e+01
<MIXTURE> 2 4.196571e-01
<MEAN> 15
 -4.446402e+00 4.016156e+00 7.518404e+00 1.927058e+00 1.891754e+00 1.523348e+00 2.155408e+02 8.772820e-15 1.865995e+02 2.555027e-15 5.769279e+02 1.880015e-15 -6.968938e-01 1.712933e+00 -3.746372e-01
<VARIANCE> 15
 1.829473e+00 2.199641e+00 9.819884e-01 5.054613e-01 5.553229e-01 2.999294e-01 1.351161e+04 9.273997e-28 1.179593e+04 4.714056e-28 2.265246e+04 1.971373e-28 3.228148e+00 2.820987e+00 2.159397e+00
<GCONST> -1.305994e+02
<MIXTURE> 3 5.247609e-01
<MEAN> 15
 -4.362987e+00 3.856535e+00 7.609321e+00 8.985531e-01 8.837276e-01 7.338846e-01 2.138155e+02 1.448945e-15 1.731862e+02 9.472333e-16 5.866821e+02 8.594759e-16 -9.051449e-02 2.650252e-01 -3.517011e-02
<VARIANCE> 15
 2.302353e+00 2.391592e+00 7.493146e-01 1.300889e-01 1.124981e-01 6.948442e-02 1.511503e+04 4.313425e-29 1.194212e+04 2.390270e-29 1.754610e+04 9.657566e-30 1.427123e-01 1.122397e-01 9.882306e-02
<GCONST> -1.535968e+02
<STATE> 6
<NUMMIXES> 3
<MIXTURE> 1 4.092157e-01
<MEAN> 15
 -4.085865e+00 2.913228e+00 8.129442e+00 3.826927e+00 4.090115e+00 2.735454e+00 1.858917e+02 2.756397e-14 1.291216e+02 2.043386e-16 6.719498e+02 5.465745e-15 -1.022937e+00 6.949073e+00 -8.889289e-01
<VARIANCE> 15
 2.050163e+00 2.880485e+00 7.573513e-01 1.499669e+00 2.173821e+00 7.871941e-01 1.895961e+04 1.008572e-26 2.266989e+04 6.716446e-27 2.131441e+04 1.622774e-27 3.966419e+01 3.496289e+01 2.000222e+01
<GCONST> -1.117244e+02
<MIXTURE> 2 2.004285e-01
<MEAN> 15
 -4.670357e+00 2.628918e+00 7.424399e+00 6.609711e+00 5.900357e+00 4.255458e+00 3.382549e+02 4.616592e-14 1.720342e+02 5.908124e-15 6.079655e+02 1.068844e-14 -3.575395e+00 1.369121e+01 -1.451654e+00
<VARIANCE> 15
 9.195111e+00 6.388849e+00 4.487202e+00 8.865915e+00 7.373025e+00 3.864572e+00 2.424819e+05 1.708351e-25 1.062621e+05 5.608933e-26 1.080584e+05 2.108017e-26 4.763120e+02 4.838482e+02 2.693213e+02
<GCONST> -8.211238e+01
<MIXTURE> 3 3.903557e-01
<MEAN> 15
 -4.261292e+00 2.630241e+00 8.147054e+00 2.299182e+00 2.351635e+00 1.659614e+00 1.984465e+02 6.920471e-15 9.116062e+01 3.466162e-15 6.718239e+02 2.220480e-15 -1.477132e-01 1.925120e+00 -2.858667e-01
<VARIANCE> 15
 1.427510e+00 1.949080e+00 6.861928e-01 6.175368e-01 6.925126e-01 2.633653e-01 1.177608e+04 1.241649e-27 6.853059e+03 5.360250e-28 1.820324e+04 1.707153e-28 4.177607e+00 3.308795e+00 2.425742e+00
<GCONST> -1.311250e+02
<STATE> 7
<NUMMIXES> 3
<MIXTURE> 1 2.034419e-01
<MEAN> 15
 -5.045238e+00 3.328392e+00 6.730485e+00 2.481710e+00 2.967391e+00 1.705454e+00 3.264138e+02 1.429494e-14 2.358917e+02 1.184010e-14 5.074713e+02 1.215982e-14 -9.772314e-01 5.579298e-01 1.235529e-01
<VARIANCE> 15
 7.187499e+00 1.218792e+01 5.933622e+00 1.305798e+00 2.429623e+00 6.686760e-01 7.019581e+04 3.030919e-27 9.484316e+04 3.568553e-27 1.356679e+05 1.182305e-27 3.103379e+01 1.475675e+01 7.823112e+00
<GCONST> -1.067664e+02
<MIXTURE> 2 2.239774e-01
<MEAN> 15
 -5.798472e+00 2.995441e+00 5.375863e+00 8.896879e-01 9.295871e-01 7.740229e-01 4.717221e+02 2.381772e-15 1.885266e+02 2.522925e-15 3.234751e+02 2.069349e-15 -6.928083e-02 1.014957e-01 2.610546e-02
<VARIANCE> 15
 1.353495e+01 9.892124e+00 3.492098e+00 1.995974e-01 2.214281e-01 1.353560e-01 8.572591e+04 4.318941e-29 5.231320e+04 4.484624e-29 4.404486e+04 2.374222e-29 2.102994e-01 2.134108e-01 2.112302e-01
<GCONST> -1.396415e+02
<MIXTURE> 3 5.725807e-01
<MEAN> 15
 -4.987881e+00 1.416143e+00 8.180045e+00 1.685550e+00 1.515547e+00 1.051351e+00 2.562676e+02 4.677187e-15 3.048555e+01 2.924403e-15 6.727861e+02 2.016641e-15 1.130721e-01 3.682004e-01 -1.106143e-01
<VARIANCE> 15
 6.489873e-01 1.023149e+00 3.804150e-01 4.095963e-01 3.959459e-01 1.239766e-01 7.270094e+03 5.267486e-28 9.250067e+02 1.586844e-28 1.017850e+04 4.651665e-29 1.335251e+00 6.876647e-01 8.006089e-01
<GCONST> -1.451321e+02
<TRANSP> 8
 0.000000e+00 2.916786e-01 7.083214e-01 0.000000e+00 0.000000e+00 0.000000e+00 0.000000e+00 0.000000e+00
 0.000000e+00 8.969285e-01 6.097396e-02 4.209748e-02 0.000000e+00 0.000000e+00 0.000000e+00 0.000000e+00
 0.000000e+00 0.000000e+00 8.728281e-01 4.513169e-02 8.204022e-02 0.000000e+00 0.000000e+00 0.000000e+00
 0.000000e+00 0.000000e+00 0.000000e+00 9.233184e-01 1.436567e-02 6.231586e-02 0.000000e+00 0.000000e+00
 0.000000e+00 0.000000e+00 0.000000e+00 0.000000e+00 8.529999e-01 9.524567e-02 5.175439e-02 0.000000e+00
 0.000000e+00 0.000000e+00 0.000000e+00 0.000000e+00 0.000000e+00 8.792601e-01 2.084670e-02 9.989324e-02
 0.000000e+00 0.000000e+00 0.000000e+00 0.000000e+00 0.000000e+00 0.000000e+00 9.050020e-01 9.499802e-02
 0.000000e+00 0.000000e+00 0.000000e+00 0.000000e+00 0.000000e+00 0.000000e+00 0.000000e+00 0.000000e+00
<ENDHMM>
