~o
<STREAMINFO> 1 15
<VECSIZE> 15<NULLD><MFCC><DIAGC>
~h "Activity3"
<BEGINHMM>
<NUMSTATES> 8
<STATE> 2
<NUMMIXES> 3
<MIXTURE> 1 5.799007e-01
<MEAN> 15
 -9.056334e+00 2.331746e+00 1.859391e+00 8.478217e-02 9.625518e-02 1.105769e-01 8.211782e+02 8.487885e-18 8.817105e+01 1.874799e-17 4.263241e+01 1.297925e-17 1.542657e-03 -6.970949e-05 3.977017e-04
<VARIANCE> 15
 1.002411e-01 3.380003e+00 8.054131e-01 5.621648e-04 1.083404e-03 8.248034e-04 3.222385e+03 1.442011e-33 2.367727e+03 3.233814e-33 1.233457e+03 3.674062e-33 1.150051e-05 1.963164e-05 1.272000e-05
<GCONST> -2.307759e+02
<MIXTURE> 2 3.231156e-01
<MEAN> 15
 -8.964195e+00 2.783725e+00 2.077085e+00 1.428261e-01 1.871474e-01 1.555091e-01 8.051416e+02 1.043369e-16 1.008060e+02 1.960691e-16 5.226609e+01 8.803626e-17 2.241194e-03 7.791800e-04 -5.160843e-04
<VARIANCE> 15
 1.611151e-01 2.339069e+00 9.147447e-01 3.521744e-03 6.899244e-03 2.796504e-03 5.135279e+03 3.326744e-32 2.463402e+03 1.078066e-31 1.487488e+03 2.793182e-32 3.279763e-04 3.568276e-04 1.769247e-04
<GCONST> -2.073852e+02
<MIXTURE> 3 9.698369e-02
<MEAN> 15
 -6.547736e+00 3.253870e+00 1.821751e+00 2.354867e-01 3.500393e-01 2.640967e-01 6.530388e+02 4.312536e-16 2.573886e+02 8.280722e-16 6.010610e+01 4.747002e-16 -2.962176e-03 1.759437e-03 8.052664e-04
<VARIANCE> 15
 2.245050e+01 1.518481e+01 2.712684e+00 1.695477e-02 3.725248e-02 1.691453e-02 6.154062e+04 5.551516e-31 6.164444e+04 1.869902e-30 3.175462e+03 5.610350e-31 6.695613e-03 8.185472e-03 2.808581e-03
<GCONST> -1.703893e+02
<STATE> 3
<NUMMIXES> 3
<MIXTURE> 1 5.235423e-01
<MEAN> 15
 -8.538165e+00 3.265362e+00 3.110599e+00 2.188525e-01 2.223858e-01 2.015494e-01 7.342257e+02 3.708699e-16 1.165789e+02 2.709412e-16 1.094284e+02 1.934584e-16 -5.358649e-04 5.524141e-03 -4.599314e-03
<VARIANCE> 15
 5.379354e-01 1.003164e+00 1.272076e+00 1.558459e-02 1.647474e-02 8.228370e-03 1.604774e+04 3.753327e-31 4.065391e+03 2.963512e-31 4.755673e+03 1.327039e-31 1.936221e-03 1.476169e-03 1.441444e-03
<GCONST> -1.901708e+02
<MIXTURE> 2 1.018533e-01
<MEAN> 15
 -6.935123e+00 4.048800e+00 3.328870e+00 1.361778e+00 2.260976e+00 1.503022e+00 6.327330e+02 1.393389e-14 3.737707e+02 3.575070e-14 2.364325e+02 1.359127e-14 -9.345265e-01 -5.631296e-01 -5.439341e-01
<VARIANCE> 15
 1.586798e+01 2.274742e+01 1.310755e+01 9.383029e-01 3.049055e+00 1.708571e+00 2.356771e+05 1.134066e-27 3.980214e+05 1.209702e-26 9.048114e+04 1.487678e-27 3.545118e+01 9.169059e+01 1.838058e+01
<GCONST> -9.820126e+01
<MIXTURE> 3 3.746043e-01
<MEAN> 15
 -6.372366e+00 3.408176e+00 3.588954e+00 4.809569e-01 6.869887e-01 5.130658e-01 5.595635e+02 1.703023e-15 2.268146e+02 2.409607e-15 1.962783e+02 1.411257e-15 -4.882001e-02 2.343947e-02 -6.320817e-02
<VARIANCE> 15
 1.542388e+01 1.111043e+01 6.783989e+00 8.033823e-02 1.741652e-01 8.403073e-02 1.183381e+05 8.069483e-30 5.658993e+04 3.653508e-29 4.712181e+04 9.125380e-30 9.450098e-02 1.158825e-01 5.331191e-02
<GCONST> -1.455151e+02
<STATE> 4
<NUMMIXES> 3
<MIXTURE> 1 5.460216e-01
<MEAN> 15
 -8.548150e+00 4.714745e+00 3.449527e-01 7.727813e-02 7.844152e-02 1.088679e-01 7.309111e+02 5.773523e-18 2.227616e+02 9.801026e-18 1.683443e+00 8.586696e-18 1.857411e-03 4.415688e-04 8.131329e-04
<VARIANCE> 15
 1.985193e-02 4.725552e-02 4.850420e-02 4.314840e-04 7.074721e-04 7.888551e-04 5.780074e+02 1.011430e-33 4.248468e+02 1.482336e-33 3.636254e+00 3.738362e-33 6.658255e-06 1.173062e-05 1.050096e-05
<GCONST> -2.518436e+02
<MIXTURE> 2 3.137387e-01
<MEAN> 15
 -8.295170e+00 4.293964e+00 1.906115e+00 9.828416e-02 1.314724e-01 1.282836e-01 6.913222e+02 3.469367e-17 2.106294e+02 9.589130e-17 5.115245e+01 4.998322e-17 4.682329e-03 2.419969e-03 2.608704e-03
<VARIANCE> 15
 3.233440e-01 2.628707e+00 1.483303e+00 1.453129e-03 4.306667e-03 2.039941e-03 9.024149e+03 6.113083e-33 7.223005e+03 4.804350e-32 2.357925e+03 1.899189e-32 9.199724e-05 1.333680e-04 7.937622e-05
<GCONST> -2.116052e+02
<MIXTURE> 3 1.402398e-01
<MEAN> 15
 -7.562248e+00 3.950479e+00 4.599196e+00 7.732444e-02 7.952295e-02 1.134296e-01 5.721289e+02 7.258531e-18 1.574311e+02 4.532635e-18 2.117234e+02 2.054308e-17 1.187165e-03 1.122513e-03 3.450278e-04
<VARIANCE> 15
 2.502781e-02 1.364842e-01 1.990937e-02 4.041929e-04 4.765105e-04 9.617090e-04 5.788065e+02 1.100247e-33 7.591958e+02 1.153779e-33 1.704803e+02 6.208703e-33 5.716500e-06 1.400008e-05 1.248481e-05
<GCONST> -2.467363e+02
<STATE> 5
<NUMMIXES> 3
<MIXTURE> 1 5.585890e-01
<MEAN> 15
 -8.231089e+00 3.453066e+00 3.742460e+00 7.609072e-02 7.992029e-02 1.050032e-01 6.778447e+02 7.400025e-18 1.201090e+02 6.662582e-18 1.413124e+02 9.393892e-18 1.255623e-03 2.998319e-04 5.217458e-04
<VARIANCE> 15
 3.339178e-02 8.691449e-02 1.245889e-01 4.157145e-04 5.431283e-04 8.429374e-04 8.992751e+02 9.532061e-34 4.235038e+02 1.339775e-33 7.235634e+02 3.453818e-33 6.504637e-06 1.077652e-05 9.474811e-06
<GCONST> -2.447247e+02
<MIXTURE> 2 2.034054e-01
<MEAN> 15
 -3.804331e+00 2.745238e+00 3.140816e+00 2.681046e-01 4.264563e-01 3.236955e-01 5.353770e+02 4.990142e-16 2.591952e+02 1.124969e-15 1.426453e+02 6.481572e-16 -4.688603e-04 1.640867e-02 -1.182772e-02
<VARIANCE> 15
 3.908498e+01 1.842503e+01 4.423783e+00 2.193088e-02 7.379349e-02 2.417494e-02 7.630416e+04 9.921752e-31 5.955797e+04 6.834330e-30 2.188615e+04 1.157270e-30 1.513803e-02 1.717244e-02 6.867991e-03
<GCONST> -1.606918e+02
<MIXTURE> 3 2.380057e-01
<MEAN> 15
 -3.149078e-01 2.543271e+00 4.426630e+00 1.062636e-01 1.450090e-01 1.471156e-01 2.858763e+02 4.687286e-17 3.953071e+02 8.287634e-17 2.628348e+02 5.640563e-17 5.129324e-04 1.545379e-03 -1.862727e-04
<VARIANCE> 15
 2.848991e+01 3.306503e+01 6.689731e+00 2.042173e-03 5.083321e-03 3.081678e-03 6.619693e+04 8.330472e-33 8.198145e+04 4.915774e-32 4.160062e+04 2.707073e-32 1.076520e-04 1.937952e-04 8.589419e-05
<GCONST> -1.935808e+02
<STATE> 6
<NUMMIXES> 3
<MIXTURE> 1 6.267353e-01
<MEAN> 15
 -8.658743e+00 2.796299e+00 2.467297e+00 1.204987e-01 1.437512e-01 1.403967e-01 7.520890e+02 7.961414e-17 1.194121e+02 1.224194e-16 7.708511e+01 7.613585e-17 9.566923e-04 1.454719e-03 -3.203948e-05
<VARIANCE> 15
 2.378301e-01 4.126836e+00 1.623285e+00 3.643886e-03 6.734563e-03 3.057060e-03 7.026192e+03 3.243924e-32 4.708730e+03 7.333789e-32 3.471418e+03 2.961790e-32 2.183099e-04 2.564912e-04 1.249339e-04
<GCONST> -2.053835e+02
<MIXTURE> 2 1.147827e-01
<MEAN> 15
 2.643843e+00 9.378765e+00 5.178288e-01 8.086240e-02 9.253519e-02 1.091016e-01 7.906542e+01 1.416227e-17 8.799953e+02 2.136054e-17 9.178648e+00 1.977192e-17 1.981556e-03 -2.713122e-04 3.581875e-04
<VARIANCE> 15
 9.164586e-01 3.805364e-02 6.495407e-01 7.713991e-04 1.984878e-03 9.139301e-04 1.521786e+03 2.505415e-33 1.367891e+03 8.348096e-33 6.488585e+01 6.308700e-33 1.894720e-05 2.375216e-05 1.198918e-05
<GCONST> -2.338120e+02
<MIXTURE> 3 2.584820e-01
<MEAN> 15
 1.123256e+00 2.279673e+00 9.225023e+00 8.866149e-02 7.950889e-02 1.181662e-01 1.300252e+01 1.556060e-17 5.255428e+01 1.320885e-17 8.511187e+02 2.109572e-17 1.758683e-03 1.063129e-03 1.138432e-03
<VARIANCE> 15
 3.870168e-02 5.850957e-02 1.050216e-02 2.311422e-03 6.962575e-04 1.167251e-03 1.654745e+01 5.931911e-33 1.093623e+02 1.743959e-33 3.598627e+02 8.459380e-33 1.144205e-05 1.996760e-05 3.217222e-05
<GCONST> -2.458128e+02
<STATE> 7
<NUMMIXES> 3
<MIXTURE> 1 7.219540e-01
<MEAN> 15
 -9.168252e+00 2.043122e-01 2.476367e+00 7.511467e-02 8.327343e-02 1.089097e-01 8.408769e+02 4.135473e-18 4.366100e+01 8.919255e-18 6.184872e+01 8.893033e-18 1.628807e-03 -4.169363e-04 4.705536e-04
<VARIANCE> 15
 3.040760e-02 4.324027e+00 5.180959e-02 3.555767e-04 7.965696e-04 8.103559e-04 1.015648e+03 8.419981e-34 1.038674e+03 2.058457e-33 1.297876e+02 4.013572e-33 6.012652e-06 1.492212e-05 9.205601e-06
<GCONST> -2.416273e+02
<MIXTURE> 2 1.343418e-01
<MEAN> 15
 -3.539749e+00 5.033269e+00 2.709053e+00 5.397670e-01 9.654600e-01 6.537707e-01 3.660030e+02 2.832887e-15 4.937443e+02 7.890045e-15 1.438509e+02 3.309634e-15 -1.446815e-01 -7.530257e-03 -2.326934e-01
<VARIANCE> 15
 2.418933e+01 2.434782e+01 7.189965e+00 1.633574e-01 5.115417e-01 2.317688e-01 1.147353e+05 3.901786e-29 1.488406e+05 4.170698e-28 2.371531e+04 6.539770e-29 8.199918e-01 6.701148e-01 3.987622e-01
<GCONST> -1.292631e+02
<MIXTURE> 3 1.437043e-01
<MEAN> 15
 5.295053e-01 8.811093e+00 1.649346e+00 2.088236e-01 4.190182e-01 3.167190e-01 4.468654e+01 2.462776e-16 7.919847e+02 1.071638e-15 1.180115e+02 5.324263e-16 -1.692535e-02 -7.860614e-03 -8.832646e-03
<VARIANCE> 15
 4.197840e+00 1.606898e+00 9.096003e+00 1.113566e-02 5.945219e-02 3.030567e-02 3.476417e+03 1.856512e-31 4.035407e+04 6.228901e-30 3.010033e+04 1.192003e-30 4.917975e-03 1.052648e-02 3.264189e-03
<GCONST> -1.725654e+02
<TRANSP> 8
 0.000000e+00 7.031517e-01 2.968483e-01 0.000000e+00 0.000000e+00 0.000000e+00 0.000000e+00 0.000000e+00
 0.000000e+00 9.164488e-01 2.452322e-02 5.902803e-02 0.000000e+00 0.000000e+00 0.000000e+00 0.000000e+00
 0.000000e+00 0.000000e+00 8.717763e-01 3.493385e-02 9.328981e-02 0.000000e+00 0.000000e+00 0.000000e+00
 0.000000e+00 0.000000e+00 0.000000e+00 9.017755e-01 1.046259e-02 8.776189e-02 0.000000e+00 0.000000e+00
 0.000000e+00 0.000000e+00 0.000000e+00 0.000000e+00 8.913867e-01 6.727586e-02 4.133746e-02 0.000000e+00
 0.000000e+00 0.000000e+00 0.000000e+00 0.000000e+00 0.000000e+00 6.684688e-01 8.746725e-02 2.440639e-01
 0.000000e+00 0.000000e+00 0.000000e+00 0.000000e+00 0.000000e+00 0.000000e+00 9.179315e-01 8.206848e-02
 0.000000e+00 0.000000e+00 0.000000e+00 0.000000e+00 0.000000e+00 0.000000e+00 0.000000e+00 0.000000e+00
<ENDHMM>
