~o
<STREAMINFO> 1 15
<VECSIZE> 15<NULLD><MFCC><DIAGC>
~h "Activity4"
<BEGINHMM>
<NUMSTATES> 8
<STATE> 2
<NUMMIXES> 3
<MIXTURE> 1 1.638637e-01
<MEAN> 15
 -1.079710e+01 2.807431e+00 2.433460e+00 2.650360e+00 2.264899e+00 1.479658e+00 1.304959e+03 4.763830e-14 1.930515e+02 2.730209e-14 1.995362e+02 1.486357e-14 -1.017907e+00 5.288265e-01 -2.255324e+00
<VARIANCE> 15
 1.589943e+01 1.247626e+01 1.460615e+01 1.583789e+00 2.056557e+00 9.277518e-01 8.454044e+05 4.737003e-27 5.198799e+04 3.487851e-27 1.047034e+05 1.862543e-27 3.652276e+01 1.930847e+01 2.340979e+01
<GCONST> -1.006603e+02
<MIXTURE> 2 3.499713e-01
<MEAN> 15
 -1.027493e+01 3.578328e+00 1.326336e+00 1.039655e+00 1.211408e+00 7.144757e-01 1.199415e+03 5.719258e-15 2.299190e+02 1.102046e-14 1.851049e+02 3.800421e-15 -4.045505e-02 -1.032187e-01 -8.065704e-02
<VARIANCE> 15
 1.447722e+01 1.066858e+01 1.690764e+01 2.329458e-01 3.431900e-01 9.057848e-02 5.907506e+05 7.412310e-29 4.594275e+04 2.440376e-28 6.457968e+04 1.928615e-29 1.229227e+00 5.030672e-01 4.521394e-01
<GCONST> -1.301368e+02
<MIXTURE> 3 4.861650e-01
<MEAN> 15
 -1.060074e+01 3.802167e+00 1.733212e+00 9.969611e-01 5.673706e-01 3.271166e-01 1.202975e+03 7.765086e-15 1.862152e+02 2.256992e-15 6.247916e+01 3.947664e-16 -8.362134e-02 2.928805e-02 -5.262811e-02
<VARIANCE> 15
 8.257270e+00 4.266064e+00 3.244068e+00 2.383905e-01 6.435284e-02 1.814943e-02 3.402618e+05 1.054600e-28 2.183019e+04 9.072988e-30 4.217045e+03 7.068869e-31 2.265822e-01 1.998946e-02 7.172978e-02
<GCONST> -1.535521e+02
<STATE> 3
<NUMMIXES> 3
<MIXTURE> 1 3.761077e-01
<MEAN> 15
 -1.127386e+01 2.998418e+00 1.632846e+00 1.538998e+00 8.587002e-01 5.701911e-01 1.303286e+03 1.841662e-14 1.010498e+02 4.465954e-15 3.973817e+01 2.432521e-15 -6.024513e-01 1.542856e-01 -1.757564e-01
<VARIANCE> 15
 4.076849e+00 1.285972e+00 1.415238e+00 4.545956e-01 1.512550e-01 7.269590e-02 1.934047e+05 4.905999e-28 4.478517e+03 5.074614e-29 1.815117e+03 1.117150e-29 9.881641e-01 1.486917e-01 6.553857e-01
<GCONST> -1.446800e+02
<MIXTURE> 2 3.073977e-01
<MEAN> 15
 -9.116703e+00 2.087976e+00 2.025180e-01 7.623115e-01 3.502369e-01 2.241474e-01 8.736047e+02 3.830685e-15 4.766342e+01 4.601802e-16 4.960478e+00 1.660021e-16 -1.085924e-01 4.010795e-03 -8.687631e-03
<VARIANCE> 15
 4.380023e+00 4.117420e-01 4.576854e-01 1.953028e-01 2.781814e-02 6.906168e-03 1.507501e+05 4.819743e-29 6.622773e+02 1.111776e-30 2.891904e+01 1.356620e-31 6.048966e-02 2.805351e-03 1.391401e-02
<GCONST> -1.792361e+02
<MIXTURE> 3 3.164946e-01
<MEAN> 15
 -1.006047e+01 3.483598e+00 2.217256e+00 6.993796e-01 4.556035e-01 4.029388e-01 1.042043e+03 2.837050e-15 1.334481e+02 9.545643e-16 6.701566e+01 1.060319e-15 -5.348312e-02 2.271642e-02 -1.284969e-02
<VARIANCE> 15
 3.071904e+00 1.230380e+00 1.828233e+00 1.239336e-01 4.377545e-02 2.935953e-02 1.232625e+05 2.056331e-29 5.521825e+03 3.778531e-30 3.592825e+03 1.805909e-30 5.548432e-02 1.862171e-02 5.410160e-02
<GCONST> -1.627992e+02
<STATE> 4
<NUMMIXES> 3
<MIXTURE> 1 3.225444e-02
<MEAN> 15
 -1.388449e+01 3.474070e-01 2.084031e+00 7.032366e-01 1.168107e+00 3.255336e-01 1.928294e+03 1.443576e-15 8.782087e+01 1.082636e-14 4.702147e+01 1.607073e-16 2.386379e-02 -2.601789e-01 8.262312e-02
<VARIANCE> 15
 5.293419e-02 9.222290e+00 3.504375e-01 9.342640e-03 8.976561e-02 4.051808e-03 4.207180e+03 8.315108e-30 2.953916e+03 2.010062e-29 4.546625e+02 6.198274e-32 4.050739e-01 1.756407e-02 1.114684e-02
<GCONST> -1.786717e+02
<MIXTURE> 2 3.369069e-01
<MEAN> 15
 -1.330910e-01 8.450295e+00 9.684483e-01 5.940787e-01 1.345078e+00 6.720512e-01 9.817579e+01 2.707898e-15 8.512500e+02 1.553079e-14 4.639532e+01 2.932967e-15 -2.163389e-01 6.995878e-02 3.643557e-02
<VARIANCE> 15
 9.903313e+00 1.429800e+01 3.805038e+00 1.064565e-01 5.305858e-01 1.118991e-01 1.821797e+04 1.643518e-29 5.097587e+05 4.015043e-28 4.003006e+03 2.328280e-29 6.348450e-01 1.017002e+00 9.773369e-02
<GCONST> -1.380132e+02
<MIXTURE> 3 6.308388e-01
<MEAN> 15
 -8.962706e+00 2.010881e+00 2.960735e+00 6.783164e-01 8.920419e-01 6.932945e-01 8.567319e+02 2.665223e-15 6.579046e+01 6.878214e-15 1.019799e+02 4.281264e-15 3.189402e-03 2.148929e-01 -1.875641e-01
<VARIANCE> 15
 5.404197e+00 2.861310e+00 1.668764e+00 1.196707e-01 1.654551e-01 1.481751e-01 1.612075e+05 1.788109e-29 2.767591e+03 5.819670e-29 5.194719e+03 4.133468e-29 2.819736e-01 2.500213e-01 1.799090e-01
<GCONST> -1.474720e+02
<STATE> 5
<NUMMIXES> 3
<MIXTURE> 1 2.118368e-01
<MEAN> 15
 -1.259841e+01 4.049392e+00 3.736473e+00 2.194064e+00 1.693480e+00 1.249087e+00 1.723243e+03 3.984632e-14 2.156849e+02 2.303116e-14 1.864315e+02 1.324996e-14 -3.363833e-01 6.586019e-01 -1.344056e+00
<VARIANCE> 15
 1.536342e+01 6.126912e+00 5.296933e+00 1.201616e+00 1.033734e+00 3.237014e-01 9.794989e+05 2.681493e-27 4.653182e+04 1.373811e-27 4.199973e+04 2.560932e-28 1.513056e+01 4.364591e+00 6.808368e+00
<GCONST> -1.124023e+02
<MIXTURE> 2 3.993108e-01
<MEAN> 15
 -9.871720e+00 3.997210e+00 1.596279e+00 1.280227e+00 9.622594e-01 5.807874e-01 1.036727e+03 1.246316e-14 2.207105e+02 8.333389e-15 5.380123e+01 2.392730e-15 -2.538081e-01 -6.925619e-02 -1.561955e-01
<VARIANCE> 15
 6.781483e+00 6.475869e+00 2.938662e+00 3.870447e-01 3.210928e-01 7.548425e-02 2.586727e+05 2.129657e-28 4.535727e+04 1.450271e-28 3.831508e+03 1.042543e-29 1.262531e+00 2.306653e-01 4.560300e-01
<GCONST> -1.373732e+02
<MIXTURE> 3 3.888523e-01
<MEAN> 15
 -9.913214e+00 3.127955e+00 3.492841e-01 7.258188e-01 5.745350e-01 3.489920e-01 1.057117e+03 2.967868e-15 1.324517e+02 2.263865e-15 1.109920e+01 5.593249e-16 -1.364702e-01 6.050380e-03 -1.833291e-02
<VARIANCE> 15
 7.522470e+00 3.544103e+00 1.003530e+00 1.262918e-01 9.478128e-02 2.331472e-02 2.689751e+05 2.115373e-29 1.542811e+04 1.272665e-29 1.332836e+02 8.201458e-31 1.105280e-01 2.659617e-02 3.748410e-02
<GCONST> -1.612391e+02
<STATE> 6
<NUMMIXES> 3
<MIXTURE> 1 3.332221e-01
<MEAN> 15
 -1.033638e+01 3.442799e+00 3.655405e+00 1.482823e+00 9.223112e-01 6.728070e-01 1.180765e+03 2.059211e-14 1.367597e+02 6.774218e-15 1.562015e+02 3.953565e-15 -9.918196e-02 1.270943e-01 -5.711414e-01
<VARIANCE> 15
 1.222853e+01 2.147775e+00 2.446592e+00 6.617433e-01 1.943266e-01 1.190169e-01 4.435162e+05 6.760279e-28 1.210169e+04 6.020766e-29 1.634017e+04 2.563603e-29 1.426239e+00 3.067952e-01 9.352744e-01
<GCONST> -1.346116e+02
<MIXTURE> 2 2.517128e-01
<MEAN> 15
 -7.447051e+00 2.738947e+00 1.477628e+00 4.549185e-01 3.044140e-01 2.611955e-01 5.840381e+02 1.584455e-15 9.076633e+01 6.638875e-16 3.027973e+01 3.143367e-16 -3.305695e-02 9.019930e-03 -5.036823e-02
<VARIANCE> 15
 3.016708e+00 1.600639e+00 8.540942e-01 5.524303e-02 2.778283e-02 1.214868e-02 7.110266e+04 4.269051e-30 7.157600e+03 1.184836e-30 8.752464e+02 2.650558e-31 1.722074e-02 4.393362e-03 9.607000e-03
<GCONST> -1.761566e+02
<MIXTURE> 3 4.150652e-01
<MEAN> 15
 -1.011315e+01 3.903285e+00 3.144831e+00 1.041084e+00 4.098177e-01 4.355270e-01 1.065855e+03 7.888666e-15 1.788244e+02 8.307112e-16 1.091017e+02 1.392254e-15 -5.356330e-02 2.712438e-02 -1.857836e-01
<VARIANCE> 15
 4.647183e+00 2.667584e+00 1.080524e+00 1.955941e-01 3.151469e-02 3.844133e-02 1.840014e+05 9.940855e-29 1.703269e+04 2.186697e-30 4.233600e+03 3.298272e-30 1.247942e-01 1.769701e-02 1.209102e-01
<GCONST> -1.568540e+02
<STATE> 7
<NUMMIXES> 3
<MIXTURE> 1 2.634747e-01
<MEAN> 15
 -1.229541e+01 -7.582014e-01 1.600083e+00 1.455438e+00 1.054807e+00 9.816896e-01 1.582791e+03 1.936826e-14 4.001173e+01 1.163433e-14 3.552295e+01 8.107131e-15 -4.641077e-02 -9.946344e-02 8.592387e-02
<VARIANCE> 15
 7.976930e+00 4.066829e+00 1.374642e+00 5.850440e-01 3.491623e-01 2.304600e-01 5.003745e+05 5.402435e-28 3.242668e+03 2.394082e-28 1.984640e+03 1.186629e-28 2.125197e+00 1.069712e+00 2.120109e+00
<GCONST> -1.320032e+02
<MIXTURE> 2 1.825950e-01
<MEAN> 15
 -7.976046e+00 -5.081017e-02 9.856356e-01 6.785427e-01 2.390369e-01 2.574174e-01 6.565930e+02 3.979437e-15 8.780786e+00 2.783073e-16 8.077829e+01 4.377125e-16 4.020166e-02 -6.037339e-03 -8.847506e-02
<VARIANCE> 15
 2.234620e+00 8.826156e-01 7.117649e+00 1.086460e-01 1.169513e-02 2.379259e-02 6.050535e+04 1.602025e-29 1.249368e+02 2.980670e-31 3.017812e+04 1.009615e-30 1.870800e-02 7.003475e-03 1.952341e-02
<GCONST> -1.725795e+02
<MIXTURE> 3 5.539303e-01
<MEAN> 15
 -1.129844e+01 -7.430653e-01 8.241698e-01 1.078949e+00 4.863619e-01 4.372687e-01 1.343884e+03 9.793330e-15 7.549454e+01 1.625649e-15 2.197438e+01 1.159361e-15 4.236862e-02 -1.210471e-02 -5.276806e-03
<VARIANCE> 15
 7.125041e+00 7.060792e+00 1.560269e+00 3.316474e-01 4.859898e-02 3.863687e-02 3.708645e+05 1.374238e-28 5.543632e+03 4.577603e-30 9.108435e+02 3.009607e-30 2.045786e-01 3.277476e-02 1.714400e-01
<GCONST> -1.536469e+02
<TRANSP> 8
 0.000000e+00 5.009721e-01 4.990279e-01 0.000000e+00 0.000000e+00 0.000000e+00 0.000000e+00 0.000000e+00
 0.000000e+00 8.156115e-01 1.460305e-01 3.835798e-02 0.000000e+00 0.000000e+00 0.000000e+00 0.000000e+00
 0.000000e+00 0.000000e+00 9.158810e-01 3.810344e-02 4.601554e-02 0.000000e+00 0.000000e+00 0.000000e+00
 0.000000e+00 0.000000e+00 0.000000e+00 5.768653e-01 1.932182e-01 2.299165e-01 0.000000e+00 0.000000e+00
 0.000000e+00 0.000000e+00 0.000000e+00 0.000000e+00 8.408359e-01 1.195405e-01 3.962364e-02 0.000000e+00
 0.000000e+00 0.000000e+00 0.000000e+00 0.000000e+00 0.000000e+00 9.037019e-01 2.119436e-02 7.510377e-02
 0.000000e+00 0.000000e+00 0.000000e+00 0.000000e+00 0.000000e+00 0.000000e+00 8.480019e-01 1.519981e-01
 0.000000e+00 0.000000e+00 0.000000e+00 0.000000e+00 0.000000e+00 0.000000e+00 0.000000e+00 0.000000e+00
<ENDHMM>
