~o
<STREAMINFO> 1 15
<VECSIZE> 15<NULLD><MFCC><DIAGC>
~h "Activity5"
<BEGINHMM>
<NUMSTATES> 8
<STATE> 2
<NUMMIXES> 3
<MIXTURE> 1 2.309233e-01
<MEAN> 15
 -1.909646e+01 5.247807e+00 -1.221845e+00 1.270057e+01 2.063851e+01 4.369230e+00 4.487290e+03 1.124501e-12 7.262824e+03 3.611624e-12 2.808803e+02 1.834757e-13 -1.097755e+02 -2.368943e+01 7.278838e+00
<VARIANCE> 15
 1.350683e+02 8.920123e+02 3.598942e+01 2.852215e+01 5.466228e+01 7.691000e+00 2.371033e+07 1.303239e-24 2.855397e+07 1.136847e-23 3.069977e+05 2.490708e-25 6.808894e+04 1.388025e+04 2.785932e+03
<GCONST> -3.685545e+01
<MIXTURE> 2 4.252205e-01
<MEAN> 15
 -1.142817e+00 5.713241e-01 3.065299e-01 1.607173e+00 3.062783e+00 1.014272e+00 8.738514e+02 1.903893e-14 3.623276e+02 7.452583e-14 9.934454e+01 5.513470e-15 2.307261e-01 3.475102e-01 3.789894e-01
<VARIANCE> 15
 8.679074e+01 3.857458e+01 1.002590e+01 6.945079e-01 2.933545e+00 2.817226e-01 2.165236e+05 8.320564e-28 9.657691e+04 7.856715e-27 1.245723e+04 1.510785e-28 2.619071e+01 1.109588e+01 2.257137e+00
<GCONST> -1.094079e+02
<MIXTURE> 3 3.438562e-01
<MEAN> 15
 -8.966379e+00 -3.530224e-01 -2.599762e-01 5.610892e+00 1.064030e+01 2.067904e+00 1.452957e+03 2.207463e-13 5.036611e+03 8.206818e-13 1.368151e+02 3.414516e-14 1.504006e-01 6.781546e+00 1.005654e+00
<VARIANCE> 15
 7.158418e+01 5.370522e+02 1.533721e+01 9.174819e+00 2.192670e+01 1.003551e+00 2.233334e+06 1.032715e-25 2.660197e+07 8.352670e-25 4.467546e+04 2.241625e-27 4.198937e+03 3.677808e+02 1.179098e+02
<GCONST> -6.673129e+01
<STATE> 3
<NUMMIXES> 3
<MIXTURE> 1 4.289590e-01
<MEAN> 15
 -1.086942e+01 1.907876e+01 7.549652e+00 4.914845e+00 8.819813e+00 3.126749e+00 1.481872e+03 1.927061e-13 4.118491e+03 6.150826e-13 7.050495e+02 8.065455e-14 -3.304976e+01 2.656110e+01 -1.125937e+01
<VARIANCE> 15
 3.904669e+01 7.727700e+01 1.715702e+01 3.604832e+00 9.380283e+00 2.256924e+00 1.533802e+06 3.961672e-26 1.165111e+07 3.639944e-25 5.067352e+05 1.049324e-26 9.224599e+02 4.368570e+02 1.246219e+02
<GCONST> -7.044282e+01
<MIXTURE> 2 2.593248e-01
<MEAN> 15
 4.243293e-01 -2.693519e+00 -4.475619e-02 1.288499e+00 1.854487e+00 8.907800e-01 5.170431e+02 1.184928e-14 3.690453e+02 2.094968e-14 3.990533e+01 4.919418e-15 -2.003396e+00 1.440949e+00 -7.805508e-01
<VARIANCE> 15
 5.196896e+01 3.033517e+01 4.143436e+00 3.703695e-01 9.651965e-01 2.177574e-01 4.904294e+04 2.598409e-28 1.675474e+05 9.297934e-28 1.674174e+03 6.543738e-29 3.788494e+00 2.719015e+00 9.264093e-01
<GCONST> -1.243486e+02
<MIXTURE> 3 3.117162e-01
<MEAN> 15
 -2.839873e+00 3.848785e+00 2.363981e+00 2.610043e+00 5.328112e+00 2.043249e+00 5.197679e+02 5.333649e-14 4.017250e+02 2.172712e-13 1.203409e+02 3.022008e-14 -1.310380e+01 1.008038e+01 -4.474051e+00
<VARIANCE> 15
 4.662523e+01 3.614066e+01 7.839248e+00 1.054379e+00 4.640653e+00 5.618172e-01 2.432178e+05 1.759230e-27 2.612868e+05 2.976333e-26 3.088769e+04 7.314443e-28 7.227643e+01 5.200344e+01 1.191178e+01
<GCONST> -9.887335e+01
<STATE> 4
<NUMMIXES> 3
<MIXTURE> 1 2.480318e-01
<MEAN> 15
 -1.312511e+01 2.607132e+01 1.480020e+00 8.673339e+00 1.361317e+01 2.059142e+00 2.331913e+03 4.988723e-13 6.966088e+03 1.191037e-12 9.598206e+01 2.444434e-14 -9.031999e+01 1.865568e+01 -1.328190e+01
<VARIANCE> 15
 8.317736e+01 6.064519e+01 8.342916e+00 6.248063e+00 2.140096e+01 8.979757e-01 6.131259e+06 3.548480e-25 1.754576e+07 2.456507e-24 1.208562e+04 1.868495e-27 2.649732e+03 6.272723e+02 1.961524e+02
<GCONST> -6.789090e+01
<MIXTURE> 2 3.816077e-01
<MEAN> 15
 -1.301356e+00 8.411395e-02 -1.609175e-01 8.611268e-01 1.558985e+00 4.068528e-01 6.763976e+02 5.903294e-15 1.562494e+02 1.910841e-14 5.403728e+00 8.189352e-16 -1.285830e+00 1.557173e-01 -8.153982e-02
<VARIANCE> 15
 6.618935e+01 1.620393e+01 5.337687e-01 2.485708e-01 1.022081e+00 4.332097e-02 7.209996e+04 6.788856e-29 1.932767e+04 8.340539e-28 6.594440e+01 2.706209e-30 2.658970e+00 3.670202e-01 9.134208e-02
<GCONST> -1.430577e+02
<MIXTURE> 3 3.703605e-01
<MEAN> 15
 -5.496393e+00 1.334130e+01 -4.962847e-01 2.884577e+00 6.899139e+00 7.237810e-01 8.809734e+02 5.949851e-14 2.610080e+03 3.803341e-13 1.377703e+01 3.489784e-15 -1.438373e+01 -1.288171e+00 -6.345333e-01
<VARIANCE> 15
 5.952307e+01 1.016989e+02 1.290424e+00 3.014939e+00 6.649678e+00 1.168947e-01 6.235520e+05 5.805633e-27 1.204352e+07 1.067125e-25 3.600364e+02 3.232681e-29 2.727494e+02 2.412425e+01 4.370622e+00
<GCONST> -1.003290e+02
<STATE> 5
<NUMMIXES> 3
<MIXTURE> 1 2.982287e-01
<MEAN> 15
 -1.685382e+01 3.836055e+01 -9.205747e+00 1.770452e+01 3.258992e+01 9.320373e+00 3.881294e+03 1.340531e-12 1.383849e+04 5.670405e-12 1.005589e+03 4.720969e-13 -4.552154e+02 -2.412576e+02 1.136639e+02
<VARIANCE> 15
 1.438204e+02 1.256049e+02 3.482270e+01 3.695547e+01 5.279558e+01 2.600526e+01 2.633150e+07 7.921837e-24 1.091979e+08 4.837742e-23 1.752978e+06 1.060201e-24 6.753752e+04 5.255056e+04 1.475334e+04
<GCONST> -2.646347e+01
<MIXTURE> 2 4.812804e-01
<MEAN> 15
 7.155758e-02 -1.748896e+00 -1.026065e+00 2.040831e+00 3.657326e+00 1.682347e+00 1.434753e+03 2.170462e-14 3.620957e+02 1.083247e-13 8.699644e+01 1.948137e-14 -2.606758e+00 1.218398e+00 8.137449e-02
<VARIANCE> 15
 1.438309e+02 3.752004e+01 8.443883e+00 8.674048e-01 6.188353e+00 7.596936e-01 4.186641e+05 1.323490e-27 3.315026e+05 2.594162e-26 1.191505e+04 9.467633e-28 5.286777e+01 5.520398e+01 9.776763e+00
<GCONST> -9.802668e+01
<MIXTURE> 3 2.204910e-01
<MEAN> 15
 -1.003289e+01 4.660607e+00 -2.567797e+00 5.594422e+00 1.246186e+01 3.534380e+00 2.128744e+03 1.604061e-13 1.464350e+03 9.440819e-13 1.527738e+02 7.758696e-14 -5.281499e+01 -1.011027e+01 4.745497e-01
<VARIANCE> 15
 1.155754e+02 1.651581e+02 1.298063e+01 6.980333e+00 3.258644e+01 2.562312e+00 2.984773e+06 4.256423e-26 6.989421e+06 1.174470e-24 3.958491e+04 1.439690e-26 5.375764e+03 2.416441e+03 3.828704e+02
<GCONST> -6.308390e+01
<STATE> 6
<NUMMIXES> 3
<MIXTURE> 1 1.076388e-01
<MEAN> 15
 -2.401486e+01 1.708363e+01 1.896301e+00 1.288044e+01 1.345103e+01 6.399603e+00 9.348805e+03 1.291520e-12 9.269011e+03 1.248513e-12 7.699653e+02 4.120970e-13 -6.585101e+01 8.065611e+01 -4.435197e+01
<VARIANCE> 15
 4.082080e+02 6.833724e+02 9.732220e+01 3.244784e+01 5.206534e+01 1.469796e+01 1.653944e+08 2.393752e-24 7.359704e+07 3.622200e-24 1.741019e+06 6.963452e-25 1.079274e+04 1.579951e+04 3.547745e+03
<GCONST> -3.064688e+01
<MIXTURE> 2 4.253936e-01
<MEAN> 15
 -2.360104e+00 -7.274644e-01 3.680462e-01 2.005450e+00 3.356763e+00 8.850344e-01 5.401268e+02 3.342682e-14 4.283307e+02 8.730411e-14 3.976872e+01 4.821774e-15 -6.798191e+00 2.255080e+00 -9.850646e-01
<VARIANCE> 15
 4.993913e+01 4.631865e+01 4.022850e+00 1.229232e+00 3.342273e+00 2.092003e-01 1.224453e+05 1.486784e-27 2.319914e+05 9.332276e-27 3.711488e+03 6.568389e-29 4.347353e+01 9.147100e+00 2.772927e+00
<GCONST> -1.107526e+02
<MIXTURE> 3 4.669677e-01
<MEAN> 15
 -1.111272e+01 1.700011e+01 3.888797e+00 4.690370e+00 8.323486e+00 2.140283e+00 1.812576e+03 1.650734e-13 3.778190e+03 4.956667e-13 2.960924e+02 3.030299e-14 -2.903721e+01 1.439492e+01 -6.450371e+00
<VARIANCE> 15
 6.455271e+01 1.096828e+02 1.560679e+01 3.862787e+00 7.726836e+00 9.234393e-01 2.303977e+06 3.190778e-26 1.204714e+07 1.814622e-25 1.481782e+05 1.741083e-27 6.129711e+02 1.963842e+02 4.514547e+01
<GCONST> -7.642467e+01
<STATE> 7
<NUMMIXES> 3
<MIXTURE> 1 1.036241e-01
<MEAN> 15
 -1.428265e+01 5.197324e+01 -1.444162e+01 2.325907e+01 3.914726e+01 1.252994e+01 2.226675e+03 1.974884e-12 3.739284e+04 -6.704266e-12 2.925117e+03 -6.155349e-13 -6.734910e+02 -4.370574e+02 1.880312e+02
<VARIANCE> 15
 8.118743e+00 3.357683e+00 7.496464e+00 7.108185e+00 7.588424e+00 7.773393e+00 1.270628e+07 6.810576e-24 2.605905e+07 1.485541e-23 3.752381e+05 2.909355e-25 2.644945e+04 9.978441e+03 3.520382e+03
<GCONST> -4.965106e+01
<MIXTURE> 2 5.091913e-01
<MEAN> 15
 1.002512e+01 1.990376e+00 1.272982e+00 2.005264e+00 1.521267e+00 1.279131e+00 1.061795e+03 2.974568e-14 7.954089e+01 8.531952e-15 3.474491e+01 1.578053e-14 -1.580517e+00 1.113280e-01 1.517214e-01
<VARIANCE> 15
 6.664638e+00 3.779951e+00 2.543876e+00 7.879373e-01 6.606306e-01 7.194955e-01 2.708879e+05 1.043481e-27 8.900729e+03 3.999693e-28 1.597795e+03 4.274473e-28 5.702010e+00 7.490939e+00 8.141433e+00
<GCONST> -1.226556e+02
<MIXTURE> 3 3.871846e-01
<MEAN> 15
 -1.494284e+01 1.908013e+01 -1.654244e+00 1.036249e+01 1.605491e+01 3.305799e+00 2.897713e+03 8.871888e-13 6.028255e+03 2.192324e-12 1.127661e+02 5.138060e-14 -1.696149e+02 -1.935008e+00 -1.095962e+00
<VARIANCE> 15
 1.024478e+02 3.464807e+02 1.081726e+01 5.031844e+01 6.069978e+01 2.252659e+00 7.115296e+06 2.145908e-24 5.282019e+07 7.499030e-24 1.774338e+04 7.889490e-27 2.992016e+04 1.437506e+03 4.029286e+02
<GCONST> -5.166747e+01
<TRANSP> 8
 0.000000e+00 4.872654e-01 5.127346e-01 0.000000e+00 0.000000e+00 0.000000e+00 0.000000e+00 0.000000e+00
 0.000000e+00 8.260490e-01 7.772307e-02 9.622798e-02 0.000000e+00 0.000000e+00 0.000000e+00 0.000000e+00
 0.000000e+00 0.000000e+00 9.282520e-01 4.031056e-02 3.143747e-02 0.000000e+00 0.000000e+00 0.000000e+00
 0.000000e+00 0.000000e+00 0.000000e+00 9.083750e-01 1.531859e-02 7.630651e-02 0.000000e+00 0.000000e+00
 0.000000e+00 0.000000e+00 0.000000e+00 0.000000e+00 8.997564e-01 6.934398e-02 3.089970e-02 0.000000e+00
 0.000000e+00 0.000000e+00 0.000000e+00 0.000000e+00 0.000000e+00 8.130174e-01 2.490866e-02 1.620740e-01
 0.000000e+00 0.000000e+00 0.000000e+00 0.000000e+00 0.000000e+00 0.000000e+00 6.091170e-01 3.908830e-01
 0.000000e+00 0.000000e+00 0.000000e+00 0.000000e+00 0.000000e+00 0.000000e+00 0.000000e+00 0.000000e+00
<ENDHMM>
