~o
<STREAMINFO> 1 15
<VECSIZE> 15<NULLD><MFCC><DIAGC>
~h "Activity3"
<BEGINHMM>
<NUMSTATES> 8
<STATE> 2
<NUMMIXES> 3
<MIXTURE> 1 5.304989e-01
<MEAN> 15
 -9.086319e+00 2.614231e+00 1.755760e+00 8.331668e-02 9.348202e-02 1.092069e-01 8.265344e+02 7.576296e-18 8.820166e+01 1.623765e-17 3.822525e+01 1.112007e-17 1.487656e-03 -8.590394e-05 3.082573e-04
<VARIANCE> 15
 9.186776e-02 1.985822e+00 7.392664e-01 5.167353e-04 8.977645e-04 7.866998e-04 2.981771e+03 1.224696e-33 2.442445e+03 2.571095e-33 1.009981e+03 3.272207e-33 9.688049e-06 1.687318e-05 1.121496e-05
<GCONST> -2.330039e+02
<MIXTURE> 2 3.399009e-01
<MEAN> 15
 -8.960316e+00 3.145634e+00 2.048895e+00 1.347594e-01 1.731475e-01 1.466980e-01 8.040942e+02 8.251821e-17 1.036308e+02 1.657858e-16 4.987776e+01 7.169503e-17 1.989987e-03 1.213063e-03 -2.907393e-04
<VARIANCE> 15
 1.248460e-01 4.744688e-01 7.915921e-01 2.782037e-03 5.455078e-03 2.298254e-03 3.978788e+03 2.379429e-32 1.955700e+03 7.492023e-32 1.247180e+03 1.972713e-32 2.275115e-04 2.453754e-04 1.279722e-04
<GCONST> -2.128201e+02
<MIXTURE> 3 1.296002e-01
<MEAN> 15
 -7.328935e+00 2.902646e+00 1.781767e+00 2.187659e-01 3.108279e-01 2.338790e-01 7.038782e+02 3.789047e-16 2.021410e+02 6.481879e-16 5.451586e+01 3.567741e-16 -1.678682e-03 2.884388e-05 2.857687e-04
<VARIANCE> 15
 1.669121e+01 1.181509e+01 2.291961e+00 1.539815e-02 2.974358e-02 1.275136e-02 4.336121e+04 3.862358e-31 4.100819e+04 1.193097e-30 2.645256e+03 3.318078e-31 3.989248e-03 5.118628e-03 2.030871e-03
<GCONST> -1.752985e+02
<STATE> 3
<NUMMIXES> 3
<MIXTURE> 1 5.181658e-01
<MEAN> 15
 -8.515528e+00 3.273876e+00 3.182553e+00 1.974088e-01 2.036076e-01 1.889854e-01 7.301777e+02 2.818448e-16 1.157184e+02 2.099631e-16 1.128735e+02 1.603012e-16 2.706247e-04 4.765153e-03 -4.373610e-03
<VARIANCE> 15
 5.147591e-01 8.591056e-01 1.162747e+00 1.186340e-02 1.296473e-02 6.922626e-03 1.529118e+04 2.242706e-31 3.637381e+03 1.900934e-31 4.507744e+03 9.622848e-32 1.229048e-03 1.006778e-03 9.517730e-04
<GCONST> -1.938907e+02
<MIXTURE> 2 9.603547e-02
<MEAN> 15
 -6.871171e+00 4.095434e+00 3.371866e+00 1.346711e+00 2.217175e+00 1.463515e+00 6.234077e+02 1.352941e-14 3.716978e+02 3.476173e-14 2.383113e+02 1.301257e-14 -9.155988e-01 -5.531979e-01 -5.231636e-01
<VARIANCE> 15
 1.579839e+01 2.211259e+01 1.297904e+01 9.173858e-01 2.986870e+00 1.680132e+00 2.332721e+05 1.097401e-27 3.851883e+05 1.166446e-26 8.965917e+04 1.435073e-27 3.410049e+01 8.814497e+01 1.768057e+01
<GCONST> -9.857829e+01
<MIXTURE> 3 3.857988e-01
<MEAN> 15
 -6.533967e+00 3.315414e+00 3.506094e+00 4.591986e-01 6.465035e-01 4.892096e-01 5.754155e+02 1.585619e-15 2.243160e+02 2.190798e-15 1.846588e+02 1.313313e-15 -4.237811e-02 2.624226e-02 -5.579181e-02
<VARIANCE> 15
 1.491830e+01 1.148247e+01 6.207967e+00 7.051262e-02 1.582874e-01 7.931126e-02 1.119485e+05 6.454133e-30 5.728165e+04 2.932137e-29 4.284947e+04 8.009492e-30 7.861958e-02 9.810837e-02 4.584587e-02
<GCONST> -1.471016e+02
<STATE> 4
<NUMMIXES> 3
<MIXTURE> 1 5.520028e-01
<MEAN> 15
 -8.547888e+00 4.714738e+00 3.449309e-01 7.729570e-02 7.834899e-02 1.088599e-01 7.308654e+02 5.758979e-18 2.227619e+02 9.914100e-18 1.684598e+00 8.607384e-18 1.856233e-03 4.414047e-04 8.155389e-04
<VARIANCE> 15
 1.976361e-02 4.735327e-02 4.863593e-02 4.319683e-04 7.008199e-04 7.911429e-04 5.752269e+02 1.010696e-33 4.256848e+02 1.479784e-33 3.651438e+00 3.757243e-33 6.656092e-06 1.170173e-05 1.050594e-05
<GCONST> -2.518472e+02
<MIXTURE> 2 3.071586e-01
<MEAN> 15
 -8.274998e+00 4.311300e+00 1.919016e+00 9.848110e-02 1.331542e-01 1.284114e-01 6.879141e+02 3.799934e-17 2.130851e+02 1.037223e-16 5.209842e+01 5.345485e-17 4.833242e-03 2.254359e-03 2.677912e-03
<VARIANCE> 15
 3.170298e-01 2.725700e+00 1.528769e+00 1.516199e-03 4.526622e-03 2.031151e-03 8.840437e+03 6.501209e-33 7.282467e+03 5.267629e-32 2.364969e+03 1.807005e-32 1.009874e-04 1.435676e-04 8.103883e-05
<GCONST> -2.111884e+02
<MIXTURE> 3 1.408386e-01
<MEAN> 15
 -7.561348e+00 3.951130e+00 4.600289e+00 7.710569e-02 7.932355e-02 1.132024e-01 5.719919e+02 7.136732e-18 1.574882e+02 4.443178e-18 2.118223e+02 2.062191e-17 1.191565e-03 1.115950e-03 3.458701e-04
<VARIANCE> 15
 2.498431e-02 1.370597e-01 1.970878e-02 3.865161e-04 4.707804e-04 9.479572e-04 5.777266e+02 1.103028e-33 7.624698e+02 1.118830e-33 1.689445e+02 6.201815e-33 5.631769e-06 1.399983e-05 1.247687e-05
<GCONST> -2.468667e+02
<STATE> 5
<NUMMIXES> 3
<MIXTURE> 1 5.526377e-01
<MEAN> 15
 -8.228990e+00 3.458835e+00 3.741802e+00 7.586026e-02 7.912728e-02 1.046991e-01 6.774894e+02 7.466122e-18 1.204874e+02 5.861557e-18 1.412355e+02 8.780686e-18 1.313125e-03 2.790420e-04 4.862924e-04
<VARIANCE> 15
 3.243857e-02 8.486834e-02 1.218069e-01 3.916892e-04 5.052754e-04 8.184750e-04 8.731378e+02 9.544756e-34 4.184276e+02 1.262524e-33 7.075110e+02 3.425232e-33 6.129363e-06 1.022654e-05 9.030385e-06
<GCONST> -2.452515e+02
<MIXTURE> 2 2.296643e-01
<MEAN> 15
 -3.705575e+00 2.693806e+00 3.108016e+00 2.432263e-01 3.816395e-01 2.902403e-01 5.361375e+02 4.060891e-16 2.591109e+02 8.670251e-16 1.442839e+02 5.365480e-16 -6.279269e-04 5.842737e-03 -6.118450e-03
<VARIANCE> 15
 3.989909e+01 1.868468e+01 4.790674e+00 1.852889e-02 6.683994e-02 1.931561e-02 8.653335e+04 7.748397e-31 6.681707e+04 4.969275e-30 2.447523e+04 8.092195e-31 1.023513e-02 1.312076e-02 5.041067e-03
<GCONST> -1.626102e+02
<MIXTURE> 3 2.176980e-01
<MEAN> 15
 -2.324119e-01 2.432060e+00 4.492911e+00 9.742218e-02 1.355097e-01 1.392638e-01 2.864776e+02 2.857855e-17 3.939043e+02 6.955625e-17 2.637951e+02 3.573929e-17 1.465485e-03 1.254433e-03 -3.479307e-04
<VARIANCE> 15
 2.859433e+01 3.347769e+01 6.193630e+00 1.280089e-03 4.326792e-03 2.245791e-03 6.883034e+04 4.078827e-33 8.131608e+04 3.348915e-32 4.033860e+04 1.655917e-32 5.631237e-05 1.307997e-04 4.870705e-05
<GCONST> -1.977842e+02
<STATE> 6
<NUMMIXES> 3
<MIXTURE> 1 6.015368e-01
<MEAN> 15
 -8.691965e+00 2.296254e+00 2.455525e+00 1.024005e-01 1.249593e-01 1.299837e-01 7.577104e+02 3.660420e-17 1.119633e+02 6.576339e-17 7.685591e+01 4.829284e-17 9.013980e-04 4.953368e-05 -2.605479e-04
<VARIANCE> 15
 2.214981e-01 5.925503e+00 1.657227e+00 1.751054e-03 4.106369e-03 2.129836e-03 6.587103e+03 8.791319e-33 4.815491e+03 3.043682e-32 3.414176e+03 1.607713e-32 8.066457e-05 1.190972e-04 5.983454e-05
<GCONST> -2.120149e+02
<MIXTURE> 2 1.228656e-01
<MEAN> 15
 2.627161e+00 9.380899e+00 5.167105e-01 8.081837e-02 9.321266e-02 1.093935e-01 7.850791e+01 1.366477e-17 8.803999e+02 2.168293e-17 9.121791e+00 2.022604e-17 2.016885e-03 -3.618408e-04 3.678723e-04
<VARIANCE> 15
 9.486086e-01 3.841419e-02 6.450796e-01 7.661419e-04 2.034642e-03 9.192972e-04 1.554119e+03 2.521845e-33 1.380849e+03 8.302799e-33 6.487723e+01 6.292411e-33 1.898549e-05 2.472420e-05 1.191667e-05
<GCONST> -2.336863e+02
<MIXTURE> 3 2.755977e-01
<MEAN> 15
 1.122554e+00 2.277672e+00 9.226116e+00 8.913481e-02 7.961574e-02 1.184650e-01 1.298581e+01 1.638221e-17 5.247353e+01 1.303463e-17 8.513233e+02 2.226253e-17 1.774401e-03 1.022477e-03 1.222198e-03
<VARIANCE> 15
 3.872304e-02 5.953217e-02 1.083034e-02 2.372019e-03 6.974560e-04 1.190532e-03 1.657707e+01 6.118023e-33 1.109800e+02 1.747672e-33 3.713954e+02 8.845995e-33 1.148107e-05 2.040736e-05 3.420689e-05
<GCONST> -2.455046e+02
<STATE> 7
<NUMMIXES> 3
<MIXTURE> 1 7.018031e-01
<MEAN> 15
 -9.162801e+00 -3.816286e-02 2.479949e+00 7.502268e-02 8.319836e-02 1.089826e-01 8.398875e+02 3.607307e-18 4.402615e+01 8.549215e-18 6.200021e+01 9.547338e-18 1.654638e-03 -4.257413e-04 5.724771e-04
<VARIANCE> 15
 3.136205e-02 4.400777e+00 4.923436e-02 3.515213e-04 7.903462e-04 8.250404e-04 1.045931e+03 8.119910e-34 1.059505e+03 2.055203e-33 1.239572e+02 4.101919e-33 5.952902e-06 1.492981e-05 9.453122e-06
<GCONST> -2.416269e+02
<MIXTURE> 2 9.935991e-02
<MEAN> 15
 -2.641658e+00 5.987679e+00 2.542798e+00 6.253402e-01 1.183351e+00 7.826262e-01 2.692463e+02 3.555570e-15 5.864925e+02 1.030145e-14 1.460383e+02 4.318780e-15 -1.766438e-01 4.853310e-04 -2.909104e-01
<VARIANCE> 15
 2.009745e+01 2.320164e+01 8.333285e+00 1.758745e-01 4.792417e-01 2.328233e-01 1.101244e+05 4.787524e-29 1.471817e+05 5.112292e-28 2.744063e+04 8.298791e-29 1.054510e+00 8.767373e-01 5.021527e-01
<GCONST> -1.278451e+02
<MIXTURE> 3 1.988371e-01
<MEAN> 15
 -2.035467e+00 6.422313e+00 2.032129e+00 2.154102e-01 3.719685e-01 2.950676e-01 2.518659e+02 2.857083e-16 5.953374e+02 7.772834e-16 1.131111e+02 4.480368e-16 -1.063894e-02 -2.548339e-03 -1.214413e-02
<VARIANCE> 15
 2.105446e+01 1.831558e+01 7.191566e+00 1.202599e-02 4.441641e-02 2.501706e-02 9.495495e+04 2.095329e-31 1.167402e+05 3.195152e-30 2.220100e+04 8.914736e-31 4.361218e-03 8.125711e-03 3.034947e-03
<GCONST> -1.663844e+02
<TRANSP> 8
 0.000000e+00 6.604039e-01 3.395961e-01 0.000000e+00 0.000000e+00 0.000000e+00 0.000000e+00 0.000000e+00
 0.000000e+00 9.175608e-01 2.106898e-02 6.137022e-02 0.000000e+00 0.000000e+00 0.000000e+00 0.000000e+00
 0.000000e+00 0.000000e+00 8.825943e-01 3.209038e-02 8.531531e-02 0.000000e+00 0.000000e+00 0.000000e+00
 0.000000e+00 0.000000e+00 0.000000e+00 9.011139e-01 1.270314e-02 8.618292e-02 0.000000e+00 0.000000e+00
 0.000000e+00 0.000000e+00 0.000000e+00 0.000000e+00 8.858718e-01 6.785852e-02 4.626970e-02 0.000000e+00
 0.000000e+00 0.000000e+00 0.000000e+00 0.000000e+00 0.000000e+00 6.550703e-01 9.788373e-02 2.470460e-01
 0.000000e+00 0.000000e+00 0.000000e+00 0.000000e+00 0.000000e+00 0.000000e+00 9.165170e-01 8.348303e-02
 0.000000e+00 0.000000e+00 0.000000e+00 0.000000e+00 0.000000e+00 0.000000e+00 0.000000e+00 0.000000e+00
<ENDHMM>
