~o
<STREAMINFO> 1 15
<VECSIZE> 15<NULLD><MFCC><DIAGC>
~h "Activity2"
<BEGINHMM>
<NUMSTATES> 8
<STATE> 2
<NUMMIXES> 3
<MIXTURE> 1 1.607129e-01
<MEAN> 15
 -1.603257e+00 6.389047e+00 7.033062e+00 1.404164e-01 1.711839e-01 1.503449e-01 3.942663e+01 1.188059e-16 4.101174e+02 1.487208e-16 4.958187e+02 7.089918e-17 1.341348e-03 2.655004e-05 1.030455e-03
<VARIANCE> 15
 1.376613e+00 1.954867e-01 1.188999e-01 4.557093e-03 9.173281e-03 3.389584e-03 7.706235e+02 4.329439e-32 3.172088e+03 1.114666e-31 2.331308e+03 5.548272e-32 4.040675e-04 9.370959e-04 2.980597e-04
<GCONST> -2.075430e+02
<MIXTURE> 2 7.342393e-01
<MEAN> 15
 -1.739548e+00 6.354146e+00 7.059219e+00 7.561813e-02 8.034809e-02 1.062940e-01 4.388440e+01 6.273926e-18 4.048260e+02 7.590931e-18 4.991099e+02 3.121407e-18 1.439760e-03 -2.255086e-04 3.579530e-04
<VARIANCE> 15
 1.362185e+00 1.071325e-01 7.737891e-02 4.106878e-04 5.253557e-04 6.544907e-04 6.904351e+02 8.816828e-34 1.703115e+03 1.356218e-33 1.563477e+03 3.040221e-33 6.191639e-06 1.007980e-05 8.410283e-06
<GCONST> -2.401126e+02
<MIXTURE> 3 1.050479e-01
<MEAN> 15
 -5.631247e-01 8.390195e+00 4.404668e+00 6.893621e-02 7.667179e-02 1.022673e-01 4.764378e+01 3.501131e-18 7.045313e+02 6.256170e-18 1.988981e+02 5.536037e-18 1.269152e-03 -8.939188e-05 5.255782e-04
<VARIANCE> 15
 4.446998e+00 5.740236e-02 4.881860e-01 3.596591e-04 6.053096e-04 5.998718e-04 2.118089e+03 6.201785e-34 1.557074e+03 1.301077e-33 3.859574e+03 2.570127e-33 5.516474e-06 8.205004e-06 6.492691e-06
<GCONST> -2.369960e+02
<STATE> 3
<NUMMIXES> 3
<MIXTURE> 1 3.345296e-01
<MEAN> 15
 -1.567087e-01 8.153044e+00 2.362967e+00 7.987717e-02 7.958725e-02 1.093406e-01 1.586946e+00 1.206644e-17 8.757847e+02 8.589657e-18 7.935425e+01 1.233728e-17 1.141654e-03 -9.352391e-04 2.723938e-04
<VARIANCE> 15
 1.340758e-01 2.110619e+01 2.351300e+00 6.910851e-04 1.123333e-03 9.305226e-04 4.698947e+00 1.782869e-33 9.202798e+02 2.405984e-33 8.857133e+02 3.747177e-33 9.919483e-06 1.750223e-05 1.373536e-05
<GCONST> -2.352752e+02
<MIXTURE> 2 2.388493e-01
<MEAN> 15
 -7.219185e-01 4.305299e+00 4.021183e+00 5.584707e-01 1.103658e+00 8.255973e-01 1.504422e+02 2.194103e-15 5.087858e+02 7.726166e-15 3.044214e+02 5.537261e-15 6.578457e-02 8.946409e-02 -1.221056e-01
<VARIANCE> 15
 1.461479e+01 3.262295e+01 1.448694e+01 1.538146e-01 4.908592e-01 3.028906e-01 4.751181e+04 3.561822e-29 1.090367e+05 3.497134e-28 7.107525e+04 2.136655e-28 5.074917e-01 1.928735e+00 3.429283e-01
<GCONST> -1.273598e+02
<MIXTURE> 3 4.266211e-01
<MEAN> 15
 -2.790474e-01 3.738722e+00 3.924404e+00 1.798734e-01 3.351830e-01 2.611152e-01 1.154975e+02 1.550332e-16 5.814188e+02 4.928705e-16 2.533732e+02 3.628820e-16 1.704584e-03 1.831109e-03 -8.894077e-03
<VARIANCE> 15
 1.147617e+01 4.417156e+01 9.947802e+00 1.170850e-02 4.530531e-02 2.228025e-02 3.147559e+04 1.521000e-31 7.424207e+04 1.795887e-30 4.619294e+04 7.093133e-31 2.746834e-03 7.805123e-03 1.482756e-03
<GCONST> -1.690773e+02
<STATE> 4
<NUMMIXES> 3
<MIXTURE> 1 4.966740e-02
<MEAN> 15
 -2.813550e-01 3.569479e-01 3.870738e+00 1.705908e+00 2.905778e+00 2.354853e+00 7.233670e+01 4.528037e-14 7.073200e+02 1.963429e-14 2.407164e+02 7.758889e-15 8.574629e+00 1.027194e+01 6.360441e+00
<VARIANCE> 15
 1.004512e+01 7.431430e+01 1.440603e+01 1.904639e+01 1.666430e+01 1.975571e+01 9.897819e+04 1.469229e-25 4.931450e+05 2.838151e-26 1.495139e+05 1.225146e-26 3.275299e+03 1.343606e+04 5.882842e+03
<GCONST> -6.726731e+01
<MIXTURE> 2 5.569442e-01
<MEAN> 15
 -2.234675e+00 -4.917364e+00 6.822189e+00 7.168809e-02 7.320265e-02 1.040721e-01 5.190219e+01 3.193948e-18 4.107936e+02 6.104569e-18 4.672325e+02 6.547345e-18 1.748836e-03 1.671415e-04 2.139056e-04
<VARIANCE> 15
 1.960759e-01 1.689877e+01 1.801660e-01 3.573757e-04 4.180819e-04 6.334271e-04 4.370025e+02 8.750412e-34 6.139343e+03 1.015161e-33 3.545104e+03 3.268956e-33 4.279177e-06 8.110575e-06 7.646631e-06
<GCONST> -2.358082e+02
<MIXTURE> 3 3.933884e-01
<MEAN> 15
 -7.689709e-02 7.904641e+00 5.413940e+00 1.108549e-01 1.232955e-01 1.317335e-01 6.281870e+00 5.945375e-17 6.309452e+02 5.665638e-17 3.062321e+02 5.245938e-17 7.320296e-04 -1.670595e-03 2.121711e-04
<VARIANCE> 15
 6.243488e-01 6.122465e-01 1.313653e+00 2.557794e-03 3.466848e-03 2.196627e-03 1.106993e+02 1.730853e-32 1.519539e+04 2.394726e-32 1.398337e+04 1.656026e-32 7.054321e-05 9.458265e-05 8.624435e-05
<GCONST> -2.142990e+02
<STATE> 5
<NUMMIXES> 3
<MIXTURE> 1 3.218539e-01
<MEAN> 15
 -2.636704e+00 3.213758e+00 5.887248e+00 1.666293e-01 2.412756e-01 1.779676e-01 1.545808e+02 1.336584e-16 3.714921e+02 2.924492e-16 4.181756e+02 1.088729e-16 3.207704e-03 -4.480837e-03 -8.369845e-04
<VARIANCE> 15
 8.508773e+00 2.682644e+01 7.159771e+00 9.920294e-03 2.715304e-02 7.615157e-03 3.602575e+04 1.278663e-31 7.403210e+04 7.159814e-31 5.356839e+04 8.901604e-32 1.324391e-03 1.497447e-03 5.126024e-04
<GCONST> -1.782862e+02
<MIXTURE> 2 5.251605e-01
<MEAN> 15
 -2.997323e+00 4.031045e+00 8.061981e+00 8.030760e-02 8.261190e-02 1.000705e-01 9.556100e+01 8.670996e-18 1.902531e+02 9.593563e-18 6.510670e+02 6.316603e-18 1.409056e-03 -1.965173e-05 2.060788e-04
<VARIANCE> 15
 5.718415e-01 2.775517e+00 1.103539e-01 5.664215e-04 7.926266e-04 7.023914e-04 2.650799e+03 1.233718e-33 8.707783e+03 1.844194e-33 2.778740e+03 2.702967e-33 8.957975e-06 1.120763e-05 9.798898e-06
<GCONST> -2.318616e+02
<MIXTURE> 3 1.529857e-01
<MEAN> 15
 9.152571e+00 -4.022073e-01 3.202344e+00 9.146895e-02 2.488707e-01 1.837121e-01 8.377952e+02 5.618302e-18 4.476913e+00 3.398133e-16 1.036017e+02 1.696787e-16 2.571747e-03 7.718910e-03 -3.425356e-03
<VARIANCE> 15
 9.595061e-03 2.995692e-01 1.123273e-01 1.075329e-03 1.703555e-02 7.825896e-03 3.207912e+02 2.915247e-33 2.435477e+01 1.109180e-30 4.710719e+02 1.877700e-31 1.767734e-04 1.613672e-03 1.474071e-04
<GCONST> -2.196410e+02
<STATE> 6
<NUMMIXES> 3
<MIXTURE> 1 4.617923e-01
<MEAN> 15
 2.796136e-01 8.323939e+00 4.970126e+00 7.360962e-02 7.612548e-02 1.036371e-01 4.576910e+00 4.331814e-18 6.938651e+02 5.892345e-18 2.496497e+02 2.485892e-18 1.578841e-03 -7.946986e-05 6.237438e-04
<VARIANCE> 15
 3.792119e-01 9.819731e-02 2.618605e-01 4.309377e-04 4.380133e-04 6.729513e-04 3.824972e+01 9.408411e-34 2.722796e+03 1.059598e-33 2.480474e+03 2.921476e-33 4.936974e-06 8.708960e-06 8.557007e-06
<GCONST> -2.429047e+02
<MIXTURE> 2 4.368116e-01
<MEAN> 15
 -7.898679e-01 6.951497e+00 6.654925e+00 7.602023e-02 7.134642e-02 1.050721e-01 1.071503e+01 5.723896e-18 4.839643e+02 5.290641e-18 4.436437e+02 3.666736e-18 1.334155e-03 -1.366994e-04 3.990222e-04
<VARIANCE> 15
 4.473238e-01 7.295993e-02 7.518400e-02 4.650347e-04 3.943877e-04 6.932164e-04 1.568021e+02 1.198715e-33 1.395688e+03 8.443834e-34 1.332499e+03 2.963469e-33 5.011661e-06 7.537783e-06 9.126894e-06
<GCONST> -2.441978e+02
<MIXTURE> 3 1.013962e-01
<MEAN> 15
 -7.851883e+00 4.072181e+00 4.090203e+00 5.643608e-02 7.121890e-02 1.026645e-01 6.165312e+02 7.408398e-19 1.658536e+02 3.406539e-18 1.673665e+02 1.662400e-18 1.151194e-03 2.896566e-04 2.767989e-04
<VARIANCE> 15
 7.202668e-04 2.293137e-03 5.772149e-03 2.139438e-04 3.001575e-04 5.418984e-04 1.770919e+01 2.776096e-34 1.502757e+01 7.480688e-34 3.931630e+01 2.573741e-33 2.195193e-06 6.249262e-06 4.615931e-06
<GCONST> -2.716068e+02
<STATE> 7
<NUMMIXES> 3
<MIXTURE> 1 4.058599e-01
<MEAN> 15
 -1.983231e+00 -9.562799e+00 6.809383e-01 7.346161e-02 8.564963e-02 9.919086e-02 3.946103e+01 2.872085e-18 9.145052e+02 6.655826e-18 6.904554e+00 5.570675e-18 1.570896e-03 4.905178e-04 2.285155e-04
<VARIANCE> 15
 1.249764e-02 2.742838e-03 2.259119e-01 3.960042e-04 1.164518e-03 9.677722e-04 2.059254e+01 8.034587e-34 1.004652e+02 2.329062e-33 1.348958e+01 2.590421e-33 6.428349e-06 1.876909e-05 7.777068e-06
<GCONST> -2.564737e+02
<MIXTURE> 2 2.114443e-01
<MEAN> 15
 -5.601794e-01 3.324827e+00 3.132598e+00 3.985405e-01 7.366576e-01 5.217317e-01 1.060795e+02 8.073029e-16 5.653998e+02 4.371424e-15 2.911160e+02 1.657504e-15 -3.104568e-03 3.185831e-02 -8.387814e-02
<VARIANCE> 15
 1.031612e+01 4.566445e+01 1.936404e+01 1.029171e-01 3.755699e-01 1.126884e-01 2.340285e+04 6.255458e-30 1.007806e+05 2.901060e-28 6.871459e+04 1.982215e-29 1.976235e-01 2.686372e-01 6.969395e-02
<GCONST> -1.383722e+02
<MIXTURE> 3 3.826958e-01
<MEAN> 15
 -2.352779e+00 1.115353e+00 3.519282e+00 1.026516e-01 1.569587e-01 1.405294e-01 1.386390e+02 3.335940e-17 5.294302e+02 1.079341e-16 2.816663e+02 4.422104e-17 1.012412e-03 1.986799e-03 1.961491e-04
<VARIANCE> 15
 8.329021e+00 5.170208e+01 1.578124e+01 1.623156e-03 7.487991e-03 2.972881e-03 4.438579e+04 6.396193e-33 9.049448e+04 7.477794e-32 5.171164e+04 2.290896e-32 9.914686e-05 2.759155e-04 6.535760e-05
<GCONST> -1.934808e+02
<TRANSP> 8
 0.000000e+00 5.301114e-01 4.698887e-01 0.000000e+00 0.000000e+00 0.000000e+00 0.000000e+00 0.000000e+00
 0.000000e+00 9.253967e-01 1.016879e-02 6.443452e-02 0.000000e+00 0.000000e+00 0.000000e+00 0.000000e+00
 0.000000e+00 0.000000e+00 8.807043e-01 4.597260e-02 7.332313e-02 0.000000e+00 0.000000e+00 0.000000e+00
 0.000000e+00 0.000000e+00 0.000000e+00 7.979774e-01 5.148502e-02 1.505376e-01 0.000000e+00 0.000000e+00
 0.000000e+00 0.000000e+00 0.000000e+00 0.000000e+00 8.516031e-01 1.226946e-02 1.361275e-01 0.000000e+00
 0.000000e+00 0.000000e+00 0.000000e+00 0.000000e+00 0.000000e+00 9.291337e-01 1.005184e-02 6.081443e-02
 0.000000e+00 0.000000e+00 0.000000e+00 0.000000e+00 0.000000e+00 0.000000e+00 8.675228e-01 1.324772e-01
 0.000000e+00 0.000000e+00 0.000000e+00 0.000000e+00 0.000000e+00 0.000000e+00 0.000000e+00 0.000000e+00
<ENDHMM>
