~o
<STREAMINFO> 1 15
<VECSIZE> 15<NULLD><MFCC><DIAGC>
~h "Activity6"
<BEGINHMM>
<NUMSTATES> 8
<STATE> 2
<NUMMIXES> 3
<MIXTURE> 1 3.403108e-01
<MEAN> 15
 -2.715558e+00 4.959437e+00 7.866070e+00 1.654458e+00 1.626529e+00 1.205220e+00 8.147080e+01 3.871458e-15 2.524181e+02 2.397710e-15 6.230981e+02 6.213288e-16 -7.450203e-01 1.304757e+00 -5.137263e-02
<VARIANCE> 15
 6.687247e-01 5.049736e-01 3.375850e-01 3.285379e-01 2.775711e-01 1.463113e-01 2.306732e+03 4.049859e-28 5.323374e+03 2.785154e-28 8.477042e+03 5.397293e-29 1.290978e+00 9.146829e-01 6.460447e-01
<GCONST> -1.454332e+02
<MIXTURE> 2 3.269097e-01
<MEAN> 15
 -3.021330e+00 4.891713e+00 7.836189e+00 3.208509e+00 3.442745e+00 2.312193e+00 1.081521e+02 1.694671e-14 2.668921e+02 -1.072993e-16 6.212750e+02 1.870179e-15 -4.222121e+00 5.896608e+00 -4.784284e-01
<VARIANCE> 15
 1.718489e+00 1.113410e+00 5.240686e-01 1.132000e+00 1.507238e+00 5.713202e-01 1.175734e+04 6.006428e-27 1.562431e+04 5.582928e-27 1.428026e+04 9.617648e-28 2.445011e+01 1.615606e+01 8.425063e+00
<GCONST> -1.187849e+02
<MIXTURE> 3 3.327795e-01
<MEAN> 15
 -6.771512e+00 2.510862e+00 6.514390e+00 1.399173e+00 1.216556e+00 9.433998e-01 4.699351e+02 3.085642e-15 8.213045e+01 2.216016e-15 4.319540e+02 1.064027e-15 3.160874e-01 2.731521e-01 5.124504e-03
<VARIANCE> 15
 1.079998e+00 1.898921e+00 7.040536e-01 4.110505e-01 3.286239e-01 1.193238e-01 2.139969e+04 2.822579e-28 3.946240e+03 8.955078e-29 1.038790e+04 2.622037e-29 9.551659e-01 4.316242e-01 4.779032e-01
<GCONST> -1.441452e+02
<STATE> 3
<NUMMIXES> 3
<MIXTURE> 1 2.172887e-01
<MEAN> 15
 -4.589757e+00 1.897223e+00 7.873373e+00 8.074737e+00 5.340304e+00 3.787750e+00 3.185687e+02 7.256474e-14 1.022116e+02 2.692079e-14 6.630885e+02 3.357210e-15 -2.088867e+00 3.691474e+00 -3.276362e+00
<VARIANCE> 15
 9.257859e+00 5.403970e+00 2.394516e+00 1.231895e+01 4.986432e+00 2.426853e+00 3.768768e+05 2.803423e-25 6.579139e+04 5.353756e-26 6.894248e+04 1.024033e-26 7.449470e+02 1.770948e+02 4.428091e+02
<GCONST> -8.425018e+01
<MIXTURE> 2 4.226559e-01
<MEAN> 15
 -5.836892e+00 1.003432e+00 7.489927e+00 4.071764e+00 3.110685e+00 2.406811e+00 3.785438e+02 1.586418e-14 4.217133e+01 1.079663e-14 5.776275e+02 6.266924e-15 2.547081e+00 5.348210e-01 5.970699e-01
<VARIANCE> 15
 2.906727e+00 2.872813e+00 1.523089e+00 2.182918e+00 1.432829e+00 8.081099e-01 4.559049e+04 1.308622e-26 6.311517e+03 3.912227e-27 3.225747e+04 1.178365e-27 4.024313e+01 1.847248e+01 2.456319e+01
<GCONST> -1.116996e+02
<MIXTURE> 3 3.600555e-01
<MEAN> 15
 -5.383559e+00 1.107484e+00 7.935653e+00 2.164580e+00 1.748802e+00 1.456391e+00 3.050328e+02 5.225641e-15 2.911468e+01 4.339900e-15 6.377869e+02 2.323291e-15 3.076890e-01 3.293652e-01 2.045288e-01
<VARIANCE> 15
 1.145783e+00 1.617241e+00 6.974015e-01 6.857399e-01 4.409702e-01 2.643496e-01 1.413119e+04 1.007352e-27 1.241231e+03 2.657962e-28 1.739152e+04 1.170176e-28 3.452904e+00 1.644236e+00 2.341698e+00
<GCONST> -1.356434e+02
<STATE> 4
<NUMMIXES> 3
<MIXTURE> 1 2.832600e-01
<MEAN> 15
 -8.241077e+00 1.113502e+00 4.862078e+00 4.092220e+00 3.114007e+00 3.011194e+00 7.139505e+02 1.531701e-14 4.944539e+01 1.164102e-14 2.705836e+02 8.786631e-15 3.916546e+00 5.563265e-01 4.734847e+00
<VARIANCE> 15
 2.418593e+00 3.721585e+00 3.057019e+00 2.112101e+00 1.508202e+00 1.248460e+00 7.284412e+04 1.694095e-26 1.120268e+04 6.121371e-27 3.068957e+04 4.157470e-27 6.974185e+01 2.367473e+01 5.343447e+01
<GCONST> -1.059402e+02
<MIXTURE> 2 3.951078e-01
<MEAN> 15
 -8.891376e+00 -1.100237e-02 4.096728e+00 1.763082e+00 1.368019e+00 1.618838e+00 7.984982e+02 4.406091e-15 1.597714e+01 1.517001e-15 1.813898e+02 4.092411e-15 7.045813e-01 1.016910e-01 9.776099e-01
<VARIANCE> 15
 5.740240e-01 1.477764e+00 1.363897e+00 5.275211e-01 2.814948e-01 4.227737e-01 1.925170e+04 5.994266e-28 5.528324e+02 1.382562e-28 8.347744e+03 2.779454e-28 2.213272e+00 1.260319e+00 2.468537e+00
<GCONST> -1.381947e+02
<MIXTURE> 3 3.216323e-01
<MEAN> 15
 -6.942061e+00 2.504944e+00 6.361568e+00 2.328832e+00 2.050758e+00 1.561830e+00 4.941122e+02 6.351538e-15 7.943541e+01 4.023473e-15 4.124956e+02 2.267464e-15 1.237566e+00 5.514073e-01 7.486622e-01
<VARIANCE> 15
 9.109050e-01 1.502175e+00 6.497153e-01 7.459409e-01 6.475866e-01 3.065747e-01 1.823827e+04 1.401882e-27 4.164927e+03 4.691544e-28 9.959032e+03 1.774961e-28 7.039895e+00 2.889597e+00 2.942883e+00
<GCONST> -1.316725e+02
<STATE> 5
<NUMMIXES> 3
<MIXTURE> 1 5.476560e-02
<MEAN> 15
 -6.216865e+00 1.667341e+00 7.204894e+00 1.265110e+01 9.627142e+00 9.388494e+00 6.290652e+02 1.101390e-13 3.082766e+02 1.342055e-13 8.062238e+02 7.596153e-14 9.119495e+00 3.339241e+01 -1.823016e+01
<VARIANCE> 15
 1.690353e+01 1.124721e+01 9.833881e+00 4.866862e+01 2.328572e+01 4.418214e+01 1.411950e+06 1.545408e-24 5.368798e+05 7.261696e-25 3.170531e+06 6.051440e-25 1.041882e+04 7.958950e+03 7.729848e+03
<GCONST> -5.074058e+01
<MIXTURE> 2 4.312595e-01
<MEAN> 15
 -4.456656e+00 4.060211e+00 7.504516e+00 1.909618e+00 1.870569e+00 1.499185e+00 2.149541e+02 8.829820e-15 1.886289e+02 2.064480e-15 5.738339e+02 2.119827e-15 -6.983654e-01 1.700672e+00 -3.813484e-01
<VARIANCE> 15
 1.689814e+00 2.023797e+00 9.011857e-01 4.945158e-01 5.543777e-01 2.925416e-01 1.283547e+04 8.792717e-28 1.156302e+04 4.331385e-28 2.110735e+04 1.816853e-28 2.999949e+00 2.714496e+00 2.030680e+00
<GCONST> -1.314313e+02
<MIXTURE> 3 5.139748e-01
<MEAN> 15
 -4.349896e+00 3.870500e+00 7.604650e+00 8.871099e-01 8.725536e-01 7.188534e-01 2.126072e+02 1.414095e-15 1.743876e+02 9.734760e-16 5.858068e+02 7.665465e-16 -8.943745e-02 2.558511e-01 -3.488383e-02
<VARIANCE> 15
 2.295418e+00 2.411243e+00 7.290409e-01 1.261234e-01 1.075945e-01 6.340050e-02 1.506444e+04 4.030756e-29 1.205259e+04 2.251014e-29 1.694697e+04 8.257492e-30 1.305681e-01 1.056234e-01 8.986079e-02
<GCONST> -1.543443e+02
<STATE> 6
<NUMMIXES> 3
<MIXTURE> 1 4.067731e-01
<MEAN> 15
 -4.081272e+00 2.914807e+00 8.128198e+00 3.834242e+00 4.101129e+00 2.741739e+00 1.855506e+02 2.749621e-14 1.296594e+02 3.907687e-16 6.717524e+02 5.636711e-15 -1.038069e+00 6.987825e+00 -8.900974e-01
<VARIANCE> 15
 2.043787e+00 2.927704e+00 7.622826e-01 1.503992e+00 2.190362e+00 7.950573e-01 1.901210e+04 1.023268e-26 2.288341e+04 6.803969e-27 2.142594e+04 1.648052e-27 4.002508e+01 3.568742e+01 2.022235e+01
<GCONST> -1.115837e+02
<MIXTURE> 2 1.986493e-01
<MEAN> 15
 -4.674066e+00 2.618160e+00 7.421244e+00 6.612098e+00 5.918990e+00 4.293953e+00 3.395514e+02 4.618477e-14 1.706232e+02 7.546787e-15 6.087711e+02 1.116426e-14 -3.479210e+00 1.353628e+01 -1.382038e+00
<VARIANCE> 15
 9.235226e+00 6.429274e+00 4.610858e+00 8.917157e+00 7.470886e+00 4.286907e+00 2.422891e+05 1.703499e-25 1.072543e+05 5.820852e-26 1.110461e+05 2.131979e-26 4.795452e+02 4.953456e+02 2.766695e+02
<GCONST> -8.181340e+01
<MIXTURE> 3 3.945776e-01
<MEAN> 15
 -4.259212e+00 2.637100e+00 8.150918e+00 2.290868e+00 2.348285e+00 1.666234e+00 1.986352e+02 6.752789e-15 9.143814e+01 3.374130e-15 6.726003e+02 2.167608e-15 -1.492414e-01 1.945056e+00 -2.848147e-01
<VARIANCE> 15
 1.456779e+00 1.933941e+00 6.951829e-01 6.272084e-01 6.985286e-01 2.653677e-01 1.204465e+04 1.222178e-27 6.769875e+03 5.472782e-28 1.842144e+04 1.764420e-28 4.193381e+00 3.365193e+00 2.447984e+00
<GCONST> -1.309777e+02
<STATE> 7
<NUMMIXES> 3
<MIXTURE> 1 2.049346e-01
<MEAN> 15
 -5.004728e+00 3.283410e+00 6.775229e+00 2.464547e+00 2.943178e+00 1.714085e+00 3.219227e+02 1.418304e-14 2.321193e+02 1.201735e-14 5.138752e+02 1.165772e-14 -9.410768e-01 5.730543e-01 1.216480e-01
<VARIANCE> 15
 7.151005e+00 1.214040e+01 5.917123e+00 1.293947e+00 2.395960e+00 6.641074e-01 6.926075e+04 2.976634e-27 9.322770e+04 3.520190e-27 1.351283e+05 1.167207e-27 3.031036e+01 1.444988e+01 7.738592e+00
<GCONST> -1.069427e+02
<MIXTURE> 2 2.370017e-01
<MEAN> 15
 -5.659975e+00 2.977538e+00 5.597957e+00 9.014866e-01 9.436527e-01 7.854983e-01 4.517303e+02 2.497278e-15 1.835175e+02 2.451556e-15 3.524113e+02 2.084208e-15 -6.984589e-02 1.142188e-01 1.881605e-02
<VARIANCE> 15
 1.312797e+01 9.492742e+00 3.946990e+00 1.997783e-01 2.263062e-01 1.360270e-01 8.535766e+04 4.595068e-29 4.958021e+04 4.577986e-29 5.426953e+04 2.371349e-29 2.101398e-01 2.186239e-01 2.142336e-01
<GCONST> -1.392935e+02
<MIXTURE> 3 5.580637e-01
<MEAN> 15
 -4.985606e+00 1.424273e+00 8.179343e+00 1.689477e+00 1.517611e+00 1.052296e+00 2.559570e+02 4.644771e-15 3.041255e+01 2.957355e-15 6.726098e+02 2.006738e-15 1.139192e-01 3.682786e-01 -1.069434e-01
<VARIANCE> 15
 6.351879e-01 9.950504e-01 3.727967e-01 4.110948e-01 3.962927e-01 1.252972e-01 7.126029e+03 5.298727e-28 9.157018e+02 1.588590e-28 9.964465e+03 4.705745e-29 1.341538e+00 6.936917e-01 8.130588e-01
<GCONST> -1.451905e+02
<TRANSP> 8
 0.000000e+00 2.936642e-01 7.063358e-01 0.000000e+00 0.000000e+00 0.000000e+00 0.000000e+00 0.000000e+00
 0.000000e+00 8.972982e-01 6.078184e-02 4.191995e-02 0.000000e+00 0.000000e+00 0.000000e+00 0.000000e+00
 0.000000e+00 0.000000e+00 8.731418e-01 4.565776e-02 8.120049e-02 0.000000e+00 0.000000e+00 0.000000e+00
 0.000000e+00 0.000000e+00 0.000000e+00 9.225538e-01 1.407821e-02 6.336805e-02 0.000000e+00 0.000000e+00
 0.000000e+00 0.000000e+00 0.000000e+00 0.000000e+00 8.490217e-01 9.802183e-02 5.295656e-02 0.000000e+00
 0.000000e+00 0.000000e+00 0.000000e+00 0.000000e+00 0.000000e+00 8.792345e-01 2.161928e-02 9.914628e-02
 0.000000e+00 0.000000e+00 0.000000e+00 0.000000e+00 0.000000e+00 0.000000e+00 9.064937e-01 9.350629e-02
 0.000000e+00 0.000000e+00 0.000000e+00 0.000000e+00 0.000000e+00 0.000000e+00 0.000000e+00 0.000000e+00
<ENDHMM>
