~o
<STREAMINFO> 1 15
<VECSIZE> 15<NULLD><MFCC><DIAGC>
~h "Activity1"
<BEGINHMM>
<NUMSTATES> 8
<STATE> 2
<NUMMIXES> 3
<MIXTURE> 1 8.860012e-01
<MEAN> 15
 4.339031e-01 4.523850e+00 8.623821e+00 7.264378e-02 6.658392e-02 9.991090e-02 1.910202e+00 -7.640841e-20 2.047114e+02 3.339124e-18 7.437504e+02 -7.046707e-19 1.403659e-03 -8.997232e-05 2.372918e-04
<VARIANCE> 15
 2.113261e-03 5.582117e-03 3.693967e-03 3.018115e-04 3.491633e-04 5.268866e-04 1.519225e-01 6.672311e-34 4.526138e+01 7.220007e-34 1.100987e+02 2.337747e-33 2.955752e-06 5.223891e-06 6.387194e-06
<GCONST> -2.710577e+02
<MIXTURE> 2 6.089951e-02
<MEAN> 15
 4.038699e+00 2.965351e+00 5.644705e+00 4.012886e-01 6.877916e-01 4.621558e-01 2.660834e+02 9.142005e-16 2.717269e+02 4.089044e-15 4.248352e+02 1.300649e-15 2.713904e-02 -1.308712e-02 -7.331265e-02
<VARIANCE> 15
 1.032886e+01 1.854041e+01 1.065968e+01 6.441332e-02 2.620872e-01 7.947638e-02 6.603209e+04 4.865480e-30 7.849175e+04 2.002948e-28 8.162259e+04 9.518173e-30 1.151489e-01 1.548807e-01 3.524716e-02
<GCONST> -1.432153e+02
<MIXTURE> 3 5.309935e-02
<MEAN> 15
 5.062489e-01 4.644255e+00 7.217237e+00 1.030568e-01 1.749091e-01 1.521623e-01 4.881694e+00 3.261461e-17 3.945011e+02 1.183232e-16 5.510881e+02 7.043888e-17 8.036077e-04 5.135458e-04 -2.683828e-03
<VARIANCE> 15
 2.325557e-01 1.788364e+01 3.022356e+00 1.631381e-03 1.317518e-02 6.533136e-03 5.757448e+01 6.283529e-33 3.518852e+04 1.531716e-31 3.662926e+04 3.619399e-32 1.583008e-04 4.673329e-04 1.592821e-04
<GCONST> -2.033109e+02
<STATE> 3
<NUMMIXES> 3
<MIXTURE> 1 1.339831e-01
<MEAN> 15
 6.187943e+00 1.413447e+00 6.399167e+00 1.082255e-01 2.135769e-01 1.507202e-01 3.974191e+02 4.164789e-17 5.038916e+01 3.534734e-16 4.896814e+02 8.903942e-17 6.359204e-03 6.666583e-04 -4.064747e-03
<VARIANCE> 15
 1.451777e+00 3.053766e+00 8.020699e+00 3.475627e-03 2.531147e-02 6.944498e-03 2.169167e+04 1.397796e-32 2.633387e+03 8.967995e-31 2.853723e+04 1.120574e-31 6.413521e-04 1.271616e-03 2.517678e-04
<GCONST> -1.911562e+02
<MIXTURE> 2 8.255184e-01
<MEAN> 15
 6.820321e+00 2.601778e+00 6.205912e+00 6.983987e-02 8.470763e-02 1.006100e-01 4.666789e+02 1.807135e-18 8.868729e+01 1.184160e-17 3.857755e+02 5.054717e-18 1.526104e-03 2.574309e-04 1.373482e-04
<VARIANCE> 15
 1.506937e-01 2.099238e+00 6.341915e-02 3.044934e-04 7.472142e-04 6.325063e-04 2.639503e+03 6.157095e-34 6.350324e+03 2.180284e-33 9.727451e+02 2.468348e-33 5.637075e-06 1.097996e-05 6.257672e-06
<GCONST> -2.377331e+02
<MIXTURE> 3 4.049847e-02
<MEAN> 15
 7.600116e-01 7.316667e+00 6.255407e+00 7.873716e-02 9.743647e-02 1.096533e-01 5.826682e+00 4.397093e-18 5.358524e+02 4.377309e-17 3.920665e+02 4.930302e-18 1.080256e-03 -1.605017e-03 2.476827e-04
<VARIANCE> 15
 4.755504e-03 5.297759e-02 7.503159e-02 6.214741e-04 3.206730e-03 9.525006e-04 1.083616e+00 1.476586e-33 1.126695e+03 2.274251e-32 1.192320e+03 4.850835e-33 2.256264e-05 3.746248e-05 1.334330e-05
<GCONST> -2.441781e+02
<STATE> 4
<NUMMIXES> 3
<MIXTURE> 1 3.724635e-01
<MEAN> 15
 4.881025e+00 2.755866e-01 8.357250e+00 9.815662e-02 1.102686e-01 1.211613e-01 2.403379e+02 3.535710e-17 1.156588e+00 4.042660e-17 6.990539e+02 3.898345e-17 3.298017e-03 -4.701818e-04 9.120311e-04
<VARIANCE> 15
 2.104609e-01 4.035291e-02 6.248581e-02 1.811941e-03 2.546736e-03 2.721658e-03 1.921199e+03 1.021042e-32 1.137279e+00 1.435684e-32 1.764945e+03 1.885549e-32 6.134326e-05 1.086334e-04 5.985189e-05
<GCONST> -2.315825e+02
<MIXTURE> 2 1.810416e-01
<MEAN> 15
 4.360850e+00 1.691428e-01 5.375733e+00 6.572499e-01 1.018739e+00 7.426814e-01 3.053913e+02 4.639241e-15 1.185300e+02 1.129506e-14 5.335836e+02 5.264358e-15 2.142539e-01 -7.145226e-02 -1.722237e-01
<VARIANCE> 15
 1.170910e+01 1.226735e+01 2.465781e+01 4.780907e-01 8.920140e-01 4.524585e-01 3.870240e+04 2.061876e-28 3.641399e+04 1.836873e-27 8.429141e+04 2.667062e-28 2.509470e+00 2.042734e+00 1.155044e+00
<GCONST> -1.205197e+02
<MIXTURE> 3 4.464949e-01
<MEAN> 15
 4.460479e-01 5.091687e+00 7.803383e+00 7.248576e-02 7.159175e-02 1.007692e-01 2.357941e+00 -3.856144e-19 3.378040e+02 4.945188e-18 6.128945e+02 -1.238691e-18 1.595037e-03 -7.899714e-05 2.701587e-04
<VARIANCE> 15
 3.612933e-02 7.854846e+00 3.953743e-01 3.027843e-04 4.024760e-04 5.820960e-04 1.831658e+00 6.463621e-34 7.332371e+03 1.107165e-33 8.551203e+03 2.216586e-33 3.548027e-06 6.574880e-06 7.239335e-06
<GCONST> -2.432413e+02
<STATE> 5
<NUMMIXES> 3
<MIXTURE> 1 7.575163e-01
<MEAN> 15
 5.118270e+00 -2.977523e-02 8.190308e+00 7.257582e-02 6.706027e-02 9.809065e-02 2.625521e+02 2.281375e-18 1.183505e+00 3.663815e-18 6.709724e+02 3.175810e-18 1.346582e-03 9.072370e-05 4.065304e-04
<VARIANCE> 15
 5.806167e-02 1.172081e-01 1.524863e-02 3.196351e-04 4.849485e-04 6.538907e-04 6.350956e+02 7.178353e-34 7.086851e-01 7.454637e-34 4.038816e+02 2.611711e-33 3.845552e-06 6.553837e-06 6.997581e-06
<GCONST> -2.564022e+02
<MIXTURE> 2 1.204982e-01
<MEAN> 15
 6.801711e+00 1.995475e+00 6.293139e+00 7.793944e-02 1.310561e-01 1.074305e-01 4.632707e+02 6.463091e-18 7.556719e+01 1.164618e-16 3.970988e+02 1.562986e-17 2.713037e-03 3.936831e-05 -5.289086e-04
<VARIANCE> 15
 6.333611e-02 3.579005e+00 1.059343e-01 5.490704e-04 6.238834e-03 7.712442e-04 1.114529e+03 1.131099e-33 1.683750e+03 8.493767e-32 1.769672e+03 3.619170e-33 4.448416e-05 5.396226e-05 1.458132e-05
<GCONST> -2.270772e+02
<MIXTURE> 3 1.219855e-01
<MEAN> 15
 7.765831e-01 7.089302e+00 6.512618e+00 7.163370e-02 6.063351e-02 1.036343e-01 6.052240e+00 1.491275e-18 5.026007e+02 3.973189e-18 4.241896e+02 3.078097e-18 1.223953e-03 -5.471767e-04 4.622670e-04
<VARIANCE> 15
 1.551586e-03 1.625777e-03 3.911626e-03 2.932590e-04 3.069615e-04 7.370867e-04 3.678661e-01 6.378334e-34 3.259984e+01 6.783839e-34 6.669205e+01 3.531793e-33 2.856997e-06 7.398484e-06 7.145760e-06
<GCONST> -2.715784e+02
<STATE> 6
<NUMMIXES> 3
<MIXTURE> 1 1.472814e-01
<MEAN> 15
 2.335078e-01 1.770496e+00 8.851464e+00 7.861805e-02 8.694812e-02 1.128871e-01 1.049261e+00 3.613243e-18 1.602990e+02 1.637127e-17 7.865922e+02 7.059270e-18 1.773587e-03 -4.923416e-04 3.319183e-04
<VARIANCE> 15
 4.987639e-02 1.289496e+01 3.094030e-01 3.631125e-04 1.539045e-03 9.136791e-04 9.662491e-01 8.735662e-34 9.451861e+03 4.318016e-33 8.875051e+03 4.529535e-33 1.040080e-05 2.715264e-05 1.141147e-05
<GCONST> -2.357173e+02
<MIXTURE> 2 1.444249e-01
<MEAN> 15
 4.853357e+00 1.673552e+00 6.051033e+00 1.488030e-01 2.120301e-01 1.915777e-01 3.042379e+02 4.976147e-16 1.210076e+02 3.730032e-16 5.144996e+02 8.244166e-16 7.413141e-03 7.736573e-03 2.835631e-02
<VARIANCE> 15
 6.895351e+00 9.309528e+00 1.487681e+01 5.502087e-02 3.746005e-02 7.075142e-02 3.744032e+04 3.296039e-29 2.442921e+04 2.466849e-30 3.329415e+04 8.150149e-29 1.465592e-02 1.417759e-02 4.522848e-01
<GCONST> -1.510623e+02
<MIXTURE> 3 7.082937e-01
<MEAN> 15
 8.180249e-01 7.502238e+00 6.026536e+00 7.226449e-02 7.313016e-02 9.574456e-02 6.707031e+00 1.037356e-18 5.629606e+02 3.545628e-18 3.633435e+02 3.973814e-18 1.452598e-03 -2.714092e-04 4.090512e-04
<VARIANCE> 15
 9.555211e-04 1.205532e-02 1.442280e-02 3.696632e-04 3.922646e-04 5.496101e-04 2.554797e-01 6.483508e-34 2.686359e+02 9.562806e-34 2.133728e+02 1.939283e-33 4.358097e-06 7.413647e-06 6.470068e-06
<GCONST> -2.655789e+02
<STATE> 7
<NUMMIXES> 3
<MIXTURE> 1 1.800810e-01
<MEAN> 15
 4.106206e+00 -2.984852e+00 -4.245391e+00 6.154637e-02 6.982806e-02 1.014710e-01 1.720402e+02 1.165568e-18 1.179724e+02 2.376925e-18 6.748897e+02 3.124045e-18 1.228893e-03 -2.441023e-04 2.439423e-04
<VARIANCE> 15
 3.427947e-01 2.887500e+00 4.946469e+01 2.928640e-04 3.415613e-04 5.835121e-04 2.788716e+03 3.720180e-34 4.379392e+03 7.733052e-34 1.561948e+02 2.607162e-33 2.484505e-06 7.210716e-06 5.084687e-06
<GCONST> -2.359141e+02
<MIXTURE> 2 7.604196e-01
<MEAN> 15
 6.470205e+00 -2.107744e+00 6.870100e+00 7.000512e-02 7.573160e-02 1.046638e-01 4.186586e+02 6.774948e-19 4.452923e+01 5.538052e-18 4.720075e+02 2.004245e-18 1.479420e-03 3.597636e-04 4.942810e-04
<VARIANCE> 15
 1.822102e-03 1.003998e-02 1.297133e-03 2.784160e-04 3.880820e-04 6.371731e-04 3.054483e+01 5.286758e-34 1.727872e+01 1.142139e-33 2.450193e+01 2.750539e-33 3.938739e-06 7.979784e-06 6.844542e-06
<GCONST> -2.674440e+02
<MIXTURE> 3 5.949948e-02
<MEAN> 15
 1.381318e+00 3.819928e+00 2.198385e+00 3.212401e-01 5.229560e-01 4.443591e-01 4.031378e+01 5.630712e-16 4.481662e+02 1.682097e-15 4.693009e+02 1.262542e-15 -2.672347e-03 -3.851443e-03 -1.883518e-02
<VARIANCE> 15
 2.141292e+00 3.026269e+01 4.214731e+01 6.736572e-02 1.540757e-01 7.676011e-02 3.107886e+03 8.827866e-30 6.924132e+04 3.172717e-29 5.182265e+04 1.171678e-29 2.447692e-02 1.355885e-01 2.139434e-02
<GCONST> -1.503010e+02
<TRANSP> 8
 0.000000e+00 2.485349e-01 7.514651e-01 0.000000e+00 0.000000e+00 0.000000e+00 0.000000e+00 0.000000e+00
 0.000000e+00 9.470210e-01 6.257386e-03 4.672160e-02 0.000000e+00 0.000000e+00 0.000000e+00 0.000000e+00
 0.000000e+00 0.000000e+00 8.796222e-01 2.930765e-02 9.107016e-02 0.000000e+00 0.000000e+00 0.000000e+00
 0.000000e+00 0.000000e+00 0.000000e+00 8.365383e-01 2.204239e-02 1.414193e-01 0.000000e+00 0.000000e+00
 0.000000e+00 0.000000e+00 0.000000e+00 0.000000e+00 9.168939e-01 3.676106e-02 4.634507e-02 0.000000e+00
 0.000000e+00 0.000000e+00 0.000000e+00 0.000000e+00 0.000000e+00 8.131940e-01 1.415059e-02 1.726554e-01
 0.000000e+00 0.000000e+00 0.000000e+00 0.000000e+00 0.000000e+00 0.000000e+00 9.202064e-01 7.979358e-02
 0.000000e+00 0.000000e+00 0.000000e+00 0.000000e+00 0.000000e+00 0.000000e+00 0.000000e+00 0.000000e+00
<ENDHMM>
