~o
<STREAMINFO> 1 15
<VECSIZE> 15<NULLD><MFCC><DIAGC>
~h "ActivityOther"
<BEGINHMM>
<NUMSTATES> 8
<STATE> 2
<NUMMIXES> 3
<MIXTURE> 1 3.974676e-01
<MEAN> 15
 -8.050288e+00 4.353670e+00 1.112058e+00 7.525914e-01 8.816087e-01 6.216881e-01 7.157358e+02 2.692921e-15 2.753541e+02 2.306310e-15 5.877912e+01 9.710607e-16 -3.897941e-02 2.854075e-02 -2.837013e-02
<VARIANCE> 15
 6.845853e+00 8.594555e+00 4.639416e+00 1.151208e-01 1.749032e-01 1.000059e-01 1.744225e+05 2.053230e-29 5.366639e+04 3.368556e-29 4.941109e+03 8.518125e-30 1.754669e-01 1.049339e-01 8.314817e-02
<GCONST> -1.465984e+02
<MIXTURE> 2 1.837455e-01
<MEAN> 15
 -9.148604e+00 4.014790e+00 1.732955e+00 3.515209e+00 3.141799e+00 2.262343e+00 1.060970e+03 7.255353e-14 3.274763e+02 3.472521e-14 1.090128e+02 1.915614e-14 -5.434641e-01 8.680080e-01 7.772626e-01
<VARIANCE> 15
 2.535770e+01 1.732765e+01 8.448807e+00 3.185499e+00 3.355393e+00 1.610523e+00 1.000510e+06 1.730606e-26 1.470956e+05 9.868977e-27 2.373758e+04 2.512518e-27 8.181857e+01 3.243592e+01 4.408650e+01
<GCONST> -9.435476e+01
<MIXTURE> 3 4.187868e-01
<MEAN> 15
 -8.765316e+00 4.048531e+00 1.339599e+00 1.598511e+00 1.627777e+00 1.205017e+00 8.890272e+02 1.234153e-14 2.954266e+02 8.250626e-15 7.533967e+01 4.306630e-15 -5.352392e-02 1.245039e-01 3.387431e-02
<VARIANCE> 15
 1.246013e+01 1.324484e+01 5.812950e+00 4.921288e-01 5.399619e-01 3.296572e-01 4.013317e+05 4.389177e-28 6.774838e+04 4.142277e-28 8.541376e+03 1.233256e-28 2.948695e+00 1.508348e+00 1.531461e+00
<GCONST> -1.233103e+02
<STATE> 3
<NUMMIXES> 3
<MIXTURE> 1 4.572487e-01
<MEAN> 15
 -2.699030e+00 2.102437e+00 3.974963e+00 8.645347e-01 1.397990e+00 9.277605e-01 1.944311e+02 4.892323e-15 5.165361e+02 9.388667e-15 3.133174e+02 4.756838e-15 2.416740e-02 -8.433601e-02 -1.734551e-01
<VARIANCE> 15
 1.234218e+01 4.749834e+01 1.569822e+01 2.092630e-01 5.154141e-01 2.172484e-01 4.078393e+04 6.217925e-29 2.184297e+05 4.048601e-28 8.037879e+04 8.208876e-29 9.607816e-01 1.132182e+00 4.566911e-01
<GCONST> -1.262444e+02
<MIXTURE> 2 4.374543e-01
<MEAN> 15
 -2.776666e+00 3.702170e+00 3.371444e+00 3.366590e-01 5.374030e-01 3.779873e-01 1.955012e+02 5.614479e-16 4.728041e+02 9.168758e-16 2.601095e+02 5.265582e-16 -1.399331e-03 -3.836003e-03 -1.734411e-02
<VARIANCE> 15
 1.185519e+01 3.357899e+01 1.465103e+01 2.928654e-02 7.624925e-02 3.165165e-02 4.079825e+04 1.126597e-30 1.076698e+05 7.265817e-30 5.980616e+04 1.586019e-30 1.681872e-02 2.081855e-02 9.163902e-03
<GCONST> -1.574346e+02
<MIXTURE> 3 1.052970e-01
<MEAN> 15
 -3.349590e+00 2.310623e+00 4.731147e+00 2.533671e+00 5.414084e+00 2.822757e+00 3.105585e+02 3.191332e-14 6.749453e+02 1.090341e-13 4.633331e+02 3.443131e-14 -4.956051e-01 -1.592251e+00 -2.254712e+00
<VARIANCE> 15
 2.077188e+01 6.293634e+01 2.496215e+01 2.320686e+00 2.582395e+01 3.111295e+00 1.841002e+05 5.626292e-27 9.622768e+05 2.283226e-25 2.228678e+05 1.463111e-26 2.499774e+02 1.285647e+03 5.863135e+01
<GCONST> -7.851231e+01
<STATE> 4
<NUMMIXES> 3
<MIXTURE> 1 4.631759e-01
<MEAN> 15
 -5.182243e+00 9.185512e+00 1.946833e+00 1.678482e+00 2.385844e+00 9.600039e-01 3.840206e+02 1.950424e-14 1.163458e+03 3.585855e-14 6.565755e+01 4.206764e-15 -1.664595e+00 1.986690e-01 1.388256e-01
<VARIANCE> 15
 1.229702e+01 3.303446e+01 2.875975e+00 7.357460e-01 1.946417e+00 2.418802e-01 1.535727e+05 8.717215e-28 9.706747e+05 4.106957e-27 5.469751e+03 7.289549e-29 1.189702e+01 3.139036e+00 1.676921e+00
<GCONST> -1.158096e+02
<MIXTURE> 2 1.265036e-01
<MEAN> 15
 -3.267837e+00 1.186147e+01 2.871588e+00 5.745378e+00 1.866931e+01 5.322025e+00 2.155984e+02 4.617470e-14 1.767361e+03 2.751509e-13 1.336832e+02 2.016754e-14 6.655754e-01 7.948708e+01 1.672310e+00
<VARIANCE> 15
 9.543053e+00 2.532475e+01 3.220414e+00 7.826404e+00 1.281747e+02 9.621937e+00 9.454535e+04 5.912085e-26 8.401644e+06 2.730259e-24 4.566039e+04 3.813519e-26 7.291887e+03 1.018240e+04 5.128014e+02
<GCONST> -6.498373e+01
<MIXTURE> 3 4.103205e-01
<MEAN> 15
 -9.294140e-01 6.404754e+00 1.297776e+00 6.902652e-01 9.286168e-01 5.769187e-01 3.673822e+01 3.160026e-15 5.296198e+02 4.206469e-15 3.677665e+01 1.510253e-15 -1.832661e-01 -6.259800e-02 1.809895e-03
<VARIANCE> 15
 2.926295e+00 1.203464e+01 2.035105e+00 1.406392e-01 2.176984e-01 6.571272e-02 1.953454e+03 2.373768e-29 1.246440e+05 6.619014e-29 1.822558e+03 9.348100e-30 3.065894e-01 1.557782e-01 9.940189e-02
<GCONST> -1.505379e+02
<STATE> 5
<NUMMIXES> 3
<MIXTURE> 1 3.198638e-01
<MEAN> 15
 -1.084188e+01 3.031910e+00 2.376041e+00 2.133246e+00 9.313593e-01 7.885030e-01 1.285545e+03 3.959244e-14 1.534832e+02 6.177526e-15 9.610686e+01 4.390430e-15 -4.224747e-01 1.771023e-01 -1.922201e-01
<VARIANCE> 15
 1.289200e+01 6.400329e+00 4.145858e+00 1.049298e+00 3.128277e-01 1.859619e-01 6.641771e+05 2.732793e-27 2.059416e+04 1.197476e-28 1.243963e+04 5.160905e-29 3.333887e+00 5.575470e-01 2.627714e+00
<GCONST> -1.256297e+02
<MIXTURE> 2 3.251210e-01
<MEAN> 15
 -7.987566e+00 2.847869e+00 3.152236e+00 6.420060e-01 7.460805e-01 5.275950e-01 7.575897e+02 2.210563e-15 1.582577e+02 2.840959e-15 1.838942e+02 1.404008e-15 -4.325022e-02 4.309712e-02 -6.105623e-02
<VARIANCE> 15
 1.202168e+01 7.805076e+00 8.498586e+00 9.725390e-02 1.228242e-01 5.501058e-02 2.892292e+05 1.275164e-29 2.284371e+04 2.296113e-29 4.481656e+04 5.439882e-30 1.436653e-01 8.248635e-02 7.408959e-02
<GCONST> -1.466537e+02
<MIXTURE> 3 3.550152e-01
<MEAN> 15
 -8.015477e+00 2.562423e+00 1.404993e+00 7.585593e-01 3.299579e-01 2.718024e-01 7.080854e+02 5.353838e-15 1.033862e+02 5.244004e-16 3.862576e+01 3.435649e-16 -2.800439e-02 1.099827e-02 -4.122537e-02
<VARIANCE> 15
 6.808078e+00 3.784899e+00 1.897035e+00 2.275894e-01 2.602931e-02 1.467841e-02 2.032168e+05 5.754404e-29 5.980312e+03 8.696343e-31 1.576154e+03 3.780518e-31 6.064612e-02 4.416365e-03 3.890263e-02
<GCONST> -1.653759e+02
<STATE> 6
<NUMMIXES> 3
<MIXTURE> 1 1.208628e-01
<MEAN> 15
 -8.349279e+00 5.085200e+00 3.272334e+00 5.363281e+00 6.943597e+00 4.646286e+00 1.092964e+03 1.575887e-13 9.525892e+02 2.249772e-13 4.880471e+02 7.946287e-14 -6.873320e+00 1.133230e+01 -7.771682e+00
<VARIANCE> 15
 4.505537e+01 7.718399e+01 3.996521e+01 9.663447e+00 2.639320e+01 8.881321e+00 1.875655e+06 1.262091e-25 2.150258e+06 5.507328e-25 5.158572e+05 8.048489e-26 1.308304e+03 1.873002e+03 7.445546e+02
<GCONST> -6.033275e+01
<MIXTURE> 2 3.677690e-01
<MEAN> 15
 -6.385536e+00 3.041632e+00 2.240181e+00 2.190491e+00 2.648557e+00 1.829096e+00 6.549263e+02 2.586672e-14 3.929105e+02 2.598327e-14 1.939656e+02 1.372837e-14 -2.162987e-01 2.179849e-01 -3.108507e-01
<VARIANCE> 15
 2.556338e+01 3.048484e+01 1.477175e+01 1.207432e+00 1.727895e+00 7.285542e-01 4.804544e+05 2.054739e-27 1.647286e+05 4.050469e-27 5.487738e+04 8.453133e-28 1.949926e+01 1.263490e+01 9.182085e+00
<GCONST> -1.034890e+02
<MIXTURE> 3 5.113682e-01
<MEAN> 15
 -6.342099e+00 4.046403e+00 1.893205e+00 9.764998e-01 1.183887e+00 8.724579e-01 5.613318e+02 4.636786e-15 3.770372e+02 4.231298e-15 1.213484e+02 2.180519e-15 -5.322117e-02 5.832303e-02 -6.617506e-02
<VARIANCE> 15
 1.605474e+01 2.135178e+01 8.572005e+00 2.247043e-01 3.188807e-01 1.952963e-01 2.151198e+05 6.675033e-29 1.127986e+05 1.218614e-28 1.771895e+04 3.649586e-29 6.294277e-01 4.417866e-01 3.209964e-01
<GCONST> -1.320685e+02
<STATE> 7
<NUMMIXES> 3
<MIXTURE> 1 1.946987e-01
<MEAN> 15
 -4.477857e+00 2.142665e+00 7.667368e+00 1.330515e+00 1.917163e+00 1.301583e+00 2.995800e+02 1.188720e-14 1.590717e+02 1.848401e-14 6.237327e+02 9.127484e-15 -3.562544e-02 -1.635952e-02 -8.247122e-01
<VARIANCE> 15
 1.040785e+01 1.191104e+01 3.883377e+00 5.204121e-01 1.354775e+00 5.080726e-01 8.632380e+04 3.898516e-28 4.140501e+04 2.818178e-27 9.355090e+04 3.563693e-28 5.062215e+00 5.480768e+00 3.711316e+00
<GCONST> -1.166511e+02
<MIXTURE> 2 4.441774e-01
<MEAN> 15
 -3.851370e+00 2.317279e+00 7.651438e+00 5.574449e-01 9.382260e-01 5.568086e-01 1.995148e+02 1.991766e-15 1.533240e+02 3.784383e-15 6.041074e+02 1.360392e-15 -4.530287e-02 -5.401720e-02 -3.117693e-02
<VARIANCE> 15
 5.197294e+00 1.006065e+01 1.901373e+00 6.637122e-02 1.862951e-01 6.177850e-02 2.764363e+04 8.435671e-30 2.981306e+04 7.774914e-29 4.250339e+04 7.991312e-30 1.539421e-01 1.483807e-01 5.994400e-02
<GCONST> -1.490843e+02
<MIXTURE> 3 3.611239e-01
<MEAN> 15
 -3.618518e+00 2.620485e+00 7.644947e+00 2.405271e-01 4.300558e-01 2.699117e-01 1.793744e+02 2.471741e-16 1.602326e+02 4.989871e-16 6.000281e+02 2.111847e-16 -1.154612e-03 -7.915206e-03 -4.138962e-03
<VARIANCE> 15
 4.850235e+00 9.152051e+00 1.558992e+00 1.229792e-02 4.662873e-02 1.339180e-02 2.214489e+04 2.391669e-31 2.673673e+04 2.710356e-30 3.312251e+04 3.343842e-31 4.977476e-03 5.793783e-03 1.876064e-03
<GCONST> -1.748587e+02
<TRANSP> 8
 0.000000e+00 4.387762e-01 5.612239e-01 0.000000e+00 0.000000e+00 0.000000e+00 0.000000e+00 0.000000e+00
 0.000000e+00 9.101444e-01 5.200330e-02 3.785229e-02 0.000000e+00 0.000000e+00 0.000000e+00 0.000000e+00
 0.000000e+00 0.000000e+00 8.638265e-01 4.811540e-02 8.805811e-02 0.000000e+00 0.000000e+00 0.000000e+00
 0.000000e+00 0.000000e+00 0.000000e+00 8.713320e-01 2.374721e-02 1.049208e-01 0.000000e+00 0.000000e+00
 0.000000e+00 0.000000e+00 0.000000e+00 0.000000e+00 8.752457e-01 7.903453e-02 4.571979e-02 0.000000e+00
 0.000000e+00 0.000000e+00 0.000000e+00 0.000000e+00 0.000000e+00 8.296423e-01 2.197291e-02 1.483848e-01
 0.000000e+00 0.000000e+00 0.000000e+00 0.000000e+00 0.000000e+00 0.000000e+00 9.456561e-01 5.434398e-02
 0.000000e+00 0.000000e+00 0.000000e+00 0.000000e+00 0.000000e+00 0.000000e+00 0.000000e+00 0.000000e+00
<ENDHMM>
