~o
<STREAMINFO> 1 12
<VECSIZE> 12<NULLD><MFCC><DIAGC>
~h "Activity105"
<BEGINHMM>
<NUMSTATES> 7
<STATE> 2
<NUMMIXES> 2
<MIXTURE> 1 4.243749e-01
<MEAN> 12
 9.261292e+02 2.343838e+02 -3.279704e+02 7.628628e+00 7.454372e+00 9.223835e+00 3.859869e+06 2.473479e+05 4.842278e+05 -1.550894e+00 -8.894949e+00 -3.139502e+00
<VARIANCE> 12
 3.237384e+01 2.773658e+01 4.130990e+01 1.934130e+01 1.628786e+01 2.317863e+01 2.247124e+09 1.224194e+08 3.610484e+08 3.093499e+03 4.618179e+03 4.610645e+03
<GCONST> 1.262430e+02
<MIXTURE> 2 5.756251e-01
<MEAN> 12
 -8.297756e+02 3.139572e+02 5.056967e+02 8.421184e+00 8.068057e+00 1.016561e+01 3.100814e+06 4.676562e+05 1.169293e+06 -3.277380e+00 -4.678885e+00 -1.063942e+01
<VARIANCE> 12
 5.406570e+02 5.353869e+03 4.110833e+03 2.255854e+01 1.867033e+01 2.806493e+01 2.991140e+10 2.531790e+10 7.936718e+10 4.096027e+03 6.055431e+03 8.254617e+03
<GCONST> 1.538505e+02
<STATE> 3
<NUMMIXES> 2
<MIXTURE> 1 6.513306e-01
<MEAN> 12
 9.920998e+02 1.164617e+01 4.509566e+01 2.587561e+01 1.722229e+01 2.234671e+01 4.434442e+06 5.446898e+04 1.545247e+05 5.653195e+01 2.734994e+01 -1.504247e+02
<VARIANCE> 12
 1.151831e+03 1.195560e+04 3.220593e+04 4.517134e+02 1.320942e+02 3.005473e+02 9.035853e+10 3.964550e+09 3.235679e+10 3.255257e+05 2.321324e+05 7.029780e+05
<GCONST> 1.756138e+02
<MIXTURE> 2 3.486694e-01
<MEAN> 12
 3.332499e+02 3.921101e+01 2.145086e+02 1.743891e+02 7.935687e+01 1.277004e+02 4.052400e+06 1.432330e+05 9.934076e+05 4.304605e+03 2.591200e+03 -2.685739e+03
<VARIANCE> 12
 7.869883e+05 2.882676e+04 1.694090e+05 1.895624e+04 3.415231e+03 1.754785e+04 4.486692e+12 3.379683e+10 1.500569e+12 7.925853e+08 3.914676e+08 1.687069e+09
<GCONST> 2.286333e+02
<STATE> 4
<NUMMIXES> 2
<MIXTURE> 1 8.883272e-01
<MEAN> 12
 1.010848e+03 4.866608e+01 3.428975e+01 8.735963e+00 8.477534e+00 1.014150e+01 4.598337e+06 2.901463e+04 7.610333e+03 -1.223436e+01 2.243729e+00 1.703103e+00
<VARIANCE> 12
 3.693473e+01 4.080622e+03 5.125066e+02 2.150023e+01 2.169901e+01 3.073836e+01 3.057945e+09 7.966703e+07 6.899969e+07 5.584320e+03 6.718750e+03 6.829198e+03
<GCONST> 1.341412e+02
<MIXTURE> 2 1.116727e-01
<MEAN> 12
 -7.922635e+02 1.271847e+02 5.959061e+02 2.388215e+01 1.450342e+01 1.991606e+01 2.841344e+06 2.073526e+05 1.635799e+06 7.872948e+01 1.915596e+02 9.879249e+01
<VARIANCE> 12
 3.577078e+03 2.984902e+04 8.332308e+03 3.887435e+02 1.265987e+02 3.473458e+02 1.787402e+11 5.015491e+10 2.265895e+11 3.785636e+05 3.427503e+05 7.857115e+05
<GCONST> 1.820801e+02
<STATE> 5
<NUMMIXES> 2
<MIXTURE> 1 6.758964e-01
<MEAN> 12
 9.849952e+02 1.048463e+02 -5.636382e+01 1.017549e+01 8.662543e+00 1.053053e+01 4.369710e+06 9.429448e+04 1.746355e+05 -4.173923e+00 -1.638391e+01 -1.887119e+01
<VARIANCE> 12
 8.358271e+02 9.957002e+03 3.562573e+04 4.502715e+01 2.134005e+01 3.882103e+01 6.416203e+10 6.964994e+09 3.080148e+10 8.175175e+03 7.072673e+03 1.263250e+04
<GCONST> 1.580132e+02
<MIXTURE> 2 3.241036e-01
<MEAN> 12
 2.759395e+01 6.231978e+01 4.276338e+02 7.892915e+01 3.958039e+01 5.293093e+01 2.697848e+06 7.446812e+05 1.323916e+06 -3.796879e+02 8.900271e+02 -2.328813e+02
<VARIANCE> 12
 5.980784e+05 1.614373e+05 1.110021e+05 4.754964e+03 8.958904e+02 1.389230e+03 2.987369e+12 1.389928e+12 1.454464e+12 1.714714e+07 8.995958e+06 3.706228e+07
<GCONST> 2.162555e+02
<STATE> 6
<NUMMIXES> 2
<MIXTURE> 1 1.830661e-01
<MEAN> 12
 5.072731e+02 2.039673e+02 -1.088187e+02 2.929850e+02 1.926633e+02 2.554096e+02 4.049022e+06 1.021208e+06 1.298638e+06 1.315532e+04 -9.783750e+03 -5.732832e+04
<VARIANCE> 12
 6.130778e+05 1.773801e+05 2.636232e+05 9.622134e+04 6.551649e+04 6.361784e+04 7.520382e+12 2.653348e+12 4.692098e+12 3.718138e+10 2.918386e+10 1.862068e+10
<GCONST> 2.530901e+02
<MIXTURE> 2 8.169339e-01
<MEAN> 12
 -7.547672e+02 -3.142648e+01 6.791284e+02 9.143835e+00 9.071190e+00 9.704297e+00 2.564127e+06 4.925944e+03 2.075913e+06 -6.559555e+00 -6.487760e+00 7.079308e-01
<VARIANCE> 12
 1.225249e+02 1.023152e+02 9.588908e+01 3.987798e+01 1.951815e+01 2.770181e+01 5.784026e+09 7.854956e+06 3.535841e+09 6.815713e+03 5.770594e+03 6.150272e+03
<GCONST> 1.325858e+02
<TRANSP> 7
 0.000000e+00 3.562113e-01 6.437887e-01 0.000000e+00 0.000000e+00 0.000000e+00 0.000000e+00
 0.000000e+00 9.285995e-01 2.662080e-02 4.477969e-02 0.000000e+00 0.000000e+00 0.000000e+00
 0.000000e+00 0.000000e+00 8.225308e-01 7.494398e-02 1.025252e-01 0.000000e+00 0.000000e+00
 0.000000e+00 0.000000e+00 0.000000e+00 8.889858e-01 9.371707e-02 1.729720e-02 0.000000e+00
 0.000000e+00 0.000000e+00 0.000000e+00 0.000000e+00 7.689810e-01 1.185479e-02 2.191643e-01
 0.000000e+00 0.000000e+00 0.000000e+00 0.000000e+00 0.000000e+00 9.224126e-01 7.758740e-02
 0.000000e+00 0.000000e+00 0.000000e+00 0.000000e+00 0.000000e+00 0.000000e+00 0.000000e+00
<ENDHMM>
