~o
<STREAMINFO> 1 12
<VECSIZE> 12<NULLD><MFCC><DIAGC>
~h "Activity104"
<BEGINHMM>
<NUMSTATES> 7
<STATE> 2
<NUMMIXES> 3
<MIXTURE> 1 6.859755e-01
<MEAN> 12
 9.107292e+01 1.235821e+02 1.018259e+03 9.767826e+00 8.309407e+00 9.966059e+00 4.649133e+04 7.574616e+04 4.666146e+06 -4.795769e+00 1.573630e+00 3.125071e-01
<VARIANCE> 12
 2.028657e+03 1.558559e+03 6.520962e+01 3.681450e+01 2.073038e+01 3.101098e+01 1.050502e+09 1.992996e+09 5.466916e+09 6.436192e+03 5.836977e+03 9.516325e+03
<GCONST> 1.424805e+02
<MIXTURE> 2 2.069756e-01
<MEAN> 12
 -4.419284e+01 5.555365e+01 9.350763e+02 2.657925e+01 1.678933e+01 2.444725e+01 4.648753e+05 3.240858e+05 3.954738e+06 9.156139e+01 1.731958e+02 -2.693627e+01
<VARIANCE> 12
 1.012346e+05 6.890817e+04 4.396194e+03 4.706257e+02 1.414373e+02 3.898671e+02 1.922361e+11 9.262023e+10 3.090011e+11 3.639855e+05 2.697625e+05 6.769773e+05
<GCONST> 1.866064e+02
<MIXTURE> 3 1.070489e-01
<MEAN> 12
 -7.572708e+01 1.187555e+01 8.245151e+02 1.567974e+02 9.084383e+01 1.407969e+02 7.521154e+05 7.749994e+05 3.382752e+06 4.729490e+03 7.978118e+03 5.602229e+03
<VARIANCE> 12
 1.561385e+05 1.716587e+05 7.033584e+04 1.289290e+04 5.919267e+03 1.477648e+04 8.380299e+11 1.712724e+12 2.702410e+12 5.964454e+08 5.988388e+08 1.870407e+09
<GCONST> 2.309935e+02
<STATE> 3
<NUMMIXES> 3
<MIXTURE> 1 1.318948e-01
<MEAN> 12
 1.119444e+02 1.882559e+02 1.009564e+03 1.037684e+01 8.329367e+00 9.887735e+00 5.816249e+04 1.599798e+05 4.586730e+06 -7.113470e+00 -1.444894e+00 -4.198520e+00
<VARIANCE> 12
 3.860005e+02 1.102936e+02 5.218647e+01 3.828365e+01 2.065598e+01 2.724180e+01 3.905737e+08 3.131876e+08 4.304505e+09 7.212039e+03 5.594391e+03 9.722925e+03
<GCONST> 1.348697e+02
<MIXTURE> 2 5.513433e-01
<MEAN> 12
 1.216406e+02 3.844481e+02 9.550835e+02 8.392386e+00 7.562535e+00 9.291094e+00 8.569733e+04 6.684539e+05 4.105220e+06 -5.823503e+00 1.582493e+00 -1.236333e+00
<VARIANCE> 12
 4.243728e+03 7.444169e+02 8.468482e+01 1.880584e+01 1.564786e+01 2.253708e+01 5.113965e+09 9.028135e+09 6.260884e+09 2.662708e+03 3.183946e+03 3.831532e+03
<GCONST> 1.422994e+02
<MIXTURE> 3 3.167619e-01
<MEAN> 12
 9.486410e+01 4.004856e+02 9.503851e+02 1.636868e+01 1.208185e+01 1.353523e+01 6.482766e+04 7.321768e+05 4.066064e+06 -6.795908e+00 3.839827e+01 -8.583070e+00
<VARIANCE> 12
 5.359501e+03 2.309736e+03 3.295357e+02 9.304865e+01 3.901719e+01 4.843179e+01 5.905923e+09 3.030401e+10 2.412415e+10 3.995929e+04 2.263623e+04 4.557001e+04
<GCONST> 1.581512e+02
<STATE> 4
<NUMMIXES> 3
<MIXTURE> 1 5.686131e-01
<MEAN> 12
 1.451377e+02 2.107161e+02 9.997615e+02 1.015382e+01 8.505759e+00 1.015433e+01 1.095093e+05 2.009322e+05 4.498440e+06 -5.904879e+00 3.596947e+00 -5.070327e+00
<VARIANCE> 12
 3.263338e+03 2.483894e+02 1.289553e+02 3.133383e+01 2.083923e+01 2.828890e+01 5.059461e+09 8.983956e+08 1.042027e+10 5.710690e+03 5.655103e+03 7.720722e+03
<GCONST> 1.426132e+02
<MIXTURE> 2 2.432715e-01
<MEAN> 12
 1.335690e+02 1.883169e+02 1.000342e+03 2.436925e+01 1.463021e+01 1.920752e+01 1.198802e+05 1.732892e+05 4.506008e+06 -1.691786e+01 1.219307e+02 -5.438852e+01
<VARIANCE> 12
 8.676993e+03 3.026843e+03 6.187789e+02 3.380662e+02 7.702361e+01 1.545930e+02 1.342702e+10 7.880550e+09 4.957574e+10 1.750229e+05 9.060830e+04 3.213142e+05
<GCONST> 1.676763e+02
<MIXTURE> 3 1.881154e-01
<MEAN> 12
 2.453916e+02 -9.449299e+00 7.433563e+02 7.588031e+01 4.168233e+01 5.579078e+01 1.469064e+06 6.287852e+05 2.755316e+06 5.192292e+02 1.089950e+03 1.955973e+02
<VARIANCE> 12
 2.649795e+05 1.394170e+05 5.933117e+04 4.181886e+03 8.351037e+02 2.092119e+03 1.952085e+12 8.293146e+11 2.060417e+12 1.726172e+07 9.723414e+06 3.411620e+07
<GCONST> 2.142871e+02
<STATE> 5
<NUMMIXES> 3
<MIXTURE> 1 6.931702e-01
<MEAN> 12
 8.062220e+01 3.303488e+02 9.772130e+02 1.115984e+01 9.029337e+00 1.083252e+01 3.806001e+04 5.111561e+05 4.298885e+06 -6.528646e+00 1.125082e+01 -2.853568e+00
<VARIANCE> 12
 1.942719e+03 4.456224e+03 3.603589e+02 4.688377e+01 2.589184e+01 3.397903e+01 1.412471e+09 3.012074e+10 2.799835e+10 9.552490e+03 7.660274e+03 1.323574e+04
<GCONST> 1.513944e+02
<MIXTURE> 2 1.785999e-01
<MEAN> 12
 -4.778819e+02 -1.895344e+02 8.757944e+02 1.171522e+01 9.459331e+00 1.196230e+01 1.036770e+06 1.676286e+05 3.452976e+06 -2.532607e+00 3.855138e+00 -7.078437e+00
<VARIANCE> 12
 2.011238e+03 1.325080e+03 3.041923e+02 5.747211e+01 2.862099e+01 4.481418e+01 3.851897e+10 3.580929e+09 1.871685e+10 1.511396e+04 1.107290e+04 2.465262e+04
<GCONST> 1.528501e+02
<MIXTURE> 3 1.282298e-01
<MEAN> 12
 7.504562e+01 4.131350e+02 9.294480e+02 3.827991e+01 2.832514e+01 3.234391e+01 7.813451e+04 9.131878e+05 3.929425e+06 8.619849e+01 2.895086e+02 3.658262e+01
<VARIANCE> 12
 1.143022e+04 3.217377e+04 9.211577e+03 6.170604e+02 3.375857e+02 4.659466e+02 1.264222e+10 4.797929e+11 5.649594e+11 1.591982e+06 1.586025e+06 2.621539e+06
<GCONST> 1.898500e+02
<STATE> 6
<NUMMIXES> 3
<MIXTURE> 1 7.015708e-01
<MEAN> 12
 2.457844e+02 2.542925e+02 9.716987e+02 1.142137e+01 8.930247e+00 1.098179e+01 2.745726e+05 2.930741e+05 4.249329e+06 -4.251067e+00 1.374765e+01 -6.355975e+00
<VARIANCE> 12
 5.960351e+02 4.612837e+02 9.569434e+01 4.772110e+01 2.261240e+01 3.506813e+01 2.985288e+09 2.447046e+09 7.310173e+09 9.603810e+03 7.829859e+03 1.762202e+04
<GCONST> 1.437413e+02
<MIXTURE> 2 1.199283e-01
<MEAN> 12
 9.889670e+01 6.360919e+02 4.987104e+02 2.062944e+02 1.139486e+02 2.058861e+02 7.154640e+05 3.385681e+06 1.919839e+06 1.483904e+03 1.644286e+04 -3.124191e+03
<VARIANCE> 12
 1.322226e+05 3.467910e+05 1.592952e+05 3.668736e+04 1.074926e+04 5.670143e+04 1.064293e+12 5.951366e+12 4.169417e+12 5.767064e+09 1.006061e+10 1.154617e+10
<GCONST> 2.441638e+02
<MIXTURE> 3 1.785009e-01
<MEAN> 12
 2.350062e+01 1.017972e+03 1.286864e+02 5.245118e+01 2.719659e+01 5.347355e+01 6.030920e+04 4.683586e+06 2.252529e+05 3.153271e+02 -1.155854e+02 6.126514e+02
<VARIANCE> 12
 1.231375e+04 4.451467e+03 3.295138e+04 1.392223e+03 4.759913e+02 1.751935e+03 5.106696e+09 3.407582e+11 1.391237e+11 2.931246e+06 4.240550e+06 1.596150e+07
<GCONST> 1.924530e+02
<TRANSP> 7
 0.000000e+00 4.116430e-01 5.883570e-01 0.000000e+00 0.000000e+00 0.000000e+00 0.000000e+00
 0.000000e+00 8.642299e-01 1.033577e-02 1.254344e-01 0.000000e+00 0.000000e+00 0.000000e+00
 0.000000e+00 0.000000e+00 9.256675e-01 7.671909e-03 6.666054e-02 0.000000e+00 0.000000e+00
 0.000000e+00 0.000000e+00 0.000000e+00 8.535287e-01 1.030540e-01 4.341735e-02 0.000000e+00
 0.000000e+00 0.000000e+00 0.000000e+00 0.000000e+00 7.842970e-01 5.019634e-03 2.106834e-01
 0.000000e+00 0.000000e+00 0.000000e+00 0.000000e+00 0.000000e+00 9.034141e-01 9.658595e-02
 0.000000e+00 0.000000e+00 0.000000e+00 0.000000e+00 0.000000e+00 0.000000e+00 0.000000e+00
<ENDHMM>
