~o
<STREAMINFO> 1 12
<VECSIZE> 12<NULLD><MFCC><DIAGC>
~h "Activity102"
<BEGINHMM>
<NUMSTATES> 7
<STATE> 2
<NUMMIXES> 3
<MIXTURE> 1 3.019614e-01
<MEAN> 12
 2.528725e+01 9.800069e+02 5.290229e+02 5.036329e+02 3.573967e+02 5.972319e+02 8.371144e+05 4.684931e+06 2.899970e+06 6.081079e+04 6.378066e+04 -3.902345e+04
<VARIANCE> 12
 9.309817e+04 8.082456e+04 2.886292e+05 1.260233e+05 6.053668e+04 1.349625e+05 9.188362e+11 8.369194e+12 7.884880e+12 5.149952e+10 1.037807e+11 1.142115e+11
<GCONST> 2.544265e+02
<MIXTURE> 2 2.968260e-01
<MEAN> 12
 6.724653e+00 1.032982e+03 5.947231e+01 3.811386e+01 1.979302e+01 3.453630e+01 3.888600e+04 4.804078e+06 1.028903e+05 1.352126e+02 7.461409e+01 -8.678551e+01
<VARIANCE> 12
 8.269977e+03 5.112194e+02 1.910267e+04 9.529069e+02 1.677214e+02 6.423356e+02 1.662332e+09 4.414901e+10 1.461779e+10 5.698691e+05 5.636886e+05 2.723706e+06
<GCONST> 1.760770e+02
<MIXTURE> 3 4.012125e-01
<MEAN> 12
 -3.233990e+01 1.017185e+03 1.100779e+02 1.591462e+02 1.086779e+02 1.110158e+02 2.077217e+05 4.864676e+06 4.227749e+05 5.960518e+02 2.327759e+03 -1.267509e+03
<VARIANCE> 12
 3.811322e+04 4.506926e+04 7.965359e+04 1.010072e+04 4.258073e+03 5.653797e+03 4.750702e+10 3.803804e+12 2.765975e+11 3.003638e+08 1.483874e+08 3.237893e+08
<GCONST> 2.186497e+02
<STATE> 3
<NUMMIXES> 3
<MIXTURE> 1 2.170282e-01
<MEAN> 12
 6.454218e+01 8.480276e+02 5.306386e+02 2.388469e+02 1.445705e+02 2.126991e+02 3.337533e+05 3.866224e+06 1.760427e+06 -2.462057e+02 4.116259e+03 -3.942524e+03
<VARIANCE> 12
 5.267703e+04 1.397376e+05 1.043506e+05 2.351880e+04 9.215194e+03 2.016539e+04 9.671869e+10 2.585504e+12 2.537196e+12 1.389298e+09 8.334406e+08 2.754568e+09
<GCONST> 2.312031e+02
<MIXTURE> 2 2.562057e-01
<MEAN> 12
 3.740677e+01 8.409600e+02 4.380775e+02 3.686037e+01 1.770164e+01 2.601494e+01 7.796196e+04 3.668336e+06 1.083121e+06 2.470042e+01 -4.384998e+01 8.959873e+00
<VARIANCE> 12
 1.574838e+04 1.079595e+05 4.873375e+04 5.387005e+02 1.151156e+02 2.715716e+02 7.656274e+09 1.650773e+12 1.470283e+12 3.188472e+05 1.744863e+05 7.782708e+05
<GCONST> 1.879564e+02
<MIXTURE> 3 5.267661e-01
<MEAN> 12
 6.268724e+01 9.761233e+02 3.443786e+02 1.002292e+02 4.300372e+01 6.657491e+01 9.038384e+04 4.303328e+06 5.878609e+05 1.015721e+01 -5.244026e+02 -1.122104e+03
<VARIANCE> 12
 1.392311e+04 3.399413e+03 1.147931e+04 3.235518e+03 6.862653e+02 1.657884e+03 7.435929e+09 2.572618e+11 1.246007e+11 1.408286e+07 7.697847e+06 3.985045e+07
<GCONST> 1.954709e+02
<STATE> 4
<NUMMIXES> 3
<MIXTURE> 1 2.102709e-01
<MEAN> 12
 1.163878e+02 1.345651e+03 4.760516e+02 4.421198e+02 2.481653e+02 4.960773e+02 6.122400e+05 8.338787e+06 2.109642e+06 3.177021e+04 -2.723310e+04 -1.174012e+05
<VARIANCE> 12
 7.329409e+04 4.022945e+04 1.956650e+05 4.558698e+04 1.692059e+04 5.690023e+04 3.468503e+11 5.950152e+12 5.097061e+12 8.034202e+09 1.250604e+10 3.551702e+10
<GCONST> 2.430520e+02
<MIXTURE> 2 4.622488e-01
<MEAN> 12
 4.669255e+01 1.054552e+03 6.823528e+01 1.046635e+02 5.193145e+01 8.039173e+01 8.510001e+04 5.023027e+06 7.940121e+04 2.406529e+02 2.658687e+02 -3.367905e+02
<VARIANCE> 12
 1.410150e+04 4.033535e+03 1.160168e+04 4.293784e+03 9.230674e+02 2.305908e+03 7.895115e+09 3.752443e+11 6.181269e+09 2.741480e+07 1.495051e+07 6.765010e+07
<GCONST> 1.958676e+02
<MIXTURE> 3 3.274803e-01
<MEAN> 12
 5.671751e+01 1.143343e+03 5.265284e+02 1.708524e+02 1.145228e+02 2.584273e+02 1.191996e+05 5.964794e+06 1.835800e+06 2.287020e+03 7.458138e+03 -1.000350e+04
<VARIANCE> 12
 1.681926e+04 1.801515e+04 1.229494e+05 7.820557e+03 3.376857e+03 1.795119e+04 8.864202e+09 1.880764e+12 3.447061e+12 2.695938e+08 7.026906e+08 1.610695e+09
<GCONST> 2.212072e+02
<STATE> 5
<NUMMIXES> 3
<MIXTURE> 1 2.418635e-01
<MEAN> 12
 -1.249502e+02 1.380277e+03 -6.801780e+01 3.306175e+02 1.685499e+02 1.239681e+02 6.958842e+05 8.897912e+06 1.239557e+05 3.637555e+03 5.112319e+03 3.739722e+02
<VARIANCE> 12
 1.024653e+05 6.754245e+04 1.892699e+04 4.324796e+04 7.445276e+03 4.298582e+03 3.173494e+11 9.768670e+12 1.431217e+10 2.724649e+09 3.637822e+08 1.476852e+09
<GCONST> 2.248454e+02
<MIXTURE> 2 3.227906e-01
<MEAN> 12
 4.022911e+01 7.619120e+02 6.826068e+02 2.810167e+02 2.282699e+02 5.017689e+02 3.434051e+05 2.736336e+06 3.441214e+06 1.871104e+04 8.379347e+03 1.867571e+04
<VARIANCE> 12
 5.504622e+04 2.883962e+04 2.577240e+05 2.442372e+04 2.012035e+04 6.660940e+04 9.011094e+10 1.308019e+12 9.350875e+12 3.282333e+09 1.112474e+10 2.170237e+10
<GCONST> 2.386543e+02
<MIXTURE> 3 4.353459e-01
<MEAN> 12
 -1.277074e+02 9.510732e+02 -5.760183e+01 1.160622e+02 1.068989e+02 6.863930e+01 1.807502e+05 4.305992e+06 3.043262e+05 7.444924e+02 1.710432e+03 -7.079037e+02
<VARIANCE> 12
 2.072068e+04 5.045805e+04 6.376604e+04 4.325169e+03 3.639639e+03 1.779816e+03 2.949430e+10 3.778633e+12 1.132255e+11 1.477410e+08 5.430152e+07 4.922656e+07
<GCONST> 2.107949e+02
<STATE> 6
<NUMMIXES> 3
<MIXTURE> 1 2.494820e-01
<MEAN> 12
 -1.133009e+01 1.071697e+03 4.390063e+02 5.869021e+02 3.986185e+02 6.357752e+02 1.034640e+06 5.611614e+06 2.474390e+06 5.901627e+04 6.060577e+04 -6.945035e+04
<VARIANCE> 12
 1.219737e+05 9.379553e+04 2.673401e+05 1.068824e+05 6.003179e+04 1.560948e+05 9.164712e+11 1.054588e+13 7.581114e+12 5.051920e+10 1.109416e+11 1.278677e+11
<GCONST> 2.550909e+02
<MIXTURE> 2 4.055670e-01
<MEAN> 12
 5.009141e+01 9.953440e+02 2.629216e+02 7.700819e+01 3.466508e+01 5.183972e+01 5.957341e+04 4.470134e+06 4.218635e+05 3.649898e+01 -3.795697e+02 -4.765159e+02
<VARIANCE> 12
 9.375979e+03 2.588055e+03 2.417899e+04 2.581472e+03 5.508143e+02 1.096050e+03 3.713789e+09 2.050232e+11 1.080460e+11 6.905014e+06 3.281169e+06 1.571683e+07
<GCONST> 1.911285e+02
<MIXTURE> 3 3.449509e-01
<MEAN> 12
 1.903173e+01 1.009125e+03 2.545007e+02 1.859761e+02 1.188959e+02 1.565464e+02 1.856045e+05 4.740568e+06 8.438670e+05 1.666930e+03 2.988749e+03 -3.531857e+03
<VARIANCE> 12
 3.154328e+04 3.399262e+04 1.181972e+05 1.193348e+04 5.665732e+03 1.137143e+04 3.288642e+10 2.822405e+12 1.027662e+12 4.612311e+08 3.071796e+08 7.495079e+08
<GCONST> 2.223663e+02
<TRANSP> 7
 0.000000e+00 7.177743e-01 2.822258e-01 0.000000e+00 0.000000e+00 0.000000e+00 0.000000e+00
 0.000000e+00 8.229504e-01 1.019969e-01 7.505273e-02 0.000000e+00 0.000000e+00 0.000000e+00
 0.000000e+00 0.000000e+00 7.928619e-01 1.859635e-01 2.117467e-02 0.000000e+00 0.000000e+00
 0.000000e+00 0.000000e+00 0.000000e+00 7.318177e-01 2.421101e-01 2.607227e-02 0.000000e+00
 0.000000e+00 0.000000e+00 0.000000e+00 0.000000e+00 7.521780e-01 2.100700e-01 3.775210e-02
 0.000000e+00 0.000000e+00 0.000000e+00 0.000000e+00 0.000000e+00 8.420203e-01 1.579797e-01
 0.000000e+00 0.000000e+00 0.000000e+00 0.000000e+00 0.000000e+00 0.000000e+00 0.000000e+00
<ENDHMM>
