~o
<STREAMINFO> 1 12
<VECSIZE> 12<NULLD><MFCC><DIAGC>
~h "Activity101"
<BEGINHMM>
<NUMSTATES> 7
<STATE> 2
<NUMMIXES> 3
<MIXTURE> 1 4.890209e-01
<MEAN> 12
 -1.333157e+00 1.033025e+03 9.745874e+01 3.568098e+01 1.847637e+01 3.259446e+01 3.418485e+04 4.803638e+06 1.237650e+05 1.330031e+02 6.618027e+01 -2.223842e-02
<VARIANCE> 12
 7.375884e+03 3.226955e+02 1.783274e+04 4.865175e+02 1.152969e+02 4.041122e+02 1.446663e+09 2.788777e+10 1.560653e+10 3.728229e+05 3.453943e+05 1.323252e+06
<GCONST> 1.717543e+02
<MIXTURE> 2 3.582193e-01
<MEAN> 12
 -1.196208e+01 9.961730e+02 2.409262e+02 9.318456e+01 4.824802e+01 7.736274e+01 1.038582e+05 4.498560e+06 4.319527e+05 4.188459e+02 5.044894e+01 -2.526814e+02
<VARIANCE> 12
 2.070573e+04 7.122003e+03 3.685880e+04 3.709879e+03 9.631169e+02 2.550228e+03 1.427663e+10 5.504452e+11 1.958418e+11 2.133530e+07 1.635229e+07 5.949770e+07
<GCONST> 2.021150e+02
<MIXTURE> 3 1.527598e-01
<MEAN> 12
 -3.051358e+01 9.775768e+02 4.265600e+02 2.812430e+02 1.983493e+02 3.179156e+02 3.901413e+05 4.529138e+06 1.580720e+06 1.892872e+04 3.504844e+04 5.557312e+03
<VARIANCE> 12
 6.010041e+04 5.000709e+04 1.426444e+05 4.204136e+04 2.352784e+04 8.443852e+04 3.307576e+11 4.032605e+12 2.949551e+12 6.217815e+09 4.686386e+10 2.293838e+10
<GCONST> 2.430425e+02
<STATE> 3
<NUMMIXES> 3
<MIXTURE> 1 3.649592e-01
<MEAN> 12
 -3.404083e+01 1.037790e+03 -2.468740e+01 1.218350e+01 8.980751e+00 1.338069e+01 2.384852e+04 4.846794e+06 2.571131e+04 7.363474e-01 1.397168e+01 4.698788e+00
<VARIANCE> 12
 4.124410e+03 5.803868e+01 5.085781e+03 5.908505e+01 2.472687e+01 6.244255e+01 6.212551e+08 5.061150e+09 7.360836e+08 1.019315e+04 1.269410e+04 2.668146e+04
<GCONST> 1.462747e+02
<MIXTURE> 2 4.790060e-01
<MEAN> 12
 2.962100e+01 1.004705e+03 2.944059e+02 1.571870e+01 1.011992e+01 1.410789e+01 2.432366e+04 4.543353e+06 3.994786e+05 -2.731847e+01 -2.210705e+01 -1.146948e+01
<VARIANCE> 12
 4.507681e+03 2.026014e+02 2.085957e+03 1.004958e+02 3.117162e+01 6.720094e+01 6.066622e+08 1.652360e+10 1.479771e+10 2.197832e+04 1.739319e+04 4.217061e+04
<GCONST> 1.532600e+02
<MIXTURE> 3 1.560348e-01
<MEAN> 12
 2.245306e+01 9.179983e+02 4.188416e+02 3.310094e+01 1.824526e+01 2.545994e+01 4.215730e+04 3.885637e+06 1.054769e+06 5.082170e+00 -2.813389e+01 -9.182080e+01
<VARIANCE> 12
 8.678187e+03 2.074819e+04 5.888197e+04 4.490703e+02 1.381314e+02 2.461274e+02 2.811615e+09 8.901854e+11 9.025473e+11 3.753575e+05 2.197729e+05 7.737406e+05
<GCONST> 1.840830e+02
<STATE> 4
<NUMMIXES> 3
<MIXTURE> 1 3.598008e-01
<MEAN> 12
 4.831818e+01 9.853868e+02 3.556986e+02 4.391550e+01 1.955087e+01 3.189200e+01 4.738933e+04 4.372125e+06 5.872630e+05 -1.227888e+01 -2.089963e+02 -2.376826e+02
<VARIANCE> 12
 7.854592e+03 5.854374e+02 3.874207e+03 7.349493e+02 1.362820e+02 3.691323e+02 2.404924e+09 4.639144e+10 3.706257e+10 6.493914e+05 3.844111e+05 2.016854e+06
<GCONST> 1.743409e+02
<MIXTURE> 2 3.286313e-01
<MEAN> 12
 2.123867e+01 9.069775e+02 5.177663e+02 3.224722e+01 1.760020e+01 2.336224e+01 4.833453e+04 3.706793e+06 1.221304e+06 -6.949104e+00 -6.290530e+01 -8.670332e+01
<VARIANCE> 12
 1.011755e+04 1.119413e+03 3.282019e+03 4.488761e+02 1.217385e+02 2.147587e+02 3.850727e+09 7.287280e+10 7.419949e+10 3.014142e+05 1.687973e+05 5.672726e+05
<GCONST> 1.726863e+02
<MIXTURE> 3 3.115679e-01
<MEAN> 12
 1.272237e+01 9.095204e+02 4.926754e+02 1.063956e+02 6.722418e+01 8.748827e+01 1.179112e+05 3.763980e+06 1.235614e+06 5.218132e+02 2.248731e+02 -1.299835e+03
<VARIANCE> 12
 2.316359e+04 9.050300e+03 3.098025e+04 4.622911e+03 2.181603e+03 3.528486e+03 2.141122e+10 5.977517e+11 5.445061e+11 5.802383e+07 4.509989e+07 1.098138e+08
<GCONST> 2.077935e+02
<STATE> 5
<NUMMIXES> 3
<MIXTURE> 1 4.168324e-01
<MEAN> 12
 -5.001950e+01 1.021817e+03 1.328659e+02 1.907131e+01 1.237076e+01 1.754342e+01 7.118730e+04 4.699568e+06 1.700366e+05 7.042931e+00 -3.057298e+00 -1.555329e+01
<VARIANCE> 12
 1.327420e+04 2.362577e+02 2.010117e+04 1.641462e+02 5.434029e+01 1.285537e+02 5.726338e+09 1.994390e+10 1.521042e+10 5.474370e+04 5.373558e+04 1.397566e+05
<GCONST> 1.641536e+02
<MIXTURE> 2 2.707711e-01
<MEAN> 12
 2.600062e+01 8.033672e+02 5.977682e+02 2.012215e+02 1.592835e+02 2.037011e+02 3.037742e+05 3.261787e+06 2.002132e+06 4.304917e+03 1.148049e+04 3.581674e+03
<VARIANCE> 12
 5.562350e+04 7.783294e+04 8.320477e+04 2.074849e+04 1.675482e+04 3.153828e+04 2.295023e+11 2.563347e+12 2.259924e+12 2.319372e+09 4.416290e+09 4.285945e+09
<GCONST> 2.347275e+02
<MIXTURE> 3 3.123965e-01
<MEAN> 12
 3.938853e+01 5.568732e+02 8.427354e+02 3.624782e+01 2.560492e+01 2.831712e+01 5.757138e+04 1.631516e+06 3.294840e+06 -3.549072e+01 -9.793982e+00 -9.281760e+01
<VARIANCE> 12
 1.098644e+04 5.237493e+04 2.190328e+04 6.539211e+02 3.179898e+02 4.229494e+02 4.803288e+09 9.626366e+11 1.156183e+12 1.298177e+06 7.475724e+05 1.566761e+06
<GCONST> 1.900390e+02
<STATE> 6
<NUMMIXES> 3
<MIXTURE> 1 3.764236e-01
<MEAN> 12
 -2.110007e+01 9.579057e+02 4.162565e+02 1.989121e+01 1.123917e+01 1.554527e+01 6.066441e+04 4.130694e+06 7.876844e+05 -1.114181e+01 -2.389159e+01 -3.848611e+01
<VARIANCE> 12
 1.298280e+04 3.505913e+02 1.758514e+03 1.848043e+02 4.102016e+01 8.057787e+01 6.715488e+09 2.607139e+10 2.400867e+10 4.368604e+04 2.568765e+04 8.828736e+04
<GCONST> 1.609207e+02
<MIXTURE> 2 2.959679e-01
<MEAN> 12
 -2.635981e+01 8.967261e+02 5.412145e+02 1.309081e+01 9.651440e+00 1.261267e+01 2.603884e+04 3.621356e+06 1.325489e+06 -9.960277e+00 -8.938889e+00 -7.204302e+00
<VARIANCE> 12
 5.072296e+03 6.277526e+02 1.634285e+03 6.888081e+01 3.026015e+01 5.267986e+01 7.068110e+08 4.058824e+10 3.932764e+10 1.391767e+04 1.263015e+04 2.347600e+04
<GCONST> 1.542803e+02
<MIXTURE> 3 3.276085e-01
<MEAN> 12
 2.778206e+01 9.455599e+02 4.208725e+02 6.785777e+01 3.392093e+01 4.736687e+01 9.191502e+04 4.041678e+06 8.874689e+05 5.828435e+01 -3.057303e+02 -5.578864e+02
<VARIANCE> 12
 1.859310e+04 4.019048e+03 1.983127e+04 1.850759e+03 5.152044e+02 9.158387e+02 1.289635e+10 2.873571e+11 2.315988e+11 5.432567e+06 3.168201e+06 1.331497e+07
<GCONST> 1.933801e+02
<TRANSP> 7
 0.000000e+00 4.722756e-01 5.277244e-01 0.000000e+00 0.000000e+00 0.000000e+00 0.000000e+00
 0.000000e+00 8.697457e-01 4.792631e-02 8.232801e-02 0.000000e+00 0.000000e+00 0.000000e+00
 0.000000e+00 0.000000e+00 8.487033e-01 8.593243e-02 6.536434e-02 0.000000e+00 0.000000e+00
 0.000000e+00 0.000000e+00 0.000000e+00 8.578427e-01 6.811503e-02 7.404231e-02 0.000000e+00
 0.000000e+00 0.000000e+00 0.000000e+00 0.000000e+00 7.903734e-01 5.202011e-02 1.576064e-01
 0.000000e+00 0.000000e+00 0.000000e+00 0.000000e+00 0.000000e+00 8.627372e-01 1.372628e-01
 0.000000e+00 0.000000e+00 0.000000e+00 0.000000e+00 0.000000e+00 0.000000e+00 0.000000e+00
<ENDHMM>
