~o
<STREAMINFO> 1 12
<VECSIZE> 12<NULLD><MFCC><DIAGC>
~h "Activity101"
<BEGINHMM>
<NUMSTATES> 7
<STATE> 2
<NUMMIXES> 3
<MIXTURE> 1 4.890209e-01
<MEAN> 12
 -1.333157e+00 1.033025e+03 9.745874e+01 3.568098e+01 1.847637e+01 3.259446e+01 3.418485e+04 4.803638e+06 1.237650e+05 1.330031e+02 6.618027e+01 -2.223842e-02
<VARIANCE> 12
 7.375884e+03 3.226955e+02 1.783274e+04 4.865175e+02 1.152969e+02 4.041122e+02 1.446663e+09 2.788777e+10 1.560653e+10 3.728229e+05 3.453943e+05 1.323252e+06
<GCONST> 1.717543e+02
<MIXTURE> 2 3.582193e-01
<MEAN> 12
 -1.196208e+01 9.961730e+02 2.409262e+02 9.318456e+01 4.824802e+01 7.736274e+01 1.038582e+05 4.498560e+06 4.319527e+05 4.188459e+02 5.044894e+01 -2.526814e+02
<VARIANCE> 12
 2.070573e+04 7.122003e+03 3.685880e+04 3.709879e+03 9.631169e+02 2.550228e+03 1.427663e+10 5.504452e+11 1.958418e+11 2.133530e+07 1.635229e+07 5.949770e+07
<GCONST> 2.021150e+02
<MIXTURE> 3 1.527598e-01
<MEAN> 12
 -3.051358e+01 9.775768e+02 4.265600e+02 2.812430e+02 1.983493e+02 3.179156e+02 3.901413e+05 4.529138e+06 1.580720e+06 1.892872e+04 3.504844e+04 5.557312e+03
<VARIANCE> 12
 6.010041e+04 5.000709e+04 1.426444e+05 4.204136e+04 2.352784e+04 8.443852e+04 3.307576e+11 4.032605e+12 2.949551e+12 6.217815e+09 4.686386e+10 2.293838e+10
<GCONST> 2.430425e+02
<STATE> 3
<NUMMIXES> 3
<MIXTURE> 1 3.649592e-01
<MEAN> 12
 -3.404083e+01 1.037790e+03 -2.468740e+01 1.218350e+01 8.980751e+00 1.338069e+01 2.384852e+04 4.846794e+06 2.571131e+04 7.363474e-01 1.397168e+01 4.698788e+00
<VARIANCE> 12
 4.124410e+03 5.803868e+01 5.085781e+03 5.908505e+01 2.472687e+01 6.244255e+01 6.212551e+08 5.061150e+09 7.360836e+08 1.019315e+04 1.269410e+04 2.668146e+04
<GCONST> 1.462747e+02
<MIXTURE> 2 4.790060e-01
<MEAN> 12
 2.962100e+01 1.004705e+03 2.944059e+02 1.571870e+01 1.011992e+01 1.410789e+01 2.432366e+04 4.543353e+06 3.994786e+05 -2.731847e+01 -2.210705e+01 -1.146948e+01
<VARIANCE> 12
 4.507681e+03 2.026014e+02 2.085957e+03 1.004958e+02 3.117162e+01 6.720094e+01 6.066622e+08 1.652360e+10 1.479771e+10 2.197832e+04 1.739319e+04 4.217061e+04
<GCONST> 1.532600e+02
<MIXTURE> 3 1.560348e-01
<MEAN> 12
 2.245306e+01 9.179983e+02 4.188416e+02 3.310094e+01 1.824526e+01 2.545994e+01 4.215730e+04 3.885637e+06 1.054769e+06 5.082170e+00 -2.813389e+01 -9.182080e+01
<VARIANCE> 12
 8.678187e+03 2.074819e+04 5.888197e+04 4.490703e+02 1.381314e+02 2.461274e+02 2.811615e+09 8.901854e+11 9.025473e+11 3.753575e+05 2.197729e+05 7.737406e+05
<GCONST> 1.840830e+02
<STATE> 4
<NUMMIXES> 3
<MIXTURE> 1 3.598008e-01
<MEAN> 12
 4.831818e+01 9.853868e+02 3.556986e+02 4.391550e+01 1.955087e+01 3.189200e+01 4.738933e+04 4.372125e+06 5.872630e+05 -1.227888e+01 -2.089963e+02 -2.376826e+02
<VARIANCE> 12
 7.854592e+03 5.854374e+02 3.874207e+03 7.349493e+02 1.362820e+02 3.691323e+02 2.404924e+09 4.639144e+10 3.706257e+10 6.493914e+05 3.844111e+05 2.016854e+06
<GCONST> 1.743409e+02
<MIXTURE> 2 3.286313e-01
<MEAN> 12
 2.123867e+01 9.069775e+02 5.177663e+02 3.224722e+01 1.760020e+01 2.336224e+01 4.833453e+04 3.706793e+06 1.221304e+06 -6.949104e+00 -6.290530e+01 -8.670332e+01
<VARIANCE> 12
 1.011755e+04 1.119413e+03 3.282019e+03 4.488761e+02 1.217385e+02 2.147587e+02 3.850727e+09 7.287280e+10 7.419949e+10 3.014142e+05 1.687973e+05 5.672726e+05
<GCONST> 1.726863e+02
<MIXTURE> 3 3.115679e-01
<MEAN> 12
 1.272237e+01 9.095204e+02 4.926754e+02 1.063956e+02 6.722418e+01 8.748827e+01 1.179112e+05 3.763980e+06 1.235614e+06 5.218132e+02 2.248731e+02 -1.299835e+03
<VARIANCE> 12
 2.316359e+04 9.050300e+03 3.098025e+04 4.622911e+03 2.181603e+03 3.528486e+03 2.141122e+10 5.977517e+11 5.445061e+11 5.802383e+07 4.509989e+07 1.098138e+08
<GCONST> 2.077935e+02
<STATE> 5
<NUMMIXES> 3
<MIXTURE> 1 4.168324e-01
<MEAN> 12
 -5.001950e+01 1.021817e+03 1.328659e+02 1.907131e+01 1.237076e+01 1.754342e+01 7.118730e+04 4.699568e+06 1.700366e+05 7.042931e+00 -3.057298e+00 -1.555329e+01
<VARIANCE> 12
 1.327420e+04 2.362577e+02 2.010117e+04 1.641462e+02 5.434029e+01 1.285537e+02 5.726338e+09 1.994390e+10 1.521042e+10 5.474370e+04 5.373558e+04 1.397566e+05
<GCONST> 1.641536e+02
<MIXTURE> 2 2.707711e-01
<MEAN> 12
 2.600062e+01 8.033672e+02 5.977682e+02 2.012215e+02 1.592835e+02 2.037011e+02 3.037742e+05 3.261787e+06 2.002132e+06 4.304917e+03 1.148049e+04 3.581674e+03
<VARIANCE> 12
 5.562350e+04 7.783294e+04 8.320477e+04 2.074849e+04 1.675482e+04 3.153828e+04 2.295023e+11 2.563347e+12 2.259924e+12 2.319372e+09 4.416290e+09 4.285945e+09
<GCONST> 2.347275e+02
<MIXTURE> 3 3.123965e-01
<MEAN> 12
 3.938853e+01 5.568732e+02 8.427354e+02 3.624782e+01 2.560492e+01 2.831712e+01 5.757138e+04 1.631516e+06 3.294840e+06 -3.549072e+01 -9.793982e+00 -9.281760e+01
<VARIANCE> 12
 1.098644e+04 5.237493e+04 2.190328e+04 6.539211e+02 3.179898e+02 4.229494e+02 4.803288e+09 9.626366e+11 1.156183e+12 1.298177e+06 7.475724e+05 1.566761e+06
<GCONST> 1.900390e+02
<STATE> 6
<NUMMIXES> 3
<MIXTURE> 1 3.764236e-01
<MEAN> 12
 -2.110007e+01 9.579057e+02 4.162565e+02 1.989121e+01 1.123917e+01 1.554527e+01 6.066441e+04 4.130694e+06 7.876844e+05 -1.114181e+01 -2.389159e+01 -3.848611e+01
<VARIANCE> 12
 1.298280e+04 3.505913e+02 1.758514e+03 1.848043e+02 4.102016e+01 8.057787e+01 6.715488e+09 2.607139e+10 2.400867e+10 4.368604e+04 2.568765e+04 8.828736e+04
<GCONST> 1.609207e+02
<MIXTURE> 2 2.959679e-01
<MEAN> 12
 -2.635981e+01 8.967261e+02 5.412145e+02 1.309081e+01 9.651440e+00 1.261267e+01 2.603884e+04 3.621356e+06 1.325489e+06 -9.960277e+00 -8.938889e+00 -7.204302e+00
<VARIANCE> 12
 5.072296e+03 6.277526e+02 1.634285e+03 6.888081e+01 3.026015e+01 5.267986e+01 7.068110e+08 4.058824e+10 3.932764e+10 1.391767e+04 1.263015e+04 2.347600e+04
<GCONST> 1.542803e+02
<MIXTURE> 3 3.276085e-01
<MEAN> 12
 2.778206e+01 9.455599e+02 4.208725e+02 6.785777e+01 3.392093e+01 4.736687e+01 9.191502e+04 4.041678e+06 8.874689e+05 5.828435e+01 -3.057303e+02 -5.578864e+02
<VARIANCE> 12
 1.859310e+04 4.019048e+03 1.983127e+04 1.850759e+03 5.152044e+02 9.158387e+02 1.289635e+10 2.873571e+11 2.315988e+11 5.432567e+06 3.168201e+06 1.331497e+07
<GCONST> 1.933801e+02
<TRANSP> 7
 0.000000e+00 4.722756e-01 5.277244e-01 0.000000e+00 0.000000e+00 0.000000e+00 0.000000e+00
 0.000000e+00 8.697457e-01 4.792631e-02 8.232801e-02 0.000000e+00 0.000000e+00 0.000000e+00
 0.000000e+00 0.000000e+00 8.487033e-01 8.593243e-02 6.536434e-02 0.000000e+00 0.000000e+00
 0.000000e+00 0.000000e+00 0.000000e+00 8.578427e-01 6.811503e-02 7.404231e-02 0.000000e+00
 0.000000e+00 0.000000e+00 0.000000e+00 0.000000e+00 7.903734e-01 5.202011e-02 1.576064e-01
 0.000000e+00 0.000000e+00 0.000000e+00 0.000000e+00 0.000000e+00 8.627372e-01 1.372628e-01
 0.000000e+00 0.000000e+00 0.000000e+00 0.000000e+00 0.000000e+00 0.000000e+00 0.000000e+00
<ENDHMM>
~h "Activity102"
<BEGINHMM>
<NUMSTATES> 7
<STATE> 2
<NUMMIXES> 3
<MIXTURE> 1 3.019614e-01
<MEAN> 12
 2.528725e+01 9.800069e+02 5.290229e+02 5.036329e+02 3.573967e+02 5.972319e+02 8.371144e+05 4.684931e+06 2.899970e+06 6.081079e+04 6.378066e+04 -3.902345e+04
<VARIANCE> 12
 9.309817e+04 8.082456e+04 2.886292e+05 1.260233e+05 6.053668e+04 1.349625e+05 9.188362e+11 8.369194e+12 7.884880e+12 5.149952e+10 1.037807e+11 1.142115e+11
<GCONST> 2.544265e+02
<MIXTURE> 2 2.968260e-01
<MEAN> 12
 6.724653e+00 1.032982e+03 5.947231e+01 3.811386e+01 1.979302e+01 3.453630e+01 3.888600e+04 4.804078e+06 1.028903e+05 1.352126e+02 7.461409e+01 -8.678551e+01
<VARIANCE> 12
 8.269977e+03 5.112194e+02 1.910267e+04 9.529069e+02 1.677214e+02 6.423356e+02 1.662332e+09 4.414901e+10 1.461779e+10 5.698691e+05 5.636886e+05 2.723706e+06
<GCONST> 1.760770e+02
<MIXTURE> 3 4.012125e-01
<MEAN> 12
 -3.233990e+01 1.017185e+03 1.100779e+02 1.591462e+02 1.086779e+02 1.110158e+02 2.077217e+05 4.864676e+06 4.227749e+05 5.960518e+02 2.327759e+03 -1.267509e+03
<VARIANCE> 12
 3.811322e+04 4.506926e+04 7.965359e+04 1.010072e+04 4.258073e+03 5.653797e+03 4.750702e+10 3.803804e+12 2.765975e+11 3.003638e+08 1.483874e+08 3.237893e+08
<GCONST> 2.186497e+02
<STATE> 3
<NUMMIXES> 3
<MIXTURE> 1 2.170282e-01
<MEAN> 12
 6.454218e+01 8.480276e+02 5.306386e+02 2.388469e+02 1.445705e+02 2.126991e+02 3.337533e+05 3.866224e+06 1.760427e+06 -2.462057e+02 4.116259e+03 -3.942524e+03
<VARIANCE> 12
 5.267703e+04 1.397376e+05 1.043506e+05 2.351880e+04 9.215194e+03 2.016539e+04 9.671869e+10 2.585504e+12 2.537196e+12 1.389298e+09 8.334406e+08 2.754568e+09
<GCONST> 2.312031e+02
<MIXTURE> 2 2.562057e-01
<MEAN> 12
 3.740677e+01 8.409600e+02 4.380775e+02 3.686037e+01 1.770164e+01 2.601494e+01 7.796196e+04 3.668336e+06 1.083121e+06 2.470042e+01 -4.384998e+01 8.959873e+00
<VARIANCE> 12
 1.574838e+04 1.079595e+05 4.873375e+04 5.387005e+02 1.151156e+02 2.715716e+02 7.656274e+09 1.650773e+12 1.470283e+12 3.188472e+05 1.744863e+05 7.782708e+05
<GCONST> 1.879564e+02
<MIXTURE> 3 5.267661e-01
<MEAN> 12
 6.268724e+01 9.761233e+02 3.443786e+02 1.002292e+02 4.300372e+01 6.657491e+01 9.038384e+04 4.303328e+06 5.878609e+05 1.015721e+01 -5.244026e+02 -1.122104e+03
<VARIANCE> 12
 1.392311e+04 3.399413e+03 1.147931e+04 3.235518e+03 6.862653e+02 1.657884e+03 7.435929e+09 2.572618e+11 1.246007e+11 1.408286e+07 7.697847e+06 3.985045e+07
<GCONST> 1.954709e+02
<STATE> 4
<NUMMIXES> 3
<MIXTURE> 1 2.102709e-01
<MEAN> 12
 1.163878e+02 1.345651e+03 4.760516e+02 4.421198e+02 2.481653e+02 4.960773e+02 6.122400e+05 8.338787e+06 2.109642e+06 3.177021e+04 -2.723310e+04 -1.174012e+05
<VARIANCE> 12
 7.329409e+04 4.022945e+04 1.956650e+05 4.558698e+04 1.692059e+04 5.690023e+04 3.468503e+11 5.950152e+12 5.097061e+12 8.034202e+09 1.250604e+10 3.551702e+10
<GCONST> 2.430520e+02
<MIXTURE> 2 4.622488e-01
<MEAN> 12
 4.669255e+01 1.054552e+03 6.823528e+01 1.046635e+02 5.193145e+01 8.039173e+01 8.510001e+04 5.023027e+06 7.940121e+04 2.406529e+02 2.658687e+02 -3.367905e+02
<VARIANCE> 12
 1.410150e+04 4.033535e+03 1.160168e+04 4.293784e+03 9.230674e+02 2.305908e+03 7.895115e+09 3.752443e+11 6.181269e+09 2.741480e+07 1.495051e+07 6.765010e+07
<GCONST> 1.958676e+02
<MIXTURE> 3 3.274803e-01
<MEAN> 12
 5.671751e+01 1.143343e+03 5.265284e+02 1.708524e+02 1.145228e+02 2.584273e+02 1.191996e+05 5.964794e+06 1.835800e+06 2.287020e+03 7.458138e+03 -1.000350e+04
<VARIANCE> 12
 1.681926e+04 1.801515e+04 1.229494e+05 7.820557e+03 3.376857e+03 1.795119e+04 8.864202e+09 1.880764e+12 3.447061e+12 2.695938e+08 7.026906e+08 1.610695e+09
<GCONST> 2.212072e+02
<STATE> 5
<NUMMIXES> 3
<MIXTURE> 1 2.418635e-01
<MEAN> 12
 -1.249502e+02 1.380277e+03 -6.801780e+01 3.306175e+02 1.685499e+02 1.239681e+02 6.958842e+05 8.897912e+06 1.239557e+05 3.637555e+03 5.112319e+03 3.739722e+02
<VARIANCE> 12
 1.024653e+05 6.754245e+04 1.892699e+04 4.324796e+04 7.445276e+03 4.298582e+03 3.173494e+11 9.768670e+12 1.431217e+10 2.724649e+09 3.637822e+08 1.476852e+09
<GCONST> 2.248454e+02
<MIXTURE> 2 3.227906e-01
<MEAN> 12
 4.022911e+01 7.619120e+02 6.826068e+02 2.810167e+02 2.282699e+02 5.017689e+02 3.434051e+05 2.736336e+06 3.441214e+06 1.871104e+04 8.379347e+03 1.867571e+04
<VARIANCE> 12
 5.504622e+04 2.883962e+04 2.577240e+05 2.442372e+04 2.012035e+04 6.660940e+04 9.011094e+10 1.308019e+12 9.350875e+12 3.282333e+09 1.112474e+10 2.170237e+10
<GCONST> 2.386543e+02
<MIXTURE> 3 4.353459e-01
<MEAN> 12
 -1.277074e+02 9.510732e+02 -5.760183e+01 1.160622e+02 1.068989e+02 6.863930e+01 1.807502e+05 4.305992e+06 3.043262e+05 7.444924e+02 1.710432e+03 -7.079037e+02
<VARIANCE> 12
 2.072068e+04 5.045805e+04 6.376604e+04 4.325169e+03 3.639639e+03 1.779816e+03 2.949430e+10 3.778633e+12 1.132255e+11 1.477410e+08 5.430152e+07 4.922656e+07
<GCONST> 2.107949e+02
<STATE> 6
<NUMMIXES> 3
<MIXTURE> 1 2.494820e-01
<MEAN> 12
 -1.133009e+01 1.071697e+03 4.390063e+02 5.869021e+02 3.986185e+02 6.357752e+02 1.034640e+06 5.611614e+06 2.474390e+06 5.901627e+04 6.060577e+04 -6.945035e+04
<VARIANCE> 12
 1.219737e+05 9.379553e+04 2.673401e+05 1.068824e+05 6.003179e+04 1.560948e+05 9.164712e+11 1.054588e+13 7.581114e+12 5.051920e+10 1.109416e+11 1.278677e+11
<GCONST> 2.550909e+02
<MIXTURE> 2 4.055670e-01
<MEAN> 12
 5.009141e+01 9.953440e+02 2.629216e+02 7.700819e+01 3.466508e+01 5.183972e+01 5.957341e+04 4.470134e+06 4.218635e+05 3.649898e+01 -3.795697e+02 -4.765159e+02
<VARIANCE> 12
 9.375979e+03 2.588055e+03 2.417899e+04 2.581472e+03 5.508143e+02 1.096050e+03 3.713789e+09 2.050232e+11 1.080460e+11 6.905014e+06 3.281169e+06 1.571683e+07
<GCONST> 1.911285e+02
<MIXTURE> 3 3.449509e-01
<MEAN> 12
 1.903173e+01 1.009125e+03 2.545007e+02 1.859761e+02 1.188959e+02 1.565464e+02 1.856045e+05 4.740568e+06 8.438670e+05 1.666930e+03 2.988749e+03 -3.531857e+03
<VARIANCE> 12
 3.154328e+04 3.399262e+04 1.181972e+05 1.193348e+04 5.665732e+03 1.137143e+04 3.288642e+10 2.822405e+12 1.027662e+12 4.612311e+08 3.071796e+08 7.495079e+08
<GCONST> 2.223663e+02
<TRANSP> 7
 0.000000e+00 7.177743e-01 2.822258e-01 0.000000e+00 0.000000e+00 0.000000e+00 0.000000e+00
 0.000000e+00 8.229504e-01 1.019969e-01 7.505273e-02 0.000000e+00 0.000000e+00 0.000000e+00
 0.000000e+00 0.000000e+00 7.928619e-01 1.859635e-01 2.117467e-02 0.000000e+00 0.000000e+00
 0.000000e+00 0.000000e+00 0.000000e+00 7.318177e-01 2.421101e-01 2.607227e-02 0.000000e+00
 0.000000e+00 0.000000e+00 0.000000e+00 0.000000e+00 7.521780e-01 2.100700e-01 3.775210e-02
 0.000000e+00 0.000000e+00 0.000000e+00 0.000000e+00 0.000000e+00 8.420203e-01 1.579797e-01
 0.000000e+00 0.000000e+00 0.000000e+00 0.000000e+00 0.000000e+00 0.000000e+00 0.000000e+00
<ENDHMM>
~h "Activity104"
<BEGINHMM>
<NUMSTATES> 7
<STATE> 2
<NUMMIXES> 3
<MIXTURE> 1 6.859755e-01
<MEAN> 12
 9.107292e+01 1.235821e+02 1.018259e+03 9.767826e+00 8.309407e+00 9.966059e+00 4.649133e+04 7.574616e+04 4.666146e+06 -4.795769e+00 1.573630e+00 3.125071e-01
<VARIANCE> 12
 2.028657e+03 1.558559e+03 6.520962e+01 3.681450e+01 2.073038e+01 3.101098e+01 1.050502e+09 1.992996e+09 5.466916e+09 6.436192e+03 5.836977e+03 9.516325e+03
<GCONST> 1.424805e+02
<MIXTURE> 2 2.069756e-01
<MEAN> 12
 -4.419284e+01 5.555365e+01 9.350763e+02 2.657925e+01 1.678933e+01 2.444725e+01 4.648753e+05 3.240858e+05 3.954738e+06 9.156139e+01 1.731958e+02 -2.693627e+01
<VARIANCE> 12
 1.012346e+05 6.890817e+04 4.396194e+03 4.706257e+02 1.414373e+02 3.898671e+02 1.922361e+11 9.262023e+10 3.090011e+11 3.639855e+05 2.697625e+05 6.769773e+05
<GCONST> 1.866064e+02
<MIXTURE> 3 1.070489e-01
<MEAN> 12
 -7.572708e+01 1.187555e+01 8.245151e+02 1.567974e+02 9.084383e+01 1.407969e+02 7.521154e+05 7.749994e+05 3.382752e+06 4.729490e+03 7.978118e+03 5.602229e+03
<VARIANCE> 12
 1.561385e+05 1.716587e+05 7.033584e+04 1.289290e+04 5.919267e+03 1.477648e+04 8.380299e+11 1.712724e+12 2.702410e+12 5.964454e+08 5.988388e+08 1.870407e+09
<GCONST> 2.309935e+02
<STATE> 3
<NUMMIXES> 3
<MIXTURE> 1 1.318948e-01
<MEAN> 12
 1.119444e+02 1.882559e+02 1.009564e+03 1.037684e+01 8.329367e+00 9.887735e+00 5.816249e+04 1.599798e+05 4.586730e+06 -7.113470e+00 -1.444894e+00 -4.198520e+00
<VARIANCE> 12
 3.860005e+02 1.102936e+02 5.218647e+01 3.828365e+01 2.065598e+01 2.724180e+01 3.905737e+08 3.131876e+08 4.304505e+09 7.212039e+03 5.594391e+03 9.722925e+03
<GCONST> 1.348697e+02
<MIXTURE> 2 5.513433e-01
<MEAN> 12
 1.216406e+02 3.844481e+02 9.550835e+02 8.392386e+00 7.562535e+00 9.291094e+00 8.569733e+04 6.684539e+05 4.105220e+06 -5.823503e+00 1.582493e+00 -1.236333e+00
<VARIANCE> 12
 4.243728e+03 7.444169e+02 8.468482e+01 1.880584e+01 1.564786e+01 2.253708e+01 5.113965e+09 9.028135e+09 6.260884e+09 2.662708e+03 3.183946e+03 3.831532e+03
<GCONST> 1.422994e+02
<MIXTURE> 3 3.167619e-01
<MEAN> 12
 9.486410e+01 4.004856e+02 9.503851e+02 1.636868e+01 1.208185e+01 1.353523e+01 6.482766e+04 7.321768e+05 4.066064e+06 -6.795908e+00 3.839827e+01 -8.583070e+00
<VARIANCE> 12
 5.359501e+03 2.309736e+03 3.295357e+02 9.304865e+01 3.901719e+01 4.843179e+01 5.905923e+09 3.030401e+10 2.412415e+10 3.995929e+04 2.263623e+04 4.557001e+04
<GCONST> 1.581512e+02
<STATE> 4
<NUMMIXES> 3
<MIXTURE> 1 5.686131e-01
<MEAN> 12
 1.451377e+02 2.107161e+02 9.997615e+02 1.015382e+01 8.505759e+00 1.015433e+01 1.095093e+05 2.009322e+05 4.498440e+06 -5.904879e+00 3.596947e+00 -5.070327e+00
<VARIANCE> 12
 3.263338e+03 2.483894e+02 1.289553e+02 3.133383e+01 2.083923e+01 2.828890e+01 5.059461e+09 8.983956e+08 1.042027e+10 5.710690e+03 5.655103e+03 7.720722e+03
<GCONST> 1.426132e+02
<MIXTURE> 2 2.432715e-01
<MEAN> 12
 1.335690e+02 1.883169e+02 1.000342e+03 2.436925e+01 1.463021e+01 1.920752e+01 1.198802e+05 1.732892e+05 4.506008e+06 -1.691786e+01 1.219307e+02 -5.438852e+01
<VARIANCE> 12
 8.676993e+03 3.026843e+03 6.187789e+02 3.380662e+02 7.702361e+01 1.545930e+02 1.342702e+10 7.880550e+09 4.957574e+10 1.750229e+05 9.060830e+04 3.213142e+05
<GCONST> 1.676763e+02
<MIXTURE> 3 1.881154e-01
<MEAN> 12
 2.453916e+02 -9.449299e+00 7.433563e+02 7.588031e+01 4.168233e+01 5.579078e+01 1.469064e+06 6.287852e+05 2.755316e+06 5.192292e+02 1.089950e+03 1.955973e+02
<VARIANCE> 12
 2.649795e+05 1.394170e+05 5.933117e+04 4.181886e+03 8.351037e+02 2.092119e+03 1.952085e+12 8.293146e+11 2.060417e+12 1.726172e+07 9.723414e+06 3.411620e+07
<GCONST> 2.142871e+02
<STATE> 5
<NUMMIXES> 3
<MIXTURE> 1 6.931702e-01
<MEAN> 12
 8.062220e+01 3.303488e+02 9.772130e+02 1.115984e+01 9.029337e+00 1.083252e+01 3.806001e+04 5.111561e+05 4.298885e+06 -6.528646e+00 1.125082e+01 -2.853568e+00
<VARIANCE> 12
 1.942719e+03 4.456224e+03 3.603589e+02 4.688377e+01 2.589184e+01 3.397903e+01 1.412471e+09 3.012074e+10 2.799835e+10 9.552490e+03 7.660274e+03 1.323574e+04
<GCONST> 1.513944e+02
<MIXTURE> 2 1.785999e-01
<MEAN> 12
 -4.778819e+02 -1.895344e+02 8.757944e+02 1.171522e+01 9.459331e+00 1.196230e+01 1.036770e+06 1.676286e+05 3.452976e+06 -2.532607e+00 3.855138e+00 -7.078437e+00
<VARIANCE> 12
 2.011238e+03 1.325080e+03 3.041923e+02 5.747211e+01 2.862099e+01 4.481418e+01 3.851897e+10 3.580929e+09 1.871685e+10 1.511396e+04 1.107290e+04 2.465262e+04
<GCONST> 1.528501e+02
<MIXTURE> 3 1.282298e-01
<MEAN> 12
 7.504562e+01 4.131350e+02 9.294480e+02 3.827991e+01 2.832514e+01 3.234391e+01 7.813451e+04 9.131878e+05 3.929425e+06 8.619849e+01 2.895086e+02 3.658262e+01
<VARIANCE> 12
 1.143022e+04 3.217377e+04 9.211577e+03 6.170604e+02 3.375857e+02 4.659466e+02 1.264222e+10 4.797929e+11 5.649594e+11 1.591982e+06 1.586025e+06 2.621539e+06
<GCONST> 1.898500e+02
<STATE> 6
<NUMMIXES> 3
<MIXTURE> 1 7.015708e-01
<MEAN> 12
 2.457844e+02 2.542925e+02 9.716987e+02 1.142137e+01 8.930247e+00 1.098179e+01 2.745726e+05 2.930741e+05 4.249329e+06 -4.251067e+00 1.374765e+01 -6.355975e+00
<VARIANCE> 12
 5.960351e+02 4.612837e+02 9.569434e+01 4.772110e+01 2.261240e+01 3.506813e+01 2.985288e+09 2.447046e+09 7.310173e+09 9.603810e+03 7.829859e+03 1.762202e+04
<GCONST> 1.437413e+02
<MIXTURE> 2 1.199283e-01
<MEAN> 12
 9.889670e+01 6.360919e+02 4.987104e+02 2.062944e+02 1.139486e+02 2.058861e+02 7.154640e+05 3.385681e+06 1.919839e+06 1.483904e+03 1.644286e+04 -3.124191e+03
<VARIANCE> 12
 1.322226e+05 3.467910e+05 1.592952e+05 3.668736e+04 1.074926e+04 5.670143e+04 1.064293e+12 5.951366e+12 4.169417e+12 5.767064e+09 1.006061e+10 1.154617e+10
<GCONST> 2.441638e+02
<MIXTURE> 3 1.785009e-01
<MEAN> 12
 2.350062e+01 1.017972e+03 1.286864e+02 5.245118e+01 2.719659e+01 5.347355e+01 6.030920e+04 4.683586e+06 2.252529e+05 3.153271e+02 -1.155854e+02 6.126514e+02
<VARIANCE> 12
 1.231375e+04 4.451467e+03 3.295138e+04 1.392223e+03 4.759913e+02 1.751935e+03 5.106696e+09 3.407582e+11 1.391237e+11 2.931246e+06 4.240550e+06 1.596150e+07
<GCONST> 1.924530e+02
<TRANSP> 7
 0.000000e+00 4.116430e-01 5.883570e-01 0.000000e+00 0.000000e+00 0.000000e+00 0.000000e+00
 0.000000e+00 8.642299e-01 1.033577e-02 1.254344e-01 0.000000e+00 0.000000e+00 0.000000e+00
 0.000000e+00 0.000000e+00 9.256675e-01 7.671909e-03 6.666054e-02 0.000000e+00 0.000000e+00
 0.000000e+00 0.000000e+00 0.000000e+00 8.535287e-01 1.030540e-01 4.341735e-02 0.000000e+00
 0.000000e+00 0.000000e+00 0.000000e+00 0.000000e+00 7.842970e-01 5.019634e-03 2.106834e-01
 0.000000e+00 0.000000e+00 0.000000e+00 0.000000e+00 0.000000e+00 9.034141e-01 9.658595e-02
 0.000000e+00 0.000000e+00 0.000000e+00 0.000000e+00 0.000000e+00 0.000000e+00 0.000000e+00
<ENDHMM>
~h "Activity105"
<BEGINHMM>
<NUMSTATES> 7
<STATE> 2
<NUMMIXES> 2
<MIXTURE> 1 4.243749e-01
<MEAN> 12
 9.261292e+02 2.343838e+02 -3.279704e+02 7.628628e+00 7.454372e+00 9.223835e+00 3.859869e+06 2.473479e+05 4.842278e+05 -1.550894e+00 -8.894949e+00 -3.139502e+00
<VARIANCE> 12
 3.237384e+01 2.773658e+01 4.130990e+01 1.934130e+01 1.628786e+01 2.317863e+01 2.247124e+09 1.224194e+08 3.610484e+08 3.093499e+03 4.618179e+03 4.610645e+03
<GCONST> 1.262430e+02
<MIXTURE> 2 5.756251e-01
<MEAN> 12
 -8.297756e+02 3.139572e+02 5.056967e+02 8.421184e+00 8.068057e+00 1.016561e+01 3.100814e+06 4.676562e+05 1.169293e+06 -3.277380e+00 -4.678885e+00 -1.063942e+01
<VARIANCE> 12
 5.406570e+02 5.353869e+03 4.110833e+03 2.255854e+01 1.867033e+01 2.806493e+01 2.991140e+10 2.531790e+10 7.936718e+10 4.096027e+03 6.055431e+03 8.254617e+03
<GCONST> 1.538505e+02
<STATE> 3
<NUMMIXES> 2
<MIXTURE> 1 6.513306e-01
<MEAN> 12
 9.920998e+02 1.164617e+01 4.509566e+01 2.587561e+01 1.722229e+01 2.234671e+01 4.434442e+06 5.446898e+04 1.545247e+05 5.653195e+01 2.734994e+01 -1.504247e+02
<VARIANCE> 12
 1.151831e+03 1.195560e+04 3.220593e+04 4.517134e+02 1.320942e+02 3.005473e+02 9.035853e+10 3.964550e+09 3.235679e+10 3.255257e+05 2.321324e+05 7.029780e+05
<GCONST> 1.756138e+02
<MIXTURE> 2 3.486694e-01
<MEAN> 12
 3.332499e+02 3.921101e+01 2.145086e+02 1.743891e+02 7.935687e+01 1.277004e+02 4.052400e+06 1.432330e+05 9.934076e+05 4.304605e+03 2.591200e+03 -2.685739e+03
<VARIANCE> 12
 7.869883e+05 2.882676e+04 1.694090e+05 1.895624e+04 3.415231e+03 1.754785e+04 4.486692e+12 3.379683e+10 1.500569e+12 7.925853e+08 3.914676e+08 1.687069e+09
<GCONST> 2.286333e+02
<STATE> 4
<NUMMIXES> 2
<MIXTURE> 1 8.883272e-01
<MEAN> 12
 1.010848e+03 4.866608e+01 3.428975e+01 8.735963e+00 8.477534e+00 1.014150e+01 4.598337e+06 2.901463e+04 7.610333e+03 -1.223436e+01 2.243729e+00 1.703103e+00
<VARIANCE> 12
 3.693473e+01 4.080622e+03 5.125066e+02 2.150023e+01 2.169901e+01 3.073836e+01 3.057945e+09 7.966703e+07 6.899969e+07 5.584320e+03 6.718750e+03 6.829198e+03
<GCONST> 1.341412e+02
<MIXTURE> 2 1.116727e-01
<MEAN> 12
 -7.922635e+02 1.271847e+02 5.959061e+02 2.388215e+01 1.450342e+01 1.991606e+01 2.841344e+06 2.073526e+05 1.635799e+06 7.872948e+01 1.915596e+02 9.879249e+01
<VARIANCE> 12
 3.577078e+03 2.984902e+04 8.332308e+03 3.887435e+02 1.265987e+02 3.473458e+02 1.787402e+11 5.015491e+10 2.265895e+11 3.785636e+05 3.427503e+05 7.857115e+05
<GCONST> 1.820801e+02
<STATE> 5
<NUMMIXES> 2
<MIXTURE> 1 6.758964e-01
<MEAN> 12
 9.849952e+02 1.048463e+02 -5.636382e+01 1.017549e+01 8.662543e+00 1.053053e+01 4.369710e+06 9.429448e+04 1.746355e+05 -4.173923e+00 -1.638391e+01 -1.887119e+01
<VARIANCE> 12
 8.358271e+02 9.957002e+03 3.562573e+04 4.502715e+01 2.134005e+01 3.882103e+01 6.416203e+10 6.964994e+09 3.080148e+10 8.175175e+03 7.072673e+03 1.263250e+04
<GCONST> 1.580132e+02
<MIXTURE> 2 3.241036e-01
<MEAN> 12
 2.759395e+01 6.231978e+01 4.276338e+02 7.892915e+01 3.958039e+01 5.293093e+01 2.697848e+06 7.446812e+05 1.323916e+06 -3.796879e+02 8.900271e+02 -2.328813e+02
<VARIANCE> 12
 5.980784e+05 1.614373e+05 1.110021e+05 4.754964e+03 8.958904e+02 1.389230e+03 2.987369e+12 1.389928e+12 1.454464e+12 1.714714e+07 8.995958e+06 3.706228e+07
<GCONST> 2.162555e+02
<STATE> 6
<NUMMIXES> 2
<MIXTURE> 1 1.830661e-01
<MEAN> 12
 5.072731e+02 2.039673e+02 -1.088187e+02 2.929850e+02 1.926633e+02 2.554096e+02 4.049022e+06 1.021208e+06 1.298638e+06 1.315532e+04 -9.783750e+03 -5.732832e+04
<VARIANCE> 12
 6.130778e+05 1.773801e+05 2.636232e+05 9.622134e+04 6.551649e+04 6.361784e+04 7.520382e+12 2.653348e+12 4.692098e+12 3.718138e+10 2.918386e+10 1.862068e+10
<GCONST> 2.530901e+02
<MIXTURE> 2 8.169339e-01
<MEAN> 12
 -7.547672e+02 -3.142648e+01 6.791284e+02 9.143835e+00 9.071190e+00 9.704297e+00 2.564127e+06 4.925944e+03 2.075913e+06 -6.559555e+00 -6.487760e+00 7.079308e-01
<VARIANCE> 12
 1.225249e+02 1.023152e+02 9.588908e+01 3.987798e+01 1.951815e+01 2.770181e+01 5.784026e+09 7.854956e+06 3.535841e+09 6.815713e+03 5.770594e+03 6.150272e+03
<GCONST> 1.325858e+02
<TRANSP> 7
 0.000000e+00 3.562113e-01 6.437887e-01 0.000000e+00 0.000000e+00 0.000000e+00 0.000000e+00
 0.000000e+00 9.285995e-01 2.662080e-02 4.477969e-02 0.000000e+00 0.000000e+00 0.000000e+00
 0.000000e+00 0.000000e+00 8.225308e-01 7.494398e-02 1.025252e-01 0.000000e+00 0.000000e+00
 0.000000e+00 0.000000e+00 0.000000e+00 8.889858e-01 9.371707e-02 1.729720e-02 0.000000e+00
 0.000000e+00 0.000000e+00 0.000000e+00 0.000000e+00 7.689810e-01 1.185479e-02 2.191643e-01
 0.000000e+00 0.000000e+00 0.000000e+00 0.000000e+00 0.000000e+00 9.224126e-01 7.758740e-02
 0.000000e+00 0.000000e+00 0.000000e+00 0.000000e+00 0.000000e+00 0.000000e+00 0.000000e+00
<ENDHMM>
